<?xml version="1.0"?>
<opencv_storage>
<opencv_ml_svm>
  <format>3</format>
  <svmType>C_SVC</svmType>
  <kernel>
    <type>RBF</type>
    <gamma>0.50625000000000009</gamma></kernel>
  <C>312.5</C>
  <term_criteria><epsilon>1.1920928955078125e-07</epsilon>
    <iterations>1000</iterations></term_criteria>
  <var_count>50</var_count>
  <class_count>13</class_count>
  <class_labels type_id="opencv-matrix">
    <rows>13</rows>
    <cols>1</cols>
    <dt>i</dt>
    <data>
      0 1 2 3 4 5 6 7 8 9 10 11 12</data></class_labels>
  <sv_total>236</sv_total>
  <support_vectors>
    <_>
      0.0437262356 0.00950570311 0.022813689 0.0114068445 0.0418250933
      0.00760456268 0.00950570311 0.102661595 0.00190114067
      0.00570342224 0.0152091254 0.0114068445 0.0114068445 0.0399239548
      0.00950570311 0.0247148294 0.00760456268 0.0304182507 0.0133079849
      0.00760456268 0.0171102658 0.0209125467 0.0190114062 0.0247148294
      0.00950570311 0.00950570311 0.00380228134 0.022813689 0.0133079849
      0.0133079849 0.0114068445 0.0114068445 0.0532319397 0.0133079849
      0.032319393 0.0171102658 0.0152091254 0.0171102658 0.0494296588
      0.0114068445 0.0114068445 0.00760456268 0.00380228134
      0.00570342224 0.00380228134 0.00380228134 0.0247148294
      0.0266159698 0.085551329 0.0133079849</_>
    <_>
      0.0374396145 0.00845410582 0.0326086953 0.0157004837 0.0652173907
      0.00724637695 0.00362318847 0.103864729 0.00603864715
      0.00966183562 0.0108695654 0.0132850241 0.0108695654 0.0108695654
      0.00724637695 0.0301932357 0.0108695654 0.0398550704 0.00483091781
      0.0120772943 0.00603864715 0.0132850241 0.00724637695 0.0169082116
      0.00483091781 0.00845410582 0.00845410582 0.0253623184
      0.00483091781 0.00845410582 0.00966183562 0.00483091781
      0.115942031 0.00724637695 0.0241545886 0.0157004837 0.0132850241
      0.0144927539 0.0301932357 0.0132850241 0.0024154589 0.00966183562
      0.00845410582 0.00845410582 0.0108695654 0.0024154589
      0.00724637695 0.0374396145 0.113526568 0.00603864715</_>
    <_>
      0.0347985364 0.00732600736 0.0109890113 0.0109890113 0.0897435918
      0.0109890113 0.00732600736 0.0732600763 0.00549450563
      0.00549450563 0.0238095243 0.0219780225 0.0201465208 0.0274725277
      0.00183150184 0.0293040294 0.0164835174 0.0366300382 0.0183150191
      0.012820513 0.00549450563 0.00915750954 0.0146520147 0.00915750954
      0.00915750954 0.00732600736 0.0109890113 0.0274725277 0.012820513
      0.012820513 0.0183150191 0.00549450563 0.0238095243 0.012820513
      0.0347985364 0.00732600736 0.0164835174 0.0164835174 0.0769230798
      0.012820513 0.00915750954 0.00366300368 0.0146520147 0.0164835174
      0.00366300368 0.00366300368 0.00549450563 0.0494505502
      0.0732600763 0.0109890113</_>
    <_>
      0.038181819 0.00363636366 0.0327272713 0.0109090907 0.0818181857
      0.0145454546 0.0109090907 0.0618181825 0.0109090907 0.00363636366
      0.0127272727 0.0181818176 0.0127272727 0.0363636352 0.0090909088
      0.0345454551 0.0181818176 0.0327272713 0.0127272727 0.0090909088
      0.00727272732 0.0218181815 0.0236363634 0.0199999996 0.0163636357
      0.00727272732 0.00545454537 0.0327272713 0.0090909088 0.0127272727
      0.0145454546 0.00545454537 0.0509090908 0.0090909088 0.0127272727
      0.0163636357 0.0145454546 0.0309090912 0.0636363626 0.0090909088
      0.00545454537 0.00181818183 0.0145454546 0.0109090907
      0.00545454537 0.00181818183 0.0090909088 0.0363636352 0.0545454547
      0.0109090907</_>
    <_>
      0.0289855078 0.00724637695 0.0181159414 0.00724637695 0.0597826093
      0.0163043477 0.00905797072 0.0634057969 0.00724637695
      0.00543478271 0.0126811601 0.0398550741 0.0181159414 0.0199275371
      0.00905797072 0.0307971016 0.0163043477 0.0380434804 0.00905797072
      0.00905797072 0.00724637695 0.00905797072 0.0199275371
      0.0163043477 0.0126811601 0.0126811601 0.0108695654 0.0307971016
      0.00724637695 0.0199275371 0.00543478271 0.00905797072
      0.0579710156 0.00905797072 0.0144927539 0.00724637695
      0.00905797072 0.0181159414 0.0724637657 0.0181159414 0.00724637695
      0.00724637695 0.0126811601 0.0217391308 0.00362318847
      0.00181159424 0.0181159414 0.0561594218 0.0670289844 0.0108695654</_>
    <_>
      0.0261569414 0.00402414473 0.018108651 0.0120724346 0.0583500974
      0.00804828946 0.00402414473 0.0764587522 0.0100603616
      0.00804828946 0.00603621732 0.0221327953 0.00402414473
      0.0261569414 0.00804828946 0.0221327953 0.0160965789 0.0583500974
      0.0160965789 0.00402414473 0.00603621732 0.0160965789 0.0120724346
      0.0160965789 0.00603621732 0.00804828946 0.0301810857 0.0321931578
      0.00201207236 0.0301810857 0.0100603616 0.00603621732 0.11066398
      0.00603621732 0.0241448693 0.00603621732 0.00804828946
      0.0160965789 0.0623742417 0.0140845068 0.00402414473 0.00201207236
      0.0160965789 0.0120724346 0. 0.00402414473 0.00603621732
      0.0100603616 0.108651906 0.00603621732</_>
    <_>
      0.0670241341 0.00670241285 0.0281501357 0.0120643433 0.0603217185
      0.00804289617 0.00536193047 0.0804289579 0.00938337855
      0.00804289617 0.0174262747 0.00402144808 0.0107238609
      0.00804289617 0.0107238609 0.0308311004 0.00938337855 0.0603217185
      0.00402144808 0.00670241285 0.0107238609 0.00670241285
      0.00804289617 0.0174262747 0.00804289617 0.00938337855
      0.0120643433 0.0174262747 0.00536193047 0.00670241285 0.0160857923
      0.00536193047 0.103217162 0.00938337855 0.0160857923 0.0107238609
      0.0120643433 0.0134048257 0.0348525494 0.014745309 0.00670241285
      0.00670241285 0.0107238609 0.00938337855 0.00134048262
      0.00536193047 0.0201072395 0.0214477219 0.12466488 0.00804289617</_>
    <_>
      0.03763441 0.0125448033 0.0286738351 0.008960573 0.0232974906
      0.00537634408 0.008960573 0.116487458 0.00358422939 0.00537634408
      0.0107526882 0.00537634408 0.00358422939 0.0143369175 0.0125448033
      0.0412186384 0.0161290318 0.0448028669 0.00537634408 0.008960573
      0.00716845877 0.0161290318 0.017921146 0.008960573 0.008960573
      0.0107526882 0.008960573 0.0161290318 0.0107526882 0.0215053763
      0.0161290318 0.008960573 0.0913978517 0.00716845877 0.0161290318
      0.0143369175 0.0143369175 0.0143369175 0.0573476702 0.0125448033
      0.00716845877 0.008960573 0.0161290318 0.0161290318 0.
      0.00358422939 0.0143369175 0.017921146 0.11469534 0.00716845877</_>
    <_>
      0.043151971 0.00375234522 0.024390243 0.00750469044 0.0637898669
      0.0131332083 0.00938086305 0.0919324607 0.00562851783 0.0150093809
      0.00938086305 0.0150093809 0.0131332083 0.0300187618 0.0150093809
      0.0262664165 0.0131332083 0.0318949334 0.0112570357 0.00938086305
      0.0150093809 0.0168855526 0.0206378996 0.0150093809 0.0131332083
      0.00938086305 0.0206378996 0.024390243 0.00938086305 0.0281425901
      0.00938086305 0.00562851783 0.0619136952 0.00750469044
      0.0225140713 0.00562851783 0.00938086305 0.0206378996 0.0506566614
      0.0168855526 0.00938086305 0.00938086305 0.0112570357 0.0187617261
      0.00187617261 0.00562851783 0.00750469044 0.0206378996
      0.0750469044 0.00562851783</_>
    <_>
      0.0195783116 0.00602409616 0.0421686731 0.0075301202 0.0707831308
      0.0105421683 0.00602409616 0.1189759 0.00903614424 0.00451807212
      0.0180722885 0.0120481923 0.0135542164 0.00602409616 0.0105421683
      0.0240963846 0.00451807212 0.0557228886 0.0135542164 0.0075301202
      0.0165662654 0.0150602404 0.0120481923 0.00903614424 0.00451807212
      0.0135542164 0.0120481923 0.0286144577 0.00451807212 0.0105421683
      0.0120481923 0.0075301202 0.0647590309 0.00903614424 0.0286144577
      0.00602409616 0.0075301202 0.0180722885 0.036144577 0.0105421683
      0.0210843366 0.0075301202 0.00903614424 0.0150602404 0.00451807212
      0.00602409616 0.00602409616 0.0256024078 0.1129518 0.00451807212</_>
    <_>
      0.0379596688 0.00355871907 0.0213523135 0.0154211158 0.0711743757
      0.00711743813 0.00830367766 0.112692766 0.0047449586 0.0047449586
      0.0154211158 0.024911033 0.00711743813 0.0142348763 0.00711743813
      0.024911033 0.0118623963 0.0344009511 0.00830367766 0.00711743813
      0.0094899172 0.0201660749 0.0118623963 0.0047449586 0.0118623963
      0.00830367766 0.00830367766 0.0166073553 0.00118623965
      0.0142348763 0.0106761567 0.00830367766 0.105575331 0.0106761567
      0.0237247925 0.0130486358 0.0106761567 0.0189798344 0.0332147107
      0.0154211158 0.00711743813 0.00593119813 0.0106761567 0.0106761567
      0.00355871907 0.00118623965 0.0118623963 0.0344009511 0.109134048
      0.00593119813</_>
    <_>
      0.0233576633 0.0043795621 0.024817517 0.0204379559 0.0613138676
      0.00729926955 0.0043795621 0.0846715271 0.0087591242 0.0116788317
      0.0160583928 0.00583941583 0.0131386854 0.0131386854 0.0131386854
      0.0262773708 0.0087591242 0.0613138676 0.0043795621 0.00729926955
      0.0102189779 0.0175182484 0.0087591242 0.0160583928 0.0131386854
      0.0043795621 0.0160583928 0.0145985391 0.00729926955 0.0145985391
      0.0102189779 0.00729926955 0.0817518234 0.00583941583 0.0233576633
      0.00583941583 0.0116788317 0.0175182484 0.0423357636 0.0189781021
      0.0087591242 0.00583941583 0.00729926955 0.0262773708
      0.00583941583 0.00583941583 0.0116788317 0.0204379559 0.131386861
      0.0087591242</_>
    <_>
      0.0141043728 0.00282087456 0.0239774343 0.0112834983 0.0719323009
      0.0183356851 0.00705218641 0.0916784257 0.00846262369 0.
      0.0155148096 0.0155148096 0.00282087456 0.019746121 0.00705218641
      0.019746121 0.0112834983 0.0465444289 0.00282087456 0.019746121
      0.00846262369 0.019746121 0.00987306051 0.0141043728 0.00987306051
      0.00987306051 0.00705218641 0.0324400589 0.00141043728 0.012693936
      0.00564174913 0.00423131185 0.0606488027 0.00987306051
      0.0282087456 0.0112834983 0.0225669965 0.0155148096 0.0465444289
      0.00987306051 0.0169252474 0.0225669965 0.00705218641 0.0112834983
      0.00423131185 0.00282087456 0.00846262369 0.0479548685 0.122708045
      0.00564174913</_>
    <_>
      0.0292072333 0.00695410278 0.0347705148 0.0111265648 0.0570236444
      0.0125173852 0.00695410278 0.102920726 0.0125173852 0.00973574445
      0.0180806685 0.00973574445 0.00973574445 0.00695410278
      0.00556328241 0.0305980537 0.0125173852 0.0542420037 0.0111265648
      0.00834492408 0.00556328241 0.0111265648 0.0139082056
      0.00834492408 0.0111265648 0.00834492408 0.00556328241
      0.0222531296 0.00695410278 0.0125173852 0.0139082056 0.0111265648
      0.0848400593 0.00834492408 0.02364395 0.0111265648 0.00973574445
      0.0139082056 0.0347705148 0.00973574445 0.0111265648 0.00556328241
      0.0180806685 0.00973574445 0.00695410278 0.0027816412
      0.00556328241 0.0250347704 0.129346311 0.00834492408</_>
    <_>
      0.0430247709 0.0091264667 0.0299869608 0.0117340283 0.0743155107
      0.0091264667 0.00651890459 0.0808344185 0.00521512376 0.0117340283
      0.0091264667 0.0104302475 0.01434159 0.0117340283 0.00782268587
      0.0378096476 0.00782268587 0.0365058668 0.0130378092 0.00651890459
      0.0104302475 0.0130378092 0.0104302475 0.0091264667 0.0091264667
      0.00782268587 0.0130378092 0.0273793992 0.00782268587 0.0169491526
      0.0169491526 0.0104302475 0.0938722268 0.0091264667 0.02868318
      0.0104302475 0.00651890459 0.0156453717 0.0404172093 0.0091264667
      0.0195567142 0.0104302475 0.0104302475 0.0117340283 0.00130378094
      0.00391134294 0.0130378092 0.0195567142 0.097783573 0.0091264667</_>
    <_>
      0.0441988967 0.00736648263 0.0184162073 0.0110497242 0.0773480684
      0.00920810364 0.00736648263 0.0699815825 0.00184162066
      0.00552486209 0.00920810364 0.0294659305 0.0110497242 0.0128913447
      0.00736648263 0.023941068 0.0165745858 0.0386740342 0.00368324132
      0.0128913447 0.00736648263 0.0165745858 0.00736648263 0.0147329653
      0.0110497242 0.00184162066 0.00736648263 0.0368324146
      0.00368324132 0.0147329653 0.0147329653 0.00552486209 0.0994475186
      0.00736648263 0.023941068 0.0257826895 0.00736648263 0.023941068
      0.0773480684 0.00920810364 0.0128913447 0.0110497242 0.00920810364
      0.0110497242 0. 0.00184162066 0.00552486209 0.0368324146
      0.062615104 0.0147329653</_>
    <_>
      0.0446043164 0.00575539563 0.0187050365 0.00287769781 0.0805755407
      0.0129496399 0.0071942443 0.0920863301 0.0158273373 0.0100719426
      0.0143884886 0.0071942443 0.0071942443 0.0187050365 0.00431654695
      0.0302158277 0.0158273373 0.0805755407 0.0071942443 0.00575539563
      0.0100719426 0.0158273373 0.0115107913 0.0115107913 0.0071942443
      0.00863309391 0.0187050365 0.0071942443 0. 0.0129496399
      0.0100719426 0.0100719426 0.0863309354 0.00863309391 0.0201438852
      0.0100719426 0.0201438852 0.0187050365 0.0359712243 0.0129496399
      0.00863309391 0.0115107913 0.0100719426 0.0100719426 0.00575539563
      0. 0.0115107913 0.0100719426 0.105035968 0.00863309391</_>
    <_>
      0.0319488794 0.00638977624 0.0223642178 0.0127795525 0.0527156554
      0.00638977624 0.0111821089 0.0798722059 0.0111821089 0.0111821089
      0.0143769961 0.00638977624 0.0111821089 0.00638977624
      0.00958466437 0.0271565486 0.0159744397 0.0383386575 0.00638977624
      0.00798721984 0.0111821089 0.0207667723 0.00958466437 0.0143769961
      0.00638977624 0.0143769961 0.0159744397 0.0127795525 0.00638977624
      0.0159744397 0.0143769961 0.0111821089 0.087859422 0.00798721984
      0.0223642178 0.0111821089 0.0111821089 0.0191693287 0.0527156554
      0.0159744397 0.0143769961 0.0127795525 0.0159744397 0.0143769961
      0.00798721984 0.00479233218 0.0159744397 0.0111821089 0.11821086
      0.0127795525</_>
    <_>
      0.0238095261 0.00595238153 0.0158730168 0.00992063526 0.0535714328
      0.0138888899 0.00793650839 0.0972222313 0.0119047631 0.00595238153
      0.0119047631 0.00595238153 0.00595238153 0.0119047631
      0.00793650839 0.0456349216 0.00992063526 0.0555555597
      0.00595238153 0.00992063526 0.00793650839 0.0218253974
      0.0119047631 0.0138888899 0.00595238153 0.00793650839 0.0138888899
      0.0317460336 0. 0.0138888899 0.0119047631 0.0119047631 0.111111119
      0.00992063526 0.0218253974 0.0039682542 0.0138888899 0.00992063526
      0.0615079403 0.0119047631 0.00595238153 0.00992063526 0.0039682542
      0.0178571437 0.0019841271 0.0019841271 0.00595238153 0.0158730168
      0.113095246 0.00992063526</_>
    <_>
      0.0429184549 0.00429184549 0.0236051492 0.00858369097 0.0708154514
      0.00429184549 0.0128755365 0.0557939932 0.0150214592 0.00429184549
      0.0193133056 0.0214592274 0.00643776823 0.0128755365 0.0128755365
      0.0193133056 0.0150214592 0.0321888402 0. 0.00643776823
      0.00858369097 0.0193133056 0.0128755365 0.0150214592 0.0150214592
      0.00858369097 0.00643776823 0.0321888402 0.00643776823
      0.0193133056 0.0150214592 0.0128755365 0.0557939932 0.00858369097
      0.0321888402 0.0214592274 0.0128755365 0.0214592274 0.0579399131
      0.0257510729 0.00429184549 0.0150214592 0.0150214592 0.0193133056
      0.00643776823 0.00429184549 0.00214592274 0.0407725312 0.083690986
      0.0128755365</_>
    <_>
      0.0203784574 0.00727802049 0.0378457084 0.0101892287 0.0684133917
      0.00873362459 0.00582241639 0.107714705 0.00727802049 0.0043668123
      0.0116448328 0.0160116442 0.00873362459 0.0131004369 0.00873362459
      0.0363901034 0.0101892287 0.0407569148 0.0043668123 0.0131004369
      0.00873362459 0.0131004369 0.00873362459 0.0116448328
      0.00727802049 0.00582241639 0.0116448328 0.0436681211
      0.00582241639 0.0116448328 0.00873362459 0.00727802049
      0.0975254774 0.00727802049 0.0189228542 0.0131004369 0.00727802049
      0.0101892287 0.029112082 0.0131004369 0.00582241639 0.00873362459
      0.014556041 0.0131004369 0.0029112082 0. 0.0043668123 0.0320232883
      0.128093153 0.00873362459</_>
    <_>
      0.0378486067 0.0119521916 0.0239043832 0.00996015966 0.0458167344
      0.00996015966 0.0059760958 0.0856573731 0.00996015966
      0.00199203193 0.0219123513 0.0219123513 0.0159362555 0.0139442235
      0.00996015966 0.0219123513 0.00199203193 0.0378486067 0.0059760958
      0.00796812773 0.0059760958 0.0119521916 0.0179282874 0.0159362555
      0.00996015966 0.0059760958 0.00996015966 0.0478087664 0.0159362555
      0.027888447 0.00796812773 0.00996015966 0.0517928302 0.0119521916
      0.0179282874 0.0119521916 0.0059760958 0.0219123513 0.0796812773
      0.0199203193 0.0059760958 0.00796812773 0.0159362555 0.0139442235
      0.00398406386 0.00398406386 0.0179282874 0.0537848622 0.0498007983
      0.0159362555</_>
    <_>
      0.03172414 0.0068965517 0.0468965545 0.0137931034 0.0703448281
      0.0110344831 0.00827586278 0.0855172426 0.00137931039
      0.00413793139 0.0193103459 0.0068965517 0.0110344831 0.0110344831
      0.0068965517 0.030344829 0.00965517294 0.062068969 0.00275862077
      0.00413793139 0.0068965517 0.0165517256 0.0110344831 0.0179310348
      0.0068965517 0.00827586278 0.00965517294 0.0289655179 0.
      0.00965517294 0.0165517256 0.0110344831 0.0772413835 0.0068965517
      0.0193103459 0.0110344831 0.0124137932 0.0179310348 0.0262068976
      0.0165517256 0.0110344831 0.0110344831 0.0165517256 0.0220689662
      0.00965517294 0.00137931039 0.00827586278 0.0331034511 0.106206901
      0.00551724155</_>
    <_>
      0.0114942528 0.00574712642 0.0153256701 0.00957854372 0.055555556
      0.00766283507 0.00957854372 0.0823754743 0.00957854372
      0.00766283507 0.00957854372 0.0114942528 0.013409961 0.0191570874
      0.00766283507 0.0287356321 0.0210727956 0.0670498088 0.00766283507
      0.00766283507 0.00766283507 0.0172413792 0.00957854372
      0.00957854372 0.0114942528 0.00957854372 0.00574712642 0.055555556
      0.00957854372 0.0191570874 0.013409961 0.00574712642 0.0766283497
      0.00766283507 0.0344827585 0.0153256701 0.00766283507 0.0210727956
      0.0651341006 0.013409961 0.0210727956 0.00766283507 0.013409961
      0.00766283507 0. 0.00383141753 0.00957854372 0.00574712642
      0.103448272 0.00383141753</_>
    <_>
      0.0340425521 0.00425531901 0.0297872331 0.00638297852 0.0872340426
      0.00425531901 0.00638297852 0.0765957385 0.00212765951
      0.00638297852 0.00638297852 0.00638297852 0.00638297852
      0.00851063803 0.00425531901 0.0212765951 0.0255319141 0.0446808487
      0.00212765951 0.00638297852 0.00638297852 0.0234042555
      0.0170212761 0.0106382975 0.0191489346 0.012765957 0.012765957
      0.0617021248 0.00851063803 0.0191489346 0.0106382975 0.00851063803
      0.0553191453 0.0106382975 0.0191489346 0.00638297852 0.0106382975
      0.0106382975 0.0659574419 0.0148936165 0.00212765951 0.00851063803
      0.0106382975 0.012765957 0.00638297852 0. 0.0106382975
      0.0212765951 0.12340425 0.0106382975</_>
    <_>
      0.0121212117 0.00303030293 0.0303030293 0.0121212117 0.0212121196
      0.00606060587 0.0090909088 0.175757572 0.00303030293 0.00606060587
      0. 0.0090909088 0.0151515147 0.0121212117 0.00303030293
      0.0272727273 0. 0.0090909088 0.00303030293 0.00606060587 0.
      0.0151515147 0.0121212117 0.00303030293 0.0090909088 0.00606060587
      0. 0.00606060587 0.0181818176 0.00303030293 0. 0.00303030293
      0.184848472 0.00303030293 0.0151515147 0. 0.00606060587
      0.0212121196 0.0515151508 0.0090909088 0.00303030293 0.
      0.00303030293 0.0090909088 0. 0. 0. 0.0121212117 0.242424235 0.</_>
    <_>
      0.0227272715 0.00681818184 0.038636364 0.00681818184 0.0272727273
      0.00681818184 0.0136363637 0.131818175 0. 0.0159090906
      0.0113636358 0.0181818176 0.0090909088 0.00681818184 0.00681818184
      0.0159090906 0. 0.0022727272 0.0045454544 0.0113636358
      0.0045454544 0.0090909088 0.0090909088 0.0022727272 0.0681818128
      0.00681818184 0. 0.0159090906 0.0613636337 0.043181818
      0.0045454544 0. 0.106818177 0.0045454544 0.0090909088 0.0090909088
      0.0022727272 0.0227272715 0.0477272719 0.0090909088 0.0045454544
      0.0045454544 0.0159090906 0.00681818184 0.0045454544 0.0045454544
      0.0045454544 0.0227272715 0.138636366 0.</_>
    <_>
      0.0463709682 0.00806451589 0.0564516112 0.0120967738 0.0262096766
      0.00806451589 0.00604838692 0.155241936 0. 0.0141129028
      0.00806451589 0.00604838692 0.00806451589 0.00604838692
      0.00806451589 0.0403225794 0.00604838692 0.0423387066
      0.00201612897 0.00604838692 0.00604838692 0.0141129028
      0.00604838692 0.00604838692 0.0141129028 0.00201612897
      0.00403225794 0.0241935477 0.00806451589 0.0120967738
      0.00403225794 0.00201612897 0.155241936 0.0100806449 0.0120967738
      0.0120967738 0.0100806449 0.0161290318 0.0463709682 0.00604838692
      0.0141129028 0. 0.0120967738 0.00806451589 0.00403225794
      0.00201612897 0.0100806449 0.0342741907 0.0766129047 0.00201612897</_>
    <_>
      0.0295566507 0.00492610829 0.0172413792 0.00738916267 0.0665024593
      0.0147783253 0.00738916267 0.100985222 0. 0.00246305414
      0.00738916267 0.00738916267 0.00246305414 0.00738916267 0.
      0.0369458124 0.00985221658 0.0467980281 0. 0.00738916267
      0.00738916267 0.0197044332 0.00738916267 0.00985221658
      0.0123152705 0.024630541 0.0147783253 0.0172413792 0.00492610829
      0.0270935949 0.00738916267 0.00985221658 0.0591133013
      0.00738916267 0.0418719202 0.00246305414 0.0172413792 0.0172413792
      0.0738916248 0.0123152705 0.00738916267 0.00985221658 0.0147783253
      0.00985221658 0.00246305414 0. 0.00738916267 0.0197044332
      0.14778325 0.00985221658</_>
    <_>
      0.024038462 0.00480769249 0.026442308 0.00721153896 0.0576923117
      0.00721153896 0.00961538497 0.15384616 0. 0.00240384624
      0.00480769249 0.0168269239 0.00480769249 0.00721153896 0.
      0.0192307699 0.0144230779 0.0504807718 0.00240384624 0.
      0.00240384624 0.026442308 0.0168269239 0.012019231 0.012019231
      0.00721153896 0.00961538497 0.012019231 0.00721153896 0.0168269239
      0.00721153896 0.00721153896 0.105769232 0.012019231 0.026442308
      0.00240384624 0.0192307699 0.0144230779 0.0480769239 0.0168269239
      0.00480769249 0.012019231 0.012019231 0.00961538497 0.00480769249
      0.00240384624 0.00480769249 0.026442308 0.120192312 0.00721153896</_>
    <_>
      0.028355388 0.00189035921 0.032136105 0.00567107741 0.0661625713
      0.00378071843 0.0094517963 0.117202275 0. 0.00567107741
      0.00567107741 0.0094517963 0.00378071843 0. 0. 0.0245746691
      0.0094517963 0.0472589806 0.00189035921 0.00378071843
      0.00378071843 0.0132325143 0.0151228737 0.0132325143 0.020793952
      0.00756143685 0.0170132332 0.020793952 0.00189035921 0.0302457474
      0.0094517963 0.00756143685 0.0604914948 0.0094517963 0.0245746691
      0.020793952 0.0132325143 0.0132325143 0.0453686193 0.0113421548
      0.00378071843 0.00756143685 0.0132325143 0.0113421548 0.
      0.00378071843 0.0094517963 0.032136105 0.175803408 0.00756143685</_>
    <_>
      0.0287081338 0.00239234441 0.0239234436 0.00717703346 0.0574162677
      0.0119617218 0.00956937764 0.11004784 0.00478468882 0.
      0.00717703346 0.0119617218 0.00717703346 0.00717703346 0.
      0.0334928222 0.00717703346 0.0406698547 0. 0.00239234441
      0.00717703346 0.0167464111 0.0143540669 0.0143540669 0.00956937764
      0.00956937764 0.0119617218 0.0454545431 0.00239234441 0.0263157878
      0.00956937764 0.00717703346 0.0765550211 0.00956937764
      0.0215310995 0.00478468882 0.0119617218 0.0119617218 0.0693779886
      0.0119617218 0.00239234441 0.00717703346 0.0119617218
      0.00478468882 0.00239234441 0.00239234441 0.0119617218
      0.0119617218 0.169856459 0.00956937764</_>
    <_>
      0.0158730168 0.00453514745 0.0362811796 0.00907029491 0.0816326514
      0.00680272095 0.00680272095 0.111111112 0. 0.00453514745
      0.00453514745 0.0113378689 0. 0.00680272095 0.00453514745
      0.0272108838 0.0204081628 0.0340136066 0.00453514745 0.00680272095
      0.00226757373 0.0158730168 0.00680272095 0.0136054419 0.0113378689
      0.00680272095 0.00907029491 0.0408163257 0.00680272095
      0.00907029491 0.0158730168 0.00453514745 0.0861678049 0.0136054419
      0.0272108838 0.00453514745 0.00907029491 0.0226757377 0.0589569174
      0.0226757377 0.00226757373 0.00907029491 0.0136054419 0.0158730168
      0. 0. 0.00680272095 0.0340136066 0.129251704 0.00453514745</_>
    <_>
      0.0386965387 0.00407331996 0.0346232206 0.00814663991 0.0488798395
      0.00814663991 0.00610997993 0.142566204 0. 0.00203665998
      0.00407331996 0.00814663991 0.00407331996 0.0101832999 0.
      0.0162932798 0.00814663991 0.0570264794 0.00407331996
      0.00203665998 0.00814663991 0.0142566198 0.0101832999 0.0162932798
      0.0101832999 0.0122199599 0.0203665998 0.0142566198 0.00203665998
      0.0203665998 0.0101832999 0.00610997993 0.103869662 0.00814663991
      0.0264765806 0.00203665998 0.0101832999 0.0162932798 0.0407331996
      0.0162932798 0.00203665998 0.00814663991 0.0122199599 0.0142566198
      0.00610997993 0.00203665998 0.00203665998 0.0244399197 0.142566204
      0.0101832999</_>
    <_>
      0.0285171103 0.00380228134 0.0304182507 0.00380228134 0.0798479095
      0.00570342224 0.00760456268 0.108365022 0. 0. 0.00380228134
      0.00380228134 0.00380228134 0.00380228134 0. 0.0190114062
      0.0133079849 0.0665399209 0.00570342224 0. 0.00760456268
      0.0114068445 0.0133079849 0.0114068445 0.0209125467 0.00760456268
      0.0152091254 0.0209125467 0.00190114067 0.0171102658 0.00950570311
      0.00570342224 0.095057033 0.00950570311 0.0342205316 0.00190114067
      0.0114068445 0.0190114062 0.064638786 0.0114068445 0.00380228134
      0.00190114067 0.00570342224 0.00950570311 0.00190114067 0.
      0.0114068445 0.0342205316 0.14638783 0.00760456268</_>
    <_>
      0.0157728717 0.00630914839 0.0126182968 0.00946372282 0.0252365936
      0.00946372282 0.0126182968 0.186119884 0.00315457419 0.00946372282
      0.00630914839 0.00315457419 0.0157728717 0.00630914839 0.
      0.0126182968 0. 0.0220820196 0.00630914839 0.00630914839
      0.00315457419 0.0189274456 0.00630914839 0.0157728717
      0.00630914839 0.00315457419 0.00946372282 0.00630914839
      0.00315457419 0.0157728717 0.00630914839 0.00315457419 0.154574141
      0.00315457419 0.0252365936 0. 0.00946372282 0.0220820196
      0.0599369109 0.00946372282 0. 0.00630914839 0.00630914839
      0.00946372282 0.00315457419 0. 0.0157728717 0.00315457419
      0.201892748 0.00315457419</_>
    <_>
      0.0202429146 0.00202429155 0.0323886648 0.0080971662 0.0728744939
      0.0080971662 0.0121457493 0.109311745 0. 0.00607287465
      0.0101214573 0.0161943324 0.0040485831 0.00607287465 0.
      0.0344129577 0.0121457493 0.0587044545 0.00202429155 0.00202429155
      0.0040485831 0.0141700413 0.0121457493 0.0101214573 0.0121457493
      0.0080971662 0.0101214573 0.0263157897 0.0040485831 0.0182186235
      0.0080971662 0.0040485831 0.0769230798 0.0101214573 0.0323886648
      0.0101214573 0.0121457493 0.0121457493 0.0688259155 0.0182186235
      0.00202429155 0.0040485831 0.0080971662 0.0141700413 0.0040485831
      0. 0.0161943324 0.0303643737 0.127530366 0.0040485831</_>
    <_>
      0.0629629642 0.00740740728 0.025925925 0.0111111104 0.0981481448
      0.00740740728 0.00740740728 0.0722222179 0.00185185182
      0.00370370364 0.00740740728 0.00740740728 0.00925925933
      0.00925925933 0.00185185182 0.025925925 0.0222222209 0.0814814791
      0.00185185182 0.00185185182 0.00740740728 0.0148148146
      0.00740740728 0.00740740728 0.0203703698 0.00370370364 0.027777778
      0.0351851843 0.00185185182 0.025925925 0.00740740728 0.00185185182
      0.0814814791 0.00740740728 0.0222222209 0.00555555522
      0.00555555522 0.0111111104 0.0722222179 0.00925925933
      0.00185185182 0.00555555522 0.00740740728 0.00925925933
      0.00370370364 0.00185185182 0.0148148146 0.0314814821 0.0796296299
      0.00185185182</_>
    <_>
      0.034300793 0.00791556761 0.0237467028 0.0105540901 0.0633245409
      0.0105540901 0.0105540901 0.0949868113 0. 0.00791556761
      0.00263852254 0.0105540901 0.00791556761 0.00791556761 0.
      0.0237467028 0.0211081803 0.039577838 0.00263852254 0.00527704507
      0.0105540901 0.0158311352 0.0131926127 0.0184696577 0.0105540901
      0.0105540901 0.0105540901 0.0158311352 0.00527704507 0.0290237479
      0.0184696577 0.00527704507 0.0527704507 0.00527704507 0.0290237479
      0.00263852254 0.0184696577 0.0211081803 0.0712401122 0.0105540901
      0. 0.0158311352 0.00527704507 0.0131926127 0.00791556761 0.
      0.0105540901 0.0211081803 0.155672833 0.0105540901</_>
    <_>
      0.0272536688 0.00209643599 0.0272536688 0.00419287197 0.0733752623
      0.00628930796 0.0104821799 0.100628927 0.00209643599 0.00209643599
      0.00419287197 0. 0.00419287197 0.00628930796 0.00209643599
      0.0167714879 0.0104821799 0.0607966445 0.00419287197 0.00419287197
      0.0125786159 0.0209643599 0.0167714879 0.0125786159 0.0125786159
      0.0125786159 0.0104821799 0.0167714879 0.00628930796 0.0209643599
      0.00838574395 0.0125786159 0.0838574395 0.00838574395 0.0209643599
      0.00628930796 0.0104821799 0.0167714879 0.0607966445 0.0125786159
      0.00419287197 0.0104821799 0.00419287197 0.0125786159 0.
      0.00209643599 0.0125786159 0.0293501038 0.157232702 0.0146750519</_>
    <_>
      0.0232018549 0.00464037107 0.0208816696 0.00928074215 0.0672853813
      0.0116009274 0.00928074215 0.125290021 0.00232018554 0.00464037107
      0.00464037107 0.00464037107 0.00696055684 0.00928074215 0.
      0.00696055684 0.00696055684 0.05800464 0.00696055684 0.
      0.00928074215 0.0139211137 0.016241299 0.016241299 0.00928074215
      0.0116009274 0.00928074215 0.0301624127 0.00464037107 0.016241299
      0.00928074215 0.00464037107 0.0997679755 0.0116009274 0.0208816696
      0. 0.00696055684 0.016241299 0.0696055666 0.0139211137
      0.00232018554 0.00464037107 0.00928074215 0.0139211137 0. 0.
      0.00928074215 0.0185614843 0.157772616 0.0116009274</_>
    <_>
      0.0292553175 0.00797872338 0.0186170209 0.0106382975 0.0611702092
      0.0106382975 0.00797872338 0.0904255286 0. 0.00265957438
      0.00265957438 0.0132978717 0.00531914877 0.00531914877 0.
      0.0319148935 0.0132978717 0.0611702092 0. 0.00531914877
      0.00265957438 0.0159574468 0.0106382975 0.0159574468 0.00531914877
      0.0132978717 0.00797872338 0.0186170209 0.00531914877 0.0372340418
      0.0132978717 0.00797872338 0.0664893612 0.0106382975 0.0345744677
      0.00265957438 0.0159574468 0.0159574468 0.0904255286 0.0159574468
      0.00265957438 0.0159574468 0.0106382975 0.0186170209 0.00797872338
      0. 0.0106382975 0.0159574468 0.124999993 0.00797872338</_>
    <_>
      0.0340136066 0.00226757373 0.0204081628 0.0113378689 0.074829936
      0.00226757373 0.00907029491 0.0634920672 0. 0.00453514745
      0.00226757373 0.0249433108 0.00907029491 0.00907029491
      0.00453514745 0.0226757377 0.0226757377 0.0498866215 0.
      0.00226757373 0.00453514745 0.0272108838 0.00453514745
      0.00907029491 0.0113378689 0.00907029491 0.00226757373
      0.0566893443 0.00226757373 0.0158730168 0.00907029491
      0.00680272095 0.0839002281 0.0113378689 0.0408163257 0.00453514745
      0. 0.0340136066 0.0453514755 0.0158730168 0.00226757373
      0.0113378689 0.0158730168 0.0204081628 0.00226757373 0.00453514745
      0.00680272095 0.0430839024 0.115646258 0.0136054419</_>
    <_>
      0.0319361277 0. 0.0379241519 0.00598802418 0.0758483037
      0.00399201596 0.00798403192 0.105788425 0. 0.00199600798
      0.00598802418 0.00998003967 0.00798403192 0.0139720561
      0.00199600798 0.0279441122 0.0119760484 0.0758483037 0.
      0.00598802418 0.00598802418 0.0179640725 0.00998003967
      0.00998003967 0.0119760484 0.00798403192 0.0139720561
      0.00798403192 0.00199600798 0.0159680638 0.00798403192
      0.00598802418 0.0938123763 0.00798403192 0.0279441122
      0.00798403192 0.00598802418 0.0159680638 0.0479041934 0.0179640725
      0.00598802418 0.00199600798 0.00998003967 0.00998003967
      0.00399201596 0. 0.00399201596 0.0359281451 0.147704586
      0.00399201596</_>
    <_>
      0.0135135138 0.00675675692 0.0495495498 0.011261262 0.0135135138
      0.00675675692 0.00675675692 0.175675675 0. 0.0247747749
      0.00675675692 0.0135135138 0.0135135138 0.011261262 0.00450450461
      0.011261262 0. 0.00675675692 0.00675675692 0.00675675692
      0.00450450461 0.0202702712 0.00900900923 0.00675675692
      0.0495495498 0.00225225231 0. 0.011261262 0.0270270277
      0.0292792805 0.00675675692 0.00225225231 0.137387395 0.00675675692
      0.0135135138 0.00675675692 0. 0.0292792805 0.0427927934
      0.00900900923 0.00450450461 0.00450450461 0.00450450461
      0.011261262 0. 0.00450450461 0.00450450461 0.0202702712
      0.135135144 0.00675675692</_>
    <_>
      0.0190930795 0.00715990458 0.0214797147 0.00715990458 0.0477326997
      0.00477326987 0.00715990458 0.128878281 0.00238663494 0.
      0.00477326987 0.00954653975 0.00477326987 0.00715990458
      0.00477326987 0.0334128886 0.0190930795 0.0596658736 0.00477326987
      0.00715990458 0.00954653975 0.0214797147 0.0143198092 0.0167064443
      0.00477326987 0.00715990458 0.0143198092 0.05250597 0.00715990458
      0.00715990458 0.00715990458 0.00715990458 0.0692124143
      0.0143198092 0.026252985 0.00477326987 0.0119331749 0.0119331749
      0.050119333 0.0167064443 0.00238663494 0.00477326987 0.0119331749
      0.0119331749 0.00715990458 0.00238663494 0.00477326987
      0.00715990458 0.164677814 0.00715990458</_>
    <_>
      0.0240295753 0.0110905729 0.0147874309 0.0110905729 0.0388170071
      0.0203327183 0.0184842888 0.0868761539 0.00184842886 0.00739371544
      0.00554528646 0.0147874309 0.00924214441 0.0129390024 0.0166358594
      0.0258780047 0.00369685772 0.0406654365 0.00554528646
      0.00554528646 0.0166358594 0.0147874309 0.0147874309 0.0240295753
      0.00554528646 0.00554528646 0.0166358594 0.0129390024 0.0110905729
      0.00924214441 0.0203327183 0.00924214441 0.0813308731
      0.00369685772 0.0147874309 0.0110905729 0.0258780047 0.0166358594
      0.0573012941 0.0129390024 0.00924214441 0.00924214441 0.0110905729
      0.0147874309 0.0277264323 0.00924214441 0.0147874309 0.0258780047
      0.10720887 0.0110905729</_>
    <_>
      0.0492187515 0.0250000004 0.0218749996 0.0109374998 0.0367187522
      0.0164062511 0.0257812496 0.0406250022 0.01171875 0.00859375019
      0.0179687496 0.0203125011 0.0164062511 0.0078125 0.00625000009
      0.0265625007 0.0101562506 0.02734375 0.0125000002 0.00937500037
      0.0164062511 0.0109374998 0.01953125 0.0382812507 0.0187500007
      0.0140625006 0.0140625006 0.0281250011 0.0148437498 0.0125000002
      0.0179687496 0.0148437498 0.0421875007 0.00234375009 0.0250000004
      0.01953125 0.0390625 0.0132812504 0.0226562507 0.0109374998
      0.0101562506 0.0328125022 0.0257812496 0.00546874991 0.01953125
      0.00468750019 0.0437499993 0.0101562506 0.0390625 0.01171875</_>
    <_>
      0.0562770553 0.0151515156 0.0183982681 0.012987013 0.0357142873
      0.0173160173 0.0346320346 0.0735930726 0.0119047621 0.012987013
      0.0097402595 0.0075757578 0.0140692638 0.00649350649 0.0075757578
      0.0259740259 0.0075757578 0.0270562768 0.00649350649 0.0097402595
      0.0173160173 0.019480519 0.019480519 0.0313852802 0.019480519
      0.00865800865 0.0238095243 0.0097402595 0.0108225103 0.0205627698
      0.0151515156 0.00541125517 0.037878789 0.00649350649 0.0173160173
      0.0162337665 0.0303030312 0.012987013 0.0346320346 0.0108225103
      0.0097402595 0.0216450207 0.0183982681 0.0183982681 0.0108225103
      0.0075757578 0.0324675329 0.0151515156 0.0790043324 0.0075757578</_>
    <_>
      0.0320945941 0.00675675692 0.0135135138 0.00506756781 0.0472972989
      0.0287162177 0.0270270277 0.0641891882 0.00337837846 0.00506756781
      0.0185810812 0.0101351356 0.0304054059 0.0084459465 0.0084459465
      0.0236486495 0.016891893 0.0405405425 0.0185810812 0.00675675692
      0.015202703 0.015202703 0.016891893 0.016891893 0.00506756781
      0.0084459465 0.0084459465 0.0202702712 0.0135135138 0.0236486495
      0.0422297306 0.0084459465 0.0506756753 0.0084459465 0.0354729742
      0.00506756781 0.0354729742 0.0135135138 0.0506756753 0.0118243247
      0.0219594594 0.0135135138 0.015202703 0.0118243247 0.0118243247
      0.00506756781 0.0185810812 0.0202702712 0.0557432435 0.00506756781</_>
    <_>
      0.0325991213 0.0185022037 0.0299559478 0.00881057326 0.035242293
      0.0405286364 0.035242293 0.0343612358 0.0123348022 0.015859032
      0.0237885471 0.011453745 0.0176211465 0.00792951602 0.0140969167
      0.0220264327 0.00969163049 0.0123348022 0.0140969167 0.00969163049
      0.0202643182 0.0105726877 0.0132158594 0.0414096937 0.0202643182
      0.0167400893 0.0132158594 0.0220264327 0.0105726877 0.0105726877
      0.0237885471 0.00528634386 0.0493392088 0.00352422916 0.0123348022
      0.0211453754 0.0246696044 0.0140969167 0.0273127761 0.0105726877
      0.0123348022 0.0334801786 0.0255506616 0.0149779739 0.0202643182
      0.00881057326 0.0475770943 0.00881057326 0.035242293 0.015859032</_>
    <_>
      0.0305444896 0.0398406386 0.0119521916 0.00398406386 0.0106241703
      0.0159362555 0.0438247025 0.118193895 0.00664010644 0.0119521916
      0.00664010644 0. 0.00531208515 0.00398406386 0.00132802129
      0.00796812773 0.00531208515 0.0212483406 0.00531208515
      0.00531208515 0.0146082342 0.00929614902 0.00531208515
      0.0358565748 0.0225763619 0.00531208515 0.0172642767 0.00398406386
      0.00664010644 0.0292164683 0.0252324045 0.00929614902 0.0796812773
      0.00265604258 0.00664010644 0.0106241703 0.100929618 0.0159362555
      0.00265604258 0.00531208515 0.00531208515 0.0531208515
      0.00664010644 0.00929614902 0.0385126173 0.00531208515
      0.0345285535 0.00132802129 0.0664010644 0.0146082342</_>
    <_>
      0.0479262695 0.0221198164 0.0341013819 0.0064516128 0.0267281104
      0.0331797227 0.0267281104 0.0460829511 0.0119815674 0.0156682022
      0.0258064512 0.0055299541 0.0119815674 0.00921658985 0.010138249
      0.0184331797 0.0110599082 0.0294930879 0.0138248848 0.00829493068
      0.0239631347 0.0119815674 0.020276498 0.0276497696 0.014746544
      0.0129032256 0.0110599082 0.0184331797 0.0110599082 0.0138248848
      0.0258064512 0.0064516128 0.0589861758 0.0055299541 0.0138248848
      0.0119815674 0.0239631347 0.0193548389 0.0193548389 0.00829493068
      0.014746544 0.0304147471 0.024884792 0.00829493068 0.0239631347
      0.010138249 0.0368663594 0.0119815674 0.0525345616 0.0119815674</_>
    <_>
      0.0330969281 0.0200945623 0.0165484641 0.00827423204 0.0319148935
      0.0271867607 0.0260047279 0.0496453904 0.00709219836 0.0153664304
      0.013002364 0.0106382975 0.0118203312 0.00709219836 0.00945626479
      0.0330969281 0.0118203312 0.0260047279 0.00709219836 0.00945626479
      0.0189125296 0.0106382975 0.0189125296 0.029550828 0.0153664304
      0.013002364 0.0118203312 0.0354609936 0.00709219836 0.0212765951
      0.029550828 0.00591016561 0.0591016561 0.00709219836 0.0177304968
      0.013002364 0.0425531901 0.0177304968 0.0283687934 0.0106382975
      0.00591016561 0.0271867607 0.013002364 0.0177304968 0.0271867607
      0.00472813239 0.0354609936 0.00591016561 0.0685579181
      0.00591016561</_>
    <_>
      0.0360706039 0.030698387 0.0360706039 0.0115118949 0.0260936301
      0.0291634686 0.0414428227 0.0283960085 0.00844205637 0.0145817343
      0.0291634686 0.00613967748 0.0168841127 0.00613967748
      0.00690713711 0.0222563315 0.00383729837 0.02532617 0.0138142742
      0.0107444357 0.030698387 0.0207214113 0.0222563315 0.0283960085
      0.0207214113 0.0130468151 0.012279355 0.0115118949 0.00920951646
      0.0207214113 0.0291634686 0.00767459674 0.0283960085 0.00383729837
      0.0161166526 0.0222563315 0.0414428227 0.0153491935 0.0214888714
      0.00690713711 0.0138142742 0.0353031456 0.030698387 0.0176515728
      0.0207214113 0.00844205637 0.0276285484 0.00844205637 0.0414428227
      0.00997697562</_>
    <_>
      0.029874213 0.0094339624 0.0204402506 0.00786163472 0.0471698083
      0.029874213 0.0267295595 0.0660377368 0.00786163472 0.00628930796
      0.0125786159 0.00786163472 0.0141509427 0.00628930796 0.0141509427
      0.0361635201 0.0047169812 0.0314465389 0.0125786159 0.00314465398
      0.0172955971 0.0141509427 0.0110062892 0.0157232694 0.0094339624
      0.0172955971 0.00314465398 0.0157232694 0.0047169812 0.0125786159
      0.0235849041 0.0094339624 0.0550314449 0.0094339624 0.0204402506
      0.0110062892 0.0440251566 0.0188679248 0.0550314449 0.0110062892
      0.0220125783 0.0267295595 0.0094339624 0.00786163472 0.0361635201
      0.00157232699 0.0188679248 0.0094339624 0.0864779875 0.00786163472</_>
    <_>
      0.0358931534 0.0183639396 0.0242070109 0.00834724493 0.0308848079
      0.0267111845 0.0308848079 0.0475792959 0.00500834733 0.0158597659
      0.0166944899 0.00751252053 0.0233722869 0.00751252053
      0.00333889807 0.0191986635 0.0158597659 0.0200333893 0.0100166947
      0.0125208674 0.0175292157 0.0133555923 0.0150250411 0.0217028372
      0.0175292157 0.0175292157 0.0183639396 0.0133555923 0.0100166947
      0.0200333893 0.0275459085 0.0116861435 0.0542570949 0.00500834733
      0.0217028372 0.0191986635 0.0183639396 0.0200333893 0.0317195319
      0.0175292157 0.0183639396 0.0308848079 0.0217028372 0.0108514186
      0.0233722869 0.0125208674 0.0350584313 0.00834724493 0.0509181954
      0.0166944899</_>
    <_>
      0.0460750833 0.021331057 0.0281569958 0.00767918071 0.0315699652
      0.0332764499 0.0221842993 0.0546075068 0.0042662113 0.0145051191
      0.0153583614 0.00682593836 0.023890784 0.00682593836 0.00341296918
      0.023890784 0.00938566495 0.023890784 0.0127986344 0.0102389073
      0.0324232057 0.0153583614 0.0187713299 0.0179180875 0.0127986344
      0.0136518767 0.0102389073 0.00853242259 0.005972696 0.0187713299
      0.038395904 0.00767918071 0.0563139915 0.00853242259 0.0290102381
      0.023890784 0.0290102381 0.0145051191 0.0281569958 0.0102389073
      0.0170648452 0.0196245722 0.0298634805 0.0110921497 0.0221842993
      0.0145051191 0.0273037534 0.00767918071 0.038395904 0.011945392</_>
    <_>
      0.0357426554 0.030976966 0.0254169982 0.0071485308 0.0436854661
      0.027799841 0.0214455929 0.0420969017 0.00953137409 0.0150913429
      0.0198570304 0.00635424955 0.00953137409 0.00873709284
      0.00794281159 0.0190627482 0.00873709284 0.034154091 0.0135027803
      0.00873709284 0.0174741857 0.0206513107 0.0182684679 0.027799841
      0.0238284357 0.00794281159 0.00873709284 0.030976966 0.00953137409
      0.0142970616 0.030976966 0.0111199366 0.0381254964 0.00238284352
      0.0158856232 0.0166799054 0.0444797464 0.0166799054 0.0150913429
      0.0119142178 0.0142970616 0.0325655304 0.0270055607 0.00635424955
      0.0190627482 0.0071485308 0.0365369357 0.0166799054 0.0508339964
      0.0111199366</_>
    <_>
      0.0440043993 0.0242024194 0.0308030806 0.0110010998 0.0352035202
      0.0154015403 0.0341034085 0.0715071484 0.00880088005 0.00770077016
      0.0154015403 0.00660066027 0.00880088005 0.00660066027
      0.00660066027 0.0253025293 0.00660066027 0.0198019799
      0.00990098994 0.00990098994 0.01870187 0.0143014304 0.0209020898
      0.036303632 0.0264026411 0.0121012097 0.0198019799 0.0132013205
      0.00770077016 0.01870187 0.01870187 0.00880088005 0.03740374
      0.00550054992 0.0231023096 0.0165016502 0.0231023096 0.0154015403
      0.0330033004 0.0110010998 0.00880088005 0.0220021997 0.0231023096
      0.0121012097 0.0176017601 0.00770077016 0.0297029708 0.0132013205
      0.0781078115 0.00880088005</_>
    <_>
      0.0587188601 0.0284697507 0.0106761567 0.00800711755 0.0284697507
      0.0240213517 0.0240213517 0.0462633446 0.00533807836 0.0142348753
      0.0160142351 0.0133451959 0.00889679696 0.00622775778
      0.00800711755 0.0169039145 0.0142348753 0.0195729528 0.0124555156
      0.00800711755 0.0195729528 0.0124555156 0.0133451959 0.033807829
      0.0302491095 0.0106761567 0.0222419929 0.0258007124 0.0169039145
      0.0284697507 0.0186832733 0.00533807836 0.0462633446 0.00711743766
      0.0186832733 0.0106761567 0.0364768691 0.0133451959 0.0293594301
      0.0142348753 0.0115658361 0.033807829 0.0240213517 0.0133451959
      0.0249110311 0.00444839848 0.0329181477 0.00711743766 0.0551601425
      0.00711743766</_>
    <_>
      0.0307692308 0.0153846154 0.025641026 0.00854700897 0.0427350439
      0.0170940179 0.0136752138 0.0752136782 0.00512820529 0.00854700897
      0.0136752138 0.00854700897 0.0188034195 0.0102564106 0.0136752138
      0.0205128212 0.0119658122 0.0376068391 0.0188034195 0.00854700897
      0.0205128212 0.0119658122 0.00341880345 0.0222222228 0.0136752138
      0.0119658122 0.00854700897 0.0205128212 0.0153846154 0.0188034195
      0.0205128212 0.00854700897 0.0495726503 0.0068376069 0.0222222228
      0.0153846154 0.0444444455 0.0119658122 0.0547008552 0.0136752138
      0.0170940179 0.0205128212 0.0068376069 0.00512820529 0.0188034195
      0.0119658122 0.0222222228 0.0205128212 0.0632478669 0.0136752138</_>
    <_>
      0.0767123327 0.0150684938 0.0109589044 0.0054794522 0.0753424689
      0.0164383575 0.00684931502 0.0863013715 0.00136986305 0.0205479451
      0.00684931502 0.0287671238 0.0109589044 0.00684931502
      0.00136986305 0.0328767151 0.00958904158 0.0698630139 0.0054794522
      0.00410958938 0.0123287672 0.0109589044 0.00684931502 0.0123287672
      0.0178082194 0.00958904158 0.0123287672 0.0493150689 0.00684931502
      0.0205479451 0.00821917877 0.00684931502 0.0630137026 0.0054794522
      0.0410958901 0.00410958938 0.00136986305 0.0054794522 0.0424657539
      0.00684931502 0.0027397261 0.0054794522 0.00821917877
      0.00684931502 0.00410958938 0. 0.0109589044 0.0342465751
      0.083561644 0.00821917877</_>
    <_>
      0.0257452577 0.00677506812 0.0230352301 0.00677506812 0.0501355007
      0.016260162 0.00948509481 0.0704607069 0.00271002715 0.0271002725
      0.008130081 0.00948509481 0.0108401086 0.00542005431 0.00542005431
      0.0230352301 0.00948509481 0.0758807585 0.0108401086 0.00677506812
      0.0108401086 0.016260162 0.0121951224 0.0189701896 0.032520324
      0.0121951224 0.008130081 0.0420054197 0.0149051491 0.0216802172
      0.00948509481 0.0149051491 0.0718157217 0.00542005431 0.0203252044
      0.00948509481 0.0135501362 0.016260162 0.0338753387 0.0108401086
      0.008130081 0.0284552854 0.008130081 0.0108401086 0.0108401086
      0.0108401086 0.0149051491 0.0243902449 0.0772357732 0.00677506812</_>
    <_>
      0.0693568736 0.0050441362 0.0176544767 0.00630517025 0.0567465313
      0.00882723834 0.0050441362 0.0718789399 0.0176544767 0.0100882724
      0.0126103405 0.0100882724 0.0163934417 0.0302648172 0.0025220681
      0.0315258503 0.0201765448 0.0441361926 0.0189155117 0.00378310215
      0.00882723834 0.00630517025 0.0126103405 0.0100882724 0.0201765448
      0.0050441362 0.0138713745 0.0201765448 0.0113493064 0.0302648172
      0.00756620429 0.0138713745 0.0567465313 0.00630517025 0.0390920565
      0.00630517025 0.00126103405 0.00630517025 0.0605296344
      0.0113493064 0.00882723834 0.0050441362 0.0050441362 0.00756620429
      0.00126103405 0.0201765448 0.00630517025 0.0327868834 0.0970996246
      0.00882723834</_>
    <_>
      0.0579514802 0.0222371966 0.0195417777 0.00808625296 0.0336927213
      0.0303234495 0.0330188684 0.0512129366 0.0114555256 0.0256064683
      0.023584906 0.0094339624 0.0303234495 0.0101078162 0.00808625296
      0.00808625296 0.00539083546 0.0336927213 0.0181940701 0.0107816709
      0.0276280325 0.00808625296 0.0107816709 0.0181940701 0.0289757401
      0.0175202154 0.0249326136 0.00876010768 0.0202156324 0.0242587589
      0.0363881402 0.0074123987 0.0424528308 0.00606468972 0.0128032342
      0.0148247974 0.00876010768 0.0121293794 0.0249326136 0.00673854444
      0.0181940701 0.0181940701 0.0175202154 0.0148247974 0.0154986521
      0.0134770889 0.0256064683 0.0148247974 0.0431266837 0.00606468972</_>
    <_>
      0.0543293729 0.00679117162 0.0101867579 0.00679117162 0.0322580636
      0.00679117162 0.00848896429 0.0848896429 0.00339558581
      0.0186757222 0.0118845506 0.0135823432 0.00679117162 0.00339558581
      0.0016977929 0.0254668929 0.00509337895 0.0933786109 0.00679117162
      0.00848896429 0.00509337895 0.00848896429 0.0152801359
      0.0152801359 0.0271646865 0.00509337895 0.0169779286 0.0373514444
      0.0169779286 0.0509337857 0.00848896429 0.00848896429 0.0899830237
      0.00679117162 0.0220713075 0.00509337895 0.0016977929 0.0135823432
      0.0356536508 0.0101867579 0.00679117162 0.00509337895
      0.00509337895 0.0101867579 0.0118845506 0.00339558581
      0.00509337895 0.0322580636 0.100169778 0.0101867579</_>
    <_>
      0.0602006689 0.0117056854 0.0117056854 0.00501672225 0.0384615399
      0.0100334445 0.0100334445 0.0635451525 0.0083612036 0.0167224072
      0.0083612036 0.018394649 0.00668896316 0.00334448158 0.00167224079
      0.0367892981 0.0100334445 0.0652173907 0.00668896316 0.00668896316
      0.0150501672 0.0083612036 0.0083612036 0.0133779263 0.0133779263
      0.018394649 0.0133779263 0.0568561852 0.0250836127 0.040133778
      0.018394649 0.0083612036 0.0518394634 0.0100334445 0.0284280926
      0.0100334445 0.00167224079 0.0150501672 0.0535117052 0.0117056854
      0.00668896316 0.00668896316 0.0100334445 0.0133779263
      0.00334448158 0.00334448158 0.0150501672 0.0434782617 0.0735785961
      0.00334448158</_>
    <_>
      0.0437580459 0.00643500639 0.0128700128 0.00386100402 0.0604890622
      0.0167310163 0.00643500639 0.0785070807 0.00514800521 0.0205920208
      0.0102960104 0.0128700128 0.0128700128 0.00386100402 0.00514800521
      0.0308880322 0.00772200804 0.0797940791 0.00643500639
      0.00386100402 0.0115830116 0.014157014 0.00643500639 0.0154440161
      0.014157014 0.00900900923 0.0218790229 0.0450450443 0.0180180185
      0.0128700128 0.00643500639 0.0102960104 0.0965250954 0.00386100402
      0.0167310163 0.0102960104 0.00900900923 0.014157014 0.0463320464
      0.014157014 0.00386100402 0.00643500639 0.00514800521 0.014157014
      0.0180180185 0.00643500639 0.0102960104 0.0347490348 0.0694980696
      0.00643500639</_>
    <_>
      0.0692307726 0.0076923077 0.0153846154 0.00307692308 0.0830769241
      0.00923076924 0.00615384616 0.0892307684 0.00461538462
      0.0123076923 0.00153846154 0.0246153846 0.0199999996 0.00615384616
      0.00461538462 0.0230769236 0.0215384625 0.0292307697 0.0076923077
      0.00615384616 0.0138461534 0.00615384616 0.0107692312 0.0184615385
      0.0215384625 0.0123076923 0.0169230774 0.0292307697 0.00923076924
      0.0261538457 0.00461538462 0.00923076924 0.0584615394
      0.00615384616 0.0307692308 0.00615384616 0.00153846154
      0.0107692312 0.0615384616 0.0076923077 0.0138461534 0.0123076923
      0.0153846154 0.0138461534 0.00461538462 0.00307692308 0.0123076923
      0.0461538471 0.0615384616 0.0107692312</_>
    <_>
      0.0448577702 0.0142231947 0.00984682702 0.00765864365 0.0503282286
      0.0153172873 0.0175054707 0.0568927787 0.0065645515 0.032822758
      0.00984682702 0.013129103 0.00765864365 0.00765864365
      0.00437636767 0.0273522977 0.0065645515 0.0689277872 0.00547045935
      0.00547045935 0.0153172873 0.00875273533 0.00547045935
      0.0207877457 0.0371991247 0.013129103 0.00765864365 0.0229759309
      0.019693654 0.029540481 0.013129103 0.013129103 0.0645514205
      0.00547045935 0.0339168496 0.00765864365 0.0229759309
      0.00875273533 0.0339168496 0.00437636767 0.013129103 0.0284463894
      0.0065645515 0.00765864365 0.0240700226 0.00875273533 0.0142231947
      0.0273522977 0.0623632409 0.0065645515</_>
    <_>
      0.0643642098 0.00470957626 0.0141287288 0.00627943501 0.0894819498
      0.00941915251 0.00627943501 0.0879120901 0.00470957626
      0.00941915251 0.0031397175 0.01255887 0.0172684453 0.00627943501
      0.0031397175 0.01255887 0.0141287288 0.0408163294 0.00784929376
      0.00941915251 0.00941915251 0.0109890113 0.00784929376
      0.0156985875 0.0172684453 0.00470957626 0.0156985875 0.0109890113
      0.01255887 0.0235478804 0.00941915251 0.00941915251 0.0596546307
      0.00784929376 0.0298273154 0.00156985875 0.0141287288 0.0141287288
      0.0784929395 0.0172684453 0.01255887 0.01255887 0.0031397175
      0.0141287288 0.00627943501 0.00156985875 0.018838305 0.0675039291
      0.0659340695 0.0031397175</_>
    <_>
      0.04953878 0.0215237457 0.00683293492 0.0037581143 0.0167406909
      0.0222070385 0.0293816198 0.0259651523 0.009907756 0.0427058451
      0.0105910497 0.0105910497 0.0341646746 0.0146908099 0.00170823373
      0.0160573982 0.00580799486 0.0485138372 0.0242569186 0.00239152717
      0.0365562029 0.00546634803 0.00546634803 0.00854116865
      0.0690126419 0.0259651523 0.0604714751 0.0109326961 0.0232319795
      0.0386060812 0.037581142 0.0218653921 0.0160573982 0.00478305435
      0.0211820994 0.00785787497 0.00444140797 0.00751622859
      0.0112743424 0.0136658698 0.0201571584 0.0181072783 0.0102494024
      0.0184489246 0.009907756 0.019815512 0.0184489246 0.0136658698
      0.0239152722 0.0194738656</_>
    <_>
      0.0449612401 0.00310077518 0.0108527131 0.00930232555 0.0434108526
      0.00465116277 0.0201550387 0.0837209299 0.00155038759 0.0356589146
      0.00930232555 0.0248062015 0.00930232555 0.00775193796
      0.00155038759 0.0124031007 0.00620155036 0.0775193796
      0.00775193796 0.00930232555 0.0155038759 0.0170542635 0.0186046511
      0.0155038759 0.0356589146 0.0155038759 0.0124031007 0.0372093022
      0.026356589 0.0325581394 0.00930232555 0.00465116277 0.0496124029
      0.00775193796 0.0279069766 0.00310077518 0.00465116277
      0.0170542635 0.0620155036 0.00930232555 0.00155038759
      0.00930232555 0.0108527131 0.0124031007 0.00310077518
      0.00155038759 0.00930232555 0.0279069766 0.0713178292
      0.00775193796</_>
    <_>
      0.0520334914 0.0179425832 0.0203349274 0.0107655497 0.0322966501
      0.0340909064 0.031100478 0.0334928222 0.0143540669 0.0287081338
      0.0173444971 0.014952153 0.0215310995 0.0131578939 0.0143540669
      0.00717703346 0.00657894695 0.0251196157 0.0209330134 0.0113636358
      0.0221291855 0.00717703346 0.0125598079 0.0197368413 0.0209330134
      0.0185406692 0.0245215297 0.0113636358 0.014952153 0.0203349274
      0.0370813385 0.0107655497 0.0454545431 0.00478468882 0.0257177018
      0.0173444971 0.00956937764 0.0119617218 0.0221291855 0.0113636358
      0.0185406692 0.0173444971 0.0167464111 0.0161483251 0.0131578939
      0.0119617218 0.0233253576 0.0251196157 0.0496411473 0.0119617218</_>
    <_>
      0.0658227876 0.00506329117 0.0139240511 0.00759493653 0.0696202517
      0.0164556969 0.00379746826 0.0873417705 0.0151898731 0.0113924053
      0.0151898731 0.00886075944 0.0126582282 0.0151898731 0.
      0.0126582282 0.0189873427 0.0367088616 0.0202531647 0.00379746826
      0.0101265823 0.0151898731 0.00253164559 0.00379746826
      0.00759493653 0.0101265823 0.0164556969 0.0113924053 0.0164556969
      0.0164556969 0.0113924053 0.00759493653 0.0721518993 0.00632911408
      0.0645569637 0.00253164559 0.00506329117 0.0139240511 0.0632911399
      0.00886075944 0.0189873427 0.00759493653 0.0139240511
      0.00886075944 0.00253164559 0.00632911408 0.0113924053
      0.0189873427 0.0974683538 0.00759493653</_>
    <_>
      0.0340557247 0.00619195029 0.0170278624 0.00619195029 0.0278637763
      0.0154798757 0.00773993786 0.0681114495 0.00309597515 0.0247678012
      0.0123839006 0.0154798757 0.00773993786 0.00619195029 0.
      0.0247678012 0.00773993786 0.102167182 0.00154798757 0.00464396272
      0.00619195029 0.0123839006 0.010835913 0.0247678012 0.021671826
      0.00773993786 0.0170278624 0.0371517017 0.0232198127 0.029411763
      0.00928792544 0.00928792544 0.0758513883 0.00619195029
      0.0154798757 0.0170278624 0.00928792544 0.0123839006 0.0541795641
      0.0139318882 0.00154798757 0.00309597515 0.00619195029 0.010835913
      0.00928792544 0.00464396272 0.0185758509 0.03250774 0.0959752277
      0.010835913</_>
    <_>
      0.0615819208 0.0186440684 0.0146892658 0.00847457629 0.0169491526
      0.0214689262 0.0355932228 0.0271186456 0.011864407 0.0378531069
      0.0163841806 0.0135593228 0.023163842 0.00734463288 0.00169491535
      0.023728814 0.00564971752 0.0451977402 0.00903954823 0.0067796614
      0.0288135596 0.00734463288 0.00790960435 0.0124293789 0.0372881368
      0.0186440684 0.023728814 0.023163842 0.0163841806 0.0316384174
      0.0440677963 0.0203389842 0.0418079123 0.00395480217 0.0146892658
      0.0152542377 0.0101694921 0.00903954823 0.0186440684 0.0169491526
      0.0225988701 0.0265536737 0.0124293789 0.0175141245 0.0101694921
      0.011864407 0.0327683613 0.00621468946 0.0333333351 0.0175141245</_>
    <_>
      0.0563781336 0.0159453303 0.0170842838 0.0068337135 0.0267653763
      0.0261959005 0.0392938517 0.0512528494 0.0102505703 0.027334854
      0.0187927112 0.00911161769 0.0279043298 0.00854214188
      0.00455580885 0.0187927112 0.0102505703 0.0466970392 0.0176537596
      0.00797266513 0.0296127573 0.00626423722 0.00626423722
      0.0233485196 0.0381549001 0.0199316628 0.0199316628 0.0176537596
      0.013667427 0.0222095679 0.0381549001 0.0176537596 0.0603644662
      0.00512528513 0.0119589986 0.0187927112 0.00740318932 0.0125284744
      0.0267653763 0.00968109351 0.0148063786 0.0153758544 0.00740318932
      0.0148063786 0.0130979503 0.0119589986 0.0165148079 0.00854214188
      0.0330296159 0.0113895219</_>
    <_>
      0.0530973449 0.0017699115 0.017699115 0.003539823 0.0442477874
      0.0017699115 0.003539823 0.0902654827 0.0017699115 0.021238938
      0.010619469 0.014159292 0.00530973449 0.00530973449 0.003539823
      0.0407079645 0.0123893805 0.0902654827 0.003539823 0.00707964599
      0.00884955749 0.010619469 0.010619469 0.010619469 0.017699115
      0.010619469 0.00884955749 0.0761061907 0.017699115 0.014159292
      0.00530973449 0.00884955749 0.0831858367 0.00884955749
      0.0407079645 0.00884955749 0.0017699115 0.010619469 0.0371681415
      0.014159292 0.0017699115 0.00884955749 0.00707964599 0.00707964599
      0.0017699115 0.0017699115 0.00530973449 0.024778761 0.0973451287
      0.00707964599</_>
    <_>
      0.0598368086 0.0154125113 0.0281051677 0.0126926564 0.0571169555
      0.0190389846 0.014505893 0.0634632856 0.00815956481 0.026291931
      0.014505893 0.0154125113 0.0199456029 0.00634632818 0.00543970987
      0.0380779691 0.00271985494 0.0299184043 0.0181323662 0.00997280143
      0.0135992747 0.0108794197 0.0108794197 0.0190389846 0.00997280143
      0.0072529465 0.0072529465 0.0199456029 0.0117860381 0.014505893
      0.0117860381 0.00997280143 0.064369902 0.0072529465 0.0253853127
      0.0172257479 0.00634632818 0.0154125113 0.0362647325 0.0108794197
      0.0235720761 0.014505893 0.0117860381 0.0163191296 0.00453309156
      0.00453309156 0.0163191296 0.035358116 0.0707162321 0.0072529465</_>
    <_>
      0.0384615399 0.0219780225 0.0402930416 0.00824175868 0.0329670347
      0.0173992682 0.0155677656 0.0521978028 0.00549450563 0.0137362638
      0.0283882786 0.0100732604 0.0100732604 0.00641025649 0.0146520147
      0.0357142873 0.00641025649 0.0192307699 0.0119047621 0.012820513
      0.0164835174 0.0119047621 0.0146520147 0.0329670347 0.0155677656
      0.0100732604 0.00915750954 0.0283882786 0.0109890113 0.0192307699
      0.0183150191 0.0119047621 0.0457875468 0.00641025649 0.0192307699
      0.0320512839 0.012820513 0.0173992682 0.0219780225 0.0164835174
      0.012820513 0.0274725277 0.0219780225 0.0155677656 0.00641025649
      0.00549450563 0.0274725277 0.0247252751 0.0650183186 0.0192307699</_>
    <_>
      0.0260869563 0.0130434781 0.0369565189 0.0119565213 0.0413043462
      0.0206521731 0.014130434 0.0663043484 0.00434782589 0.0119565213
      0.0315217376 0.0152173908 0.0108695645 0.00326086953 0.00869565178
      0.0293478239 0.0130434781 0.0402173884 0.00543478224 0.0152173908
      0.0097826086 0.0163043477 0.0097826086 0.0152173908 0.0304347817
      0.014130434 0.00869565178 0.0467391275 0.0195652172 0.0347826071
      0.0130434781 0.00652173907 0.0510869548 0.00652173907 0.028260868
      0.0293478239 0.00543478224 0.0173913036 0.0369565189 0.0097826086
      0.0184782594 0.00652173907 0.0195652172 0.0108695645 0.00217391294
      0.00434782589 0.0184782594 0.0152173908 0.0641304329 0.0108695645</_>
    <_>
      0.0461236499 0.0117762517 0.0235525034 0.0166830234 0.0608439632
      0.019627085 0.0127576059 0.05986261 0.0117762517 0.00883218832
      0.0245338567 0.0215897933 0.0176643766 0.00883218832 0.019627085
      0.0255152117 0.00392541708 0.0274779201 0.00981354248 0.0176643766
      0.0117762517 0.0127576059 0.0127576059 0.0225711484 0.0117762517
      0.01373896 0.00883218832 0.02060844 0.00686948001 0.00981354248
      0.0107948966 0.0117762517 0.0608439632 0.0107948966 0.026496565
      0.0353287533 0.00686948001 0.0215897933 0.0323846899 0.019627085
      0.0127576059 0.0147203142 0.019627085 0.0176643766 0.00196270854
      0.00392541708 0.0176643766 0.0274779201 0.0588812567 0.00883218832</_>
    <_>
      0.0566202104 0.0191637632 0.0287456457 0.0130662024 0.0409407653
      0.0139372824 0.0113240415 0.0766550526 0.00609756121 0.0165505223
      0.0139372824 0.0148083623 0.0252613239 0.0104529615 0.0121951224
      0.0252613239 0.0104529615 0.0348432064 0.021777004 0.0113240415
      0.0148083623 0.0156794433 0.0104529615 0.0182926822 0.0121951224
      0.0113240415 0.0113240415 0.0156794433 0.0113240415 0.0174216032
      0.0191637632 0.00522648077 0.0470383279 0.00522648077 0.0278745648
      0.0252613239 0.00609756121 0.0165505223 0.0409407653 0.0156794433
      0.0209059231 0.0148083623 0.0113240415 0.0156794433 0.
      0.0087108016 0.0148083623 0.0287456457 0.0618466921 0.0121951224</_>
    <_>
      0.0377049185 0.0131147541 0.0311475415 0.0131147541 0.0393442623
      0.0147540979 0.0147540979 0.0672131181 0.00491803279 0.00491803279
      0.0262295082 0.0114754103 0.0147540979 0.00327868853 0.0147540979
      0.0393442623 0.0131147541 0.0311475415 0.00655737706 0.0131147541
      0.0163934417 0.0245901644 0.021311475 0.0180327874 0.0147540979
      0.0131147541 0.00655737706 0.0229508206 0.00655737706 0.021311475
      0.0147540979 0.00983606558 0.0508196726 0.00819672085 0.0311475415
      0.0245901644 0.0114754103 0.0295081958 0.0491803288 0.00655737706
      0.00327868853 0.0114754103 0.0114754103 0.0114754103 0.00491803279
      0.00655737706 0.0163934417 0.0262295082 0.0819672123 0.00983606558</_>
    <_>
      0.0463645905 0.017913593 0.0189673342 0.00632244442 0.0316122212
      0.017913593 0.00948366709 0.0579557419 0.00526870368 0.0126448888
      0.0231822953 0.0168598518 0.00842992589 0.00737618515 0.0242360365
      0.0231822953 0.0105374074 0.0368809253 0.0158061106 0.0147523703
      0.0105374074 0.0168598518 0.0105374074 0.0252897777 0.0115911476
      0.0115911476 0.00842992589 0.0410958901 0.0158061106 0.0221285559
      0.0252897777 0.01369863 0.0526870377 0.00632244442 0.0368809253
      0.0200210735 0.00632244442 0.0105374074 0.0463645905 0.0115911476
      0.0158061106 0.017913593 0.0115911476 0.0158061106 0.00737618515
      0.00842992589 0.0231822953 0.0147523703 0.0642781854 0.0115911476</_>
    <_>
      0.0359788351 0.0158730168 0.0211640224 0.0116402116 0.0306878313
      0.0222222228 0.0179894175 0.0518518537 0.0052910056 0.0158730168
      0.0264550261 0.0179894175 0.0391534381 0.00634920644 0.0148148146
      0.0211640224 0.0169312172 0.0222222228 0.0137566142 0.0179894175
      0.0105820112 0.0169312172 0.0116402116 0.0169312172 0.0201058201
      0.00740740728 0.00634920644 0.0359788351 0.0201058201 0.0253968257
      0.0190476198 0.00952380989 0.0455026478 0.0052910056 0.0306878313
      0.0285714287 0.00740740728 0.0148148146 0.0402116403 0.0169312172
      0.0190476198 0.0179894175 0.0137566142 0.0158730168 0.0052910056
      0.0116402116 0.0232804231 0.00634920644 0.0624338649 0.00952380989</_>
    <_>
      0.0355160944 0.0177580472 0.0366259739 0.0177580472 0.0221975595
      0.0199778024 0.0221975595 0.0554938987 0.0088790236 0.00776914554
      0.0421753637 0.0221975595 0.0133185349 0.00554938987 0.0221975595
      0.0255271923 0.00776914554 0.0266370699 0.0122086573 0.0166481696
      0.0110987797 0.0133185349 0.0122086573 0.0210876819 0.0144284135
      0.00998890121 0.00665926747 0.0177580472 0.0144284135 0.0188679248
      0.0199778024 0.0110987797 0.0410654843 0.00665926747 0.0199778024
      0.0321864597 0.0133185349 0.0233074371 0.0299667045 0.0155382911
      0.0177580472 0.0177580472 0.0144284135 0.0177580472 0.0044395118
      0.00665926747 0.0288568269 0.0233074371 0.0610432886 0.0166481696</_>
    <_>
      0.0338208415 0.0182815362 0.0402193815 0.0182815362 0.0283363815
      0.0219378434 0.0191956125 0.0511883013 0.0100548454 0.0155393053
      0.0329067633 0.0109689217 0.0155393053 0.00731261447 0.0109689217
      0.0228519198 0.0109689217 0.0173674598 0.0201096907 0.0146252289
      0.011882998 0.011882998 0.0137111526 0.0255941506 0.0173674598
      0.0146252289 0.00457038404 0.0274223052 0.00914076809 0.0182815362
      0.0201096907 0.0109689217 0.0557586849 0.00822669081 0.0210237671
      0.0228519198 0.00639853766 0.0228519198 0.0173674598 0.011882998
      0.0191956125 0.0255941506 0.0210237671 0.0100548454 0.00365630724
      0.00731261447 0.0274223052 0.044789765 0.0575868376 0.0109689217</_>
    <_>
      0.0308641978 0.0192901231 0.0324074067 0.0131172836 0.0447530858
      0.0239197537 0.0146604944 0.0478395075 0.00617283955 0.0200617276
      0.0300925933 0.0185185187 0.0331790112 0.0108024692 0.0162037034
      0.0216049384 0.00385802472 0.0115740746 0.0200617276 0.0154320989
      0.020833334 0.0162037034 0.0146604944 0.0200617276 0.0169753097
      0.0162037034 0.00617283955 0.0300925933 0.0223765429 0.0308641978
      0.0177469142 0.0162037034 0.0324074067 0.00771604944 0.0146604944
      0.0216049384 0.00462962966 0.0200617276 0.0262345672 0.0154320989
      0.0262345672 0.0162037034 0.0192901231 0.0131172836 0.00540123461
      0.00617283955 0.0192901231 0.0347222239 0.0401234552 0.013888889</_>
    <_>
      0.0285714287 0.0187192131 0.0384236462 0.0118226605 0.0275862068
      0.0206896551 0.00788177364 0.0374384262 0.00985221751 0.0128078824
      0.0295566507 0.0128078824 0.021674877 0.00985221751 0.0118226605
      0.0236453209 0.0108374385 0.0374384262 0.0177339911 0.0157635473
      0.0187192131 0.0147783253 0.0167487692 0.019704435 0.0256157648
      0.0128078824 0.00886699557 0.0118226605 0.0246305428 0.0295566507
      0.021674877 0.0128078824 0.0453201979 0.00788177364 0.0137931034
      0.0206896551 0.0108374385 0.0137931034 0.0334975384 0.0137931034
      0.0285714287 0.0147783253 0.021674877 0.0167487692 0.00197044341
      0.0068965517 0.0236453209 0.0177339911 0.068965517 0.0167487692</_>
    <_>
      0.0369978845 0.016913319 0.0295983087 0.0158562362 0.0317124724
      0.0232558139 0.0200845655 0.0475687087 0.0084566595 0.0158562362
      0.0327695571 0.0200845655 0.0221987311 0.00634249486 0.0190274846
      0.0232558139 0.0105708241 0.0200845655 0.0116279069 0.0158562362
      0.016913319 0.0126849897 0.016913319 0.0137420716 0.0221987311
      0.00951374229 0.00951374229 0.0179704018 0.0126849897 0.0264270604
      0.0253699794 0.016913319 0.0264270604 0.00739957718 0.0137420716
      0.0243128967 0.00951374229 0.016913319 0.0295983087 0.00951374229
      0.0190274846 0.0211416483 0.0306553915 0.0211416483 0.00422832975
      0.0116279069 0.0243128967 0.033826638 0.0570824519 0.0105708241</_>
    <_>
      0.0458477512 0.0121107269 0.0320069231 0.0147058824 0.0536332205
      0.0173010379 0.0147058824 0.0717993081 0.00865051895 0.0103806229
      0.0242214538 0.0181660913 0.0164359864 0.00951557141 0.0155709349
      0.0276816618 0.00778546743 0.0363321826 0.0164359864 0.00951557141
      0.0112456754 0.0155709349 0.00519031147 0.0173010379 0.0103806229
      0.0129757794 0.00346020772 0.0207612459 0.0103806229 0.0147058824
      0.0155709349 0.00865051895 0.0769896209 0.00778546743 0.0198961943
      0.0224913508 0.00519031147 0.0242214538 0.0259515587 0.0173010379
      0.0224913508 0.0181660913 0.0164359864 0.0112456754 0.00692041544
      0.00259515573 0.0121107269 0.0259515587 0.0674740523 0.00778546743</_>
    <_>
      0.044530496 0.0106485961 0.0416263305 0.00871248823 0.0629235283
      0.0145208137 0.011616651 0.0774443373 0.00774443382 0.00968054216
      0.0212971922 0.0154888676 0.0125847049 0.00484027108 0.0183930304
      0.0396902226 0.00580832548 0.0154888676 0.0125847049 0.0135527588
      0.00871248823 0.0203291383 0.0145208137 0.0154888676 0.0251694098
      0.011616651 0.00871248823 0.0300096814 0.011616651 0.0164569225
      0.0135527588 0.00580832548 0.0735721216 0.00580832548 0.0203291383
      0.022265248 0.00677637942 0.0183930304 0.0271055177 0.011616651
      0.00871248823 0.011616651 0.0271055177 0.0125847049 0.00484027108
      0.00580832548 0.0154888676 0.0271055177 0.0629235283 0.00677637942</_>
    <_>
      0.0494590402 0.0208655335 0.0293663051 0.00927357003 0.0494590402
      0.0247295201 0.0115919625 0.0734157637 0.0146831525 0.0162287466
      0.0208655335 0.0154559501 0.013910355 0.000772797503 0.013910355
      0.0193199366 0.00540958252 0.0293663051 0.0200927351 0.0115919625
      0.013910355 0.01236476 0.00695517752 0.0278207101 0.0100463675
      0.0146831525 0.00850077253 0.0200927351 0.0115919625 0.0216383301
      0.0200927351 0.013910355 0.0510046333 0.00540958252 0.0239567235
      0.0185471401 0.00850077253 0.010819165 0.0293663051 0.0131375575
      0.0208655335 0.0231839251 0.00850077253 0.0177743435 0.00772797503
      0.00463678502 0.0285935067 0.0208655335 0.0641421899 0.0115919625</_>
    <_>
      0.0251572318 0.0113207549 0.0352201238 0.0176100619 0.0314465389
      0.0176100619 0.0176100619 0.0616352186 0.00880503096 0.0113207549
      0.0201257858 0.0213836469 0.0238993708 0.00754716992 0.0100628929
      0.0251572318 0.0163522009 0.0314465389 0.0138364779 0.0201257858
      0.0150943398 0.0163522009 0.00754716992 0.0264150947 0.0125786159
      0.00503144646 0.00754716992 0.0314465389 0.0113207549 0.0150943398
      0.0125786159 0.00880503096 0.0540880486 0.0163522009 0.0327044018
      0.0213836469 0.0125786159 0.0163522009 0.0452830195 0.0100628929
      0.0138364779 0.0150943398 0.0138364779 0.0150943398 0.00628930796
      0.00628930796 0.0176100619 0.0176100619 0.0754716992 0.0125786159</_>
    <_>
      0.0294117648 0.0211397056 0.0257352944 0.0128676472 0.0404411778
      0.0193014704 0.0128676472 0.064338237 0.0036764706 0.0147058824
      0.0367647074 0.0137867648 0.0211397056 0.00643382361 0.00827205926
      0.0294117648 0.0128676472 0.0229779407 0.0183823537 0.0174632352
      0.0183823537 0.0101102944 0.0128676472 0.0275735296 0.0147058824
      0.0174632352 0.0073529412 0.0303308833 0.011029412 0.0248161759
      0.0349264704 0.011029412 0.0431985296 0.00459558843 0.0147058824
      0.0358455889 0.00551470602 0.0174632352 0.0238970593 0.011029412
      0.0165441185 0.0202205889 0.0128676472 0.00919117685 0.0073529412
      0.00643382361 0.0202205889 0.0303308833 0.0533088222 0.0147058824</_>
    <_>
      0.0344431698 0.0264064297 0.0367393792 0.0206659008 0.0206659008
      0.0218140073 0.0137772672 0.0551090688 0.00574052799 0.0160734784
      0.022962112 0.0103329504 0.0172215849 0.0103329504 0.0103329504
      0.0344431698 0.00688863359 0.0264064297 0.0126291616 0.0126291616
      0.0183696896 0.0137772672 0.0137772672 0.022962112 0.0218140073
      0.0126291616 0.00803673919 0.0137772672 0.0137772672 0.0252583232
      0.0195177943 0.0137772672 0.0482204333 0.00688863359 0.0137772672
      0.0275545344 0.00574052799 0.0183696896 0.028702639 0.0195177943
      0.0241102166 0.0264064297 0.0149253728 0.0149253728 0.00688863359
      0.0045924224 0.0252583232 0.0195177943 0.0642939135 0.0172215849</_>
    <_>
      0.0322906151 0.019172553 0.0393541865 0.0151362261 0.0252270438
      0.01715439 0.0201816335 0.053481333 0.00807265379 0.0121089807
      0.0464177579 0.0070635723 0.0302724522 0.00504540838 0.0121089807
      0.021190716 0.0100908168 0.0232088789 0.0121089807 0.0181634706
      0.0141271446 0.00908173528 0.0110998992 0.0201816335 0.0201816335
      0.0121089807 0.00908173528 0.0252270438 0.0282542892 0.0151362261
      0.0221997984 0.00908173528 0.0413723513 0.00403632689 0.0181634706
      0.0443995968 0.00807265379 0.0201816335 0.0292633697 0.0151362261
      0.0221997984 0.0232088789 0.0141271446 0.0161453076 0.00201816345
      0.00201816345 0.0312815346 0.0242179614 0.0454086773 0.0151362261</_>
    <_>
      0.0275862068 0.0315270945 0.0236453209 0.0137931034 0.021674877
      0.0275862068 0.0147783253 0.0551724136 0.0128078824 0.00985221751
      0.0285714287 0.0147783253 0.0167487692 0.00394088682 0.0118226605
      0.0256157648 0.00788177364 0.0187192131 0.0137931034 0.0118226605
      0.0275862068 0.0157635473 0.0118226605 0.0364532024 0.0137931034
      0.0157635473 0.00788177364 0.0187192131 0.0108374385 0.0206896551
      0.0246305428 0.0108374385 0.0443349779 0.00591133023 0.0157635473
      0.0325123146 0.0137931034 0.0187192131 0.0275862068 0.0137931034
      0.021674877 0.0275862068 0.021674877 0.0256157648 0.00591133023
      0.00788177364 0.0325123146 0.00985221751 0.0472906418 0.0206896551</_>
    <_>
      0.0356521755 0.0139130438 0.042608697 0.0113043478 0.0295652188
      0.0226086956 0.0147826094 0.0556521751 0.00608695671 0.0130434781
      0.0286956523 0.0121739134 0.0356521755 0.0113043478 0.0165217388
      0.0260869563 0.00869565271 0.0173913054 0.0165217388 0.0165217388
      0.0147826094 0.00956521742 0.0173913054 0.0199999996 0.0147826094
      0.0165217388 0.00869565271 0.0234782621 0.0147826094 0.0226086956
      0.0243478268 0.00695652189 0.0408695675 0.00695652189 0.0156521741
      0.0226086956 0.0104347831 0.0243478268 0.0330434777 0.00956521742
      0.0217391308 0.0208695661 0.0130434781 0.0156521741 0.00608695671
      0.00608695671 0.0269565228 0.0295652188 0.0573913045 0.0104347831</_>
    <_>
      0.011516314 0.00383877149 0.0364683308 0.005758157 0.0902111307
      0.00959692895 0.00383877149 0.0844529718 0.00191938574
      0.00191938574 0.00767754298 0.015355086 0.011516314 0.00959692895
      0.005758157 0.0287907869 0.0249520149 0.0479846448 0.00191938574
      0. 0.00383877149 0.021113243 0.00959692895 0.00959692895 0.0134357
      0.00767754298 0.00767754298 0.0652591139 0.00383877149
      0.00767754298 0.0134357 0.00383877149 0.0902111307 0.00959692895
      0.032629557 0.017274471 0.00767754298 0.0191938579 0.046065256
      0.0134357 0.011516314 0.005758157 0.011516314 0.0134357
      0.00191938574 0. 0.015355086 0.023032628 0.11132437 0.</_>
    <_>
      0.0191780832 0.00136986305 0.0287671238 0.00684931502 0.0397260301
      0.0150684938 0.00684931502 0.0712328777 0.0424657539 0.0109589044
      0.0123287672 0.00684931502 0.01369863 0.0219178088 0.0712328777
      0.0150684938 0.00410958938 0.0397260301 0.0273972601 0.00684931502
      0.00821917877 0.0164383575 0.0123287672 0.0123287672 0.0191780832
      0.00684931502 0.00958904158 0.00821917877 0.0246575344
      0.0054794522 0.0219178088 0.0054794522 0.0780821964 0.0123287672
      0.0356164388 0.00821917877 0.0054794522 0.0150684938 0.0410958901
      0.00958904158 0.0246575344 0.00684931502 0.0123287672 0.0150684938
      0.0027397261 0.0054794522 0.0150684938 0.0109589044 0.0808219165
      0.00821917877</_>
    <_>
      0.0179640725 0.00718562864 0.0215568859 0.00718562864 0.0514970087
      0.0131736528 0.010778443 0.0514970087 0.0443113782 0.00598802418
      0.00838323403 0.010778443 0.0251497012 0.0167664681 0.0634730533
      0.0143712573 0.0131736528 0.0263473056 0.0287425146 0.0119760484
      0.010778443 0.0131736528 0.00598802418 0.0131736528 0.0131736528
      0.010778443 0.0167664681 0.0263473056 0.0119760484 0.0131736528
      0.0287425146 0.0119760484 0.038323354 0.0119760484 0.0479041934
      0.00838323403 0.00838323403 0.0179640725 0.0419161692 0.0143712573
      0.0227544922 0.0119760484 0.0143712573 0.0143712573 0.00119760481
      0.0143712573 0.00598802418 0.0275449101 0.0634730533 0.00838323403</_>
    <_>
      0.0260869563 0.00993788801 0.014906832 0.00621118024 0.0459627323
      0.0124223605 0.00621118024 0.0795031041 0.0459627323 0.00993788801
      0.00993788801 0.001242236 0.014906832 0.0186335407 0.0795031041
      0.014906832 0.00496894401 0.0335403718 0.0223602485 0.003726708
      0.00745341601 0.014906832 0.00869565178 0.0223602485 0.019875776
      0.00869565178 0.0124223605 0.0124223605 0.0124223605 0.00745341601
      0.0223602485 0.00993788801 0.0596273281 0.003726708 0.0459627323
      0.0124223605 0.00496894401 0.0136645958 0.029813664 0.0124223605
      0.019875776 0.00745341601 0.00745341601 0.0136645958 0.003726708
      0.00993788801 0.0111801242 0.0161490683 0.0956521705 0.0124223605</_>
    <_>
      0.0202839747 0.00811359007 0.0172413792 0.00709939143 0.0496957377
      0.0223123729 0.00912778918 0.0517241359 0.0314401612 0.0162271801
      0.0172413792 0.00608519278 0.0273833666 0.0141987829 0.0720081106
      0.0101419874 0.0101419874 0.0182555784 0.0212981738 0.0111561865
      0.00709939143 0.0111561865 0.00507099368 0.015212981 0.0121703856
      0.00608519278 0.0121703856 0.0415821485 0.0172413792 0.0141987829
      0.0385395512 0.0101419874 0.045638945 0.0101419874 0.059837725
      0.0162271801 0.00608519278 0.0202839747 0.0395537503 0.00811359007
      0.0172413792 0.0111561865 0.00912778918 0.0131845837 0.00304259639
      0.00811359007 0.015212981 0.0141987829 0.0537525341 0.0172413792</_>
    <_>
      0.036144577 0.00344234076 0.0309810676 0.00344234076 0.0671256483
      0.0137693631 0.00688468153 0.0722891539 0.00172117038
      0.00344234076 0.0103270225 0.0137693631 0.0154905338 0.00688468153
      0.00172117038 0.0223752148 0.0120481923 0.036144577 0.00860585179
      0.00516351126 0.00860585179 0.020654045 0.0120481923 0.0137693631
      0.0120481923 0.0120481923 0.0154905338 0.0722891539 0.0154905338
      0.0223752148 0.0189328734 0.0120481923 0.0499139428 0.00860585179
      0.0223752148 0.0103270225 0.0120481923 0.020654045 0.0516351126
      0.020654045 0.0120481923 0.00516351126 0.0103270225 0.0189328734
      0.00344234076 0. 0.00516351126 0.0292598959 0.0998278856
      0.0120481923</_>
    <_>
      0.0157480314 0. 0.0413385816 0.00787401572 0.0649606287
      0.0118110236 0.00787401572 0.0964566916 0.00393700786
      0.00590551179 0.00984251965 0.00984251965 0.00393700786
      0.00787401572 0.00590551179 0.0177165344 0.0137795275 0.0413385816
      0.00787401572 0.00590551179 0.00590551179 0.0216535442
      0.00984251965 0.00787401572 0.0157480314 0.00393700786
      0.00984251965 0.0472440943 0.00984251965 0.0236220472
      0.00393700786 0.00590551179 0.0984251946 0.00787401572
      0.0472440943 0.0118110236 0.00590551179 0.0177165344 0.0492125973
      0.00787401572 0.00196850393 0.00393700786 0.0236220472
      0.00787401572 0. 0.00196850393 0.00787401572 0.0216535442
      0.133858263 0.00590551179</_>
    <_>
      0.0335429758 0.00838574395 0.0230607949 0.00838574395 0.0587002076
      0.0188679248 0.00838574395 0.121593289 0. 0.00209643599
      0.00419287197 0.00419287197 0.00628930796 0.0104821799 0.
      0.0209643599 0.00838574395 0.0607966445 0. 0.00209643599
      0.00628930796 0.0167714879 0.0188679248 0.0104821799 0.0104821799
      0.00838574395 0.0188679248 0.0125786159 0.00209643599 0.0125786159
      0.0104821799 0.00628930796 0.115303978 0.00628930796 0.0209643599
      0.00628930796 0.00628930796 0.0188679248 0.0649895146 0.0125786159
      0.0104821799 0.00628930796 0.0125786159 0.0209643599 0.00209643599
      0. 0.00419287197 0.0146750519 0.136268333 0.00628930796</_>
    <_>
      0.0177619904 0.00710479589 0.0390763767 0.00888099521 0.0639431626
      0.0124333929 0.00888099521 0.103019543 0.00355239795 0.00888099521
      0.00532859704 0.0106571941 0.00710479589 0.0106571941
      0.00532859704 0.0230905861 0.0142095918 0.0515097715 0.00888099521
      0.00532859704 0.00355239795 0.0195381884 0.0106571941 0.0284191836
      0.00710479589 0.00532859704 0.00888099521 0.0621669628
      0.00710479589 0.0195381884 0.0106571941 0.00532859704 0.0834813491
      0.00355239795 0.0337477811 0.00888099521 0.00532859704
      0.0177619904 0.0408525765 0.00888099521 0.00710479589
      0.00355239795 0.0106571941 0.00888099521 0.00532859704
      0.00177619897 0.0159857906 0.0213143881 0.113676734 0.00532859704</_>
    <_>
      0.0281501357 0.0160857923 0.014745309 0.00670241285 0.0201072395
      0.0268096514 0.00938337855 0.0817694366 0.040214479 0.0107238609
      0.00938337855 0.00268096523 0.0120643433 0.0227882043 0.0764075071
      0.00670241285 0.00938337855 0.0415549614 0.029490618 0.00402144808
      0.00536193047 0.014745309 0.0107238609 0.0107238609 0.0187667571
      0.00536193047 0.0120643433 0.00536193047 0.0160857923 0.0134048257
      0.0174262747 0.00804289617 0.0817694366 0.00804289617 0.0469168909
      0.00804289617 0.00268096523 0.00938337855 0.0388739966
      0.0107238609 0.0268096514 0.00804289617 0.00670241285 0.0120643433
      0.00402144808 0.00536193047 0.0120643433 0.0134048257 0.0871313736
      0.0107238609</_>
    <_>
      0.0265848674 0.00817995891 0.0245398767 0.00817995891 0.0633946806
      0.00613496918 0.0102249486 0.130879343 0. 0.00817995891
      0.00204498973 0.0143149281 0.00613496918 0.00613496918
      0.00408997945 0.0102249486 0.0143149281 0.0449897721 0.0122699384
      0.00204498973 0.00817995891 0.0245398767 0.0143149281 0.0143149281
      0.00408997945 0.00613496918 0.0122699384 0.0245398767
      0.00817995891 0.0122699384 0.0122699384 0.00817995891 0.102249488
      0.00408997945 0.0265848674 0.00613496918 0.0163599178 0.0184049085
      0.06134969 0.0143149281 0.00817995891 0.00408997945 0.0102249486
      0.0163599178 0.00613496918 0. 0.00408997945 0.0224948861
      0.12269938 0.00408997945</_>
    <_>
      0.0249480251 0.0124740126 0.0187110193 0.00623700628 0.0519750528
      0.00207900209 0.00831600837 0.145530149 0.00207900209
      0.00207900209 0.00415800419 0.0103950109 0.00415800419
      0.0124740126 0. 0.0207900219 0.0187110193 0.0623700619
      0.00207900209 0.00207900209 0.00623700628 0.0187110193
      0.0145530142 0.0103950109 0.00415800419 0.00623700628
      0.00831600837 0.0249480251 0.00207900209 0.0187110193 0.0124740126
      0.00831600837 0.103950106 0.00831600837 0.0228690226 0.00207900209
      0.0103950109 0.0145530142 0.0644490644 0.0124740126 0.00415800419
      0.00831600837 0.00831600837 0.0166320167 0.00415800419
      0.00207900209 0.00207900209 0.00623700628 0.158004165
      0.00415800419</_>
    <_>
      0.0342205316 0.00380228134 0.0399239548 0.00760456268 0.0513307974
      0.00570342224 0.00950570311 0.133079842 0. 0.00380228134
      0.00570342224 0.00570342224 0.00950570311 0.00380228134 0.
      0.0152091254 0.00760456268 0.0437262356 0.00190114067 0.0133079849
      0.00570342224 0.0247148294 0.0152091254 0.0190114062 0.0114068445
      0.00760456268 0.0152091254 0.0247148294 0.00570342224 0.0209125467
      0.0133079849 0.00380228134 0.112167299 0.00380228134 0.0209125467
      0.00760456268 0.0114068445 0.0152091254 0.0513307974 0.0114068445
      0.00760456268 0.00570342224 0.0133079849 0.00950570311
      0.00190114067 0.00190114067 0.00380228134 0.0209125467 0.134980991
      0.00380228134</_>
    <_>
      0.0273279361 0.0141700413 0.0172064789 0.00708502065 0.0465587042
      0.0182186235 0.00910931174 0.0566801652 0.0293522272 0.0161943324
      0.0141700413 0.0080971662 0.0263157897 0.0182186235 0.0546558723
      0.0151821868 0.0131578948 0.0263157897 0.0263157897 0.0101214573
      0.0080971662 0.0101214573 0.0080971662 0.0131578948 0.0182186235
      0.00708502065 0.0111336038 0.0374493934 0.0192307699 0.0121457493
      0.0334008113 0.00910931174 0.0425101221 0.00910931174 0.0404858291
      0.0111336038 0.00607287465 0.021255061 0.0404858291 0.0121457493
      0.0232793521 0.00708502065 0.0101214573 0.00910931174
      0.00202429155 0.0040485831 0.0141700413 0.0253036451 0.0607287474
      0.0192307699</_>
    <_>
      0.0153256701 0.00638569612 0.0166028086 0.00893997401 0.0280970614
      0.017879948 0.00893997401 0.077905491 0.0613026805 0.0127713922
      0.0102171134 0.00127713918 0.0242656451 0.0229885057 0.0766283497
      0.00766283507 0.00766283507 0.035759896 0.0217113663 0.00510855671
      0.00893997401 0.0127713922 0.00766283507 0.0102171134 0.017879948
      0.0102171134 0.00766283507 0.0140485307 0.0204342268 0.017879948
      0.0217113663 0.00638569612 0.060025543 0.00638569612 0.0472541489
      0.00893997401 0.00766283507 0.0114942528 0.026819922 0.0114942528
      0.0242656451 0.0114942528 0.00638569612 0.0102171134 0.00127713918
      0.00766283507 0.0166028086 0.0166028086 0.0932311565 0.00893997401</_>
    <_>
      0.0244215932 0.00899742916 0.0167095121 0.00642673532 0.0462724939
      0.0257069413 0.0102827763 0.0835475549 0.0437017977 0.0128534706
      0.00257069408 0.00899742916 0.0128534706 0.0269922875 0.0655526966
      0.0141388178 0.003856041 0.0334190242 0.0372750647 0.0141388178
      0.00514138816 0.0102827763 0.00642673532 0.0115681235 0.0141388178
      0.00771208201 0.00514138816 0.00899742916 0.0167095121
      0.0141388178 0.030848328 0.00771208201 0.0488431863 0.00642673532
      0.0449871458 0.00514138816 0.00642673532 0.0141388178 0.0385604128
      0.0128534706 0.0244215932 0.00771208201 0.0115681235 0.0115681235
      0.00514138816 0.015424164 0.00514138816 0.00642673532 0.0886889473
      0.00899742916</_>
    <_>
      0.0246609114 0.00863131881 0.0332922302 0.0110974107 0.036991369
      0.0197287295 0.0172626376 0.0493218228 0.0073982738 0.0160295926
      0.0295930952 0.0258939583 0.0197287295 0.00616522785 0.0073982738
      0.038224414 0.00863131881 0.0246609114 0.0160295926 0.00616522785
      0.0172626376 0.0172626376 0.00616522785 0.0258939583 0.0147965476
      0.00616522785 0.0073982738 0.0628853217 0.0110974107 0.0209617745
      0.00986436475 0.0209617745 0.0468557328 0.00616522785 0.0172626376
      0.0209617745 0.0110974107 0.0209617745 0.0283600483 0.00986436475
      0.0184956845 0.0147965476 0.0172626376 0.00986436475 0.0110974107
      0.00616522785 0.036991369 0.0246609114 0.0579531416 0.0135635016</_>
    <_>
      0.0162810627 0.0325621255 0.0454155952 0.00599828642 0.0137103684
      0.0282776356 0.0197086539 0.0694087371 0.00771208201 0.00942587852
      0.0257069413 0.00599828642 0.0197086539 0.0042844899 0.015424164
      0.015424164 0.00257069408 0.0085689798 0.018851757 0.0085689798
      0.015424164 0.0179948583 0.0111396741 0.0342759192 0.0205655526
      0.0137103684 0.0042844899 0.00942587852 0.0111396741 0.018851757
      0.0282776356 0.0111396741 0.0625535548 0.00514138816 0.00771208201
      0.0265638381 0.041988004 0.0197086539 0.0102827763 0.0042844899
      0.0179948583 0.0239931457 0.0205655526 0.0085689798 0.0402742065
      0.0111396741 0.0454155952 0.00942587852 0.0659811497 0.0085689798</_>
    <_>
      0.0277492311 0.0215827338 0.0246659815 0.00924974307 0.0267214812
      0.0318602286 0.0123329908 0.0657759532 0.00411099708 0.0184994861
      0.0298047289 0.0143884895 0.0215827338 0.00822199415 0.0113052418
      0.0205549859 0.0143884895 0.0174717382 0.00924974307 0.0143884895
      0.00822199415 0.00822199415 0.00924974307 0.0267214812
      0.0184994861 0.0102774929 0.00719424477 0.0236382335 0.0184994861
      0.0215827338 0.0308324788 0.00822199415 0.0554984622 0.00719424477
      0.019527236 0.0349434763 0.0164439883 0.0133607406 0.0267214812
      0.0123329908 0.0256937314 0.0215827338 0.0123329908 0.0143884895
      0.0123329908 0.00924974307 0.0277492311 0.0184994861 0.0647482052
      0.0123329908</_>
    <_>
      0.0225303285 0.0181975737 0.0268630851 0.0190641247 0.0433275551
      0.0259965342 0.0112651642 0.0589254759 0.00953206234 0.0112651642
      0.0277296361 0.0207972266 0.013864818 0.00779895997 0.0207972266
      0.0251299832 0.00953206234 0.0155979199 0.00953206234 0.0155979199
      0.0233968813 0.0155979199 0.0112651642 0.0242634322 0.00779895997
      0.013864818 0.00606585806 0.029462738 0.00693240901 0.0121317161
      0.0164644718 0.00866551138 0.0615251288 0.00693240901 0.0207972266
      0.029462738 0.0181975737 0.0164644718 0.0303292889 0.013864818
      0.0129982671 0.0216637775 0.0207972266 0.014731369 0.0173310228
      0.0103986133 0.0207972266 0.0242634322 0.0563258231 0.013864818</_>
    <_>
      0.0327570513 0.0227479525 0.0291173793 0.0100090988 0.045495905
      0.0282074604 0.0254777074 0.0545950867 0.0109190177 0.00818926282
      0.0318471342 0.0181983616 0.0181983616 0.00363967242 0.0100090988
      0.0291173793 0.00818926282 0.0181983616 0.00454959041 0.0145586897
      0.0227479525 0.0163785256 0.0191082805 0.0254777074 0.00727934483
      0.0127388537 0.00545950886 0.0272975434 0.00818926282 0.0100090988
      0.0236578714 0.00727934483 0.0600545965 0.0100090988 0.0127388537
      0.0236578714 0.0118289357 0.0209281165 0.0263876244 0.0109190177
      0.0154686077 0.0254777074 0.0218380354 0.0118289357 0.00818926282
      0.00727934483 0.0300272983 0.0336669683 0.0527752489 0.00727934483</_>
    <_>
      0.0278063864 0.0236869212 0.0391349159 0.0113285277 0.0257466547
      0.0257466547 0.0164778586 0.0484037101 0.00720906304 0.024716787
      0.0319258496 0.0102986619 0.019567458 0.00720906304 0.0123583935
      0.0329557173 0.00720906304 0.019567458 0.019567458 0.0102986619
      0.019567458 0.0133882603 0.0123583935 0.0236869212 0.0133882603
      0.0113285277 0.0102986619 0.0236869212 0.0175077245 0.0236869212
      0.019567458 0.0133882603 0.033985585 0.00617919676 0.0216271896
      0.033985585 0.0164778586 0.00926879514 0.0205973238 0.0113285277
      0.0164778586 0.0257466547 0.0123583935 0.0185375903 0.0164778586
      0.0113285277 0.024716787 0.0185375903 0.0628218353 0.0164778586</_>
    <_>
      0.0443645082 0.0287769791 0.0401678681 0.00899280608 0.0317745805
      0.019784173 0.0191846527 0.0287769791 0.00899280608 0.0203836933
      0.0257793777 0.0233812947 0.0227817744 0.00539568346 0.0107913669
      0.0323741026 0.0101918466 0.023980815 0.0125899287 0.00899280608
      0.0137889693 0.00959232636 0.0113908872 0.0401678681 0.0257793777
      0.00719424477 0.0179856122 0.026378898 0.0155875301 0.0209832136
      0.0173860919 0.0119904075 0.0407673866 0.00359712238 0.0185851324
      0.0185851324 0.0143884895 0.013189449 0.0185851324 0.0113908872
      0.0191846527 0.0347721837 0.0191846527 0.00959232636 0.0203836933
      0.00539568346 0.0347721837 0.0359712243 0.0317745805 0.0041966429</_>
    <_>
      0.036557503 0.0266565122 0.0388423465 0.0106626051 0.0373191163
      0.0266565122 0.015993908 0.0639756322 0.00456968788 0.0243716687
      0.0175171364 0.0213252101 0.020563595 0.00609291717 0.0106626051
      0.0274181273 0.0114242192 0.0198019817 0.00913937576 0.00761614647
      0.0182787515 0.0152322929 0.0144706778 0.0258948989 0.0129474495
      0.0114242192 0.00609291717 0.0327494293 0.0121858343 0.0198019817
      0.0114242192 0.00990099087 0.0677837059 0.00380807323 0.0152322929
      0.0258948989 0.0144706778 0.0190403666 0.0190403666 0.00761614647
      0.0121858343 0.0190403666 0.0236100536 0.00913937576 0.00609291717
      0.00761614647 0.0251332838 0.0350342728 0.0533130243 0.00837776065</_>
    <_>
      0.0239561945 0.0308008231 0.0342231356 0.0109514035 0.0266940463
      0.0266940463 0.024640657 0.0383299142 0.0136892544 0.0157426428
      0.023271732 0.0157426428 0.0273785088 0.00547570176 0.00821355265
      0.0287474338 0.0130047919 0.0253251214 0.0177960303 0.00958247855
      0.0273785088 0.0109514035 0.0157426428 0.0294318963 0.0177960303
      0.0143737169 0.00821355265 0.036276523 0.0143737169 0.0157426428
      0.024640657 0.0109514035 0.0369609855 0.00410677632 0.0191649571
      0.0219028071 0.0219028071 0.0136892544 0.0150581803 0.00889801513
      0.0171115678 0.0321697481 0.011635866 0.010266941 0.0212183446
      0.0136892544 0.0355920605 0.0287474338 0.0301163606 0.011635866</_>
    <_>
      0.0206847358 0.0221112706 0.0463623405 0.00998573471 0.0370898731
      0.0213980041 0.0114122685 0.0542082749 0.00499286735 0.0185449366
      0.0249643382 0.0235378034 0.0149786025 0.00570613425 0.00998573471
      0.0164051354 0.00855920091 0.0149786025 0.0114122685 0.0121255349
      0.0149786025 0.0128388023 0.0142653361 0.0292439386 0.0363766067
      0.00927246828 0.00356633402 0.0235378034 0.0306704715 0.0171184018
      0.0213980041 0.00855920091 0.0699001476 0.000713266782
      0.00927246828 0.0185449366 0.0271041375 0.015691869 0.0292439386
      0.00784593448 0.0142653361 0.0149786025 0.0242510699 0.00713266805
      0.0213980041 0.0121255349 0.0370898731 0.0142653361 0.0599144101
      0.00499286735</_>
    <_>
      0.036676649 0.0239520967 0.0299401209 0.00374251511 0.0523952097
      0.0314371288 0.0209580846 0.0344311371 0.0067365272 0.0134730544
      0.0269461088 0.0232035927 0.0202095807 0.00598802418 0.0127245514
      0.0224550907 0.0134730544 0.0209580846 0.00898203626 0.00823353324
      0.0179640725 0.0194610786 0.00823353324 0.0314371288 0.0134730544
      0.0104790423 0.0149700604 0.0291916169 0.0134730544 0.0202095807
      0.0224550907 0.00973053928 0.0523952097 0.00523952115 0.0112275453
      0.0217065886 0.0164670665 0.0179640725 0.0224550907 0.00898203626
      0.0172155686 0.0261976048 0.0209580846 0.0119760484 0.0187125765
      0.00748503022 0.0254491027 0.0344311371 0.0449101813 0.00823353324</_>
    <_>
      0.0308924466 0.0114416471 0.0400457643 0.0137299765 0.0205949657
      0.0228832942 0.0137299765 0.0629290566 0.00800915249 0.00686498825
      0.0354691073 0.0137299765 0.0148741417 0.00686498825 0.0137299765
      0.037757434 0.0125858113 0.0171624701 0.0114416471 0.0125858113
      0.016018305 0.016018305 0.0183066353 0.0263157878 0.0171624701
      0.0102974828 0.00800915249 0.0263157878 0.0114416471 0.0194508005
      0.0308924466 0.0125858113 0.0469107516 0.00915331766 0.0194508005
      0.0251716226 0.0114416471 0.0263157878 0.033180777 0.00915331766
      0.0114416471 0.016018305 0.021739129 0.0171624701 0.0102974828
      0.0125858113 0.0194508005 0.0251716226 0.0583523996 0.00686498825</_>
    <_>
      0.0401606411 0.028781794 0.0334672034 0.0140562244 0.036144577
      0.0281124488 0.015394913 0.0455153957 0.00736278435 0.0187416337
      0.0294511374 0.013386881 0.0194109771 0.00736278435 0.0100401603
      0.0227576979 0.0140562244 0.0341365449 0.0147255687 0.0120481923
      0.0194109771 0.0100401603 0.0113788489 0.0348058902 0.0180722885
      0.0194109771 0.0100401603 0.0180722885 0.0120481923 0.0254350733
      0.0207496658 0.0113788489 0.0502008013 0.00334672024 0.0140562244
      0.0214190092 0.0187416337 0.0120481923 0.0160642564 0.0113788489
      0.0247657299 0.0261044167 0.013386881 0.0180722885 0.0127175367
      0.0053547523 0.0321285129 0.0274431054 0.026773762 0.0100401603</_>
    <_>
      0.0268279854 0.0305102579 0.0310362969 0.00946870074 0.0241977908
      0.0263019465 0.0215675961 0.0315623358 0.0126249343 0.0163072068
      0.0241977908 0.00999473967 0.0210415572 0.0110468175 0.00789058395
      0.0273540244 0.00736454502 0.0247238297 0.0157811679 0.0110468175
      0.0220936351 0.00841662288 0.0126249343 0.0378748029 0.0220936351
      0.0199894793 0.00841662288 0.0294581801 0.0136770122 0.0189374015
      0.0320883766 0.00894266181 0.0368227251 0.00473435037 0.0110468175
      0.0231457129 0.0215675961 0.01472909 0.0126249343 0.0110468175
      0.0278800633 0.0378748029 0.0184113625 0.0131509732 0.0263019465
      0.0120988954 0.0315623358 0.0194634404 0.0373487622 0.01472909</_>
    <_>
      0.0339302532 0.0207351558 0.019792648 0.0122525916 0.0461828448
      0.0282752123 0.015080113 0.0518378876 0.00282752118 0.0113100847
      0.0245051831 0.0122525916 0.0235626772 0.00471253507 0.00848256331
      0.0292177182 0.0131950993 0.019792648 0.0122525916 0.0160226207
      0.00942507014 0.0131950993 0.0113100847 0.0311027337 0.019792648
      0.0113100847 0.0131950993 0.0329877473 0.00565504236 0.0207351558
      0.0131950993 0.00659754965 0.0603204519 0.00848256331 0.0301602259
      0.0311027337 0.0131950993 0.0188501403 0.0273327045 0.00848256331
      0.0169651266 0.0188501403 0.019792648 0.0160226207 0.0113100847
      0.00942507014 0.0263901986 0.0301602259 0.0518378876 0.00659754965</_>
    <_>
      0.030010717 0.0214362256 0.0407288298 0.0107181128 0.0289389044
      0.0203644149 0.00964630209 0.0632368699 0.00428724522 0.0117899245
      0.0342979617 0.0139335468 0.0214362256 0.00428724522 0.0139335468
      0.0278670937 0.0150053585 0.0225080382 0.0171489809 0.00964630209
      0.0192926042 0.0117899245 0.0160771701 0.0225080382 0.0171489809
      0.0150053585 0.0128617361 0.0310825277 0.0225080382 0.0235798489
      0.0192926042 0.0128617361 0.0375133939 0.00643086806 0.0225080382
      0.0375133939 0.0139335468 0.0192926042 0.0364415832 0.00964630209
      0.00964630209 0.0150053585 0.0182207916 0.0107181128 0.0107181128
      0.00750267925 0.0257234722 0.0192926042 0.0418006405 0.0128617361</_>
    <_>
      0.0394218117 0.0256241783 0.0381077528 0.00459921127 0.0381077528
      0.0210249666 0.0223390274 0.0479632057 0.00985545292 0.0144546647
      0.0321944803 0.0111695137 0.0197109058 0.00525624165 0.00919842254
      0.0256241783 0.00788436271 0.028252298 0.015111695 0.00985545292
      0.0229960568 0.00919842254 0.0111695137 0.028252298 0.0164257549
      0.0124835735 0.00919842254 0.0269382391 0.0170827862 0.015111695
      0.0229960568 0.0105124833 0.0492772646 0.00394218136 0.0137976343
      0.0243101176 0.0164257549 0.015111695 0.0164257549 0.0118265441
      0.0190538764 0.0328515097 0.0203679372 0.0131406039 0.0197109058
      0.00591327203 0.028252298 0.0289093293 0.0433639921 0.00919842254</_>
    <_>
      0.0279429238 0.0255648028 0.040428061 0.009512485 0.0202140305
      0.0225921515 0.0154577885 0.0505350754 0.0112960758 0.0196195003
      0.0303210467 0.00772889424 0.0285374559 0.00416171225 0.0124851363
      0.0225921515 0.0107015455 0.0315101072 0.0154577885 0.00891795475
      0.0196195003 0.0124851363 0.00772889424 0.035671819 0.0184304398
      0.011890606 0.011890606 0.0148632582 0.0184304398 0.0231866818
      0.0243757423 0.009512485 0.0445897728 0.00594530301 0.0124851363
      0.0267538633 0.016646849 0.0154577885 0.016646849 0.0101070153
      0.0249702726 0.0344827585 0.0202140305 0.0112960758 0.0178359095
      0.009512485 0.035671819 0.0225921515 0.0416171215 0.009512485</_>
    <_>
      0.0320641287 0.0160320643 0.0340681374 0.0140280565 0.0250500999
      0.0210420843 0.0160320643 0.0561122261 0.0120240487 0.01002004
      0.0260521043 0.0140280565 0.0210420843 0.01002004 0.0110220443
      0.0300601199 0.00701402826 0.0240480974 0.0130260522 0.0130260522
      0.0190380756 0.00801603217 0.01002004 0.0210420843 0.0180360731
      0.00901803654 0.00701402826 0.0310621243 0.0170340687 0.0240480974
      0.0260521043 0.00601202436 0.0501001999 0.00901803654 0.0230460931
      0.0380761512 0.0140280565 0.0130260522 0.0270541087 0.01002004
