<?xml version="1.0"?>
<opencv_storage>
<opencv_ml_svm>
  <format>3</format>
  <svmType>C_SVC</svmType>
  <kernel>
    <type>RBF</type>
    <gamma>0.50625000000000009</gamma></kernel>
  <C>312.5</C>
  <term_criteria><epsilon>1.1920928955078125e-07</epsilon>
    <iterations>1000</iterations></term_criteria>
  <var_count>300</var_count>
  <class_count>13</class_count>
  <class_labels type_id="opencv-matrix">
    <rows>13</rows>
    <cols>1</cols>
    <dt>i</dt>
    <data>
      0 1 2 3 4 5 6 7 8 9 10 11 12</data></class_labels>
  <sv_total>257</sv_total>
  <support_vectors>
    <_>
      0. 0.0114068445 0.00380228134 0.00190114067 0. 0.00760456268
      0.00570342224 0.0266159698 0. 0. 0. 0.00190114067 0.00760456268
      0.00380228134 0.00380228134 0.00570342224 0.0285171103
      0.00190114067 0.0114068445 0.00190114067 0. 0.00190114067
      0.00380228134 0.00950570311 0.00190114067 0.00190114067 0.
      0.00380228134 0.0152091254 0.00190114067 0. 0.00380228134
      0.00760456268 0. 0.00380228134 0. 0.00380228134 0. 0.
      0.00380228134 0. 0.00190114067 0.00570342224 0.00190114067 0. 0.
      0.00380228134 0.00190114067 0. 0.00380228134 0.00190114067 0.
      0.00190114067 0.00190114067 0.00380228134 0.00570342224 0.
      0.00380228134 0.00190114067 0. 0.00190114067 0.00190114067
      0.00190114067 0.00380228134 0.00190114067 0.00190114067
      0.00380228134 0.00190114067 0. 0.00380228134 0.0190114062
      0.00380228134 0.00190114067 0. 0.00190114067 0. 0.00570342224
      0.00380228134 0.00190114067 0.0152091254 0.00190114067 0.
      0.00570342224 0.00380228134 0.00190114067 0.00190114067 0. 0.
      0.00380228134 0.00190114067 0. 0.0380228125 0.00190114067
      0.00190114067 0.00190114067 0.00380228134 0.00570342224
      0.00570342224 0. 0.00570342224 0.00380228134 0.00190114067
      0.00190114067 0.00190114067 0.00190114067 0. 0.00950570311 0. 0.
      0.00190114067 0. 0. 0. 0. 0.00190114067 0. 0.00380228134
      0.0114068445 0.00190114067 0. 0. 0. 0. 0. 0.00760456268
      0.00190114067 0.00190114067 0.00190114067 0.00190114067
      0.00190114067 0.00380228134 0.00190114067 0. 0.00380228134
      0.00570342224 0.0171102658 0.00190114067 0.00380228134
      0.0171102658 0. 0.00380228134 0.00570342224 0.00570342224
      0.00190114067 0. 0. 0.00190114067 0. 0.00760456268 0.00190114067
      0.00190114067 0.0114068445 0. 0.00190114067 0.00190114067 0. 0. 0.
      0.00190114067 0.00190114067 0.00380228134 0.00190114067
      0.0247148294 0.00380228134 0.00380228134 0.00190114067 0.
      0.0114068445 0.00190114067 0. 0. 0.00190114067 0.0114068445 0.
      0.00380228134 0.00190114067 0.00190114067 0.00190114067
      0.00190114067 0. 0. 0. 0. 0.00380228134 0. 0.00190114067
      0.00190114067 0.00190114067 0.00950570311 0. 0.0114068445
      0.00190114067 0.0190114062 0.00190114067 0. 0.00190114067
      0.00760456268 0. 0. 0.00380228134 0. 0. 0. 0.00380228134 0.
      0.00380228134 0. 0.00190114067 0.0361216739 0.00190114067 0. 0.
      0.00380228134 0.0152091254 0.00380228134 0. 0. 0.00760456268 0.
      0.00190114067 0. 0. 0.00570342224 0.00380228134 0.00380228134
      0.00380228134 0.00380228134 0. 0. 0.00190114067 0.00190114067
      0.0133079849 0. 0.00380228134 0. 0.0114068445 0.00380228134 0. 0.
      0.00380228134 0.00190114067 0.00190114067 0.00190114067
      0.00190114067 0.00190114067 0.00190114067 0.00570342224 0. 0. 0.
      0. 0.00380228134 0.00190114067 0.00380228134 0.00190114067 0.
      0.0133079849 0. 0.00190114067 0.00190114067 0.00190114067
      0.00570342224 0.00760456268 0.00190114067 0.00380228134 0. 0.
      0.00380228134 0.00190114067 0. 0.00190114067 0.00570342224 0.
      0.00190114067 0.00570342224 0.00190114067 0.00570342224
      0.00190114067 0.00760456268 0.00380228134 0.00190114067 0.
      0.00190114067 0.00190114067 0.00570342224 0.00760456268
      0.00570342224 0.0152091254 0.00380228134 0.00190114067
      0.00190114067 0. 0. 0. 0.00190114067 0.00190114067 0.
      0.00190114067 0.00190114067 0.</_>
    <_>
      0.00120772945 0.027777778 0.00483091781 0.0024154589 0.0024154589
      0.00362318847 0. 0.0265700482 0. 0. 0.00120772945 0.00483091781
      0.00120772945 0.00362318847 0.00120772945 0. 0.0326086953
      0.00120772945 0.020531401 0.00120772945 0.00120772945
      0.00120772945 0.0181159414 0.00845410582 0. 0. 0. 0.00603864715
      0.020531401 0. 0. 0.00483091781 0.00362318847 0. 0.00362318847 0.
      0.00483091781 0. 0.00120772945 0.00483091781 0. 0.00120772945
      0.00724637695 0.00483091781 0. 0.00120772945 0. 0.00120772945 0.
      0.00120772945 0.00362318847 0.00362318847 0. 0.00362318847
      0.00120772945 0.0024154589 0.00120772945 0.0157004837
      0.00120772945 0. 0.00120772945 0.00120772945 0.0181159414
      0.00362318847 0.00120772945 0.00120772945 0.00120772945
      0.00724637695 0.0024154589 0.00120772945 0.0241545886
      0.00120772945 0.0024154589 0. 0. 0. 0.00362318847 0.0024154589
      0.0024154589 0.0108695654 0.00362318847 0. 0.0024154589 0.
      0.0024154589 0.0024154589 0.00120772945 0. 0. 0.00120772945 0.
      0.0108695654 0. 0.00120772945 0.0024154589 0.00120772945
      0.00483091781 0. 0.0024154589 0.0024154589 0.00120772945
      0.0024154589 0. 0.00120772945 0. 0. 0.0169082116 0.00362318847
      0.00120772945 0.00120772945 0. 0.00120772945 0.00120772945
      0.00120772945 0. 0.00120772945 0.00362318847 0.00120772945 0. 0.
      0.0024154589 0.0024154589 0. 0. 0.00724637695 0. 0.00120772945
      0.00120772945 0.00120772945 0.00120772945 0.00845410582
      0.00362318847 0. 0.00120772945 0.00603864715 0.00724637695 0. 0.
      0.0241545886 0.00120772945 0.00362318847 0.0169082116 0.0024154589
      0. 0. 0. 0.00120772945 0. 0. 0.00120772945 0.00120772945
      0.00966183562 0.0024154589 0. 0. 0. 0.00120772945 0.00120772945
      0.00120772945 0. 0.00120772945 0.0024154589 0.0157004837
      0.0024154589 0.0193236712 0.00120772945 0.0132850241 0.0326086953
      0.00120772945 0.00120772945 0. 0. 0.00845410582 0.00120772945
      0.00120772945 0. 0.0024154589 0.0024154589 0.0024154589
      0.00120772945 0.00120772945 0. 0.00120772945 0.00120772945 0. 0.
      0.0024154589 0.0024154589 0.00483091781 0.00724637695
      0.00724637695 0.0024154589 0.0301932357 0.00120772945 0.
      0.00120772945 0.00483091781 0. 0. 0.00483091781 0. 0. 0.
      0.0024154589 0.00362318847 0.00483091781 0. 0.00120772945
      0.0301932357 0. 0.00120772945 0.00120772945 0.0024154589
      0.0157004837 0.00120772945 0. 0.00120772945 0.0169082116
      0.00120772945 0.00120772945 0. 0. 0.0024154589 0.00603864715 0.
      0.0024154589 0.00483091781 0.00362318847 0. 0.00362318847
      0.0024154589 0.0217391308 0.0024154589 0.00845410582 0.00120772945
      0.00603864715 0.00120772945 0.00120772945 0.00362318847
      0.00603864715 0. 0.00120772945 0.00120772945 0.00120772945
      0.00362318847 0. 0.0024154589 0. 0. 0.00120772945 0. 0.0024154589
      0.00362318847 0.00724637695 0.00120772945 0.00120772945
      0.00966183562 0. 0.0024154589 0. 0.0024154589 0.00120772945
      0.00603864715 0.00120772945 0.00120772945 0.00120772945 0.
      0.0024154589 0. 0.00120772945 0.00120772945 0.0024154589
      0.0024154589 0.00120772945 0.00483091781 0. 0.00603864715
      0.00483091781 0.00120772945 0.00120772945 0. 0. 0.0024154589 0.
      0.0024154589 0.00845410582 0.00603864715 0.00120772945
      0.00120772945 0.00120772945 0.0024154589 0.00120772945 0. 0.
      0.00483091781 0. 0.00120772945 0.0024154589 0.00120772945
      0.00120772945</_>
    <_>
      0. 0.0329670347 0.00183150184 0. 0. 0.00366300368 0.012820513
      0.012820513 0.00183150184 0. 0. 0.00183150184 0.00183150184
      0.00732600736 0. 0.00183150184 0.00915750954 0. 0.00549450563
      0.00366300368 0.00366300368 0.00183150184 0.00732600736
      0.00549450563 0. 0.00183150184 0.00183150184 0.012820513
      0.012820513 0.00183150184 0.00183150184 0.00549450563 0.
      0.00183150184 0.00366300368 0.00366300368 0. 0.00183150184
      0.00366300368 0.00549450563 0. 0.00183150184 0.00915750954
      0.00183150184 0. 0.00183150184 0. 0.00366300368 0. 0. 0. 0. 0.
      0.00366300368 0. 0.00549450563 0. 0.00183150184 0. 0.
      0.00732600736 0.00183150184 0.012820513 0.0164835174 0.
      0.00183150184 0.00366300368 0. 0.00549450563 0. 0.0293040294
      0.00366300368 0.00366300368 0. 0. 0. 0.00366300368 0.00549450563
      0.00183150184 0.00915750954 0. 0.00366300368 0. 0.00732600736
      0.00183150184 0.00183150184 0.00183150184 0. 0. 0.00183150184
      0.00183150184 0.0201465208 0.00183150184 0. 0.00366300368
      0.00183150184 0.00366300368 0. 0. 0.00183150184 0. 0.
      0.00183150184 0.00183150184 0.00366300368 0. 0.00915750954
      0.00366300368 0.00549450563 0. 0. 0.00183150184 0.00183150184
      0.00183150184 0.00183150184 0.00366300368 0.00366300368
      0.00183150184 0. 0. 0.00183150184 0. 0. 0. 0.00549450563 0.
      0.00183150184 0.00183150184 0. 0.00183150184 0.0109890113
      0.00183150184 0. 0.00366300368 0.00549450563 0.0109890113 0. 0.
      0.012820513 0. 0.00732600736 0.012820513 0.00549450563
      0.00183150184 0. 0.00183150184 0.00183150184 0. 0.00366300368
      0.00183150184 0.00183150184 0.00366300368 0.00183150184 0. 0. 0.
      0.00183150184 0. 0.00366300368 0.00366300368 0.0146520147
      0.00549450563 0.0201465208 0.00183150184 0.00366300368
      0.00183150184 0.00183150184 0.00366300368 0. 0.00549450563 0.
      0.00183150184 0.00366300368 0. 0.00183150184 0.00183150184 0.
      0.00183150184 0.00732600736 0. 0. 0.00183150184 0. 0.
      0.00549450563 0. 0.00549450563 0.00183150184 0.00549450563 0.
      0.00366300368 0.00366300368 0.00183150184 0.00549450563 0.
      0.00183150184 0.00366300368 0. 0. 0. 0. 0.00183150184 0.
      0.00366300368 0. 0.00915750954 0.00183150184 0.00183150184
      0.025641026 0.00183150184 0. 0.00183150184 0.00549450563
      0.0402930416 0.00915750954 0.00366300368 0.00183150184 0.012820513
      0. 0.00183150184 0. 0. 0.00549450563 0.00366300368 0.00183150184
      0.00732600736 0.00366300368 0.00366300368 0. 0. 0.00183150184
      0.0164835174 0. 0. 0. 0.0274725277 0.00549450563 0.00183150184
      0.00183150184 0.00732600736 0.012820513 0.00366300368 0.
      0.00732600736 0.00183150184 0.00366300368 0.00549450563 0. 0. 0.
      0. 0.00183150184 0.00549450563 0.00183150184 0.00183150184
      0.00366300368 0.00366300368 0.00183150184 0.00366300368
      0.00183150184 0.00366300368 0. 0.00366300368 0.00549450563 0. 0.
      0. 0.00183150184 0.00183150184 0. 0.00366300368 0.00183150184 0.
      0.00183150184 0.00183150184 0. 0. 0.00183150184 0.00183150184
      0.00549450563 0.00183150184 0. 0.00183150184 0. 0.00183150184
      0.025641026 0. 0.00732600736 0.00183150184 0.00183150184
      0.00366300368 0. 0. 0. 0.00549450563 0.00183150184 0.00549450563
      0.00183150184 0. 0.</_>
    <_>
      0.00362318847 0.0144927539 0.00543478271 0. 0. 0.00362318847
      0.0108695654 0.0235507246 0.00181159424 0. 0. 0.00181159424
      0.00724637695 0.00724637695 0. 0.00543478271 0.0144927539 0.
      0.00724637695 0.00724637695 0.00362318847 0. 0.00724637695
      0.00543478271 0. 0. 0.00181159424 0.00543478271 0.00905797072 0.
      0. 0.00724637695 0.00905797072 0. 0.00724637695 0.00181159424 0.
      0.00362318847 0.00724637695 0.00362318847 0. 0.00362318847
      0.00905797072 0.00181159424 0. 0. 0. 0.00362318847 0.
      0.00181159424 0.00181159424 0.00724637695 0. 0.00724637695 0.
      0.00362318847 0. 0.00362318847 0.00724637695 0. 0. 0.00181159424
      0.0181159414 0.0108695654 0. 0.00362318847 0.00362318847
      0.00181159424 0. 0. 0.0163043477 0.00362318847 0.00362318847 0. 0.
      0. 0.00362318847 0.00362318847 0.00181159424 0.00905797072
      0.00181159424 0.00181159424 0.00362318847 0.00724637695 0. 0.
      0.00181159424 0.00181159424 0.00181159424 0.00181159424 0.
      0.00905797072 0.00362318847 0.00362318847 0.00543478271
      0.00181159424 0. 0. 0.00181159424 0. 0.00362318847 0.00181159424
      0.00181159424 0.00181159424 0.00181159424 0. 0.0108695654
      0.00543478271 0.00181159424 0.00362318847 0. 0.00181159424
      0.00724637695 0.00181159424 0. 0.00181159424 0.00181159424
      0.00362318847 0. 0. 0.00181159424 0. 0.00362318847 0.
      0.00543478271 0. 0.00181159424 0. 0. 0.00181159424 0.0108695654
      0.00362318847 0. 0.00905797072 0.00362318847 0.00724637695
      0.00181159424 0.00362318847 0.0126811601 0.00181159424 0.
      0.00724637695 0.00181159424 0.00181159424 0. 0.00362318847
      0.00181159424 0. 0.00543478271 0.00181159424 0.00181159424
      0.00181159424 0.00181159424 0.00181159424 0.00362318847 0. 0. 0.
      0.00181159424 0.00362318847 0.0163043477 0. 0.00905797072
      0.00181159424 0.00362318847 0. 0. 0.0253623202 0.00181159424
      0.00543478271 0. 0.00181159424 0.00543478271 0. 0.00362318847 0.
      0.00181159424 0.00362318847 0. 0.00543478271 0.00362318847 0. 0.
      0. 0.00362318847 0.00181159424 0.00181159424 0.00181159424
      0.00181159424 0. 0.00362318847 0.00362318847 0.0108695654
      0.00362318847 0. 0. 0.00181159424 0. 0. 0.00181159424 0.
      0.00181159424 0. 0.00181159424 0.00181159424 0.0126811601
      0.00181159424 0.00181159424 0.0289855078 0.00362318847
      0.00181159424 0.00181159424 0.00181159424 0.027173914
      0.00362318847 0. 0.00362318847 0.00543478271 0. 0.00181159424 0.
      0. 0. 0.00362318847 0.00181159424 0.00362318847 0.00181159424
      0.00543478271 0. 0.00543478271 0.00181159424 0.00724637695 0.
      0.00362318847 0.00181159424 0.0289855078 0.00362318847
      0.00181159424 0. 0. 0.00543478271 0.00181159424 0. 0.00181159424
      0.00362318847 0.00181159424 0.00362318847 0.00181159424
      0.00181159424 0.00181159424 0. 0. 0.00181159424 0.00181159424
      0.00181159424 0.00543478271 0.0126811601 0. 0. 0. 0.00362318847
      0.00362318847 0.00543478271 0.0217391308 0. 0.00181159424 0.
      0.00181159424 0.00181159424 0. 0.00181159424 0. 0. 0.00181159424
      0.00543478271 0. 0.00181159424 0.00543478271 0.00362318847
      0.00181159424 0.00181159424 0.00181159424 0.00181159424 0.
      0.00181159424 0.0362318829 0. 0.00905797072 0.00181159424 0.
      0.00362318847 0.00181159424 0.00362318847 0.00181159424 0. 0.
      0.00181159424 0. 0.00181159424 0.</_>
    <_>
      0. 0.0100603616 0.00201207236 0.00201207236 0.00201207236
      0.00402414473 0.00402414473 0.0281690136 0. 0. 0. 0.00201207236
      0.00201207236 0.00603621732 0.00201207236 0.00201207236
      0.0342052318 0.00201207236 0.0221327953 0.00603621732
      0.00201207236 0.00201207236 0.00804828946 0. 0. 0.00402414473 0.
      0.00603621732 0.0241448693 0. 0. 0.00402414473 0.0140845068 0.
      0.0120724346 0.00201207236 0.00201207236 0. 0.00402414473
      0.00201207236 0. 0. 0.00603621732 0.00603621732 0. 0.00201207236
      0. 0.00201207236 0. 0.00201207236 0.0100603616 0. 0. 0. 0.
      0.00201207236 0.00201207236 0.0100603616 0. 0. 0. 0. 0.00804828946
      0.0160965789 0.00402414473 0. 0. 0.00201207236 0.00201207236
      0.00201207236 0.0201207232 0. 0.00201207236 0. 0. 0. 0.00402414473
      0.00603621732 0.00201207236 0.00804828946 0.00201207236
      0.00603621732 0.00201207236 0. 0.00201207236 0. 0. 0.
      0.00201207236 0.00201207236 0. 0.018108651 0.00804828946
      0.00201207236 0.00201207236 0. 0.00603621732 0.00402414473
      0.00201207236 0. 0. 0.00201207236 0.00201207236 0. 0. 0.
      0.00804828946 0.00201207236 0.00201207236 0.00402414473 0. 0.
      0.00201207236 0.00201207236 0. 0. 0.00804828946 0.00402414473 0.
      0. 0. 0. 0.00603621732 0. 0.00201207236 0. 0.00201207236
      0.00201207236 0. 0.00201207236 0.00201207236 0. 0.00201207236
      0.00402414473 0.0100603616 0.0140845068 0. 0. 0.0221327953 0. 0.
      0.0160965789 0. 0.00201207236 0. 0. 0.00201207236 0. 0.00402414473
      0.00201207236 0.00201207236 0.0241448693 0.0100603616
      0.00201207236 0. 0. 0.00201207236 0. 0.00201207236 0.00201207236
      0.00402414473 0.00201207236 0.0140845068 0.00201207236
      0.0140845068 0.00201207236 0. 0.0321931578 0. 0.00201207236 0.
      0.00201207236 0.00804828946 0. 0. 0. 0. 0.00201207236
      0.00201207236 0. 0. 0.00402414473 0. 0.00603621732 0.00201207236
      0. 0.00402414473 0.00201207236 0.00603621732 0. 0.00603621732
      0.00201207236 0.0221327953 0. 0. 0.00201207236 0.00201207236 0. 0.
      0. 0. 0.00402414473 0. 0.00201207236 0.00201207236 0.00804828946
      0. 0. 0.0342052318 0. 0. 0.00201207236 0. 0.0281690136
      0.0100603616 0. 0. 0.0100603616 0. 0. 0.00201207236 0.
      0.00402414473 0.00402414473 0. 0.00201207236 0. 0.00201207236 0.
      0.00603621732 0. 0.00804828946 0. 0.00201207236 0. 0.0241448693 0.
      0. 0. 0.00201207236 0.00603621732 0.00402414473 0.00201207236
      0.00201207236 0. 0. 0.00402414473 0. 0. 0. 0.00402414473
      0.00201207236 0.00804828946 0.00201207236 0.00201207236
      0.00201207236 0.00804828946 0.00201207236 0.00201207236 0.
      0.00201207236 0. 0. 0. 0.00201207236 0. 0.00402414473 0.
      0.00201207236 0. 0.00201207236 0.00402414473 0.00603621732
      0.00201207236 0.00603621732 0.00201207236 0. 0.00201207236
      0.00201207236 0.00603621732 0. 0. 0.00201207236 0. 0.00603621732
      0.00201207236 0. 0.00201207236 0.00402414473 0. 0.00402414473 0.
      0.00201207236 0. 0.00201207236 0.00201207236 0.00603621732 0.
      0.00201207236 0.00201207236</_>
    <_>
      0. 0.0227882043 0.00402144808 0.00536193047 0. 0.00268096523
      0.00804289617 0.0321715847 0.00134048262 0. 0. 0.00402144808
      0.00268096523 0.00134048262 0. 0.00134048262 0.0455764085 0.
      0.00938337855 0. 0.00134048262 0.00134048262 0.014745309
      0.00134048262 0.00134048262 0. 0. 0.00268096523 0.0201072395
      0.00134048262 0. 0.00670241285 0.0134048257 0. 0.00938337855
      0.00268096523 0.00536193047 0. 0.00134048262 0.00268096523 0.
      0.00268096523 0.0201072395 0.00402144808 0. 0.00134048262
      0.00134048262 0.00134048262 0. 0. 0. 0.00134048262 0.00134048262
      0.00134048262 0. 0.00134048262 0.00268096523 0.00804289617 0. 0.
      0. 0.00134048262 0.00670241285 0. 0. 0.00134048262 0.00268096523
      0.00268096523 0.00402144808 0.00134048262 0.0160857923 0.
      0.00268096523 0. 0.00134048262 0. 0.00536193047 0. 0.00268096523
      0.0120643433 0.00402144808 0.00268096523 0.00402144808 0.
      0.00268096523 0. 0. 0. 0.00134048262 0.00134048262 0.
      0.00804289617 0. 0.00268096523 0.00268096523 0.00134048262
      0.00268096523 0.00402144808 0.00134048262 0.00268096523
      0.00134048262 0.00268096523 0.00134048262 0.00134048262 0. 0.
      0.0107238609 0.00134048262 0.00134048262 0.00938337855 0. 0.
      0.00268096523 0.00134048262 0.00134048262 0.00134048262
      0.00268096523 0.00402144808 0. 0.00134048262 0. 0.00134048262 0.
      0. 0.00536193047 0.00134048262 0.00134048262 0.00402144808 0.
      0.00268096523 0.00134048262 0.00536193047 0.00268096523 0.
      0.00268096523 0.0107238609 0.00402144808 0.00134048262
      0.0174262747 0. 0.00134048262 0.00804289617 0.00134048262 0. 0.
      0.00134048262 0. 0. 0.00536193047 0.00134048262 0.00134048262
      0.0268096514 0.00670241285 0.00134048262 0. 0. 0. 0.00134048262
      0.00134048262 0.00268096523 0.00402144808 0.00134048262
      0.014745309 0.00134048262 0.00670241285 0.00134048262
      0.00536193047 0.0241286866 0.00134048262 0.00134048262
      0.00134048262 0.00134048262 0.0268096514 0.00134048262
      0.00134048262 0.00402144808 0.00134048262 0.00268096523
      0.00268096523 0. 0. 0.00402144808 0. 0.00134048262 0.00134048262
      0. 0.00134048262 0.00134048262 0. 0.00536193047 0.00938337855
      0.00134048262 0.0268096514 0.00402144808 0. 0.00268096523
      0.00938337855 0. 0. 0.00268096523 0. 0. 0. 0.00268096523
      0.00134048262 0.00536193047 0.00134048262 0.00268096523
      0.040214479 0. 0. 0.00134048262 0.00268096523 0.025469169
      0.00134048262 0. 0.00134048262 0.0174262747 0.00268096523 0.
      0.00134048262 0. 0. 0.00536193047 0. 0.00134048262 0.
      0.00268096523 0. 0.00134048262 0.00134048262 0.00938337855
      0.00134048262 0.00670241285 0.00268096523 0.00938337855
      0.00134048262 0.00134048262 0.00134048262 0.00268096523
      0.00134048262 0.00134048262 0.00268096523 0.00536193047
      0.00134048262 0. 0.00268096523 0.00134048262 0. 0.00134048262 0.
      0.00268096523 0.00268096523 0.00402144808 0.00134048262
      0.00402144808 0.00536193047 0.00268096523 0.00670241285
      0.00134048262 0.00134048262 0.00134048262 0.00402144808
      0.00134048262 0.00268096523 0. 0. 0.00268096523 0.00268096523 0.
      0.00134048262 0. 0.00402144808 0.00134048262 0.00804289617
      0.00134048262 0.00268096523 0.00134048262 0.00134048262
      0.00402144808 0.00134048262 0. 0.00134048262 0. 0.00134048262
      0.00804289617 0. 0.00402144808 0.00402144808 0.00134048262
      0.00134048262 0.00268096523 0.00134048262 0. 0.00134048262
      0.00268096523 0.00134048262 0.00268096523 0.00134048262
      0.00134048262</_>
    <_>
      0. 0.0125448033 0.00716845877 0.00179211469 0. 0.00716845877
      0.0107526882 0.017921146 0. 0. 0. 0.00537634408 0.00716845877
      0.00716845877 0. 0.00358422939 0.03763441 0.00179211469
      0.0107526882 0.00179211469 0.00537634408 0.00179211469
      0.0107526882 0.00179211469 0. 0. 0. 0.00358422939 0.00716845877
      0.00179211469 0. 0.00358422939 0.0107526882 0. 0.0107526882 0.
      0.00358422939 0.00179211469 0.00179211469 0.00358422939 0.
      0.00179211469 0.00716845877 0.0125448033 0. 0.00179211469
      0.00179211469 0.00537634408 0. 0. 0.00537634408 0.008960573 0.
      0.00716845877 0. 0.00358422939 0. 0.00179211469 0. 0.
      0.00179211469 0.00179211469 0.008960573 0.00358422939
      0.00358422939 0.00179211469 0.00537634408 0.00179211469 0. 0.
      0.0161290318 0.00179211469 0. 0. 0. 0. 0.00358422939 0.00716845877
      0. 0.00537634408 0.00358422939 0.00537634408 0.00537634408
      0.00358422939 0. 0.00179211469 0. 0.00179211469 0.00358422939
      0.00179211469 0.00179211469 0.008960573 0.00179211469
      0.00358422939 0.00179211469 0.00179211469 0.00537634408 0.
      0.00358422939 0. 0. 0.00179211469 0. 0.00358422939 0. 0.
      0.00716845877 0. 0. 0.00358422939 0. 0. 0.00358422939
      0.00179211469 0.00179211469 0.00179211469 0.00358422939
      0.00358422939 0. 0.00358422939 0. 0. 0. 0. 0.00537634408
      0.00179211469 0.00179211469 0.00179211469 0. 0.00179211469 0.
      0.00537634408 0.00537634408 0.00358422939 0.00537634408
      0.0161290318 0.00179211469 0.00179211469 0.0107526882 0. 0.
      0.0125448033 0.00537634408 0.00179211469 0. 0. 0.00179211469 0.
      0.00716845877 0.00537634408 0.00179211469 0.0232974906
      0.00179211469 0.00179211469 0. 0. 0.00179211469 0. 0.00179211469
      0. 0.00537634408 0.00358422939 0.0286738351 0.00179211469
      0.00716845877 0.00179211469 0.00179211469 0.0304659493 0.
      0.00358422939 0. 0.00358422939 0.00537634408 0. 0. 0.
      0.00179211469 0.00179211469 0.00358422939 0.00179211469
      0.00179211469 0. 0. 0.00179211469 0. 0.00179211469 0.
      0.00358422939 0.00537634408 0.00537634408 0.00537634408
      0.00179211469 0.0268817209 0. 0. 0.00358422939 0.017921146 0. 0.
      0.00179211469 0. 0. 0. 0.00179211469 0. 0.00716845877
      0.00179211469 0. 0.0519713275 0. 0. 0. 0.00179211469 0.0107526882
      0.00179211469 0. 0. 0.0107526882 0.00179211469 0. 0. 0.
      0.00179211469 0.00716845877 0.00358422939 0.00537634408
      0.00358422939 0.00358422939 0. 0.00179211469 0. 0.0107526882 0.
      0.00716845877 0.00179211469 0.0161290318 0.00179211469
      0.00179211469 0.00179211469 0.00179211469 0.00179211469
      0.00179211469 0. 0.00716845877 0.00179211469 0.00179211469
      0.00358422939 0. 0. 0. 0. 0.00358422939 0.00358422939
      0.00358422939 0.00179211469 0.00358422939 0.00537634408
      0.00179211469 0.00179211469 0. 0.00179211469 0. 0.00179211469 0.
      0.00358422939 0. 0. 0.00358422939 0.00179211469 0. 0.00179211469
      0.00716845877 0. 0.00179211469 0.00358422939 0. 0.00179211469
      0.00179211469 0.00179211469 0.00358422939 0.00179211469 0.
      0.00179211469 0.00179211469 0.00179211469 0.00179211469
      0.00179211469 0.008960573 0.00358422939 0.00179211469
      0.00179211469 0. 0.00358422939 0. 0.00179211469 0.00537634408
      0.00179211469 0.00179211469 0. 0.</_>
    <_>
      0. 0.0318949334 0.00187617261 0. 0. 0.00562851783 0.00938086305
      0.0262664165 0. 0. 0.00375234522 0. 0.00938086305 0.00750469044
      0.00187617261 0.00750469044 0.0187617261 0. 0.00562851783
      0.0150093809 0. 0.00187617261 0.00562851783 0.00562851783 0. 0. 0.
      0.00187617261 0.0112570357 0. 0. 0.00375234522 0.00938086305 0.
      0.00562851783 0.00187617261 0.00375234522 0.00187617261 0.
      0.00938086305 0. 0.00375234522 0.0150093809 0.00187617261 0. 0. 0.
      0.00187617261 0. 0.00187617261 0.00375234522 0.00750469044
      0.00187617261 0.00187617261 0. 0.00187617261 0. 0.00187617261
      0.00187617261 0. 0.00375234522 0. 0.00375234522 0.00750469044 0.
      0.00375234522 0.00187617261 0.00187617261 0.00187617261
      0.00375234522 0.0150093809 0.00375234522 0.00187617261 0. 0. 0.
      0.00750469044 0.00187617261 0.00375234522 0.0112570357 0.
      0.00187617261 0.00187617261 0.0131332083 0. 0. 0.00187617261
      0.00187617261 0.00375234522 0.00187617261 0. 0.024390243 0.
      0.00375234522 0.00375234522 0. 0.00375234522 0.00187617261 0.
      0.00375234522 0. 0.00375234522 0.00187617261 0.00375234522
      0.00187617261 0. 0.0131332083 0.00187617261 0.00187617261
      0.00375234522 0. 0. 0.00375234522 0.00187617261 0.00375234522
      0.00187617261 0.00750469044 0.00187617261 0. 0. 0.00187617261 0.
      0. 0. 0.00562851783 0.00187617261 0.00187617261 0.00375234522 0.
      0.00187617261 0.00938086305 0.00187617261 0. 0.00375234522
      0.00375234522 0.0131332083 0. 0.00375234522 0.0168855526 0.
      0.00187617261 0.0187617261 0.00187617261 0.00187617261 0.
      0.00187617261 0.00187617261 0. 0. 0.00187617261 0.00187617261
      0.0112570357 0.00375234522 0.00187617261 0.00187617261 0.
      0.00187617261 0. 0.00187617261 0.00187617261 0.00938086305
      0.00187617261 0.0187617261 0. 0.00562851783 0.00187617261 0.
      0.0168855526 0. 0.00187617261 0.00187617261 0.00187617261
      0.0112570357 0.00187617261 0.00187617261 0. 0.00187617261
      0.00375234522 0.00187617261 0.00187617261 0. 0.00938086305 0.
      0.00187617261 0.00187617261 0.00187617261 0.00375234522
      0.00375234522 0.00562851783 0.00187617261 0.00938086305
      0.00187617261 0.0187617261 0. 0. 0. 0.00187617261 0. 0.
      0.00187617261 0. 0. 0. 0. 0. 0.00938086305 0. 0. 0.0225140713 0.
      0. 0.00187617261 0. 0.0206378996 0.00562851783 0. 0.00375234522
      0.00562851783 0. 0.00187617261 0.00187617261 0. 0. 0.00562851783
      0.00562851783 0.00562851783 0.00187617261 0. 0. 0. 0.00187617261
      0.00750469044 0. 0. 0.00187617261 0.0225140713 0.00187617261
      0.00187617261 0.00187617261 0.00375234522 0.00562851783
      0.00562851783 0.00375234522 0.00562851783 0.00187617261
      0.00375234522 0.00375234522 0.00187617261 0.00187617261
      0.00750469044 0. 0.00187617261 0.00562851783 0.00375234522
      0.00187617261 0. 0.00938086305 0. 0. 0. 0.00187617261
      0.00187617261 0.00562851783 0.00187617261 0. 0.00187617261 0.
      0.00375234522 0.00187617261 0.00187617261 0.00375234522 0.
      0.00187617261 0.00187617261 0.00562851783 0.00187617261
      0.00187617261 0.00375234522 0.00187617261 0.00187617261
      0.00375234522 0. 0.00187617261 0. 0. 0.0112570357 0. 0.00375234522
      0.00187617261 0.00375234522 0.00187617261 0. 0.00187617261 0.
      0.00187617261 0.00187617261 0. 0. 0.00375234522 0.</_>
    <_>
      0. 0.0331325307 0.00150602404 0.0075301202 0.00150602404
      0.00602409616 0.00301204808 0.0331325307 0. 0.00150602404
      0.00150602404 0.00301204808 0.00150602404 0.00301204808 0.
      0.00602409616 0.0331325307 0.00301204808 0.00903614424
      0.00150602404 0.00150602404 0. 0.0180722885 0.00451807212 0.
      0.00150602404 0.00301204808 0.00451807212 0.0180722885 0.
      0.00150602404 0.00150602404 0.00903614424 0.00150602404
      0.00602409616 0. 0.00150602404 0.00301204808 0.00301204808
      0.00451807212 0.00150602404 0.00150602404 0.00301204808
      0.00903614424 0.00150602404 0.00150602404 0. 0.00150602404
      0.00150602404 0.00301204808 0. 0.00150602404 0.00150602404
      0.00301204808 0. 0.00150602404 0. 0.0105421683 0. 0.00150602404
      0.00451807212 0.00301204808 0.0105421683 0. 0.00150602404 0.
      0.00150602404 0.00903614424 0. 0.00150602404 0.0180722885 0.
      0.00150602404 0. 0. 0. 0.00301204808 0.00150602404 0.00602409616
      0.0120481923 0.00150602404 0.00451807212 0.00150602404
      0.00150602404 0.00150602404 0.00150602404 0.00150602404
      0.00301204808 0.00602409616 0.00150602404 0. 0.00451807212 0.
      0.00301204808 0.00150602404 0.00150602404 0.00602409616
      0.00301204808 0.00301204808 0. 0.00301204808 0.00150602404
      0.00150602404 0.00150602404 0.00150602404 0. 0.0105421683
      0.00301204808 0.00150602404 0.0105421683 0. 0. 0.00150602404 0.
      0.00150602404 0.00451807212 0.00451807212 0.00150602404 0. 0. 0.
      0.00150602404 0.00301204808 0.00150602404 0.00301204808
      0.00150602404 0.00150602404 0. 0.00150602404 0.00301204808
      0.00150602404 0.00150602404 0.00451807212 0.0075301202
      0.00602409616 0.0120481923 0.00150602404 0.00301204808
      0.0135542164 0.00150602404 0. 0.0150602404 0. 0.00150602404
      0.00150602404 0.00150602404 0.00150602404 0. 0.0075301202 0.
      0.00150602404 0.00903614424 0.00602409616 0. 0.00150602404 0. 0.
      0. 0.00150602404 0.00150602404 0.00150602404 0. 0.0150602404
      0.00301204808 0.0120481923 0.00150602404 0.0075301202 0.0135542164
      0. 0.00150602404 0. 0.00150602404 0.00301204808 0. 0.00150602404
      0. 0.00150602404 0.00451807212 0.00301204808 0. 0.00150602404
      0.00150602404 0.00150602404 0.00150602404 0.00301204808 0. 0. 0.
      0. 0.0075301202 0.0075301202 0. 0.0180722885 0.00150602404 0.
      0.00150602404 0.00451807212 0. 0. 0.00301204808 0. 0. 0.
      0.00451807212 0. 0.0075301202 0. 0.00301204808 0.0466867462
      0.00301204808 0. 0.00150602404 0. 0.0331325307 0. 0.00451807212
      0.00301204808 0.0105421683 0. 0.00301204808 0. 0. 0.00150602404
      0.00602409616 0.00150602404 0.00150602404 0.00301204808
      0.00150602404 0. 0.00301204808 0. 0.0135542164 0. 0.00903614424
      0.00451807212 0.0075301202 0.00301204808 0.00301204808 0.
      0.00451807212 0.00150602404 0.00150602404 0.00150602404
      0.00301204808 0.00301204808 0. 0.00150602404 0.00150602404
      0.0075301202 0.00150602404 0. 0.00301204808 0.00150602404
      0.0075301202 0. 0. 0.0195783116 0. 0.00150602404 0.00150602404 0.
      0.00150602404 0.00451807212 0.00451807212 0.00150602404 0.
      0.00150602404 0. 0. 0.00150602404 0. 0.00451807212 0.00301204808
      0.00150602404 0. 0. 0.00301204808 0.00301204808 0. 0.00451807212
      0.00150602404 0.00150602404 0.00150602404 0.00301204808
      0.00150602404 0.00602409616 0. 0.00150602404 0.00301204808 0.
      0.00451807212 0.00150602404 0. 0.00150602404 0.00301204808
      0.00150602404 0.00150602404 0. 0.00301204808 0.00150602404</_>
    <_>
      0.00118623965 0.0367734283 0.00593119813 0.00118623965 0.
      0.00830367766 0.00593119813 0.0260972716 0. 0. 0.0023724793
      0.00711743813 0.0023724793 0.0047449586 0. 0.00593119813
      0.0296559911 0.0023724793 0.0166073553 0.00118623965 0.00118623965
      0.0023724793 0.00830367766 0.0106761567 0. 0. 0. 0.00355871907
      0.0154211158 0.00118623965 0. 0.0047449586 0.00355871907
      0.0023724793 0.00593119813 0.00118623965 0.00711743813 0. 0.
      0.00593119813 0. 0.0047449586 0.0166073553 0.00118623965 0.
      0.00118623965 0.00118623965 0.00118623965 0. 0.00118623965 0.
      0.00355871907 0. 0.00118623965 0. 0.00355871907 0. 0.0130486358
      0.00118623965 0. 0.00118623965 0. 0.0142348763 0.00118623965
      0.00118623965 0.00118623965 0.0023724793 0.0023724793
      0.00118623965 0.0023724793 0.0154211158 0.00118623965 0.0023724793
      0. 0.00118623965 0. 0.00118623965 0.00118623965 0.0023724793
      0.0094899172 0. 0.0023724793 0.0023724793 0.0023724793
      0.0023724793 0. 0.00118623965 0.00118623965 0.0023724793
      0.00118623965 0. 0.00711743813 0.00355871907 0.00118623965
      0.00118623965 0.0023724793 0.00355871907 0.00118623965
      0.00118623965 0.0023724793 0.00118623965 0. 0.00118623965
      0.00355871907 0.0023724793 0. 0.0118623963 0.00118623965
      0.0023724793 0.0047449586 0. 0.00355871907 0.0023724793
      0.00118623965 0. 0.00118623965 0.00593119813 0. 0. 0. 0. 0.
      0.00118623965 0. 0.00355871907 0.0023724793 0.00118623965
      0.00118623965 0. 0.00118623965 0.0118623963 0. 0.00118623965
      0.00355871907 0.00593119813 0.0106761567 0.0023724793
      0.00355871907 0.024911033 0.00118623965 0. 0.0225385539
      0.0023724793 0. 0. 0. 0.00118623965 0.00118623965 0.00355871907
      0.0023724793 0.00118623965 0.0094899172 0. 0.00118623965
      0.00355871907 0. 0. 0. 0.00118623965 0. 0.00118623965
      0.00355871907 0.0106761567 0. 0.00711743813 0.00118623965
      0.0047449586 0.024911033 0.0023724793 0.00355871907 0.
      0.00118623965 0.00711743813 0. 0.00118623965 0. 0.00118623965
      0.0023724793 0.0023724793 0. 0.00355871907 0. 0.00118623965
      0.00118623965 0.0023724793 0. 0.00118623965 0.0023724793
      0.00355871907 0.0023724793 0.0130486358 0.0023724793 0.0367734283
      0.0047449586 0. 0.00118623965 0.00830367766 0. 0. 0.00355871907 0.
      0. 0. 0. 0.00711743813 0.00593119813 0.00355871907 0.00118623965
      0.0427046269 0. 0. 0.00118623965 0.00118623965 0.0260972716
      0.0047449586 0.0023724793 0.00355871907 0.00711743813 0.0023724793
      0.00118623965 0. 0. 0.0023724793 0.00711743813 0. 0.0023724793
      0.00118623965 0.00355871907 0. 0.0023724793 0. 0.0154211158 0.
      0.00355871907 0.0023724793 0.00830367766 0.0023724793 0. 0.
      0.00355871907 0.00593119813 0.0023724793 0.0023724793
      0.00118623965 0.00118623965 0. 0.00355871907 0. 0. 0.00118623965
      0. 0.0023724793 0.00355871907 0.0047449586 0.00118623965
      0.00355871907 0.0047449586 0. 0.00118623965 0.00118623965 0. 0.
      0.0023724793 0.0023724793 0.00118623965 0.00118623965 0.
      0.00118623965 0.00118623965 0. 0.0023724793 0.00711743813
      0.00118623965 0.0023724793 0. 0.00118623965 0.00355871907
      0.00118623965 0.0047449586 0.00355871907 0. 0. 0.00118623965
      0.00118623965 0.00118623965 0.0154211158 0.00118623965
      0.0047449586 0.00118623965 0.00118623965 0.0023724793
      0.00118623965 0.00118623965 0. 0.00118623965 0.0023724793
      0.0023724793 0.0023724793 0.00118623965 0.00355871907</_>
    <_>
      0.00145985396 0.0335766412 0.00291970791 0.0043795621 0.
      0.00291970791 0.00729926955 0.0262773708 0.0043795621 0. 0.
      0.00291970791 0. 0.0043795621 0.00145985396 0.00291970791
      0.0394160561 0.00291970791 0.0102189779 0.00145985396 0.
      0.00145985396 0.0116788317 0.00291970791 0. 0.00291970791 0.
      0.00583941583 0.0189781021 0.00145985396 0. 0.00145985396
      0.0116788317 0.00145985396 0.00583941583 0. 0.00583941583
      0.00145985396 0.00145985396 0.0043795621 0. 0.0043795621
      0.00291970791 0.00145985396 0. 0. 0. 0. 0. 0.00145985396 0.
      0.00291970791 0.00145985396 0.00291970791 0. 0.00291970791 0.
      0.0087591242 0. 0. 0.00291970791 0. 0.0131386854 0. 0. 0.
      0.00145985396 0.00145985396 0.00291970791 0.00145985396
      0.0131386854 0. 0.00145985396 0. 0. 0. 0.00291970791 0.00291970791
      0.00291970791 0.0160583928 0.00291970791 0.00145985396 0.
      0.00145985396 0.00291970791 0. 0.00291970791 0.00291970791
      0.00145985396 0. 0. 0.0087591242 0. 0.00291970791 0.0043795621
      0.00145985396 0.00583941583 0.00145985396 0.00145985396
      0.00583941583 0.00291970791 0. 0.00145985396 0.00291970791
      0.00291970791 0. 0.00729926955 0.00145985396 0.00145985396
      0.00583941583 0. 0.00145985396 0.00145985396 0. 0.00291970791
      0.00145985396 0.00583941583 0.00729926955 0. 0.00145985396
      0.0043795621 0.00145985396 0.00729926955 0. 0.00291970791
      0.00145985396 0.00145985396 0.00145985396 0.00291970791
      0.00291970791 0.00145985396 0.00291970791 0.0043795621
      0.00145985396 0.00729926955 0.0116788317 0. 0.00291970791
      0.0291970782 0. 0. 0.0131386854 0.00583941583 0.00145985396 0. 0.
      0.00145985396 0. 0.0043795621 0.0043795621 0.00145985396
      0.00729926955 0.0087591242 0.00145985396 0.00145985396 0.
      0.00145985396 0. 0.00145985396 0. 0.0043795621 0. 0.0102189779
      0.00145985396 0.00729926955 0. 0.00729926955 0.0175182484
      0.00145985396 0.00145985396 0.00145985396 0.00145985396
      0.0131386854 0.00145985396 0.00291970791 0. 0.00145985396
      0.0043795621 0.00291970791 0.00145985396 0.00145985396
      0.00291970791 0. 0.00291970791 0.00291970791 0. 0.00291970791
      0.00145985396 0.00291970791 0.0087591242 0.00583941583
      0.00145985396 0.0277372245 0.00145985396 0. 0.00145985396
      0.0131386854 0. 0. 0.00291970791 0. 0.00145985396 0.00145985396
      0.00145985396 0.00145985396 0.00729926955 0.00145985396
      0.00291970791 0.0364963487 0. 0. 0.00145985396 0. 0.0262773708 0.
      0.00145985396 0.00291970791 0.0189781021 0. 0.00291970791 0. 0.
      0.00145985396 0.0087591242 0.00145985396 0.00145985396 0.
      0.00583941583 0. 0.00145985396 0.00145985396 0.0175182484 0.
      0.00145985396 0.00291970791 0.0116788317 0.00145985396
      0.00145985396 0.00145985396 0.00145985396 0.00145985396
      0.00291970791 0.00145985396 0.00145985396 0.00145985396 0.
      0.00145985396 0. 0.00145985396 0.00145985396 0.00145985396
      0.00291970791 0.00291970791 0.00145985396 0.00145985396
      0.00583941583 0.00583941583 0.00145985396 0.00145985396 0. 0.
      0.00145985396 0.00291970791 0. 0.00145985396 0. 0. 0.0043795621
      0.00291970791 0.00145985396 0.0043795621 0.00291970791
      0.00291970791 0.00291970791 0.00583941583 0. 0.00291970791
      0.00145985396 0. 0.00145985396 0. 0. 0.00291970791 0.00291970791
      0.00145985396 0.00291970791 0.0043795621 0. 0.00291970791
      0.00145985396 0.00291970791 0.00145985396 0.00145985396 0.
      0.00145985396 0. 0.00145985396 0.00291970791 0.00145985396
      0.00145985396</_>
    <_>
      0. 0.0437235571 0.00282087456 0.00141043728 0. 0.00987306051
      0.00282087456 0.025387872 0.00282087456 0. 0. 0.00141043728
      0.00141043728 0.00282087456 0. 0.00282087456 0.0211565588 0.
      0.00705218641 0.00141043728 0.00282087456 0.00141043728
      0.00423131185 0.00846262369 0. 0.00141043728 0. 0.00141043728
      0.0169252474 0. 0. 0.00423131185 0.00846262369 0.00141043728
      0.00846262369 0.00141043728 0.00282087456 0.00141043728
      0.00282087456 0.00564174913 0. 0. 0.00141043728 0.00282087456 0.
      0.00141043728 0.00423131185 0.00141043728 0. 0.00141043728
      0.00141043728 0.00423131185 0.00141043728 0.00564174913
      0.00141043728 0.00282087456 0. 0.0155148096 0.00141043728 0.
      0.00141043728 0.00141043728 0.00987306051 0.00705218641
      0.00282087456 0.00141043728 0.00282087456 0.00141043728
      0.00282087456 0.00141043728 0.0155148096 0. 0. 0. 0. 0.
      0.00141043728 0.00282087456 0.00282087456 0.0141043728 0.
      0.00282087456 0.00282087456 0. 0.00141043728 0.00282087456
      0.00282087456 0.00564174913 0.00141043728 0.00141043728
      0.00141043728 0.0169252474 0.00141043728 0.00141043728
      0.00141043728 0.00141043728 0.00564174913 0.00141043728
      0.00141043728 0.00846262369 0.00141043728 0.00141043728
      0.00141043728 0.00141043728 0.00141043728 0. 0.00846262369
      0.00423131185 0.00141043728 0.00846262369 0. 0.00141043728
      0.00282087456 0.00141043728 0.00282087456 0.00141043728
      0.00564174913 0.00282087456 0. 0. 0.00423131185 0. 0.00564174913
      0. 0.00423131185 0.00141043728 0.00141043728 0. 0. 0.00141043728
      0.00564174913 0.00141043728 0.00141043728 0.00141043728
      0.00846262369 0.0169252474 0.00423131185 0.00846262369
      0.0282087456 0. 0. 0.019746121 0.00141043728 0.00141043728 0.
      0.00141043728 0.00141043728 0. 0.00141043728 0.00141043728
      0.00141043728 0.0112834983 0.00282087456 0.00141043728
      0.00141043728 0. 0.00141043728 0.00282087456 0.00141043728 0.
      0.00282087456 0.00282087456 0.0169252474 0.00282087456
      0.00987306051 0.00141043728 0.00423131185 0.00987306051 0. 0. 0.
      0.00141043728 0. 0. 0. 0. 0. 0.00141043728 0.00282087456
      0.00141043728 0. 0. 0.00141043728 0.00141043728 0.00141043728 0.
      0.00141043728 0.00141043728 0.00705218641 0.00705218641
      0.0112834983 0. 0.0267983079 0.00141043728 0. 0.00141043728
      0.00705218641 0. 0. 0.00282087456 0. 0. 0. 0. 0.00141043728
      0.00564174913 0.00141043728 0.00141043728 0.039492242
      0.00282087456 0. 0.00141043728 0. 0.0211565588 0. 0.00141043728
      0.00423131185 0.012693936 0. 0.00141043728 0. 0. 0. 0.00141043728
      0. 0.00141043728 0.00282087456 0.00282087456 0. 0.00282087456
      0.00282087456 0.0183356851 0. 0.00564174913 0. 0.012693936
      0.00141043728 0.00141043728 0.00141043728 0.00423131185 0.
      0.00141043728 0.00141043728 0.00141043728 0.00141043728 0.
      0.00282087456 0. 0. 0.00141043728 0. 0.00282087456 0.00282087456
      0.00423131185 0. 0.00141043728 0.0155148096 0. 0.00423131185
      0.00141043728 0. 0.00141043728 0.00423131185 0.00987306051
      0.00141043728 0. 0. 0.00423131185 0.00141043728 0.00141043728
      0.00282087456 0.00423131185 0.00282087456 0.00282087456
      0.00141043728 0.00141043728 0.00282087456 0.00846262369
      0.00282087456 0.00141043728 0.00282087456 0. 0.00423131185 0.
      0.00282087456 0.0183356851 0.00141043728 0. 0.00141043728
      0.00141043728 0.00282087456 0.00141043728 0. 0. 0.00141043728 0.
      0.00141043728 0. 0.00423131185 0.00282087456</_>
    <_>
      0. 0.0305980537 0.00417246204 0.00695410278 0.0027816412
      0.00417246204 0.00417246204 0.0305980537 0.0013908206 0. 0.
      0.00417246204 0.0027816412 0.0027816412 0. 0.0027816412
      0.0250347704 0.0027816412 0.0027816412 0. 0.0013908206
      0.0013908206 0.0166898482 0.00695410278 0. 0.0013908206 0.
      0.00556328241 0.0166898482 0. 0. 0.0013908206 0.0125173852 0.
      0.0111265648 0.0027816412 0.0027816412 0.0013908206 0.0027816412
      0.0027816412 0.0013908206 0.0027816412 0.00556328241 0.0013908206
      0.0013908206 0.0013908206 0. 0.0013908206 0. 0.0027816412 0. 0.
      0.0013908206 0.0013908206 0. 0.0027816412 0.0013908206
      0.00973574445 0.0013908206 0.0013908206 0. 0. 0.0125173852 0. 0.
      0. 0.00556328241 0.0027816412 0.0027816412 0.0027816412 0.02364395
      0.0013908206 0. 0. 0. 0. 0.0013908206 0.00417246204 0.0027816412
      0.0139082056 0. 0.00834492408 0. 0.0013908206 0.0027816412 0.
      0.0027816412 0.0027816412 0.0027816412 0. 0. 0.00834492408
      0.00417246204 0.0027816412 0.0013908206 0.00556328241
      0.00417246204 0.0013908206 0.0013908206 0.00417246204 0.0027816412
      0.0027816412 0.0013908206 0.00417246204 0. 0.0013908206
      0.00695410278 0.0013908206 0.0013908206 0.00695410278 0. 0.
      0.00417246204 0.0013908206 0.0027816412 0.0013908206 0.00556328241
      0.00556328241 0.0013908206 0. 0.0013908206 0. 0.0013908206
      0.0013908206 0.00556328241 0. 0.0013908206 0. 0.0013908206
      0.0027816412 0.0027816412 0.0013908206 0.0013908206 0.
      0.00417246204 0.00834492408 0.0027816412 0.00556328241
      0.0208623093 0.0013908206 0.0013908206 0.00973574445 0.0027816412
      0.0013908206 0. 0. 0. 0. 0.0013908206 0. 0.0013908206 0.0125173852
      0.0013908206 0. 0.0027816412 0. 0.0013908206 0. 0.0013908206 0.
      0.0013908206 0.0013908206 0.0222531296 0.0027816412 0.00973574445
      0.0013908206 0.00695410278 0.0305980537 0.0013908206 0.0027816412
      0. 0.0027816412 0.00834492408 0. 0.0013908206 0. 0.0027816412
      0.00417246204 0.0027816412 0.0013908206 0.0013908206 0.0013908206
      0.0027816412 0.0013908206 0.0027816412 0.0013908206 0.0027816412
      0.0027816412 0.00417246204 0.00834492408 0.00973574445
      0.0013908206 0.0264255907 0. 0.0013908206 0.0027816412
      0.00834492408 0. 0. 0. 0.0013908206 0.0027816412 0. 0.0013908206
      0.0013908206 0.00695410278 0.00417246204 0.0013908206 0.0417246185
      0. 0. 0. 0. 0.0208623093 0.0013908206 0. 0.0027816412 0.0180806685
      0. 0.0013908206 0.0013908206 0.0013908206 0.0027816412
      0.0013908206 0. 0.0013908206 0.0013908206 0.0013908206 0.
      0.0013908206 0.0013908206 0.0222531296 0. 0.00417246204
      0.0013908206 0.00834492408 0. 0.0013908206 0. 0.0013908206
      0.0013908206 0.0027816412 0.0013908206 0. 0.0013908206
      0.0013908206 0.0013908206 0.0013908206 0. 0.0027816412 0.
      0.0027816412 0.0013908206 0.00417246204 0.0013908206 0.0013908206
      0.0111265648 0. 0.0027816412 0.0013908206 0. 0.0013908206
      0.0027816412 0.0013908206 0.0013908206 0. 0.0013908206
      0.00556328241 0.0013908206 0.0027816412 0.00556328241 0.
      0.0013908206 0.00417246204 0.0013908206 0. 0.00695410278 0.
      0.0013908206 0.00556328241 0. 0. 0.0013908206 0.0013908206 0.
      0.0027816412 0.00417246204 0.00417246204 0.0027816412 0.0013908206
      0.0027816412 0. 0. 0. 0.0027816412 0.0027816412 0.0027816412
      0.0013908206 0.0013908206 0.00695410278</_>
    <_>
      0.00130378094 0.0234680567 0.00260756188 0.00260756188
      0.00391134294 0.00651890459 0.00651890459 0.0221642759 0.
      0.00130378094 0. 0.00130378094 0.00260756188 0.00391134294
      0.00130378094 0.00130378094 0.0247718375 0.00260756188
      0.0247718375 0.00130378094 0. 0.00130378094 0.0169491526
      0.00782268587 0.00130378094 0.00130378094 0. 0.0091264667
      0.020860495 0.00130378094 0.00260756188 0.00391134294
      0.00651890459 0.00260756188 0.00521512376 0.00130378094
      0.00260756188 0.00260756188 0. 0.00260756188 0.00130378094
      0.00130378094 0.0104302475 0.00521512376 0. 0.00130378094 0.
      0.00130378094 0. 0.00260756188 0.00391134294 0.00260756188 0.
      0.00130378094 0. 0.00260756188 0. 0.0130378092 0. 0. 0.00130378094
      0.00130378094 0.00391134294 0.00130378094 0. 0.00130378094
      0.00130378094 0.00130378094 0.00130378094 0.00130378094
      0.0260756183 0.00260756188 0.00260756188 0.00260756188
      0.00391134294 0. 0.00130378094 0.00260756188 0.00130378094
      0.0091264667 0. 0.00651890459 0.00260756188 0. 0.00521512376
      0.00130378094 0.00130378094 0.00260756188 0.00391134294
      0.00130378094 0. 0.00782268587 0.00130378094 0.00260756188 0.
      0.00260756188 0.00260756188 0.00130378094 0.00130378094
      0.00130378094 0.00391134294 0.00260756188 0.00130378094
      0.00260756188 0.00260756188 0. 0.0156453717 0. 0.00130378094
      0.00521512376 0. 0. 0.00391134294 0.00130378094 0.00130378094
      0.00391134294 0.00521512376 0. 0. 0. 0. 0. 0. 0. 0.00391134294 0.
      0.00130378094 0. 0. 0.00130378094 0.00651890459 0.00260756188
      0.00130378094 0.0091264667 0.00521512376 0.0091264667
      0.00130378094 0.0117340283 0.0247718375 0.00391134294
      0.00391134294 0.0130378092 0.00130378094 0.00130378094 0. 0.
      0.00130378094 0. 0.00391134294 0.00130378094 0.00130378094
      0.01434159 0.00651890459 0.00130378094 0.00260756188 0.00130378094
      0. 0. 0.00130378094 0.00130378094 0.00260756188 0.00130378094
      0.0117340283 0.00130378094 0.00782268587 0.00130378094
      0.00391134294 0.0182529334 0. 0.00130378094 0. 0.00130378094
      0.0117340283 0. 0.00130378094 0.00130378094 0. 0.00260756188
      0.00260756188 0.00130378094 0. 0. 0. 0.00521512376 0.00260756188
      0. 0. 0.00260756188 0.00651890459 0.0091264667 0.01434159
      0.00130378094 0.0247718375 0.00260756188 0. 0.00130378094
      0.00521512376 0. 0.00130378094 0. 0. 0.00130378094 0.
      0.00130378094 0.00130378094 0.00651890459 0.00130378094
      0.00260756188 0.01434159 0. 0. 0. 0.00260756188 0.0221642759
      0.00130378094 0.00782268587 0.00521512376 0.020860495 0.
      0.00260756188 0. 0.00130378094 0.0091264667 0.00782268587
      0.00130378094 0.00130378094 0.00130378094 0.00130378094 0.
      0.00130378094 0. 0.0169491526 0. 0.00260756188 0.00130378094
      0.0117340283 0.00260756188 0.00130378094 0.00130378094
      0.00130378094 0.00260756188 0.00391134294 0.00260756188
      0.00130378094 0.00130378094 0. 0.00260756188 0.00130378094 0.
      0.00130378094 0.00130378094 0.00130378094 0.00260756188
      0.00260756188 0.00260756188 0.00130378094 0.0169491526 0. 0.
      0.00260756188 0.00130378094 0.00260756188 0.00391134294
      0.00130378094 0.00130378094 0. 0.00130378094 0.00260756188
      0.00130378094 0.00130378094 0. 0.00391134294 0.00130378094
      0.00521512376 0.00391134294 0. 0.00521512376 0.00391134294
      0.00130378094 0.00260756188 0.00260756188 0. 0. 0.00130378094
      0.00130378094 0.00391134294 0. 0.00130378094 0.00391134294
      0.00130378094 0.00130378094 0.00260756188 0.00130378094
      0.00130378094 0.00130378094 0.00260756188 0. 0.00260756188
      0.00130378094 0.00130378094</_>
    <_>
      0. 0.0257826895 0.00184162066 0.00184162066 0. 0.00552486209
      0.00920810364 0.0184162073 0. 0. 0. 0. 0.00552486209 0.00184162066
      0. 0. 0.00552486209 0. 0.0184162073 0.00368324132 0. 0.00184162066
      0.00184162066 0.0147329653 0. 0. 0. 0.00920810364 0.0184162073
      0.00184162066 0. 0.00552486209 0.00736648263 0. 0.00368324132
      0.00184162066 0. 0. 0.00184162066 0.0110497242 0. 0. 0.0165745858
      0.00184162066 0. 0.00184162066 0. 0. 0. 0.00184162066
      0.00184162066 0.00552486209 0.00184162066 0. 0. 0.00184162066 0.
      0.00552486209 0.00184162066 0. 0. 0.00184162066 0.0110497242 0. 0.
      0.00552486209 0.00552486209 0.00552486209 0.00184162066
      0.00184162066 0.0276243091 0.00552486209 0. 0. 0. 0. 0.00368324132
      0.00552486209 0. 0.0128913447 0. 0.00184162066 0. 0.00184162066 0.
      0.00184162066 0.00368324132 0.00184162066 0.00184162066
      0.00184162066 0. 0.00920810364 0.00184162066 0.00368324132
      0.00184162066 0.00184162066 0.00368324132 0. 0.00184162066 0.
      0.00368324132 0.00184162066 0.00184162066 0.00368324132
      0.00368324132 0.00184162066 0.00552486209 0.00552486209
      0.00368324132 0. 0. 0. 0. 0. 0. 0.00184162066 0.00736648263
      0.00368324132 0. 0. 0. 0. 0.00368324132 0. 0.00552486209
      0.00184162066 0.00184162066 0.00184162066 0.00184162066
      0.00184162066 0.00920810364 0.00368324132 0.00184162066
      0.00184162066 0.00736648263 0.0202578269 0.00184162066
      0.00920810364 0.00920810364 0. 0. 0.00920810364 0. 0.00184162066
      0. 0. 0.00184162066 0. 0. 0.00184162066 0.00184162066
      0.00368324132 0. 0.00184162066 0.00184162066 0. 0.00184162066 0.
      0.00184162066 0.00184162066 0.00368324132 0.00184162066
      0.0110497242 0.00184162066 0.0110497242 0.00184162066 0.
      0.0441988967 0. 0.00184162066 0. 0. 0.00920810364 0. 0. 0.
      0.00184162066 0.00368324132 0.00184162066 0.00184162066 0.
      0.00368324132 0. 0.00368324132 0.00368324132 0.00184162066 0.
      0.00368324132 0.00368324132 0.00552486209 0.00552486209
      0.00552486209 0.023941068 0.00184162066 0. 0.00184162066
      0.00184162066 0. 0. 0. 0.00184162066 0. 0. 0. 0.00736648263
      0.00368324132 0.00184162066 0.00184162066 0.0368324146 0. 0.
      0.00184162066 0. 0.031307552 0.00184162066 0. 0. 0.00736648263 0.
      0.00184162066 0. 0. 0.00184162066 0.00552486209 0.00184162066 0.
      0. 0.00184162066 0. 0.00368324132 0. 0.00920810364 0.
      0.00184162066 0. 0.0294659305 0.00552486209 0.00184162066 0.
      0.00368324132 0.00368324132 0.00920810364 0.00184162066
      0.00552486209 0. 0.00184162066 0.00368324132 0. 0. 0. 0.
      0.00184162066 0.00368324132 0.00184162066 0.00184162066 0.
      0.0257826895 0.00368324132 0. 0. 0. 0.00368324132 0.00184162066
      0.0202578269 0. 0. 0. 0.00184162066 0. 0. 0. 0.00184162066
      0.00368324132 0.00184162066 0.00368324132 0.00184162066
      0.00184162066 0.00184162066 0.00184162066 0.00368324132
      0.00184162066 0. 0.00368324132 0. 0.00184162066 0.0257826895
      0.00368324132 0. 0.00184162066 0.00184162066 0.00184162066 0. 0.
      0. 0.00920810364 0.00368324132 0. 0.00184162066 0.00184162066 0.</_>
    <_>
      0. 0.0316546746 0.00143884891 0.0071942443 0. 0.00431654695
      0.0100719426 0.0187050365 0.00143884891 0. 0.00143884891
      0.00431654695 0.00287769781 0.0100719426 0. 0.00287769781
      0.0258992799 0.00287769781 0.00863309391 0.00287769781 0. 0.
      0.0115107913 0.00431654695 0. 0. 0. 0.0071942443 0.0316546746 0.
      0. 0.00431654695 0.0115107913 0. 0.00863309391 0. 0. 0.00143884891
      0.00287769781 0.00431654695 0.00143884891 0.00143884891
      0.0201438852 0.00863309391 0.00143884891 0.00143884891
      0.00143884891 0.00143884891 0. 0.00143884891 0.00143884891
      0.00143884891 0. 0.00287769781 0. 0.00143884891 0.00143884891
      0.0172661878 0.00143884891 0. 0. 0. 0.0071942443 0. 0.0071942443
      0.00143884891 0. 0. 0.00143884891 0.00143884891 0.0187050365 0. 0.
      0. 0. 0.00143884891 0.00287769781 0.00431654695 0.00431654695
      0.00575539563 0. 0.00431654695 0.00143884891 0. 0.00287769781 0.
      0.00287769781 0.0071942443 0.00287769781 0.00143884891
      0.00431654695 0.0172661878 0. 0.00287769781 0. 0.00287769781
      0.00863309391 0.00287769781 0.00143884891 0.00287769781
      0.00143884891 0. 0. 0.00143884891 0. 0. 0.0100719426 0.00143884891
      0.00143884891 0.00575539563 0. 0.00143884891 0.00287769781 0.
      0.00143884891 0.00287769781 0.0071942443 0.00143884891 0. 0.
      0.00143884891 0.00143884891 0.00287769781 0. 0.00863309391
      0.00143884891 0.00143884891 0.00143884891 0. 0.00287769781
      0.00287769781 0.00143884891 0.00143884891 0.00143884891
      0.0071942443 0.0115107913 0.00287769781 0.00431654695 0.0230215825
      0. 0. 0.0143884886 0.00143884891 0.00143884891 0. 0. 0.00143884891
      0.00143884891 0.00287769781 0.00143884891 0. 0.0158273373
      0.0115107913 0.00143884891 0.00143884891 0. 0.00143884891
      0.00143884891 0.00143884891 0.00143884891 0.00143884891
      0.00143884891 0.0172661878 0. 0.0100719426 0.00143884891
      0.00431654695 0.0287769772 0. 0.00431654695 0.00143884891
      0.00143884891 0.00863309391 0.00143884891 0.00143884891 0. 0.
      0.00287769781 0.00287769781 0. 0. 0. 0. 0.00143884891 0. 0.
      0.00143884891 0.00143884891 0.0071942443 0.00287769781
      0.0129496399 0.00143884891 0.0230215825 0.00143884891 0.
      0.00143884891 0.0158273373 0. 0. 0.00143884891 0. 0.00143884891 0.
      0.00287769781 0.00143884891 0.0071942443 0.00143884891
      0.00143884891 0.0287769772 0.00143884891 0. 0. 0.00431654695
      0.0302158277 0.00143884891 0.00143884891 0.00287769781
      0.00575539563 0. 0.00143884891 0. 0. 0.00143884891 0.00287769781
      0. 0.00143884891 0.00143884891 0.00431654695 0. 0.00287769781
      0.00287769781 0.0172661878 0.00143884891 0.00431654695
      0.00143884891 0.0071942443 0.00143884891 0.00143884891
      0.00143884891 0.00431654695 0.00143884891 0.00143884891
      0.00143884891 0. 0. 0. 0.00287769781 0. 0.00143884891 0. 0.
      0.00287769781 0.00287769781 0.00431654695 0.00143884891
      0.00143884891 0. 0. 0.00431654695 0.00143884891 0. 0.00431654695
      0.00143884891 0. 0.00143884891 0. 0. 0.00143884891 0. 0.
      0.00431654695 0.00143884891 0.00287769781 0.00143884891
      0.00143884891 0.00143884891 0. 0.00287769781 0.00143884891
      0.00431654695 0.00143884891 0. 0.00143884891 0.00431654695
      0.00143884891 0. 0.00287769781 0.00143884891 0.00431654695
      0.00143884891 0.00431654695 0.00287769781 0. 0.00287769781 0.
      0.00143884891 0.00143884891 0.00287769781 0.00431654695
      0.00143884891</_>
    <_>
      0. 0.025559105 0.00159744406 0. 0.00159744406 0.00638977624
      0.00798721984 0.0159744397 0. 0. 0. 0.00319488812 0.00319488812
      0.00319488812 0.00159744406 0.00319488812 0.0271565486
      0.00159744406 0.00798721984 0.00159744406 0. 0.00159744406
      0.0111821089 0.00159744406 0.00159744406 0. 0. 0.00159744406
      0.0143769961 0.00159744406 0.00319488812 0.00638977624
      0.0127795525 0. 0.0111821089 0.00159744406 0.00319488812 0. 0.
      0.00958466437 0.00159744406 0.00159744406 0.00958466437
      0.00479233218 0. 0. 0.00159744406 0.00159744406 0. 0.00319488812
      0.00159744406 0.00479233218 0. 0.00319488812 0. 0.00159744406
      0.00159744406 0.00319488812 0. 0. 0.00159744406 0. 0.00479233218
      0.00159744406 0.00319488812 0.00159744406 0.00479233218
      0.00159744406 0. 0.00159744406 0.0223642178 0.00159744406
      0.00159744406 0. 0. 0.00479233218 0.00319488812 0.00638977624
      0.00319488812 0.00958466437 0.00159744406 0.00638977624
      0.00638977624 0.00159744406 0.00319488812 0. 0. 0. 0.00319488812
      0.00159744406 0. 0.00638977624 0.00159744406 0.00479233218
      0.00319488812 0. 0.00319488812 0.00159744406 0. 0.00638977624 0.
      0.00479233218 0.00159744406 0. 0. 0. 0.00479233218 0. 0.
      0.00159744406 0. 0.00159744406 0.00319488812 0.00159744406 0.
      0.00319488812 0.00319488812 0.00479233218 0.00159744406 0.
      0.00159744406 0.00159744406 0.00319488812 0.00159744406
      0.00159744406 0.00159744406 0.00159744406 0.00319488812
      0.00159744406 0.00159744406 0.00319488812 0.00159744406
      0.00319488812 0.00798721984 0.00958466437 0.0159744397
      0.00319488812 0.00479233218 0.0223642178 0. 0. 0.00958466437
      0.00479233218 0.00159744406 0. 0. 0.00159744406 0.00159744406
      0.00479233218 0.00159744406 0.00159744406 0.0111821089
      0.00958466437 0.00159744406 0.00798721984 0. 0.00159744406
      0.00159744406 0.00479233218 0.00159744406 0.00479233218
      0.00319488812 0.0175718851 0.00159744406 0.00958466437 0.
      0.00319488812 0.0207667723 0. 0.00479233218 0.00159744406
      0.00159744406 0.00479233218 0. 0.00319488812 0. 0. 0.00159744406
      0.00319488812 0. 0. 0. 0.00159744406 0.00159744406 0.00159744406
      0. 0.00159744406 0.00479233218 0. 0.00159744406 0.00958466437
      0.00159744406 0.0335463248 0. 0. 0.00159744406 0.00479233218 0. 0.
      0. 0. 0.00159744406 0. 0.00159744406 0.00319488812 0.00798721984
      0.00798721984 0. 0.0399361029 0. 0. 0. 0.00319488812 0.0191693287
      0. 0.00159744406 0.00479233218 0.025559105 0.00319488812
      0.00319488812 0. 0. 0.00479233218 0.00319488812 0. 0.00319488812
      0.00479233218 0.00319488812 0. 0.00319488812 0.00479233218
      0.0127795525 0. 0. 0.00479233218 0.0143769961 0.00159744406 0.
      0.00159744406 0.00319488812 0. 0.00479233218 0.00159744406
      0.00638977624 0.00159744406 0.00159744406 0.00638977624 0.
      0.00159744406 0.00159744406 0. 0.00319488812 0.00319488812
      0.00319488812 0. 0.00319488812 0.00159744406 0. 0.00319488812
      0.00159744406 0.00159744406 0.00159744406 0.00479233218 0.
      0.00159744406 0. 0.00159744406 0.00159744406 0. 0. 0.
      0.00159744406 0.00319488812 0.00159744406 0. 0. 0.00159744406
      0.00319488812 0.00319488812 0.00159744406 0.00159744406 0.
      0.00159744406 0.00159744406 0.00319488812 0.00319488812
      0.00319488812 0.00319488812 0.00479233218 0.00159744406
      0.00159744406 0.00159744406 0.00319488812 0. 0.00319488812
      0.00319488812 0.00319488812 0.00159744406 0.00159744406
      0.00159744406</_>
    <_>
      0. 0.025793653 0.0039682542 0.0039682542 0.00595238153
      0.0039682542 0.0198412705 0.0178571437 0. 0.0019841271
      0.0039682542 0. 0.0039682542 0.00595238153 0.0019841271
      0.0019841271 0.0238095261 0.0019841271 0.0138888899 0.
      0.0039682542 0.0019841271 0.00793650839 0. 0. 0. 0. 0.00595238153
      0.0277777798 0. 0. 0.0039682542 0.00793650839 0. 0.00793650839
      0.0019841271 0. 0.0019841271 0.0019841271 0.0019841271
      0.0019841271 0.0019841271 0.0039682542 0.0019841271 0.
      0.0019841271 0. 0. 0. 0.0019841271 0.0039682542 0.0019841271 0.
      0.0039682542 0. 0.0039682542 0.0039682542 0.0039682542
      0.0019841271 0. 0.0019841271 0. 0.0019841271 0.0158730168 0.
      0.0019841271 0.00595238153 0.0019841271 0.0019841271 0.
      0.0198412705 0.0039682542 0. 0. 0. 0.0039682542 0.0039682542
      0.0019841271 0.0019841271 0.00595238153 0.0019841271 0. 0.
      0.0039682542 0.0019841271 0. 0. 0.0019841271 0.0019841271
      0.0019841271 0.0019841271 0.0119047631 0.0039682542 0.
      0.0019841271 0. 0.0039682542 0. 0. 0. 0. 0.0019841271 0.0019841271
      0. 0.0019841271 0. 0.0178571437 0.0019841271 0. 0.0019841271 0. 0.
      0.0019841271 0. 0. 0.0039682542 0.0039682542 0.0039682542 0. 0.
      0.0019841271 0. 0.0019841271 0. 0.00595238153 0. 0.0019841271 0.
      0. 0.0019841271 0.0019841271 0. 0.0019841271 0.0039682542
      0.0138888899 0.0138888899 0.0019841271 0.0019841271 0.0218253974
      0. 0. 0.0138888899 0.0019841271 0. 0.0019841271 0. 0.0019841271 0.
      0. 0.0019841271 0.0019841271 0.0198412705 0.0039682542
      0.0019841271 0.0019841271 0. 0. 0. 0.0019841271 0. 0.0019841271
      0.0019841271 0.0238095261 0.0039682542 0.00992063526 0.
      0.0039682542 0.0357142873 0.0019841271 0.0019841271 0.0019841271
      0.0019841271 0.00992063526 0. 0.0019841271 0. 0.0019841271
      0.0039682542 0.0039682542 0. 0. 0.0019841271 0.0019841271
      0.0039682542 0.0019841271 0. 0. 0. 0.0019841271 0.0019841271
      0.0178571437 0.0019841271 0.0178571437 0.0019841271 0.
      0.0039682542 0. 0. 0. 0.0019841271 0. 0. 0. 0.0019841271
      0.00595238153 0.00595238153 0. 0.0019841271 0.0337301604
      0.0019841271 0. 0.0019841271 0. 0.0317460336 0.0019841271
      0.0019841271 0. 0.0277777798 0. 0.0019841271 0. 0. 0.0019841271
      0.00595238153 0. 0. 0.0039682542 0.0039682542 0. 0.0019841271
      0.0039682542 0.00992063526 0. 0. 0. 0.025793653 0. 0.0019841271 0.
      0.00992063526 0. 0.0019841271 0.0019841271 0.0019841271
      0.0019841271 0. 0.0039682542 0. 0. 0.0019841271 0. 0.0039682542
      0.0019841271 0.00595238153 0.0019841271 0. 0.00595238153 0.
      0.0039682542 0. 0. 0.0019841271 0. 0. 0.0019841271 0. 0.0019841271
      0.0039682542 0.0019841271 0.0019841271 0. 0. 0.0039682542
      0.0019841271 0. 0. 0. 0.0019841271 0.0019841271 0.00595238153
      0.0019841271 0. 0.0019841271 0. 0.0039682542 0.0019841271
      0.0019841271 0.0019841271 0.0019841271 0.0019841271 0.00793650839
      0.0039682542 0.0019841271 0. 0.0019841271 0. 0. 0.0039682542 0. 0.</_>
    <_>
      0.00214592274 0.0257510729 0. 0. 0. 0.00858369097 0.00858369097
      0.0171673819 0. 0. 0. 0. 0.00214592274 0.00643776823 0.00214592274
      0.00214592274 0.0107296137 0. 0.0107296137 0.00214592274 0.
      0.00214592274 0.00214592274 0.00643776823 0. 0.00214592274 0.
      0.00429184549 0.0171673819 0.00214592274 0. 0.00214592274
      0.00429184549 0. 0.00643776823 0. 0. 0.00214592274 0.00643776823
      0.0107296137 0. 0.00643776823 0.0150214592 0.00214592274 0.
      0.00214592274 0. 0.00214592274 0. 0.00429184549 0.00214592274
      0.00643776823 0. 0. 0. 0.00214592274 0. 0.00429184549
      0.00214592274 0. 0. 0.00214592274 0.00643776823 0.0128755365
      0.00214592274 0.00214592274 0.00429184549 0.00643776823 0.
      0.00429184549 0.0107296137 0.00429184549 0.00214592274 0. 0. 0.
      0.00429184549 0.00858369097 0.00214592274 0.0193133056 0.
      0.00643776823 0. 0.00429184549 0. 0. 0. 0.00429184549 0.
      0.00214592274 0. 0.00643776823 0. 0. 0.00429184549 0.00214592274
      0.00643776823 0. 0. 0.00214592274 0. 0. 0.00214592274
      0.00429184549 0.00214592274 0.00214592274 0.0171673819 0.
      0.00429184549 0. 0. 0. 0.00643776823 0.00214592274 0. 0.
      0.00429184549 0. 0. 0. 0. 0. 0.00429184549 0. 0.00429184549 0. 0.
      0.00214592274 0. 0.00214592274 0.00858369097 0. 0.00214592274
      0.00429184549 0.00858369097 0.0128755365 0.00214592274
      0.00214592274 0.0107296137 0.00214592274 0. 0.00643776823
      0.00643776823 0.00214592274 0. 0. 0.00214592274 0. 0.00429184549
      0.00214592274 0.00214592274 0.00643776823 0. 0.00214592274 0. 0.
      0.00214592274 0. 0.00214592274 0. 0.0107296137 0. 0.0107296137
      0.00214592274 0.00643776823 0.00214592274 0. 0.00643776823 0.
      0.00429184549 0. 0.00429184549 0.0128755365 0. 0. 0.00214592274
      0.00214592274 0.00214592274 0.00214592274 0.00429184549 0. 0. 0.
      0. 0. 0. 0.00214592274 0.00214592274 0.00429184549 0.00214592274
      0.00643776823 0. 0.0193133056 0.00643776823 0. 0.00429184549 0. 0.
      0. 0.00214592274 0. 0. 0. 0.00214592274 0.00214592274
      0.00643776823 0.00214592274 0. 0.0536480695 0. 0. 0. 0.00214592274
      0.0278969966 0.00214592274 0. 0.00429184549 0.00429184549 0.
      0.00214592274 0. 0. 0. 0.00858369097 0.00214592274 0.00429184549
      0. 0.00429184549 0. 0.00643776823 0.00214592274 0.0107296137 0.
      0.00429184549 0. 0.0257510729 0.00214592274 0.00214592274
      0.00429184549 0.00643776823 0. 0.00643776823 0.00429184549
      0.00429184549 0.00214592274 0.00429184549 0.00858369097 0. 0. 0.
      0. 0.00429184549 0.00429184549 0.00214592274 0.00429184549
      0.00858369097 0.0128755365 0. 0. 0. 0.00214592274 0. 0.00643776823
      0.0128755365 0.00214592274 0.00214592274 0. 0. 0.00214592274 0.
      0.00214592274 0. 0.00214592274 0.00429184549 0.00429184549
      0.00214592274 0. 0.00429184549 0.00429184549 0.00429184549
      0.00214592274 0. 0.00214592274 0. 0. 0.0128755365 0. 0.0128755365
      0.0107296137 0.00214592274 0.00214592274 0.00214592274 0. 0.
      0.00214592274 0.00429184549 0.00429184549 0.00214592274
      0.00214592274 0.00214592274</_>
    <_>
      0. 0.0232896656 0.0029112082 0.0029112082 0. 0.00727802049
      0.0029112082 0.0218340605 0. 0. 0. 0. 0.0043668123 0.0043668123
      0.0014556041 0.0043668123 0.0349344984 0.0014556041 0.0189228542
      0.0029112082 0.0014556041 0.0014556041 0.00582241639 0.0101892287
      0. 0.0014556041 0. 0.00727802049 0.00873362459 0. 0. 0.0043668123
      0.0101892287 0. 0.00727802049 0.0014556041 0.0014556041
      0.0014556041 0.0043668123 0.00727802049 0. 0.00727802049
      0.0043668123 0.0029112082 0. 0.0014556041 0. 0. 0. 0. 0.0014556041
      0.0014556041 0.0014556041 0. 0. 0.0014556041 0.0014556041
      0.00727802049 0.0014556041 0. 0.0014556041 0.0014556041
      0.00727802049 0.0014556041 0.0014556041 0.0014556041 0.0014556041
      0.00582241639 0.0029112082 0.0029112082 0.014556041 0.
      0.0014556041 0. 0. 0. 0.0029112082 0.0043668123 0.0014556041
      0.0101892287 0. 0.0043668123 0. 0. 0.0014556041 0. 0.0014556041
      0.0014556041 0.0014556041 0.0014556041 0. 0.0101892287 0.
      0.0043668123 0. 0. 0.00727802049 0.0014556041 0. 0.0043668123
      0.0014556041 0.0014556041 0.0014556041 0.0029112082 0. 0.
      0.0116448328 0.0043668123 0.0014556041 0.0043668123 0. 0.
      0.0029112082 0.0014556041 0.0014556041 0.0014556041 0.
      0.0029112082 0. 0. 0. 0. 0.00582241639 0. 0.00727802049
      0.0014556041 0.0014556041 0.0014556041 0. 0.0029112082
      0.0043668123 0. 0.0014556041 0.0014556041 0.0043668123
      0.00873362459 0. 0.0014556041 0.0232896656 0. 0. 0.0203784574
      0.0014556041 0.0014556041 0. 0.0014556041 0.0014556041 0.
      0.0043668123 0.0014556041 0.0014556041 0.0174672492 0.0043668123
      0.0014556041 0.0014556041 0. 0.0014556041 0. 0.0014556041 0.
      0.00582241639 0.0043668123 0.0262008738 0.0029112082 0.00873362459
      0.0014556041 0.00727802049 0.0262008738 0. 0.0029112082 0.
      0.0014556041 0.0043668123 0.0014556041 0.0014556041 0.
      0.0014556041 0.0043668123 0.0014556041 0.0014556041 0. 0. 0. 0.
      0.0014556041 0. 0.0014556041 0.0014556041 0.0014556041 0.014556041
      0.0131004369 0.0014556041 0.0276564769 0.0029112082 0.
      0.0014556041 0.0101892287 0. 0. 0.0014556041 0. 0. 0. 0.0014556041
      0.0029112082 0.00582241639 0.0014556041 0.0014556041 0.0553129539
      0. 0.0014556041 0. 0.0014556041 0.0320232883 0. 0.0029112082 0.
      0.0218340605 0. 0. 0. 0. 0.0043668123 0.0029112082 0. 0.
      0.00582241639 0.0043668123 0. 0. 0.0014556041 0.0131004369
      0.0014556041 0.00727802049 0. 0.0014556041 0.0029112082
      0.0014556041 0. 0.0029112082 0. 0.0029112082 0.0014556041 0.
      0.0014556041 0.0014556041 0.0029112082 0.0014556041 0.
      0.0043668123 0. 0.0029112082 0.00582241639 0.0029112082 0. 0.
      0.0189228542 0. 0.0029112082 0.0014556041 0. 0. 0.0029112082
      0.0043668123 0.0043668123 0. 0. 0. 0.0014556041 0. 0.0014556041
      0.0043668123 0. 0.0029112082 0.0029112082 0. 0.00582241639
      0.0014556041 0.0029112082 0.0043668123 0.0014556041 0. 0. 0.
      0.0029112082 0.014556041 0. 0.0014556041 0.0029112082 0.0014556041
      0.0029112082 0. 0.0043668123 0. 0.0014556041 0.0014556041
      0.0029112082 0. 0.0014556041 0.0029112082</_>
    <_>
      0. 0.0139442235 0.00398406386 0. 0. 0.00796812773 0.00796812773
      0.027888447 0. 0. 0. 0.00199203193 0.0059760958 0.00199203193 0.
      0.00398406386 0.0179282874 0. 0.00796812773 0.00199203193 0. 0.
      0.0119521916 0.00398406386 0.00199203193 0. 0. 0.00398406386
      0.00996015966 0.00199203193 0. 0. 0.00796812773 0. 0.0179282874
      0.00199203193 0. 0.00199203193 0.00398406386 0.00398406386 0.
      0.00199203193 0.00199203193 0.00199203193 0. 0. 0. 0.00199203193
      0. 0.00199203193 0.00199203193 0.0139442235 0. 0. 0. 0.00199203193
      0.00199203193 0.00199203193 0.00398406386 0. 0. 0.00199203193
      0.0139442235 0.0199203193 0.00398406386 0.00398406386 0.
      0.00199203193 0.00398406386 0.00199203193 0.027888447 0.0059760958
      0.00199203193 0. 0.00199203193 0. 0.00398406386 0.0059760958
      0.00199203193 0.0059760958 0.00398406386 0.0059760958 0.0059760958
      0.00996015966 0.00398406386 0.00199203193 0. 0.00398406386 0.
      0.00199203193 0. 0.00996015966 0.00199203193 0.00199203193 0. 0.
      0.00398406386 0.00199203193 0.0059760958 0.00199203193 0.
      0.00199203193 0.00199203193 0. 0.00398406386 0.00199203193
      0.0139442235 0.0059760958 0.00199203193 0.00199203193 0. 0.
      0.00398406386 0. 0. 0.00199203193 0.00996015966 0. 0. 0.
      0.00398406386 0. 0.00199203193 0. 0.00199203193 0.00199203193
      0.00199203193 0.00398406386 0.00398406386 0.00398406386
      0.00199203193 0.00996015966 0.00199203193 0.00796812773
      0.00398406386 0.0119521916 0.00199203193 0.00199203193
      0.0139442235 0. 0. 0.00796812773 0.00199203193 0.00199203193 0.
      0.00199203193 0.00199203193 0.00199203193 0.00996015966
      0.00199203193 0.00199203193 0.00199203193 0.00398406386
      0.00199203193 0.00199203193 0. 0.00199203193 0. 0.00199203193
      0.00199203193 0.0199203193 0.00199203193 0.0139442235
      0.00199203193 0.00398406386 0.00199203193 0. 0.0258964151
      0.00398406386 0.0059760958 0. 0.00199203193 0.0139442235 0.
      0.00199203193 0. 0.00199203193 0. 0.00199203193 0.00199203193 0.
      0. 0. 0.00199203193 0.00199203193 0.00199203193 0.00199203193 0.
      0.00199203193 0.00398406386 0.00796812773 0.00199203193
      0.00398406386 0.00398406386 0. 0.00199203193 0.00398406386 0. 0.
      0. 0.00199203193 0. 0. 0.00199203193 0.00199203193 0.00796812773
      0. 0.00398406386 0.0139442235 0. 0. 0. 0.00199203193 0.0159362555
      0. 0. 0. 0.00996015966 0. 0.0059760958 0. 0. 0. 0.0059760958
      0.0059760958 0.00398406386 0.00796812773 0. 0. 0.00199203193 0.
      0.0119521916 0. 0.00199203193 0.00199203193 0.0219123513
      0.00398406386 0.00398406386 0. 0.00199203193 0.00199203193
      0.00398406386 0. 0.00996015966 0. 0.00199203193 0.0059760958 0.
      0.00199203193 0. 0.00199203193 0. 0. 0.00398406386 0.00199203193
      0.00398406386 0.00996015966 0.00199203193 0. 0. 0.00199203193
      0.00199203193 0.0059760958 0.00996015966 0. 0. 0. 0.00199203193 0.
      0.00199203193 0. 0. 0.00398406386 0.00199203193 0.0059760958 0. 0.
      0.0059760958 0.00199203193 0.00796812773 0. 0. 0.00199203193 0. 0.
      0.0258964151 0. 0.0059760958 0.00199203193 0.00199203193
      0.00398406386 0. 0.00398406386 0. 0. 0.00199203193 0.00199203193
      0. 0.00199203193 0.00398406386</_>
    <_>
      0.00137931039 0.0275862068 0.00413793139 0. 0.00137931039
      0.00965517294 0.00275862077 0.0262068976 0.00137931039 0. 0.
      0.00137931039 0.00137931039 0.00275862077 0.00275862077
      0.00275862077 0.0289655179 0. 0.0206896551 0.00275862077
      0.00551724155 0.00137931039 0.0110344831 0.00137931039
      0.00137931039 0.00137931039 0.00137931039 0.00413793139
      0.0262068976 0.00137931039 0. 0.00551724155 0.0068965517 0.
      0.00413793139 0.00137931039 0.00413793139 0.00137931039
      0.00413793139 0.00551724155 0. 0.00137931039 0.00827586278
      0.00551724155 0.00137931039 0.00137931039 0.00275862077 0. 0.
      0.00137931039 0. 0.0068965517 0. 0. 0.00137931039 0.00137931039
      0.00137931039 0.0068965517 0. 0. 0. 0. 0.0206896551 0.00137931039
      0.00137931039 0.00137931039 0.00275862077 0.00551724155 0.
      0.00275862077 0.0206896551 0. 0. 0. 0. 0. 0.00137931039
      0.00551724155 0.00275862077 0.00965517294 0. 0.00275862077
      0.00137931039 0. 0.00275862077 0.00137931039 0. 0.00137931039
      0.00275862077 0.00137931039 0.00275862077 0.00827586278 0.
      0.00137931039 0.00137931039 0.00137931039 0.00413793139
      0.00275862077 0. 0.00413793139 0. 0.00137931039 0.00137931039
      0.00275862077 0. 0. 0.0068965517 0.00137931039 0. 0.0068965517 0.
      0.00275862077 0.00413793139 0.00275862077 0.00137931039
      0.00137931039 0.00551724155 0.00275862077 0. 0. 0.00137931039
      0.00551724155 0.00275862077 0. 0.00965517294 0. 0.00137931039
      0.00137931039 0. 0.00137931039 0.00275862077 0. 0.00275862077
      0.00413793139 0.00413793139 0.0068965517 0. 0.0068965517
      0.0220689662 0.00137931039 0.00137931039 0.0165517256
      0.00137931039 0.00137931039 0. 0.00413793139 0.00137931039 0.
      0.00275862077 0.00137931039 0.00137931039 0.0068965517
      0.00413793139 0.00137931039 0.00137931039 0. 0. 0.00137931039
      0.00137931039 0.00137931039 0.00275862077 0. 0.00827586278
      0.00137931039 0.00551724155 0.00137931039 0.0068965517
      0.0234482773 0. 0.00551724155 0.00137931039 0.00137931039
      0.0068965517 0. 0.00275862077 0. 0.00275862077 0.00275862077
      0.00275862077 0.00137931039 0. 0. 0. 0. 0.00275862077 0.
      0.00137931039 0.00137931039 0.0068965517 0.0068965517
      0.00827586278 0.00137931039 0.0248275865 0.00275862077 0.
      0.00137931039 0.00827586278 0. 0. 0.00137931039 0. 0.00137931039
      0. 0.00275862077 0.00413793139 0.0068965517 0.00137931039
      0.00275862077 0.0344827585 0.00137931039 0.00137931039 0.
      0.00137931039 0.0262068976 0.00137931039 0.00137931039 0.
      0.0220689662 0.00275862077 0.00137931039 0. 0. 0.00137931039
      0.00551724155 0. 0.00137931039 0.00551724155 0.00551724155 0.
      0.00137931039 0.00137931039 0.0137931034 0. 0.00965517294
      0.00275862077 0.00413793139 0.00137931039 0.00137931039
      0.00137931039 0.00413793139 0.00137931039 0.00275862077
      0.00137931039 0. 0. 0. 0.00413793139 0. 0. 0.00137931039 0.
      0.00275862077 0.00137931039 0.00551724155 0.00275862077
      0.00413793139 0.0110344831 0. 0.00275862077 0. 0.00137931039
      0.00275862077 0.0068965517 0.00275862077 0.00275862077 0.
      0.00137931039 0. 0.00137931039 0.00137931039 0. 0.00965517294
      0.00275862077 0.00275862077 0.00137931039 0. 0.00551724155
      0.00413793139 0. 0.00137931039 0.00137931039 0. 0.00137931039 0.
      0.00137931039 0.00551724155 0.00275862077 0.00137931039
      0.00413793139 0.00275862077 0.00137931039 0.00137931039
      0.00413793139 0. 0.00275862077 0.00275862077 0.00137931039
      0.00275862077 0.00275862077 0.00413793139</_>
    <_>
      0. 0.0172413792 0. 0.00191570877 0.00191570877 0.00574712642
      0.00766283507 0.0191570874 0. 0. 0. 0.00191570877 0.00574712642
      0.00383141753 0.00191570877 0.00191570877 0.0325670503 0.
      0.0191570874 0. 0.00383141753 0.00191570877 0.013409961
      0.00574712642 0. 0.00191570877 0. 0.00574712642 0.0249042138
      0.00383141753 0.00191570877 0.00383141753 0.013409961
      0.00191570877 0.013409961 0.00383141753 0.00383141753
      0.00191570877 0.00191570877 0.00191570877 0.00191570877 0. 0.
      0.00383141753 0. 0.00191570877 0. 0.00191570877 0. 0.00191570877
      0.00383141753 0.00574712642 0. 0.00191570877 0. 0.00383141753 0.
      0.00766283507 0. 0. 0.00191570877 0.00191570877 0.00574712642 0.
      0. 0.00191570877 0.00574712642 0.00383141753 0.00191570877
      0.00191570877 0.0249042138 0. 0. 0. 0.00191570877 0. 0.00383141753
      0.00574712642 0.00191570877 0.013409961 0. 0.00383141753 0.
      0.00191570877 0. 0.00191570877 0.00191570877 0.00191570877
      0.00191570877 0.00191570877 0.00191570877 0.0172413792
      0.00191570877 0.00191570877 0.00191570877 0.00191570877
      0.00383141753 0.00191570877 0.00191570877 0. 0. 0.00383141753
      0.00191570877 0.00383141753 0. 0. 0.013409961 0.00191570877 0.
      0.00191570877 0. 0.00191570877 0. 0. 0. 0.00191570877
      0.00574712642 0. 0. 0. 0.00191570877 0. 0. 0. 0.00574712642 0. 0.
      0.00191570877 0. 0.00191570877 0.00191570877 0.00383141753
      0.00191570877 0.00383141753 0.00766283507 0.0191570874
      0.00383141753 0.00766283507 0.0153256701 0. 0.00383141753
      0.00766283507 0.00383141753 0.00191570877 0. 0. 0.00191570877 0.
      0.00574712642 0.00191570877 0.00191570877 0.0114942528 0. 0. 0. 0.
      0.00191570877 0. 0.00191570877 0.00191570877 0.00191570877
      0.00383141753 0.0153256701 0.00383141753 0.00574712642
      0.00191570877 0. 0.0172413792 0. 0. 0. 0.00191570877 0.
      0.00191570877 0. 0. 0.00191570877 0.00191570877 0.00191570877 0.
      0. 0.00191570877 0. 0.00383141753 0. 0. 0.00383141753
      0.00383141753 0.0153256701 0.00191570877 0.0153256701
      0.00191570877 0.0153256701 0.00191570877 0. 0.00191570877
      0.00766283507 0. 0.00191570877 0. 0.00191570877 0. 0. 0.
      0.00191570877 0.00574712642 0.00191570877 0. 0.0440613031 0.
      0.00191570877 0. 0.00191570877 0.0191570874 0.00191570877
      0.00191570877 0.00574712642 0.0114942528 0.00191570877 0. 0. 0.
      0.00383141753 0.00191570877 0.00383141753 0.00191570877
      0.00383141753 0. 0. 0.00383141753 0. 0.00766283507 0.00191570877
      0. 0. 0.0191570874 0.00191570877 0.00191570877 0. 0.00191570877 0.
      0.00766283507 0.00191570877 0. 0. 0.00191570877 0.00574712642 0.
      0.00383141753 0.00191570877 0. 0.00383141753 0.00383141753
      0.0114942528 0.00191570877 0. 0.0306513403 0.00191570877 0.
      0.00191570877 0. 0. 0. 0.0153256701 0.00191570877 0.00191570877 0.
      0.00191570877 0.00191570877 0. 0.00574712642 0. 0.00383141753
      0.00191570877 0.00574712642 0.00191570877 0. 0.00191570877
      0.00191570877 0.00191570877 0. 0. 0.00191570877 0.00383141753
      0.00383141753 0.00191570877 0.00383141753 0. 0.00191570877
      0.00383141753 0.00383141753 0. 0. 0. 0.00383141753 0.
      0.00191570877 0. 0.00191570877 0.</_>
    <_>
      0.00212765951 0.0319148935 0.00212765951 0.00212765951 0.
      0.0106382975 0.00425531901 0.0191489346 0.00212765951 0. 0. 0.
      0.00212765951 0.00638297852 0. 0.00425531901 0.0382978693 0.
      0.00851063803 0.00638297852 0. 0.00212765951 0.00851063803
      0.00425531901 0. 0. 0. 0.00425531901 0.0170212761 0.00212765951 0.
      0.00851063803 0.00851063803 0. 0.00425531901 0. 0. 0.00212765951
      0.00425531901 0.00212765951 0. 0. 0.00212765951 0.00212765951 0.
      0.00212765951 0. 0.00212765951 0. 0. 0.00425531901 0. 0.
      0.00212765951 0. 0.00212765951 0. 0.0170212761 0. 0. 0.
      0.00212765951 0.00638297852 0.00212765951 0. 0.00212765951
      0.00638297852 0.00425531901 0. 0.00212765951 0.0297872331 0.
      0.00212765951 0. 0. 0. 0.00212765951 0.012765957 0.00425531901
      0.0148936165 0. 0.00425531901 0. 0. 0.00212765951 0. 0.
      0.00212765951 0.00212765951 0.00212765951 0.00212765951
      0.00425531901 0. 0. 0.00212765951 0.00212765951 0.00638297852
      0.00212765951 0.00425531901 0. 0. 0. 0. 0.00425531901 0. 0.
      0.00212765951 0. 0. 0.00638297852 0. 0. 0. 0.00212765951 0.
      0.00212765951 0.00851063803 0. 0. 0. 0. 0. 0. 0. 0.00638297852
      0.00212765951 0.00212765951 0. 0. 0.00212765951 0.00212765951
      0.00425531901 0.00212765951 0. 0.00851063803 0.0276595727 0. 0.
      0.012765957 0. 0.00212765951 0.0106382975 0.00212765951
      0.00212765951 0. 0. 0. 0. 0.00425531901 0.00212765951
      0.00212765951 0.0106382975 0.00425531901 0.00212765951
      0.00212765951 0. 0.00212765951 0. 0.00212765951 0.00212765951
      0.00212765951 0.00425531901 0.0255319141 0.00212765951
      0.00638297852 0.00212765951 0.00425531901 0.00638297852 0.
      0.00212765951 0. 0.00212765951 0.00638297852 0. 0. 0.
      0.00212765951 0.00425531901 0.00425531901 0. 0. 0.00425531901 0.
      0.00425531901 0. 0. 0.00212765951 0. 0.00212765951 0.00212765951
      0.00425531901 0. 0.0276595727 0. 0. 0.00212765951 0.00638297852 0.
      0. 0.00212765951 0. 0. 0. 0.00212765951 0.00212765951 0.0106382975
      0.00212765951 0. 0.0446808487 0. 0. 0.00212765951 0.00212765951
      0.0297872331 0.00212765951 0. 0.00212765951 0.00638297852 0.
      0.00212765951 0. 0. 0. 0.00212765951 0.00638297852 0.00212765951
      0.00425531901 0.00638297852 0. 0.00638297852 0. 0.0255319141 0.
      0.00212765951 0. 0.0191489346 0. 0.00212765951 0. 0.00212765951
      0.00212765951 0.0106382975 0.00212765951 0.00212765951 0.
      0.00212765951 0.00425531901 0. 0. 0. 0. 0.00425531901
      0.00212765951 0.00212765951 0.00212765951 0.00212765951
      0.046808511 0.00425531901 0.00212765951 0. 0.00212765951
      0.00212765951 0.00425531901 0.00638297852 0. 0. 0. 0.
      0.00212765951 0. 0.00425531901 0.00212765951 0.00425531901
      0.00212765951 0.00212765951 0. 0.00425531901 0. 0.00425531901 0.
      0. 0. 0.00212765951 0. 0. 0.00638297852 0. 0.00212765951
      0.00638297852 0.00212765951 0.00212765951 0. 0.00212765951 0. 0.
      0.00212765951 0.00638297852 0. 0. 0.00212765951</_>
    <_>
      0. 0.0181818176 0.0022727272 0.0022727272 0. 0.0045454544
      0.00681818184 0.0340909064 0. 0. 0. 0. 0. 0. 0. 0. 0.0318181813 0.
      0.0136363637 0.0318181813 0. 0. 0.00681818184 0. 0. 0.00681818184
      0. 0.00681818184 0. 0.0022727272 0. 0. 0.0113636358 0.0022727272
      0.0022727272 0. 0.0022727272 0.0022727272 0. 0.0045454544 0. 0.
      0.0113636358 0. 0.0022727272 0. 0.0090909088 0. 0. 0. 0.0022727272
      0. 0. 0.00681818184 0. 0.0022727272 0. 0. 0. 0. 0.0022727272 0.
      0.0181818176 0. 0.0090909088 0.0022727272 0. 0.0022727272 0. 0.
      0.0090909088 0. 0. 0.0022727272 0. 0. 0. 0. 0.0045454544
      0.0045454544 0.0022727272 0.0090909088 0. 0.0340909064 0. 0. 0. 0.
      0. 0. 0. 0.0045454544 0.0022727272 0.0022727272 0. 0.00681818184
      0. 0.0022727272 0. 0.00681818184 0. 0. 0. 0.00681818184
      0.0045454544 0. 0.0136363637 0. 0. 0.0022727272 0. 0. 0. 0. 0. 0.
      0.0113636358 0. 0. 0.0022727272 0. 0.0045454544 0. 0. 0. 0. 0. 0.
      0. 0. 0.0136363637 0. 0.0090909088 0.0113636358 0.0022727272
      0.0113636358 0. 0. 0.0181818176 0.0022727272 0.00681818184
      0.0272727273 0. 0. 0. 0.0022727272 0.0022727272 0.00681818184
      0.0045454544 0.0045454544 0. 0.0022727272 0. 0. 0. 0. 0. 0. 0. 0.
      0.0136363637 0. 0.0249999985 0. 0.0227272715 0. 0.0022727272
      0.0409090891 0.0022727272 0.0045454544 0. 0. 0.00681818184 0. 0.
      0. 0.0022727272 0. 0. 0.0022727272 0.0022727272 0.0113636358
      0.0022727272 0. 0. 0. 0. 0. 0. 0.0090909088 0.0181818176 0.
      0.0363636352 0.0045454544 0. 0. 0.0045454544 0.0045454544
      0.0045454544 0. 0. 0. 0. 0. 0.0022727272 0.00681818184
      0.0022727272 0.0022727272 0.0522727259 0. 0.0022727272 0. 0.
      0.0045454544 0.0022727272 0. 0. 0.0045454544 0. 0. 0. 0. 0.
      0.0022727272 0.0454545431 0. 0. 0. 0. 0.0022727272 0. 0.0295454543
      0. 0. 0. 0.0136363637 0.0045454544 0. 0. 0.0022727272 0.0022727272
      0. 0. 0.0022727272 0. 0. 0.0045454544 0. 0.0022727272 0.0022727272
      0. 0.0022727272 0. 0. 0.0022727272 0. 0.00681818184 0. 0. 0. 0. 0.
      0. 0. 0. 0.00681818184 0. 0.00681818184 0. 0. 0. 0.0022727272
      0.0045454544 0.0022727272 0. 0.0022727272 0. 0.0022727272
      0.0045454544 0.0022727272 0. 0. 0. 0. 0.0022727272 0. 0.0022727272
      0.00681818184 0. 0. 0. 0. 0. 0. 0. 0.0045454544 0. 0. 0.0022727272
      0.</_>
    <_>
      0. 0.0181451607 0.00201612897 0.00403225794 0. 0.00604838692
      0.00604838692 0.0181451607 0. 0. 0. 0. 0. 0. 0. 0.00201612897
      0.0181451607 0.00201612897 0.0262096766 0.00604838692
      0.00403225794 0. 0.0241935477 0.0100806449 0. 0. 0. 0.00201612897
      0.0141129028 0. 0. 0.00403225794 0.0161290318 0. 0.00403225794
      0.00201612897 0. 0. 0.00201612897 0.00201612897 0. 0. 0.0141129028
      0.00403225794 0. 0. 0.00201612897 0.00201612897 0. 0.00201612897
      0.00201612897 0. 0. 0. 0. 0.00201612897 0. 0.00604838692 0. 0.
      0.00403225794 0. 0.0100806449 0.00604838692 0. 0.00201612897 0.
      0.00604838692 0. 0. 0.0141129028 0. 0. 0. 0. 0.00201612897 0. 0.
      0. 0.00403225794 0.00201612897 0. 0.00201612897 0.00201612897
      0.00806451589 0. 0. 0. 0. 0. 0. 0.00403225794 0. 0. 0. 0.
      0.00403225794 0. 0. 0.0120967738 0. 0. 0. 0.00604838692 0.
      0.00201612897 0.0181451607 0. 0. 0.00201612897 0. 0.00201612897 0.
      0. 0.00201612897 0. 0.00604838692 0.00201612897 0. 0.
      0.00403225794 0. 0. 0. 0.00806451589 0. 0. 0.00201612897 0. 0.
      0.00403225794 0.00403225794 0.00403225794 0.00201612897
      0.00806451589 0.0161290318 0.00201612897 0.00403225794
      0.0181451607 0.00201612897 0.00201612897 0.0302419346 0.
      0.00201612897 0. 0.00403225794 0. 0. 0.00201612897 0.00403225794
      0.00201612897 0.0161290318 0. 0. 0. 0. 0. 0. 0. 0. 0.00604838692
      0.00201612897 0.0383064523 0. 0.0181451607 0. 0.00806451589
      0.0262096766 0. 0.00201612897 0. 0. 0.0141129028 0. 0. 0. 0.
      0.00604838692 0.00403225794 0. 0. 0.00403225794 0. 0.00201612897
      0.00201612897 0. 0. 0.00403225794 0.00403225794 0.00604838692
      0.0262096766 0. 0.0584677383 0.00604838692 0. 0. 0.0342741907 0.
      0. 0. 0. 0. 0. 0.00403225794 0.00201612897 0.00201612897
      0.00201612897 0.00201612897 0.00806451589 0.00403225794 0. 0.
      0.00201612897 0.0100806449 0.00201612897 0.00604838692 0.
      0.0241935477 0.00201612897 0. 0. 0. 0.00201612897 0.0100806449
      0.00403225794 0. 0. 0. 0. 0. 0.00201612897 0.0322580636 0.
      0.00806451589 0. 0.00604838692 0.00403225794 0. 0. 0.00403225794
      0. 0. 0.00201612897 0.00201612897 0. 0. 0.00201612897 0. 0. 0. 0.
      0.00201612897 0. 0. 0.00201612897 0. 0.00806451589 0.00201612897
      0. 0. 0. 0. 0.00201612897 0. 0. 0. 0. 0. 0. 0. 0.00403225794
      0.00403225794 0.00403225794 0.00403225794 0.00403225794
      0.00201612897 0.00806451589 0.00403225794 0.00201612897
      0.00604838692 0. 0. 0. 0. 0.00201612897 0.0120967738 0.
      0.00604838692 0.00201612897 0. 0. 0. 0. 0. 0.00201612897
      0.00201612897 0. 0. 0.00201612897 0.</_>
    <_>
      0. 0.0270935949 0.00738916267 0.00246305414 0. 0.00492610829
      0.00738916267 0.0221674871 0. 0. 0. 0. 0. 0.00738916267 0.
      0.00246305414 0.0418719202 0. 0.0172413792 0.00246305414 0.
      0.00246305414 0.0197044332 0.00492610829 0. 0. 0. 0.00492610829
      0.0172413792 0.00246305414 0. 0.00246305414 0.0123152705 0.
      0.0147783253 0.00246305414 0.00246305414 0.00246305414
      0.00985221658 0.00492610829 0. 0. 0.00738916267 0. 0. 0. 0.
      0.00492610829 0. 0. 0. 0. 0. 0. 0. 0.00492610829 0. 0.0123152705
      0. 0. 0. 0.00492610829 0.0147783253 0. 0. 0.00492610829
      0.00985221658 0. 0. 0.00246305414 0.00985221658 0. 0. 0. 0.
      0.00246305414 0.00492610829 0.00985221658 0.00492610829
      0.024630541 0. 0.00246305414 0.00246305414 0. 0.00492610829
      0.00246305414 0. 0. 0. 0.00246305414 0. 0.00492610829 0. 0.
      0.00246305414 0. 0.00492610829 0.00246305414 0.00246305414 0. 0.
      0.00738916267 0. 0.00738916267 0.00492610829 0. 0.00738916267 0.
      0. 0.00246305414 0. 0. 0. 0. 0. 0.00246305414 0.00985221658 0. 0.
      0. 0. 0.00246305414 0. 0. 0.00492610829 0. 0.00246305414 0. 0.
      0.00246305414 0.00738916267 0.00246305414 0.00246305414 0.
      0.00985221658 0.0295566507 0. 0. 0.0123152705 0.00246305414 0.
      0.0221674871 0.00246305414 0.00246305414 0. 0. 0.00246305414 0.
      0.00246305414 0.00492610829 0.00246305414 0.00246305414 0.
      0.00246305414 0. 0. 0.00246305414 0. 0.00246305414 0. 0.0123152705
      0. 0.0221674871 0.00246305414 0.00738916267 0.00246305414 0.
      0.00738916267 0.00246305414 0.00492610829 0. 0.00492610829
      0.0123152705 0. 0.00246305414 0.00246305414 0. 0.00246305414
      0.00246305414 0. 0. 0. 0. 0.00492610829 0. 0. 0. 0. 0.00738916267
      0. 0.00492610829 0.00492610829 0.0197044332 0. 0. 0.00492610829
      0.00492610829 0. 0. 0. 0. 0. 0. 0. 0.00246305414 0.00492610829 0.
      0. 0.0665024593 0. 0. 0. 0.00246305414 0.0320197046 0. 0. 0. 0. 0.
      0. 0. 0. 0. 0. 0. 0.00246305414 0. 0.00246305414 0. 0.00738916267
      0. 0.0320197046 0. 0.00738916267 0. 0.0172413792 0. 0.00492610829
      0. 0.00985221658 0. 0. 0. 0. 0. 0.00246305414 0.00492610829 0. 0.
      0. 0. 0. 0.00738916267 0. 0. 0. 0.0147783253 0. 0.00246305414
      0.00492610829 0.00246305414 0. 0.00246305414 0. 0. 0.
      0.00246305414 0.00246305414 0.00246305414 0.00246305414
      0.00246305414 0. 0.00246305414 0. 0.00492610829 0. 0.
      0.00246305414 0. 0. 0. 0. 0.00246305414 0. 0. 0.00246305414 0. 0.
      0.00246305414 0. 0. 0. 0. 0. 0.00492610829 0. 0.00492610829
      0.00246305414 0.00492610829 0.00738916267</_>
    <_>
      0. 0.0288461559 0.00480769249 0. 0. 0.00961538497 0.00721153896
      0.0408653878 0. 0. 0. 0. 0.00240384624 0.00721153896 0.
      0.00240384624 0.026442308 0. 0.00961538497 0. 0. 0.00240384624
      0.00961538497 0.00240384624 0. 0.00240384624 0. 0.00480769249
      0.0144230779 0. 0. 0.00480769249 0.00240384624 0. 0.00721153896 0.
      0. 0.00240384624 0.00480769249 0. 0. 0. 0.00480769249
      0.00721153896 0. 0. 0. 0.00240384624 0. 0. 0.00721153896 0. 0. 0.
      0. 0.00240384624 0. 0.00721153896 0. 0. 0. 0.00240384624 0.
      0.00240384624 0.00240384624 0.00240384624 0.00240384624
      0.00480769249 0. 0.00240384624 0.0144230779 0. 0. 0. 0. 0.
      0.00480769249 0.00721153896 0. 0.0192307699 0. 0.00240384624
      0.00240384624 0.00240384624 0.00480769249 0. 0. 0. 0.
      0.00240384624 0. 0.00480769249 0. 0. 0.00240384624 0.
      0.00721153896 0. 0. 0. 0. 0.00240384624 0. 0.00240384624
      0.00480769249 0. 0.0144230779 0. 0. 0.00721153896 0. 0. 0.
      0.00240384624 0. 0.00240384624 0.0144230779 0.00480769249 0. 0.
      0.00240384624 0.00240384624 0. 0. 0.00480769249 0.00240384624
      0.00240384624 0.00240384624 0. 0.00240384624 0.012019231
      0.00240384624 0.00240384624 0.00240384624 0.012019231 0.0144230779
      0. 0.00240384624 0.0192307699 0. 0. 0.0144230779 0.00240384624
      0.00240384624 0. 0. 0.00240384624 0.00240384624 0.00480769249
      0.00240384624 0.00240384624 0.024038462 0. 0.00240384624 0. 0.
      0.00240384624 0. 0.00240384624 0. 0.00961538497 0. 0.0384615399 0.
      0.00480769249 0.00240384624 0. 0.012019231 0. 0. 0. 0.00240384624
      0.00240384624 0. 0. 0. 0.00240384624 0.00240384624 0.00480769249
      0. 0. 0. 0. 0.00240384624 0. 0. 0. 0.00240384624 0.00480769249
      0.00240384624 0.00721153896 0.00240384624 0.0408653878 0. 0.
      0.00240384624 0.00961538497 0. 0. 0. 0. 0. 0. 0.00480769249 0.
      0.00961538497 0.00240384624 0.00240384624 0.0649038479 0. 0. 0. 0.
      0.0192307699 0.00240384624 0. 0. 0.00961538497 0. 0.00240384624 0.
      0. 0.00240384624 0. 0.00240384624 0.00721153896 0.00240384624
      0.00480769249 0. 0.00480769249 0.00240384624 0.0288461559 0. 0. 0.
      0.012019231 0.00240384624 0.00240384624 0. 0.00240384624 0.
      0.00240384624 0. 0.00240384624 0. 0. 0.00480769249 0. 0. 0. 0.
      0.00480769249 0.00480769249 0.00480769249 0. 0.00240384624 0. 0.
      0.00240384624 0.00240384624 0.00240384624 0. 0.00240384624
      0.00240384624 0.00480769249 0.00240384624 0. 0.00240384624 0. 0.
      0.00480769249 0. 0.00480769249 0.00240384624 0.00240384624 0. 0.
      0.00480769249 0.00240384624 0.00240384624 0. 0. 0. 0. 0.
      0.021634616 0. 0. 0.00480769249 0.00240384624 0.00721153896 0. 0.
      0. 0.00240384624 0. 0.00721153896 0.00240384624 0.00240384624 0.</_>
    <_>
      0. 0.0226843096 0.00189035921 0.00189035921 0. 0.00567107741
      0.00189035921 0.0378071852 0. 0. 0. 0.00189035921 0.00378071843
      0.00756143685 0. 0.00378071843 0.0453686193 0. 0.0094517963
      0.0094517963 0. 0.00189035921 0.0094517963 0.00189035921 0. 0. 0.
      0.00378071843 0.020793952 0. 0. 0.00189035921 0.0170132332 0.
      0.0132325143 0.00189035921 0. 0.00189035921 0.00378071843
      0.00189035921 0. 0. 0.00378071843 0.00189035921 0. 0.00189035921
      0.00189035921 0.00189035921 0. 0.00189035921 0.00378071843 0. 0.
      0. 0. 0.00189035921 0. 0.0094517963 0. 0. 0. 0. 0.0113421548
      0.00567107741 0. 0.00189035921 0.00756143685 0.00189035921 0.
      0.00189035921 0.032136105 0. 0. 0. 0. 0. 0.00378071843
      0.00378071843 0.00378071843 0.0132325143 0. 0. 0.00378071843
      0.00756143685 0.00189035921 0.00189035921 0. 0. 0. 0.00189035921
      0. 0. 0. 0. 0.00378071843 0. 0.00567107741 0.00189035921 0.
      0.00189035921 0. 0. 0.00189035921 0.00378071843 0. 0. 0.0094517963
      0.00189035921 0. 0.00378071843 0. 0. 0. 0.00189035921 0.
      0.00189035921 0.00567107741 0.00756143685 0. 0. 0. 0. 0. 0.
      0.00378071843 0. 0.00189035921 0. 0. 0.00378071843 0.00378071843
      0.00567107741 0. 0. 0.00378071843 0.0170132332 0. 0.00189035921
      0.0151228737 0. 0. 0.0189035926 0.00189035921 0. 0. 0.
      0.00189035921 0. 0.0113421548 0.00189035921 0.00189035921
      0.0170132332 0.00567107741 0.00189035921 0. 0. 0. 0. 0.00189035921
      0.00378071843 0.00189035921 0.00189035921 0.0264650285 0.
      0.0094517963 0.00189035921 0.00189035921 0.0151228737 0. 0. 0.
      0.00189035921 0.0094517963 0. 0.00189035921 0.00189035921 0.
      0.00189035921 0.00189035921 0. 0. 0.00189035921 0. 0.00189035921
      0.00756143685 0.00189035921 0. 0.00189035921 0.00756143685
      0.0113421548 0.0094517963 0. 0.0132325143 0. 0. 0.00378071843
      0.0094517963 0. 0. 0. 0. 0. 0. 0.00189035921 0.00378071843
      0.00756143685 0.00189035921 0. 0.0756143704 0. 0. 0.00189035921 0.
      0.0264650285 0. 0. 0.00189035921 0.0132325143 0. 0. 0. 0. 0.
      0.00189035921 0. 0.00189035921 0.00189035921 0.00378071843 0.
      0.00189035921 0. 0.0264650285 0. 0.00189035921 0. 0.0113421548
      0.00189035921 0. 0.00189035921 0.00378071843 0. 0.00189035921
      0.00189035921 0.00189035921 0. 0.00189035921 0.00378071843 0. 0.
      0. 0. 0.00378071843 0.00378071843 0.00378071843 0. 0.00189035921
      0.0094517963 0.00189035921 0.00189035921 0. 0.00189035921
      0.00189035921 0.00567107741 0. 0.00189035921 0. 0. 0.00189035921
      0. 0.00189035921 0.00378071843 0. 0.00189035921 0. 0.00567107741
      0. 0.0132325143 0.00189035921 0.00378071843 0.00189035921
      0.00189035921 0. 0.00189035921 0. 0. 0.0094517963 0. 0.00756143685
      0.00378071843 0.00189035921 0. 0. 0. 0. 0.00189035921
      0.00189035921 0.00378071843 0. 0. 0.</_>
    <_>
      0. 0.0215310995 0.00478468882 0. 0. 0.00717703346 0.00956937764
      0.0191387553 0. 0. 0. 0.00239234441 0.00717703346 0.00478468882
      0.00239234441 0.00478468882 0.0669856444 0. 0.00717703346
      0.00239234441 0.00239234441 0.00239234441 0.0143540669 0. 0. 0. 0.
      0.00717703346 0.0143540669 0.00239234441 0. 0.00239234441
      0.0119617218 0. 0.0167464111 0. 0.00239234441 0. 0. 0.00239234441
      0. 0. 0.00239234441 0.00239234441 0. 0.00239234441 0.
      0.00478468882 0. 0. 0.00239234441 0. 0. 0. 0. 0.00239234441 0.
      0.00239234441 0. 0. 0. 0. 0.00717703346 0. 0. 0.00239234441
      0.00239234441 0.00717703346 0. 0.00239234441 0.0191387553 0. 0. 0.
      0. 0. 0.00239234441 0.00717703346 0.00239234441 0.00956937764 0.
      0. 0.00239234441 0. 0.00478468882 0. 0. 0.00239234441 0.
      0.00239234441 0.00239234441 0.00478468882 0. 0. 0. 0.
      0.00717703346 0.00239234441 0.00239234441 0. 0. 0. 0.00239234441
      0.00239234441 0. 0. 0.0143540669 0. 0. 0.00717703346 0. 0.
      0.00239234441 0.00239234441 0. 0.00239234441 0.00956937764
      0.00239234441 0. 0. 0. 0. 0. 0. 0. 0. 0.00239234441 0.
      0.00239234441 0.00239234441 0.00478468882 0. 0.00239234441
      0.00478468882 0.00717703346 0.0191387553 0. 0. 0.0215310995 0.
      0.00239234441 0.0167464111 0. 0.00239234441 0. 0. 0.00239234441 0.
      0.00956937764 0.00239234441 0.00239234441 0.0119617218
      0.00478468882 0.00239234441 0.00239234441 0. 0. 0. 0.00239234441
      0. 0.00239234441 0.00239234441 0.0358851664 0.00478468882
      0.0143540669 0.00239234441 0. 0.0119617218 0. 0.00239234441 0.
      0.00239234441 0.00478468882 0. 0. 0.00239234441 0. 0.00239234441
      0.00478468882 0. 0. 0. 0. 0.00239234441 0.00239234441 0. 0. 0.
      0.00478468882 0.00239234441 0.00478468882 0. 0.0334928222 0. 0.
      0.00478468882 0.00717703346 0. 0. 0. 0. 0. 0. 0. 0. 0.0119617218
      0. 0.00239234441 0.0406698547 0. 0. 0. 0. 0.0263157878 0. 0. 0.
      0.0454545431 0. 0.00239234441 0. 0. 0. 0. 0. 0. 0.00239234441
      0.00239234441 0. 0.00239234441 0.00239234441 0.0239234436
      0.00239234441 0.00478468882 0. 0.0191387553 0. 0.00239234441 0.
      0.00239234441 0. 0.00239234441 0.00239234441 0.00239234441 0. 0.
      0.00478468882 0.00239234441 0. 0. 0. 0.00478468882 0.00239234441
      0.00478468882 0.00239234441 0. 0.0167464111 0. 0. 0.00239234441
      0.00239234441 0.00239234441 0.00239234441 0.00478468882
      0.00239234441 0. 0. 0.00239234441 0.00239234441 0. 0.00239234441
      0.00239234441 0.00478468882 0.00239234441 0.00956937764 0.
      0.00717703346 0.00478468882 0. 0. 0. 0. 0. 0. 0. 0.00239234441
      0.00239234441 0.00478468882 0.00478468882 0.00239234441 0. 0. 0.
      0. 0. 0. 0.00239234441 0.00239234441 0. 0.00239234441</_>
    <_>
      0. 0.0317460336 0.00226757373 0. 0. 0.0113378689 0.00680272095
      0.0408163257 0. 0. 0. 0. 0.00680272095 0.00453514745 0.
      0.00226757373 0.0226757377 0. 0.00907029491 0. 0. 0.00226757373
      0.0113378689 0.00680272095 0. 0. 0. 0.00226757373 0.0136054419
      0.00226757373 0. 0.00226757373 0.00226757373 0. 0. 0.00226757373
      0.00226757373 0.00226757373 0.00226757373 0.00907029491 0. 0.
      0.00453514745 0.00226757373 0. 0.00226757373 0. 0. 0.
      0.00226757373 0.00453514745 0. 0. 0. 0. 0. 0. 0.0136054419 0. 0.
      0. 0.00226757373 0.00680272095 0.00453514745 0. 0.00226757373
      0.00453514745 0.00453514745 0. 0.00453514745 0.0181405898 0. 0. 0.
      0. 0. 0.00680272095 0.00453514745 0.00453514745 0.0204081628 0.
      0.00680272095 0. 0. 0. 0. 0. 0. 0. 0.00226757373 0. 0. 0. 0.
      0.00226757373 0. 0.00226757373 0. 0.00226757373 0. 0.
      0.00453514745 0. 0.00226757373 0. 0. 0.00680272095 0.00226757373
      0. 0.00680272095 0. 0. 0. 0. 0. 0.00226757373 0.00907029491
      0.00907029491 0. 0. 0. 0. 0. 0. 0.00453514745 0.00226757373 0.
      0.00226757373 0. 0.00453514745 0.00226757373 0.00226757373 0. 0.
      0.00680272095 0.0272108838 0.00226757373 0. 0.0181405898 0. 0.
      0.0158730168 0.00226757373 0. 0. 0.00453514745 0.00226757373 0.
      0.00680272095 0.00226757373 0.00226757373 0.0158730168
      0.00226757373 0.00226757373 0. 0. 0. 0. 0.00226757373 0.
      0.00453514745 0.00226757373 0.0294784587 0. 0.0136054419
