<?xml version="1.0"?>
<opencv_storage>
<opencv_ml_svm>
  <format>3</format>
  <svmType>C_SVC</svmType>
  <kernel>
    <type>RBF</type>
    <gamma>0.50625000000000009</gamma></kernel>
  <C>312.5</C>
  <term_criteria><epsilon>1.1920928955078125e-07</epsilon>
    <iterations>1000</iterations></term_criteria>
  <var_count>200</var_count>
  <class_count>13</class_count>
  <class_labels type_id="opencv-matrix">
    <rows>13</rows>
    <cols>1</cols>
    <dt>i</dt>
    <data>
      0 1 2 3 4 5 6 7 8 9 10 11 12</data></class_labels>
  <sv_total>259</sv_total>
  <support_vectors>
    <_>
      0. 0.032319393 0.00380228134 0. 0.00570342224 0.00380228134
      0.00190114067 0.00190114067 0. 0.00760456268 0.00380228134
      0.00190114067 0.00760456268 0. 0. 0.00570342224 0.00760456268
      0.00380228134 0.00190114067 0.00570342224 0.0247148294
      0.00760456268 0.00190114067 0. 0.022813689 0.0209125467
      0.00380228134 0. 0.00950570311 0.00380228134 0.00570342224
      0.00760456268 0.00380228134 0.00380228134 0.00380228134
      0.00380228134 0. 0.00570342224 0.00760456268 0.00570342224
      0.00190114067 0.00380228134 0.00190114067 0. 0. 0.00190114067
      0.00570342224 0.00760456268 0.00190114067 0.00570342224
      0.0171102658 0. 0.00190114067 0.00190114067 0.0532319397
      0.0570342205 0.00190114067 0. 0.0114068445 0.00190114067
      0.00380228134 0.00570342224 0.00190114067 0. 0.0380228125
      0.00190114067 0. 0.00190114067 0.00570342224 0.00190114067 0.
      0.00190114067 0.00570342224 0.00190114067 0. 0.00190114067
      0.00570342224 0. 0. 0.00190114067 0.00190114067 0.00380228134
      0.00190114067 0.0114068445 0.00380228134 0.00190114067
      0.0152091254 0. 0.00570342224 0. 0.00190114067 0.00950570311
      0.0114068445 0.00190114067 0. 0.00570342224 0.00380228134
      0.00190114067 0.00760456268 0. 0.00380228134 0. 0.00380228134
      0.00950570311 0.00570342224 0.0133079849 0.00380228134
      0.00190114067 0. 0.00190114067 0.00570342224 0.00190114067
      0.00760456268 0.00380228134 0.00190114067 0. 0. 0.00190114067
      0.00570342224 0. 0.00570342224 0. 0.00190114067 0.00190114067
      0.0247148294 0.00190114067 0.00190114067 0. 0.00380228134 0. 0. 0.
      0.00190114067 0.00190114067 0.00570342224 0.00570342224 0.
      0.00570342224 0. 0.00190114067 0.00570342224 0.00190114067
      0.0133079849 0.00950570311 0.00570342224 0.0171102658
      0.00190114067 0. 0. 0. 0.00380228134 0.00190114067 0. 0.0152091254
      0. 0.0114068445 0.00190114067 0.00570342224 0.00380228134
      0.00190114067 0.00760456268 0.00570342224 0.00190114067 0.
      0.00190114067 0.0190114062 0.00190114067 0.00190114067
      0.00190114067 0.00570342224 0.00570342224 0.00190114067
      0.00760456268 0.00760456268 0.00380228134 0.00380228134
      0.00380228134 0.00190114067 0. 0.00760456268 0. 0.00760456268
      0.00380228134 0.00570342224 0.00950570311 0.00570342224
      0.00380228134 0.00190114067 0.00570342224 0.00760456268 0.
      0.00190114067 0.00190114067 0.00760456268 0.0114068445
      0.00380228134 0.00190114067 0.00190114067 0.00570342224 0.</_>
    <_>
      0. 0.0217391308 0.0169082116 0.00120772945 0.0108695654
      0.00603864715 0.00120772945 0.0024154589 0.0024154589
      0.00483091781 0.00362318847 0.00362318847 0.00483091781
      0.0024154589 0. 0.00845410582 0.0229468588 0.00120772945 0.
      0.0024154589 0.00966183562 0.00845410582 0.00120772945
      0.00120772945 0.0362318829 0.0301932357 0.00120772945
      0.00120772945 0.00362318847 0.00120772945 0.0024154589
      0.00483091781 0.0024154589 0. 0.00362318847 0.00120772945
      0.0024154589 0.00120772945 0. 0.00120772945 0. 0.00483091781
      0.00120772945 0.00120772945 0.0024154589 0.0024154589
      0.00362318847 0.0024154589 0.00120772945 0.0024154589 0.0120772943
      0.0024154589 0.00120772945 0. 0.0567632839 0.0495169088
      0.0024154589 0.00603864715 0.00603864715 0.00120772945
      0.00362318847 0.00483091781 0.00120772945 0. 0.0108695654 0. 0.
      0.00120772945 0.00120772945 0.00120772945 0. 0.00120772945
      0.0120772943 0.00603864715 0. 0.00483091781 0.0024154589 0.
      0.0024154589 0. 0.0024154589 0.00603864715 0.00120772945
      0.0120772943 0. 0.00483091781 0.0217391308 0. 0.0024154589
      0.00120772945 0.00362318847 0.00603864715 0.00603864715
      0.00120772945 0.00120772945 0.0024154589 0. 0.00120772945 0.
      0.00120772945 0.020531401 0.00120772945 0. 0.00845410582
      0.00483091781 0.0193236712 0.00120772945 0.00483091781 0.
      0.0193236712 0.0024154589 0.00120772945 0.00603864715 0.0024154589
      0.00362318847 0.00120772945 0.00362318847 0.00120772945
      0.00120772945 0.00483091781 0. 0.0024154589 0.00483091781
      0.00120772945 0.0217391308 0.00362318847 0. 0.0024154589
      0.00362318847 0.00362318847 0. 0.00120772945 0.00120772945
      0.0024154589 0.0024154589 0.00120772945 0.00120772945 0.0338164233
      0.0108695654 0.00120772945 0.00483091781 0.0024154589 0.0193236712
      0.0144927539 0.0024154589 0.0132850241 0.00120772945 0. 0.
      0.00120772945 0.00120772945 0.00120772945 0. 0.0314009674
      0.0024154589 0.00603864715 0.00120772945 0.00120772945
      0.00483091781 0.00120772945 0.0108695654 0. 0.00362318847
      0.00120772945 0.00120772945 0.0108695654 0.00120772945 0.
      0.00603864715 0.00483091781 0.0024154589 0.00120772945
      0.00603864715 0.00362318847 0.00120772945 0. 0.00603864715
      0.0024154589 0. 0.00483091781 0.00120772945 0.00362318847
      0.0024154589 0.0024154589 0.0144927539 0.00362318847 0.00603864715
      0.00120772945 0.00120772945 0.0024154589 0.0024154589
      0.00120772945 0.0024154589 0.00845410582 0.0265700482 0.0157004837
      0. 0. 0.00120772945 0.00120772945</_>
    <_>
      0. 0.0238095243 0.00549450563 0. 0. 0.00732600736 0. 0. 0.
      0.00366300368 0.00183150184 0.00183150184 0.00366300368
      0.00366300368 0. 0.012820513 0.0164835174 0. 0.00183150184
      0.00549450563 0.0219780225 0.00183150184 0.00183150184 0.
      0.00366300368 0.00915750954 0.00183150184 0.00183150184
      0.00549450563 0. 0.00366300368 0. 0.00732600736 0.00366300368
      0.012820513 0.00183150184 0. 0.00183150184 0.0183150191
      0.00915750954 0. 0.00915750954 0.00183150184 0. 0.00366300368
      0.00732600736 0.0109890113 0.00549450563 0. 0.00549450563
      0.012820513 0.00549450563 0.00183150184 0. 0.0347985364
      0.0311355311 0.00183150184 0.00183150184 0.00549450563 0.
      0.00549450563 0.00183150184 0.00366300368 0. 0.0201465208
      0.00183150184 0. 0.00183150184 0.00366300368 0.00183150184 0.
      0.00549450563 0.0109890113 0.00183150184 0. 0.0109890113
      0.00366300368 0. 0.00366300368 0.00183150184 0.00549450563 0.
      0.00183150184 0.00915750954 0.00183150184 0.00366300368
      0.0549450554 0. 0.00915750954 0.00183150184 0.00183150184
      0.00549450563 0.00732600736 0.00183150184 0.00549450563
      0.00549450563 0. 0. 0.00366300368 0. 0.00183150184 0. 0.012820513
      0.00366300368 0.00549450563 0.0146520147 0.00183150184
      0.00366300368 0. 0.0164835174 0.00183150184 0.00183150184
      0.00549450563 0.00549450563 0.00366300368 0.00183150184
      0.00183150184 0.00183150184 0.00183150184 0.00183150184
      0.00366300368 0.00366300368 0.00366300368 0. 0.0494505502
      0.00183150184 0.00732600736 0.00183150184 0.00366300368
      0.00183150184 0. 0.00183150184 0.00183150184 0.00366300368
      0.00183150184 0.00732600736 0. 0.00732600736 0.00183150184
      0.00366300368 0.00366300368 0.00549450563 0.0146520147
      0.00732600736 0.00366300368 0.0109890113 0.00183150184 0. 0.
      0.00183150184 0. 0.00183150184 0. 0.025641026 0. 0.00366300368
      0.00366300368 0.00183150184 0.00549450563 0.00915750954
      0.00915750954 0.00183150184 0.00549450563 0.00549450563
      0.00183150184 0.0384615399 0.00183150184 0.00183150184
      0.00732600736 0.00549450563 0.00366300368 0.00183150184
      0.00366300368 0.00183150184 0.00366300368 0. 0.00183150184
      0.00366300368 0. 0.0109890113 0.00183150184 0.00183150184
      0.00549450563 0. 0.00915750954 0.00549450563 0.00183150184 0. 0.
      0.00366300368 0. 0.00183150184 0.00183150184 0.0146520147
      0.00549450563 0.00549450563 0. 0.00183150184 0.00183150184
      0.00183150184</_>
    <_>
      0. 0.0127272727 0.00181818183 0.00181818183 0.00545454537 0. 0. 0.
      0.00181818183 0.00363636366 0.00181818183 0.00181818183
      0.00363636366 0.00545454537 0.00363636366 0.0090909088
      0.0109090907 0.00545454537 0.00181818183 0.00363636366
      0.0218181815 0.00363636366 0. 0. 0.0199999996 0.0145454546
      0.00363636366 0.00181818183 0.0145454546 0.00181818183 0.
      0.00545454537 0.00727272732 0.00545454537 0.00181818183
      0.00545454537 0.00181818183 0.00727272732 0.0127272727
      0.00363636366 0.00181818183 0.0145454546 0. 0. 0.00181818183
      0.00545454537 0.00363636366 0. 0. 0.00363636366 0.0127272727
      0.00181818183 0. 0.00181818183 0.0127272727 0.038181819
      0.00363636366 0.00727272732 0.00727272732 0.00181818183
      0.00363636366 0. 0.0090909088 0. 0.0363636352 0.00181818183 0.
      0.00181818183 0.00363636366 0.00363636366 0. 0. 0.00363636366
      0.00181818183 0. 0.0109090907 0.00181818183 0. 0.00363636366
      0.00181818183 0.00181818183 0. 0.00181818183 0.0181818176
      0.00181818183 0.00181818183 0.038181819 0. 0.00727272732
      0.00181818183 0. 0.00363636366 0.0090909088 0.00181818183
      0.00363636366 0.00363636366 0. 0.00181818183 0.00363636366
      0.00181818183 0.0090909088 0.00181818183 0.00727272732
      0.00727272732 0.0145454546 0.0109090907 0. 0.00545454537 0.
      0.0127272727 0.00363636366 0.00181818183 0.00545454537
      0.00363636366 0.00181818183 0.00181818183 0. 0.00181818183 0.
      0.00363636366 0.00545454537 0. 0. 0.00181818183 0.0472727269
      0.00363636366 0.00727272732 0.00727272732 0.00363636366
      0.00363636366 0. 0.00181818183 0.00181818183 0.00181818183
      0.00181818183 0.00363636366 0.00181818183 0.0109090907
      0.00181818183 0.00181818183 0.00727272732 0.00181818183
      0.0181818176 0.0109090907 0.00545454537 0.00727272732
      0.00181818183 0. 0. 0. 0.00545454537 0. 0. 0.0309090912
      0.00181818183 0.00545454537 0.00181818183 0.00363636366
      0.0090909088 0.00181818183 0.00727272732 0. 0.00181818183
      0.00363636366 0.00181818183 0.0236363634 0.00363636366
      0.00181818183 0.00181818183 0.00363636366 0.00545454537
      0.00181818183 0.00363636366 0.00727272732 0.00727272732
      0.00363636366 0.00363636366 0.00181818183 0. 0.00727272732
      0.00181818183 0.0145454546 0.00181818183 0.00545454537
      0.00727272732 0.00727272732 0.00545454537 0.00181818183 0.
      0.00363636366 0. 0.00181818183 0.00181818183 0.0090909088
      0.0090909088 0.00727272732 0. 0.00363636366 0.00181818183
      0.00181818183</_>
    <_>
      0. 0.0108695654 0.00724637695 0.00181159424 0. 0.00181159424 0.
      0.00362318847 0. 0.00181159424 0.00362318847 0.00362318847
      0.00905797072 0.00181159424 0. 0.00724637695 0.0108695654 0. 0.
      0.00181159424 0.0253623202 0.00724637695 0.00181159424 0.
      0.00905797072 0.0199275371 0.00362318847 0.00543478271
      0.00724637695 0. 0.00362318847 0.00362318847 0.00724637695
      0.00543478271 0. 0.00362318847 0.00362318847 0.00543478271
      0.0163043477 0.00724637695 0. 0.00543478271 0. 0.00362318847
      0.00181159424 0.00724637695 0.0108695654 0.00181159424
      0.00543478271 0.00362318847 0.0144927539 0.00905797072
      0.00362318847 0.00181159424 0.0416666679 0.0344202891
      0.00181159424 0.00905797072 0.00181159424 0.00543478271
      0.00181159424 0.00181159424 0.00724637695 0. 0.00905797072
      0.00181159424 0.00181159424 0.00181159424 0.00543478271
      0.00362318847 0.00181159424 0.00181159424 0.0108695654
      0.00543478271 0. 0.027173914 0.00543478271 0. 0.00362318847
      0.00181159424 0.00181159424 0.00181159424 0. 0.0144927539
      0.00362318847 0.00362318847 0.0289855078 0. 0.00181159424 0.
      0.00181159424 0.00362318847 0.0108695654 0.00181159424
      0.00181159424 0.00181159424 0.00362318847 0.00181159424
      0.00543478271 0.00362318847 0.00905797072 0. 0.00543478271
      0.00362318847 0.00362318847 0.0163043477 0. 0.00724637695 0.
      0.0199275371 0. 0.00181159424 0.00724637695 0.00181159424 0.
      0.00181159424 0. 0. 0.00181159424 0.00543478271 0.00181159424
      0.00543478271 0. 0. 0.0416666679 0.00181159424 0.00362318847
      0.00362318847 0.00181159424 0.00181159424 0. 0. 0.00181159424 0.
      0.00362318847 0.00543478271 0.00181159424 0.00724637695 0.
      0.00543478271 0.00905797072 0.0126811601 0.0126811601
      0.00905797072 0.00181159424 0.00724637695 0.00181159424 0. 0.
      0.00543478271 0. 0.00362318847 0. 0.0181159414 0. 0.00543478271 0.
      0.00362318847 0.00905797072 0. 0.00362318847 0. 0.00724637695
      0.00181159424 0. 0.0434782617 0.00181159424 0.00362318847
      0.00543478271 0.00905797072 0.00362318847 0.00181159424
      0.00724637695 0.00543478271 0. 0.00362318847 0. 0.00181159424 0.
      0.00181159424 0.00181159424 0.00905797072 0.00362318847
      0.00543478271 0.00543478271 0.00181159424 0.00181159424 0.
      0.00181159424 0.00181159424 0. 0.00543478271 0.00181159424
      0.0108695654 0.0144927539 0.00543478271 0. 0.00362318847
      0.00181159424 0.00181159424</_>
    <_>
      0. 0.018108651 0.00804828946 0. 0. 0.00201207236 0. 0.
      0.00603621732 0.00603621732 0. 0.00201207236 0.00804828946 0. 0.
      0.00804828946 0.018108651 0.00402414473 0. 0.00804828946
      0.018108651 0.00402414473 0. 0. 0.0221327953 0.0442655906 0. 0.
      0.00603621732 0.00201207236 0.00201207236 0. 0.00804828946
      0.00603621732 0. 0.00201207236 0.00402414473 0.00201207236
      0.00402414473 0.0100603616 0. 0.00804828946 0.00201207236
      0.00402414473 0. 0.00402414473 0.00402414473 0.00603621732 0.
      0.00201207236 0.0140845068 0.00603621732 0. 0.00201207236
      0.0623742417 0.0362173021 0.00201207236 0.00201207236
      0.00402414473 0. 0.00402414473 0. 0.00402414473 0. 0.018108651 0.
      0.00201207236 0.00201207236 0.00402414473 0. 0.00402414473 0.
      0.0120724346 0.00201207236 0. 0.00201207236 0.00402414473 0. 0. 0.
      0.00402414473 0.00201207236 0.00201207236 0.0120724346 0.
      0.00804828946 0.0321931578 0. 0.00804828946 0.00201207236 0.
      0.00201207236 0.0120724346 0.00201207236 0.00603621732
      0.00603621732 0. 0. 0.00402414473 0. 0.018108651 0. 0.0100603616
      0.00402414473 0.00201207236 0.0241448693 0. 0.00603621732 0.
      0.00804828946 0. 0.00201207236 0.00201207236 0.00402414473 0. 0.
      0. 0.00201207236 0.00402414473 0.00402414473 0. 0. 0.00201207236
      0. 0.0402414463 0.00201207236 0.00201207236 0.00201207236 0.
      0.0140845068 0. 0.00201207236 0.00201207236 0.00201207236
      0.00402414473 0.00201207236 0.00201207236 0.0261569414
      0.00201207236 0.00201207236 0.0140845068 0.00201207236
      0.0201207232 0.00201207236 0.00402414473 0.0100603616
      0.00201207236 0. 0. 0. 0.00804828946 0. 0. 0.0120724346 0.
      0.00402414473 0.00402414473 0.00201207236 0.00804828946 0.
      0.00603621732 0.00603621732 0.00402414473 0.00201207236
      0.00201207236 0.0140845068 0.00201207236 0. 0. 0.00603621732 0. 0.
      0.00804828946 0.00603621732 0.00201207236 0. 0.00402414473 0. 0.
      0.00201207236 0.00201207236 0.0100603616 0. 0.00402414473
      0.00603621732 0.00804828946 0.00402414473 0.00402414473
      0.00201207236 0.00402414473 0. 0.00201207236 0.00201207236
      0.0120724346 0.0241448693 0.0100603616 0. 0.00201207236
      0.00402414473 0.00201207236</_>
    <_>
      0. 0.0214477219 0.00938337855 0.00134048262 0.00938337855
      0.00402144808 0. 0.00268096523 0.00268096523 0.00268096523
      0.00134048262 0.00268096523 0.00804289617 0.00536193047 0.
      0.00402144808 0.0107238609 0. 0. 0.00268096523 0.014745309
      0.00536193047 0.00402144808 0.00134048262 0.0321715847 0.040214479
      0.00134048262 0.00268096523 0.00804289617 0.00268096523
      0.00268096523 0.00536193047 0.00134048262 0. 0.00134048262
      0.00268096523 0.00402144808 0.00670241285 0.00536193047
      0.00134048262 0. 0.00536193047 0.00134048262 0.00134048262
      0.00134048262 0.00402144808 0.00134048262 0.00134048262 0.
      0.00134048262 0.0375335142 0.00268096523 0.00134048262
      0.00134048262 0.0844504014 0.0442359261 0.00268096523
      0.00402144808 0.00134048262 0.00134048262 0.00268096523
      0.00134048262 0. 0.00134048262 0.00804289617 0. 0.00134048262
      0.00134048262 0.00268096523 0.00134048262 0.00134048262 0.
      0.00134048262 0.00268096523 0. 0.00268096523 0.00268096523 0. 0.
      0.00134048262 0.00670241285 0.00134048262 0.00134048262
      0.00804289617 0.00134048262 0.00268096523 0.029490618 0.
      0.00134048262 0.00134048262 0.00268096523 0.00402144808
      0.00536193047 0.00134048262 0.00134048262 0.00402144808
      0.00268096523 0. 0.00536193047 0.00134048262 0.0214477219
      0.00134048262 0.00134048262 0.00536193047 0.00402144808
      0.0174262747 0.00134048262 0.00268096523 0. 0.00804289617
      0.00268096523 0.00134048262 0.00938337855 0.00268096523
      0.00402144808 0.00134048262 0. 0. 0.00402144808 0.00402144808
      0.00134048262 0.00268096523 0.00804289617 0. 0.0241286866
      0.00268096523 0.00268096523 0.00268096523 0.00268096523
      0.00670241285 0.00134048262 0.00134048262 0.00134048262
      0.00536193047 0.00134048262 0.00536193047 0.00134048262
      0.0107238609 0.00670241285 0.00268096523 0.00536193047
      0.00134048262 0.025469169 0.0134048257 0.00268096523 0.0120643433
      0. 0. 0. 0. 0.00268096523 0.00268096523 0. 0.0241286866 0.
      0.00402144808 0.00268096523 0.00402144808 0.00536193047 0.
      0.0107238609 0.00402144808 0.00402144808 0.00402144808
      0.00134048262 0.00938337855 0.00134048262 0.00134048262
      0.00134048262 0.00938337855 0. 0.00134048262 0.00670241285
      0.00938337855 0. 0.00402144808 0.00134048262 0.00402144808 0.
      0.00670241285 0. 0.0107238609 0. 0.00402144808 0.0107238609
      0.00134048262 0.00670241285 0.00134048262 0.00536193047
      0.00134048262 0.00268096523 0.00536193047 0.00134048262
      0.00804289617 0.00938337855 0.00804289617 0.00134048262
      0.00134048262 0.00402144808 0.00268096523</_>
    <_>
      0. 0.0430107526 0.008960573 0.00179211469 0.00537634408
      0.00179211469 0.00179211469 0.00179211469 0. 0.00716845877
      0.00179211469 0.00179211469 0.008960573 0.00537634408 0.
      0.00537634408 0.0161290318 0.008960573 0. 0.00537634408
      0.0232974906 0.00537634408 0. 0. 0.03763441 0.0448028669
      0.00179211469 0.00358422939 0.00537634408 0.00358422939
      0.00358422939 0.00179211469 0.00716845877 0. 0. 0.00179211469
      0.00179211469 0.00179211469 0.0125448033 0.00179211469 0.
      0.00537634408 0.00537634408 0. 0. 0.00716845877 0.00537634408
      0.00179211469 0.00179211469 0.00537634408 0.00716845877
      0.00537634408 0.00358422939 0.00179211469 0.0698924735
      0.0483870953 0.00358422939 0.008960573 0.008960573 0.
      0.00537634408 0.00537634408 0. 0.00179211469 0.008960573 0. 0.
      0.00179211469 0. 0.00179211469 0. 0. 0.00358422939 0.00179211469
      0. 0. 0.00358422939 0. 0. 0.00179211469 0.00179211469
      0.00358422939 0.00358422939 0.00537634408 0.00179211469
      0.00358422939 0.0125448033 0. 0.00358422939 0.00179211469
      0.00179211469 0.00358422939 0.00716845877 0.00358422939
      0.00179211469 0.00716845877 0.00179211469 0. 0.00716845877 0.
      0.00716845877 0. 0.00537634408 0.00537634408 0.00358422939
      0.0161290318 0. 0.008960573 0. 0.00716845877 0. 0.00179211469
      0.00537634408 0.00358422939 0.00358422939 0.00179211469 0.
      0.00358422939 0. 0.00537634408 0.00358422939 0.00537634408
      0.00358422939 0. 0.0286738351 0.00179211469 0.00716845877
      0.00179211469 0.00358422939 0.00358422939 0. 0. 0.00179211469 0.
      0.00179211469 0. 0.00358422939 0.0125448033 0.00179211469
      0.00358422939 0.0125448033 0.00179211469 0.008960573 0.008960573
      0.00537634408 0.00716845877 0.00179211469 0. 0. 0. 0.00179211469
      0.00537634408 0. 0.0125448033 0.00179211469 0.00716845877
      0.00179211469 0.00179211469 0.00716845877 0.00179211469
      0.017921146 0. 0.00179211469 0.00358422939 0.00179211469
      0.0107526882 0.00537634408 0. 0.00537634408 0.00537634408
      0.00179211469 0.00179211469 0.008960573 0.00179211469
      0.00179211469 0.00179211469 0.00358422939 0.00179211469 0.
      0.00716845877 0. 0.0143369175 0. 0.008960573 0.0107526882 0.
      0.00179211469 0. 0.0107526882 0.00358422939 0. 0.00179211469
      0.00537634408 0.008960573 0.0107526882 0.00179211469 0.
      0.00179211469 0.00358422939 0.00179211469</_>
    <_>
      0. 0.0206378996 0.00750469044 0. 0. 0.00187617261 0. 0.00375234522
      0.00187617261 0.00375234522 0.00187617261 0.00562851783
      0.00750469044 0.00562851783 0.00187617261 0.00375234522
      0.0206378996 0. 0. 0.00562851783 0.0225140713 0.00187617261 0.
      0.00375234522 0.0206378996 0.0281425901 0. 0.00375234522
      0.0187617261 0. 0.00187617261 0.00187617261 0.00750469044 0.
      0.00187617261 0.00187617261 0. 0.00187617261 0.0112570357
      0.00562851783 0.00187617261 0.00938086305 0.00187617261
      0.00187617261 0. 0.00562851783 0.00750469044 0.00562851783
      0.00187617261 0.00562851783 0.0225140713 0.00375234522
      0.00375234522 0.00187617261 0.0450281426 0.0337711051
      0.00375234522 0.00750469044 0.00375234522 0.00375234522 0.
      0.00187617261 0.00562851783 0.00187617261 0.024390243
      0.00187617261 0.00187617261 0.00187617261 0.00375234522
      0.00375234522 0. 0.00562851783 0.0112570357 0.00187617261 0.
      0.00562851783 0.00375234522 0. 0. 0.00375234522 0.00938086305
      0.00187617261 0.00375234522 0.0112570357 0.00375234522
      0.00750469044 0.024390243 0. 0.00187617261 0. 0.00375234522
      0.00562851783 0.00750469044 0. 0. 0.00375234522 0.00375234522
      0.00187617261 0. 0. 0.00750469044 0.00187617261 0.00750469044
      0.00375234522 0.00938086305 0.00750469044 0.00750469044
      0.00187617261 0.00375234522 0.00375234522 0.00187617261
      0.00187617261 0.00187617261 0.00187617261 0.00187617261
      0.00187617261 0. 0. 0.00187617261 0.00375234522 0.00562851783
      0.00187617261 0. 0. 0.0300187618 0. 0.00562851783 0. 0.
      0.00562851783 0. 0. 0.00187617261 0.00562851783 0.00375234522
      0.00187617261 0. 0.00562851783 0. 0.00375234522 0.0187617261
      0.00562851783 0.0131332083 0.00750469044 0.00375234522
      0.0150093809 0.00187617261 0. 0. 0. 0.00187617261 0. 0.
      0.0356472805 0. 0.00375234522 0.00375234522 0.00187617261
      0.00938086305 0.00187617261 0.00562851783 0.00187617261
      0.00562851783 0.00375234522 0.00187617261 0.0206378996
      0.00187617261 0. 0.00375234522 0.00750469044 0.00375234522 0.
      0.00375234522 0.00562851783 0.00187617261 0. 0. 0.00375234522 0.
      0.00562851783 0. 0.0187617261 0.00187617261 0.00375234522
      0.0150093809 0.00375234522 0.00375234522 0.00375234522 0.
      0.00187617261 0. 0.00187617261 0.00375234522 0.0112570357
      0.00750469044 0.00750469044 0.00187617261 0.00187617261
      0.00375234522 0.</_>
    <_>
      0. 0.0240963846 0.0180722885 0. 0.0105421683 0.00451807212
      0.00150602404 0.00301204808 0.00150602404 0.00602409616 0.
      0.00150602404 0.00150602404 0.00451807212 0. 0.00602409616
      0.0195783116 0.00451807212 0.00150602404 0.00451807212
      0.0150602404 0.00602409616 0. 0.00451807212 0.0195783116
      0.0210843366 0.00150602404 0.00301204808 0.0150602404
      0.00150602404 0.00451807212 0.00602409616 0.00301204808
      0.00602409616 0.00150602404 0. 0. 0. 0.00301204808 0.
      0.00150602404 0.0075301202 0.00150602404 0. 0.00150602404
      0.00301204808 0.00150602404 0.00301204808 0.00150602404
      0.00150602404 0.00451807212 0.00451807212 0.00150602404 0.
      0.0557228886 0.0587349385 0.00150602404 0.00150602404
      0.00602409616 0.00451807212 0.00451807212 0.00451807212
      0.00150602404 0.00150602404 0.00451807212 0. 0.00150602404
      0.00150602404 0.00301204808 0. 0.00150602404 0. 0.00301204808
      0.00150602404 0. 0.00602409616 0.00150602404 0.00150602404
      0.00301204808 0. 0. 0.00301204808 0. 0.0240963846 0.0075301202 0.
      0.0391566232 0. 0.00451807212 0.00150602404 0.00150602404
      0.00301204808 0.0075301202 0.00150602404 0.00150602404
      0.0075301202 0.00150602404 0. 0.00602409616 0.00301204808
      0.00602409616 0. 0.00301204808 0.00301204808 0.00602409616
      0.0195783116 0.00301204808 0.00451807212 0.00150602404
      0.00903614424 0.00150602404 0.00150602404 0. 0.00301204808 0.
      0.00301204808 0.00150602404 0.00451807212 0.00301204808
      0.0105421683 0.00150602404 0.00301204808 0.00150602404
      0.00150602404 0.0195783116 0.00451807212 0.00150602404
      0.00150602404 0.00451807212 0.0075301202 0.00150602404
      0.00301204808 0.00150602404 0. 0.00451807212 0.00301204808
      0.00451807212 0.0195783116 0.00903614424 0.00602409616
      0.00903614424 0.00451807212 0.0225903615 0.0105421683
      0.00451807212 0.0120481923 0.00150602404 0. 0.00301204808 0.
      0.00150602404 0.00301204808 0. 0.0376506001 0.00150602404
      0.00150602404 0.00602409616 0.00301204808 0.00602409616
      0.00602409616 0.00903614424 0.00451807212 0.00301204808
      0.00150602404 0.00150602404 0.00602409616 0. 0.00301204808
      0.00301204808 0.00451807212 0.00150602404 0.00301204808
      0.0120481923 0. 0.00451807212 0.00301204808 0. 0. 0. 0.00451807212
      0.00150602404 0.0120481923 0.00301204808 0.0075301202
      0.00903614424 0.00150602404 0. 0.00301204808 0.00451807212 0. 0.
      0.00451807212 0.00150602404 0.00301204808 0.00903614424
      0.0150602404 0.00150602404 0. 0. 0.00150602404</_>
    <_>
      0.00118623965 0.0154211158 0.00830367766 0.0023724793 0.
      0.00355871907 0. 0.00593119813 0.00118623965 0.0047449586
      0.0023724793 0. 0.0047449586 0.0023724793 0. 0.00593119813
      0.0260972716 0.00711743813 0.0023724793 0.0023724793 0.0142348763
      0.00355871907 0. 0.00355871907 0.0379596688 0.0237247925
      0.0023724793 0. 0.0094899172 0.00118623965 0.0023724793
      0.0023724793 0.0047449586 0.0047449586 0. 0.0023724793
      0.00118623965 0.00355871907 0.00355871907 0.00355871907 0.
      0.00830367766 0.00118623965 0. 0. 0.0023724793 0.00355871907
      0.00118623965 0.00355871907 0.0023724793 0.0225385539
      0.00355871907 0.00118623965 0.00118623965 0.0593119822
      0.0545670241 0.0023724793 0.00593119813 0.0118623963 0.00118623965
      0.00118623965 0.0047449586 0.00118623965 0. 0.00830367766
      0.00118623965 0. 0.00118623965 0.00118623965 0.00118623965 0.
      0.00118623965 0.0142348763 0.00355871907 0. 0.00355871907
      0.0047449586 0. 0.0023724793 0.00355871907 0.00118623965
      0.0023724793 0.0023724793 0.0106761567 0.0023724793 0.0023724793
      0.0320284702 0. 0.0023724793 0.00118623965 0. 0.00711743813
      0.00830367766 0.00118623965 0.0023724793 0.0023724793
      0.00355871907 0.00118623965 0.00355871907 0. 0.0177935939 0.
      0.00593119813 0.00711743813 0.00711743813 0.00830367766 0.
      0.0023724793 0.00355871907 0.0142348763 0.00355871907
      0.00118623965 0.0047449586 0.0023724793 0.00355871907 0.
      0.00118623965 0.00355871907 0.00355871907 0.0047449586 0.
      0.0023724793 0.00118623965 0.00118623965 0.0177935939 0.
      0.00355871907 0.0047449586 0. 0. 0.00118623965 0.00355871907
      0.00118623965 0.00355871907 0.0047449586 0.00118623965
      0.00118623965 0.0213523135 0.0023724793 0.00118623965
      0.00593119813 0.00355871907 0.0177935939 0.0130486358 0.0023724793
      0.0106761567 0.00118623965 0. 0. 0.0023724793 0.00593119813
      0.00118623965 0. 0.0379596688 0. 0.0023724793 0.0023724793
      0.00355871907 0.00593119813 0.0023724793 0.00711743813
      0.00118623965 0.0023724793 0. 0.00118623965 0.0225385539
      0.0023724793 0. 0.0023724793 0.00355871907 0. 0. 0.00355871907 0.
      0.0023724793 0.0023724793 0.00593119813 0.00118623965 0.
      0.0023724793 0.0023724793 0.00830367766 0.0023724793 0.00355871907
      0.0189798344 0. 0.0118623963 0.00118623965 0.00118623965
      0.00355871907 0. 0.0047449586 0.00118623965 0.00711743813
      0.0201660749 0.0166073553 0.00118623965 0.00118623965
      0.00118623965 0.</_>
    <_>
      0. 0.0189781021 0.0087591242 0. 0.0087591242 0.00145985396
      0.00291970791 0.00583941583 0.00291970791 0.00583941583
      0.00291970791 0.00145985396 0.00291970791 0.0043795621 0.
      0.0043795621 0.0160583928 0. 0. 0.0043795621 0.0189781021
      0.00583941583 0. 0.00291970791 0.024817517 0.024817517
      0.00145985396 0.00291970791 0.00729926955 0.00145985396
      0.00291970791 0.00291970791 0.0043795621 0. 0.00145985396
      0.00145985396 0.00145985396 0.00291970791 0.0043795621 0. 0.
      0.00729926955 0. 0.00145985396 0.0043795621 0.00291970791
      0.00145985396 0.00291970791 0.00729926955 0.00145985396
      0.0116788317 0.00145985396 0.00145985396 0.00145985396 0.059854012
      0.0525547415 0. 0.0043795621 0.00291970791 0.00145985396
      0.0043795621 0.00291970791 0.00291970791 0. 0.0102189779 0. 0.
      0.00145985396 0.00145985396 0. 0.00291970791 0. 0.00145985396
      0.00145985396 0.00291970791 0.00145985396 0.00145985396 0.
      0.00291970791 0.00291970791 0.00291970791 0.00291970791 0.
      0.00729926955 0.00291970791 0.0043795621 0.0379562043 0.
      0.0043795621 0. 0.00145985396 0.00291970791 0.0102189779 0.
      0.00145985396 0.00291970791 0.00291970791 0. 0.0043795621
      0.00145985396 0.0131386854 0.00145985396 0.00145985396 0.
      0.0043795621 0.0291970782 0.0043795621 0.0043795621 0.00145985396
      0.0145985391 0.00729926955 0. 0.00583941583 0.00291970791
      0.0043795621 0.00145985396 0. 0.0043795621 0.00291970791
      0.0043795621 0.00291970791 0.00291970791 0.00291970791
      0.00145985396 0.0160583928 0. 0.00291970791 0.00291970791
      0.00291970791 0.0087591242 0. 0.00291970791 0.00145985396
      0.00583941583 0.00291970791 0.00291970791 0.00145985396
      0.0291970782 0.0043795621 0.0043795621 0.0043795621 0.0043795621
      0.0306569338 0.0087591242 0.0043795621 0.0189781021 0.00145985396
      0. 0. 0.00145985396 0.0043795621 0.00145985396 0. 0.0335766412 0.
      0.0087591242 0.00145985396 0.0043795621 0.00583941583
      0.00145985396 0.00291970791 0.00291970791 0.00583941583
      0.00145985396 0. 0.00291970791 0.0043795621 0.0043795621
      0.00291970791 0.00729926955 0.00291970791 0. 0.0087591242
      0.00291970791 0.0087591242 0.00291970791 0. 0.00291970791
      0.00145985396 0.00583941583 0. 0.0102189779 0.00291970791
      0.0102189779 0.0043795621 0.00291970791 0.00583941583
      0.00291970791 0.00291970791 0.00291970791 0. 0.00145985396
      0.00145985396 0.0043795621 0.0145985391 0.00583941583 0.
      0.00291970791 0.0043795621 0.00291970791</_>
    <_>
      0. 0.0183356851 0.00564174913 0. 0.00705218641 0.00423131185 0. 0.
      0.00282087456 0.00846262369 0.00282087456 0.00141043728
      0.00564174913 0.00282087456 0. 0.00141043728 0.0239774343 0. 0.
      0.00282087456 0.0211565588 0.00423131185 0. 0. 0.0225669965
      0.0211565588 0.00282087456 0.00705218641 0.00846262369
      0.00141043728 0. 0.00423131185 0.00282087456 0.00282087456
      0.00141043728 0. 0.00141043728 0. 0.00282087456 0.00141043728 0.
      0.00705218641 0. 0. 0.00423131185 0.00423131185 0.00423131185
      0.00705218641 0.00141043728 0.00141043728 0.00141043728 0.
      0.00141043728 0.00141043728 0.0620592386 0.0493653044
      0.00282087456 0.00282087456 0.0112834983 0.00423131185
      0.00423131185 0.00564174913 0.00141043728 0. 0.0169252474
      0.00141043728 0.00141043728 0.00141043728 0.00423131185
      0.00141043728 0. 0.00141043728 0.00987306051 0.00987306051 0.
      0.00987306051 0.00282087456 0. 0.00282087456 0.00423131185 0. 0.
      0.00141043728 0.0239774343 0.00846262369 0.00141043728
      0.0296191834 0. 0.00564174913 0.00141043728 0.00282087456
      0.00705218641 0.00846262369 0.00141043728 0.00141043728
      0.00282087456 0.00141043728 0.00141043728 0.00141043728
      0.00141043728 0.012693936 0.00282087456 0. 0.00282087456
      0.00564174913 0.0169252474 0.00282087456 0.00282087456 0.
      0.00987306051 0.00987306051 0.00141043728 0.00141043728
      0.00282087456 0.00141043728 0.00141043728 0.00423131185 0.
      0.00282087456 0.00846262369 0. 0.00564174913 0.00423131185 0.
      0.0239774343 0.00282087456 0.00141043728 0.00141043728
      0.00282087456 0.00423131185 0. 0.00141043728 0.00141043728
      0.00141043728 0.00423131185 0.00141043728 0.00141043728
      0.019746121 0.00282087456 0.00282087456 0.00705218641
      0.00282087456 0.0169252474 0.00846262369 0.00423131185
      0.0183356851 0.00141043728 0. 0. 0. 0.00141043728 0.00423131185 0.
      0.0437235571 0. 0.00282087456 0.00141043728 0.00282087456
      0.00564174913 0.00141043728 0.00846262369 0.00141043728
      0.00282087456 0.00141043728 0.00141043728 0.025387872
      0.00141043728 0.00141043728 0.00282087456 0.00282087456
      0.00141043728 0.00141043728 0.00987306051 0.00282087456
      0.00423131185 0.00141043728 0.00141043728 0.00282087456 0.
      0.00423131185 0.00423131185 0.00846262369 0.00141043728
      0.00141043728 0.00987306051 0.00423131185 0.00564174913
      0.00564174913 0.00141043728 0.00141043728 0. 0.00282087456
      0.00141043728 0.00846262369 0.00846262369 0.0141043728
      0.00141043728 0.00141043728 0.00282087456 0.</_>
    <_>
      0. 0.0305980537 0.0152990269 0.0027816412 0.0125173852
      0.0013908206 0.0013908206 0.0027816412 0.0013908206 0.0027816412
      0.0013908206 0.0027816412 0.00556328241 0.00417246204 0.0027816412
      0.00695410278 0.0152990269 0.0027816412 0. 0.00417246204
      0.0111265648 0.00417246204 0.0013908206 0.0027816412 0.0305980537
      0.0278164111 0.0013908206 0.00556328241 0.00834492408 0.0013908206
      0.0027816412 0.0027816412 0.0027816412 0.00417246204 0.0027816412
      0.0013908206 0. 0.0013908206 0.00556328241 0.00417246204
      0.0013908206 0.00695410278 0.0013908206 0.0027816412 0.
      0.00417246204 0.0027816412 0. 0.0013908206 0.0013908206
      0.0152990269 0.00695410278 0.0027816412 0. 0.0556328222
      0.0500695407 0. 0. 0.00417246204 0.0027816412 0.00417246204
      0.0013908206 0. 0.0013908206 0.00834492408 0. 0.0027816412
      0.0013908206 0.0013908206 0. 0.0013908206 0.0013908206
      0.0013908206 0. 0. 0.0027816412 0.0013908206 0.0013908206
      0.0013908206 0.0013908206 0.0013908206 0.0027816412 0.0013908206
      0.0125173852 0.00417246204 0.0027816412 0.0278164111 0.
      0.00417246204 0.0013908206 0. 0.00695410278 0.00695410278
      0.0013908206 0.0027816412 0.00834492408 0.00417246204 0.0013908206
      0.0027816412 0.0027816412 0.0139082056 0. 0.0013908206
      0.00417246204 0.0027816412 0.0278164111 0.0027816412 0.00556328241
      0.0013908206 0.0139082056 0.0027816412 0. 0.00556328241
      0.0027816412 0.0013908206 0.0013908206 0.00556328241 0.00556328241
      0.00417246204 0.0013908206 0. 0.0013908206 0.0027816412
      0.0013908206 0.0264255907 0.0027816412 0.00556328241 0.0013908206
      0.0027816412 0.0013908206 0. 0.00417246204 0.0013908206
      0.0027816412 0.00834492408 0. 0.0013908206 0.0250347704
      0.00834492408 0.00417246204 0.00973574445 0.0027816412
      0.0166898482 0.0139082056 0.00417246204 0.0152990269 0. 0. 0.
      0.0013908206 0.0027816412 0.00556328241 0.0013908206 0.0319888741
      0.00417246204 0.00556328241 0.0013908206 0.0013908206
      0.00695410278 0.0027816412 0.00973574445 0.0013908206 0.0027816412
      0.0027816412 0.0013908206 0.0027816412 0. 0.0013908206
      0.0013908206 0.0027816412 0.0027816412 0. 0.0111265648
      0.0013908206 0.0027816412 0. 0.0013908206 0.0027816412 0.
      0.00417246204 0. 0.0152990269 0.0013908206 0.0027816412
      0.0139082056 0.0013908206 0.0013908206 0.00417246204 0.0013908206
      0.00556328241 0. 0.0027816412 0.0013908206 0.00973574445
      0.00695410278 0.00695410278 0.0013908206 0.0013908206
      0.00556328241 0.0013908206</_>
    <_>
      0. 0.0169491526 0.01434159 0. 0.0104302475 0.00391134294 0.
      0.00130378094 0.00130378094 0.00260756188 0.00130378094
      0.00260756188 0.00391134294 0.00521512376 0.00130378094
      0.0117340283 0.0182529334 0.00521512376 0. 0.00391134294
      0.0130378092 0.00260756188 0.00130378094 0. 0.020860495
      0.0273793992 0.00130378094 0.00130378094 0.00651890459
      0.00130378094 0.00521512376 0.00130378094 0.00260756188
      0.00260756188 0.00651890459 0.00130378094 0.00260756188
      0.00130378094 0.00651890459 0.00391134294 0.00521512376
      0.00782268587 0.00130378094 0.00130378094 0.00130378094
      0.00651890459 0.00260756188 0.00130378094 0.00260756188
      0.00130378094 0.0195567142 0.00260756188 0.00130378094
      0.00130378094 0.0417209901 0.0391134284 0.00391134294
      0.00260756188 0.00521512376 0. 0.00260756188 0. 0.00391134294 0.
      0.00782268587 0. 0.00130378094 0.00130378094 0.00130378094
      0.00130378094 0.00260756188 0.00130378094 0.00651890459
      0.00391134294 0.00130378094 0.00130378094 0.00260756188
      0.00130378094 0.00130378094 0.00391134294 0.00260756188 0.
      0.00260756188 0.0195567142 0.0130378092 0.00391134294 0.0273793992
      0. 0.0104302475 0.00130378094 0.00260756188 0.0091264667
      0.0091264667 0.00130378094 0. 0.00260756188 0.00260756188
      0.00130378094 0.00391134294 0. 0.0247718375 0. 0.00391134294
      0.00521512376 0.00260756188 0.0234680567 0.00130378094
      0.00260756188 0. 0.00651890459 0.00260756188 0.00130378094
      0.00391134294 0.00260756188 0.00260756188 0.00130378094
      0.00130378094 0.00260756188 0.00651890459 0.00260756188
      0.00260756188 0.00391134294 0. 0.00130378094 0.0312907435
      0.00130378094 0.00521512376 0. 0.00391134294 0.00651890459
      0.00391134294 0.00130378094 0.00130378094 0.00130378094
      0.00782268587 0.00391134294 0.00260756188 0.0182529334
      0.00651890459 0.00391134294 0.00521512376 0.00260756188
      0.0234680567 0.00521512376 0.00260756188 0.0117340283
      0.00130378094 0. 0. 0.00521512376 0.00521512376 0.00130378094 0.
      0.0260756183 0.00521512376 0.00260756188 0.00260756188
      0.00260756188 0.00521512376 0.00651890459 0.0091264667
      0.00130378094 0. 0.00130378094 0.00130378094 0.00651890459
      0.00130378094 0.00130378094 0.00260756188 0.00260756188
      0.00130378094 0.00130378094 0.00260756188 0.00260756188 0. 0.
      0.00260756188 0.00130378094 0.00391134294 0.00651890459
      0.00130378094 0.0091264667 0.00260756188 0.00260756188
      0.0156453717 0.00260756188 0.00391134294 0.00130378094
      0.00130378094 0.00651890459 0. 0.00391134294 0.00391134294
      0.00651890459 0.0273793992 0.0156453717 0.00130378094
      0.00130378094 0.00260756188 0.</_>
    <_>
      0. 0.00736648263 0. 0. 0.00736648263 0.00368324132 0. 0.
      0.00368324132 0.00184162066 0. 0.00184162066 0.00920810364
      0.00920810364 0. 0.00920810364 0.0128913447 0.00368324132 0.
      0.00552486209 0.0349907912 0.00184162066 0. 0. 0.0257826895
      0.0276243091 0. 0.00184162066 0.00184162066 0. 0. 0.00368324132
      0.00184162066 0.00552486209 0. 0.00920810364 0. 0.00552486209
      0.0128913447 0.00184162066 0. 0.0110497242 0.00368324132
      0.00184162066 0. 0. 0.00184162066 0.00552486209 0.00368324132 0.
      0.0220994484 0.00368324132 0. 0.00184162066 0.0276243091
      0.047882136 0. 0.00920810364 0.00552486209 0. 0.00184162066 0.
      0.00552486209 0. 0.00920810364 0. 0. 0.00184162066 0.00552486209
      0.00552486209 0. 0. 0.00736648263 0.00184162066 0. 0.023941068
      0.00368324132 0. 0.00184162066 0.00368324132 0.00368324132
      0.00368324132 0.00184162066 0.0294659305 0.00920810364
      0.00552486209 0.0405156538 0. 0.00184162066 0.00184162066
      0.00184162066 0.00920810364 0.00920810364 0. 0. 0.00184162066
      0.00184162066 0.00184162066 0. 0. 0.023941068 0. 0. 0.00184162066
      0.0110497242 0.0110497242 0. 0.00552486209 0.00184162066
      0.0128913447 0. 0.00184162066 0.00552486209 0.00368324132
      0.00368324132 0.00184162066 0. 0. 0. 0.00552486209 0.00368324132
      0. 0. 0.00184162066 0.0423572734 0.00184162066 0.00368324132 0.
      0.00368324132 0. 0. 0. 0.00184162066 0. 0.00368324132
      0.00368324132 0.00184162066 0.0110497242 0. 0.00184162066
      0.00552486209 0.00368324132 0.0165745858 0.00368324132
      0.00368324132 0.0147329653 0.00184162066 0. 0. 0. 0.00368324132
      0.00552486209 0. 0.023941068 0. 0.00368324132 0. 0.00736648263
      0.00368324132 0. 0.00368324132 0. 0.00368324132 0.00736648263
      0.00184162066 0.023941068 0.00184162066 0. 0.00552486209
      0.00368324132 0.00736648263 0.00184162066 0.00184162066
      0.00368324132 0.00368324132 0.00368324132 0.00368324132
      0.00184162066 0. 0.00368324132 0. 0.00920810364 0. 0.00552486209
      0.00552486209 0. 0.00736648263 0.00184162066 0.00184162066
      0.00368324132 0. 0.00184162066 0.00368324132 0.0147329653
      0.0257826895 0.00736648263 0.00184162066 0. 0.00552486209
      0.00184162066</_>
    <_>
      0. 0.0273381285 0.0071942443 0. 0.00287769781 0.00575539563
      0.00143884891 0.00143884891 0.00287769781 0.0100719426
      0.00287769781 0. 0.00575539563 0.00575539563 0. 0.00863309391
      0.0201438852 0.00143884891 0. 0.00431654695 0.0129496399
      0.00287769781 0. 0. 0.0273381285 0.0273381285 0.00143884891
      0.00287769781 0.0071942443 0.00287769781 0.00287769781 0.
      0.0100719426 0.00143884891 0.00143884891 0.00287769781
      0.00287769781 0. 0.0129496399 0.00431654695 0. 0.00575539563
      0.00143884891 0.00287769781 0.00431654695 0.00575539563
      0.00431654695 0.00143884891 0.00431654695 0.00143884891
      0.0258992799 0.00431654695 0.00143884891 0.00143884891
      0.0575539544 0.0345323756 0. 0.00143884891 0.00143884891
      0.00287769781 0.00287769781 0.00287769781 0. 0. 0.0172661878
      0.00143884891 0. 0. 0.0071942443 0.00143884891 0. 0.00287769781
      0.00431654695 0.00431654695 0. 0.00143884891 0.00287769781 0.
      0.00287769781 0.00287769781 0.00431654695 0.0071942443
      0.00431654695 0.00287769781 0.00431654695 0.00575539563
      0.0330935232 0. 0.00143884891 0.00143884891 0.00143884891
      0.00287769781 0.0115107913 0.00143884891 0.00143884891
      0.00287769781 0. 0.00143884891 0.00287769781 0.00287769781
      0.0215827338 0.00143884891 0.00287769781 0. 0.00575539563
      0.0071942443 0. 0.0071942443 0.00287769781 0.0071942443
      0.00143884891 0.00143884891 0.00575539563 0.00287769781
      0.00431654695 0.00143884891 0. 0.00287769781 0.00287769781
      0.00431654695 0. 0.00287769781 0.00575539563 0.00143884891
      0.0230215825 0. 0.00431654695 0.00143884891 0.00431654695
      0.0115107913 0. 0.00287769781 0.00143884891 0.00287769781
      0.00287769781 0.00143884891 0.00143884891 0.0244604312
      0.00287769781 0.00287769781 0.0129496399 0.00431654695
      0.0345323756 0.00575539563 0.00431654695 0.00863309391
      0.00143884891 0. 0. 0. 0.00143884891 0.00287769781 0. 0.0330935232
      0.00143884891 0.00143884891 0.00143884891 0.00287769781
      0.0071942443 0.00143884891 0.0158273373 0.00287769781 0. 0.
      0.00143884891 0. 0.00143884891 0.00287769781 0.00143884891
      0.00431654695 0. 0. 0.0071942443 0.00287769781 0. 0.00287769781
      0.00431654695 0.00143884891 0. 0.00431654695 0.00287769781
      0.0115107913 0.00143884891 0.00287769781 0.0158273373
      0.00287769781 0. 0.00287769781 0.00287769781 0.00575539563
      0.00287769781 0.00431654695 0.00287769781 0.00575539563
      0.0115107913 0.0172661878 0.00143884891 0.00143884891
      0.00143884891 0.</_>
    <_>
      0.00159744406 0.0207667723 0.0111821089 0.00159744406
      0.00159744406 0.00319488812 0.00159744406 0.00159744406
      0.00319488812 0.00319488812 0.00159744406 0.00479233218
      0.00479233218 0.00319488812 0.00159744406 0.00319488812
      0.0159744397 0.00638977624 0.00159744406 0.00638977624
      0.0239616614 0.00319488812 0. 0.00479233218 0.0351437703
      0.0319488794 0.00159744406 0. 0.00638977624 0.00159744406 0.
      0.00159744406 0.00479233218 0.00159744406 0. 0.00479233218 0.
      0.00159744406 0.00798721984 0.00159744406 0.00159744406
      0.00319488812 0.00319488812 0.00319488812 0. 0.00319488812
      0.00638977624 0.00319488812 0.00319488812 0.00159744406
      0.0175718851 0.00638977624 0.00319488812 0.00159744406
      0.0654952079 0.0351437703 0.00159744406 0.00159744406
      0.00638977624 0.00159744406 0.00479233218 0.00479233218 0. 0.
      0.00638977624 0.00159744406 0. 0.00159744406 0.00159744406
      0.00159744406 0.00159744406 0. 0.00479233218 0.00319488812 0. 0.
      0.00638977624 0.00159744406 0.00159744406 0. 0.00479233218
      0.00319488812 0.00159744406 0.00479233218 0.00638977624
      0.00479233218 0.0159744397 0. 0.00958466437 0. 0.00159744406
      0.00479233218 0.0143769961 0.00159744406 0.00319488812
      0.00479233218 0.00159744406 0. 0.00479233218 0.00159744406
      0.00479233218 0. 0. 0.00319488812 0.0127795525 0.0287539922
      0.00159744406 0.00638977624 0.00159744406 0.00479233218
      0.00638977624 0.00159744406 0.00479233218 0.00319488812
      0.00159744406 0. 0.00479233218 0. 0.00479233218 0.00319488812
      0.00319488812 0. 0.00319488812 0.00159744406 0.0351437703
      0.00159744406 0.00479233218 0.00159744406 0.00159744406
      0.00798721984 0. 0.00479233218 0.00159744406 0.00479233218
      0.00319488812 0.00159744406 0. 0.0159744397 0.00638977624
      0.00159744406 0.0111821089 0.00798721984 0.0191693287
      0.00319488812 0.00479233218 0.00958466437 0.00159744406 0. 0. 0.
      0.00159744406 0.00798721984 0.00159744406 0.0287539922
      0.00159744406 0.0127795525 0.00319488812 0.00479233218
      0.00798721984 0.00319488812 0.00798721984 0.00159744406
      0.00319488812 0.00479233218 0. 0.00159744406 0.00159744406
      0.00798721984 0.00319488812 0.00638977624 0.00319488812 0.
      0.00479233218 0. 0. 0.00159744406 0.00319488812 0.00319488812 0.
      0.00638977624 0.00159744406 0.00958466437 0.00159744406
      0.00319488812 0.0111821089 0.00159744406 0.00798721984
      0.00159744406 0.00479233218 0.00159744406 0. 0.00479233218
      0.00159744406 0.0111821089 0.00958466437 0.00479233218
      0.00159744406 0. 0.00319488812 0.</_>
    <_>
      0. 0.0218253974 0.00595238153 0. 0.0019841271 0.0119047631 0.
      0.0019841271 0.0039682542 0.0039682542 0.0039682542 0.0019841271
      0.00595238153 0.00595238153 0.0019841271 0.00793650839
      0.0158730168 0.0019841271 0. 0.0019841271 0.0198412705
      0.0019841271 0. 0.0019841271 0.025793653 0.039682541 0.
      0.0019841271 0.0039682542 0.0019841271 0.0019841271 0.0019841271
      0.00595238153 0.0019841271 0. 0.0039682542 0.0019841271 0.
      0.0178571437 0. 0.0019841271 0.0039682542 0. 0. 0. 0.00793650839
      0.00595238153 0.0039682542 0.00595238153 0. 0.0138888899
      0.0019841271 0.0019841271 0.0019841271 0.0436507948 0.0416666679
      0.0019841271 0.0019841271 0.00793650839 0.0019841271 0. 0.
      0.0019841271 0. 0.0119047631 0.0019841271 0.0019841271
      0.0019841271 0.0019841271 0.0019841271 0.0019841271 0.0019841271
      0.0019841271 0.0019841271 0. 0.0019841271 0.0039682542
      0.0019841271 0. 0.0019841271 0.0039682542 0.0039682542
      0.0039682542 0.0158730168 0.0019841271 0.0019841271 0.039682541 0.
      0.0039682542 0.0019841271 0.0039682542 0. 0.0158730168 0.
      0.0019841271 0.0039682542 0.0019841271 0. 0. 0. 0.0238095261 0.
      0.0019841271 0. 0.0019841271 0.0297619067 0. 0.00793650839
      0.00595238153 0.0039682542 0. 0.0019841271 0.0019841271
      0.0039682542 0.0039682542 0.0019841271 0.0019841271 0.0019841271
      0.0039682542 0. 0. 0.0039682542 0.0039682542 0. 0.0357142873
      0.0039682542 0.0019841271 0.0039682542 0.0019841271 0.0039682542
      0.0019841271 0. 0.0019841271 0. 0.00793650839 0.0019841271 0.
      0.0198412705 0.0039682542 0.0039682542 0.00793650839 0.0019841271
      0.0277777798 0.00992063526 0.0039682542 0.00595238153 0.0019841271
      0. 0. 0. 0.00595238153 0.00595238153 0. 0.0317460336 0.00595238153
      0.0039682542 0.0019841271 0.0039682542 0.00595238153 0.0019841271
      0.00595238153 0. 0.0019841271 0. 0. 0.0158730168 0.0019841271
      0.0019841271 0.0039682542 0.0039682542 0.0039682542 0.
      0.00793650839 0.0019841271 0.0019841271 0. 0.0039682542
      0.0019841271 0. 0.0039682542 0. 0.00793650839 0.0039682542
      0.0019841271 0.025793653 0.0039682542 0.00595238153 0.0019841271
      0.0019841271 0.0019841271 0. 0.0019841271 0.0019841271
      0.00595238153 0.0119047631 0.0019841271 0. 0.0019841271
      0.0039682542 0.</_>
    <_>
      0.00214592274 0.0128755365 0.00214592274 0. 0.00643776823
      0.00643776823 0. 0.00643776823 0.00214592274 0.00643776823
      0.00429184549 0. 0.00643776823 0.00429184549 0. 0.00643776823
      0.0150214592 0. 0. 0.0150214592 0.0257510729 0.00429184549
      0.00214592274 0.00214592274 0.0171673819 0.0150214592 0. 0.
      0.00643776823 0.00214592274 0. 0.00429184549 0.00643776823 0. 0.
      0. 0.00214592274 0.00429184549 0.00858369097 0.00429184549
      0.00214592274 0.00643776823 0.00429184549 0. 0. 0.00858369097
      0.00858369097 0. 0. 0.00429184549 0.0171673819 0.00643776823
      0.00214592274 0.00214592274 0.0643776804 0.0278969966
      0.00429184549 0.00858369097 0.0128755365 0.00429184549
      0.00429184549 0. 0.00214592274 0. 0.00643776823 0.00214592274 0.
      0.00214592274 0. 0.00214592274 0. 0.00429184549 0.0107296137
      0.00643776823 0. 0.0128755365 0.00858369097 0. 0.00214592274
      0.00214592274 0.00214592274 0.00214592274 0.00214592274
      0.0150214592 0.00429184549 0.00858369097 0.0300429184 0.
      0.00429184549 0.00214592274 0.00214592274 0.00429184549
      0.0107296137 0.00214592274 0.00429184549 0.00643776823 0.
      0.00214592274 0.00429184549 0. 0.0128755365 0. 0. 0.00858369097
      0.0150214592 0.00429184549 0. 0.00429184549 0. 0.00643776823 0.
      0.00214592274 0. 0.00643776823 0.00214592274 0.00214592274 0. 0.
      0. 0.00214592274 0.00214592274 0. 0. 0. 0.0321888402 0.00214592274
      0.00858369097 0. 0.00429184549 0. 0. 0.00214592274 0.
      0.00429184549 0.00643776823 0. 0. 0.00429184549 0.00214592274
      0.00429184549 0.00858369097 0.00429184549 0.0214592274
      0.00429184549 0.00643776823 0.0214592274 0.00214592274 0. 0. 0.
      0.00214592274 0.00214592274 0. 0.0257510729 0. 0.00214592274 0.
      0.00858369097 0.00429184549 0. 0.00858369097 0.00214592274
      0.00429184549 0. 0.00214592274 0.0321888402 0.00214592274 0. 0.
      0.00643776823 0.00643776823 0.00214592274 0.00429184549
      0.00214592274 0.00429184549 0.00214592274 0.00214592274
      0.00214592274 0. 0.00643776823 0. 0.00643776823 0.00214592274
      0.00643776823 0.0107296137 0.00214592274 0.00214592274
      0.00429184549 0.00643776823 0.00214592274 0. 0.0107296137
      0.00643776823 0.00858369097 0.0150214592 0.0107296137 0.
      0.00214592274 0. 0.</_>
    <_>
      0. 0.0363901034 0.00582241639 0. 0.0160116442 0.0029112082 0.
      0.00582241639 0. 0.00727802049 0.0014556041 0.0014556041
      0.00582241639 0.0014556041 0. 0.00873362459 0.0218340605
      0.0014556041 0. 0.0043668123 0.014556041 0.00873362459
      0.0014556041 0. 0.0349344984 0.030567687 0. 0.0014556041
      0.00727802049 0.0043668123 0.0014556041 0.0043668123 0.0043668123
      0.0014556041 0.0014556041 0.0029112082 0.0014556041 0.0014556041
      0.0043668123 0. 0. 0.0014556041 0. 0.0014556041 0. 0.0029112082 0.
      0.00582241639 0.00727802049 0. 0.00582241639 0.0043668123
      0.0014556041 0.0014556041 0.0815138295 0.0451237261 0.0014556041
      0.0029112082 0.00727802049 0. 0.00582241639 0. 0. 0. 0.0101892287
      0. 0. 0.0014556041 0.0014556041 0.0014556041 0. 0.0014556041
      0.00873362459 0.0029112082 0. 0.00873362459 0.0029112082 0. 0.
      0.0014556041 0.0014556041 0.0029112082 0.0029112082 0.0276564769
      0.0014556041 0.00582241639 0.0334788933 0. 0.00582241639
      0.0014556041 0.0014556041 0.00727802049 0.00582241639 0.
      0.0029112082 0.00582241639 0.0029112082 0.0014556041 0.0043668123
      0. 0.0174672492 0. 0.0014556041 0.0043668123 0.00873362459
      0.014556041 0.0014556041 0.0043668123 0. 0.0101892287 0.0029112082
      0.0014556041 0. 0.0029112082 0.0014556041 0.0014556041 0.
      0.0029112082 0.0029112082 0.0101892287 0.0014556041 0.0014556041
      0.0014556041 0. 0.0131004369 0.0014556041 0.0029112082
      0.0029112082 0.0043668123 0.00582241639 0. 0.0043668123
      0.0014556041 0.0014556041 0.0029112082 0. 0. 0.0203784574
      0.00727802049 0.0029112082 0.00873362459 0.0029112082 0.0116448328
      0.0116448328 0.0043668123 0.0116448328 0.0014556041 0. 0.
      0.0014556041 0.0014556041 0.0043668123 0. 0.0276564769 0.
      0.0043668123 0.0014556041 0.0029112082 0.00582241639 0.0043668123
      0.00873362459 0.0014556041 0.0014556041 0.0014556041 0.0014556041
      0.014556041 0.0014556041 0. 0. 0.0029112082 0.0014556041
      0.0014556041 0.00873362459 0.0014556041 0.0029112082 0.0014556041
      0.0043668123 0.0014556041 0. 0.0029112082 0. 0.0131004369 0.
      0.00582241639 0.0189228542 0.0029112082 0.0043668123 0.0014556041
      0.0029112082 0. 0. 0. 0. 0.00727802049 0.0218340605 0.00727802049
      0.0014556041 0.0014556041 0. 0.0014556041</_>
    <_>
      0.00398406386 0.0159362555 0.00398406386 0. 0.0059760958 0. 0.
      0.00398406386 0.00398406386 0.00398406386 0. 0.00199203193
      0.0119521916 0.00199203193 0. 0.00996015966 0.0139442235 0. 0.
      0.0059760958 0.027888447 0.00398406386 0. 0.00398406386
      0.0059760958 0.0219123513 0.00199203193 0. 0.00796812773 0.
      0.0059760958 0.00199203193 0.00199203193 0.00199203193
      0.00199203193 0.00398406386 0. 0.00199203193 0.0139442235 0. 0.
      0.0159362555 0.00398406386 0.00199203193 0. 0.00796812773
      0.00796812773 0. 0.00199203193 0.00398406386 0.0159362555
      0.00996015966 0. 0.00199203193 0.0258964151 0.0338645428
      0.00199203193 0.0159362555 0.00796812773 0. 0.00199203193
      0.00199203193 0.00398406386 0. 0.0119521916 0. 0.00199203193
      0.00199203193 0.00398406386 0.00398406386 0.00398406386 0.
      0.0059760958 0.00398406386 0. 0.0179282874 0.0059760958 0. 0.
      0.00199203193 0.00199203193 0.00199203193 0.00398406386
      0.0159362555 0. 0. 0.0199203193 0. 0.00398406386 0. 0.
      0.00199203193 0.0059760958 0.00199203193 0.00199203193
      0.00398406386 0.0059760958 0.00398406386 0.00796812773
      0.00199203193 0.0159362555 0. 0. 0.0059760958 0.00398406386
      0.0139442235 0. 0.00796812773 0. 0.0199203193 0.00398406386
      0.00199203193 0.0159362555 0.00398406386 0.00398406386
      0.00398406386 0. 0. 0.0059760958 0.0059760958 0.00796812773 0. 0.
      0.00398406386 0.0458167344 0.00199203193 0.0059760958 0.0059760958
      0.00199203193 0.00398406386 0.00199203193 0.00398406386
      0.00199203193 0. 0.00398406386 0.00796812773 0.0059760958
      0.0119521916 0. 0.00398406386 0.0139442235 0.00398406386
      0.00796812773 0.0119521916 0.00199203193 0.00796812773
      0.00199203193 0. 0. 0. 0.00199203193 0. 0. 0.0159362555 0.
      0.00199203193 0.00199203193 0.00199203193 0.0059760958 0.
      0.0059760958 0.00199203193 0. 0.00398406386 0.00199203193
      0.0478087664 0.00199203193 0.00199203193 0. 0.00796812773
      0.00996015966 0.00199203193 0.0059760958 0.00398406386 0.
      0.00398406386 0.00199203193 0.00199203193 0. 0.0059760958 0.
      0.00996015966 0.00398406386 0.0059760958 0.0159362555 0.
      0.00398406386 0. 0.00199203193 0.00398406386 0.00199203193
      0.00199203193 0.00199203193 0.00199203193 0.0059760958
      0.00398406386 0. 0.00199203193 0.00398406386 0.</_>
    <_>
      0. 0.0151724145 0.0068965517 0. 0.0124137932 0.00275862077 0.
      0.00275862077 0.00275862077 0.00275862077 0.00275862077
      0.00137931039 0.00275862077 0.00551724155 0. 0.00827586278
      0.0234482773 0.00827586278 0. 0.00551724155 0.00965517294
      0.00827586278 0. 0.00137931039 0.0275862068 0.0220689662
      0.00413793139 0.00275862077 0.00827586278 0.00137931039
      0.00413793139 0.00551724155 0.00275862077 0.00137931039
      0.00275862077 0.00275862077 0.00413793139 0. 0.0068965517
      0.00275862077 0. 0.0068965517 0.00275862077 0.00137931039
      0.00275862077 0.00275862077 0.00137931039 0.00275862077
      0.00413793139 0.00137931039 0.0137931034 0.00413793139 0.
      0.00137931039 0.0551724136 0.0455172434 0.00275862077
      0.00551724155 0.00965517294 0.00137931039 0.0068965517
      0.00137931039 0.00275862077 0. 0.00827586278 0. 0.00137931039
      0.00137931039 0.00413793139 0.00137931039 0.00275862077
      0.00137931039 0.00551724155 0.00413793139 0. 0.00275862077
      0.00413793139 0. 0.00137931039 0.00137931039 0.00137931039
      0.00413793139 0.00275862077 0.0179310348 0.00551724155
      0.00137931039 0.0331034511 0. 0.00275862077 0.00137931039
      0.00137931039 0.00275862077 0.00413793139 0. 0.00137931039
      0.00275862077 0.00413793139 0. 0.00275862077 0.00551724155
      0.00965517294 0.00137931039 0.00137931039 0.00413793139
      0.00551724155 0.0248275865 0.00137931039 0.00137931039 0.
      0.0179310348 0.00413793139 0.00137931039 0.00551724155
      0.00275862077 0.00413793139 0.00137931039 0. 0. 0.00137931039
      0.00965517294 0. 0.00275862077 0.00551724155 0. 0.0151724145
      0.00137931039 0.00413793139 0.00551724155 0.0068965517
      0.00413793139 0. 0.0068965517 0.00137931039 0.00275862077
      0.00413793139 0.00413793139 0.00137931039 0.0137931034
      0.00827586278 0.00413793139 0.00413793139 0.00275862077 0.03172414
      0.0110344831 0.00413793139 0.00965517294 0.00137931039 0. 0.
      0.00137931039 0. 0.00275862077 0. 0.0289655179 0. 0.00413793139
      0.00275862077 0.00275862077 0.0068965517 0.00137931039
      0.0137931034 0.00137931039 0.00137931039 0.00275862077
      0.00137931039 0.00827586278 0.00137931039 0.00137931039 0.
      0.00551724155 0. 0. 0.00827586278 0.00137931039 0.00137931039 0.
      0.00137931039 0.00275862077 0. 0.0068965517 0. 0.00965517294
      0.00137931039 0.00275862077 0.0110344831 0.00275862077
      0.0068965517 0.00413793139 0.0068965517 0.0068965517 0.00137931039
      0.00551724155 0. 0.0068965517 0.0220689662 0.00827586278 0.
      0.00137931039 0. 0.00275862077</_>
    <_>
      0. 0.0229885057 0.0114942528 0. 0.00191570877 0.00191570877
      0.00191570877 0. 0.00383141753 0.00383141753 0.00191570877
      0.00383141753 0.00957854372 0.00383141753 0. 0.0114942528
      0.013409961 0. 0. 0.00383141753 0.0229885057 0.00191570877
      0.00191570877 0. 0.013409961 0.026819922 0.00191570877
      0.00191570877 0.00766283507 0.00191570877 0.00191570877
      0.00383141753 0.00383141753 0.00383141753 0.00574712642
      0.00191570877 0. 0. 0.0114942528 0.00191570877 0. 0.00766283507 0.
      0. 0.00191570877 0. 0.00574712642 0.00383141753 0. 0.00191570877
      0. 0. 0. 0. 0.0651341006 0.0344827585 0. 0.00766283507
      0.00574712642 0. 0.00191570877 0. 0.00191570877 0. 0.0172413792
      0.00383141753 0. 0.00191570877 0. 0.00191570877 0. 0.
      0.00574712642 0.00191570877 0. 0.0153256701 0.00574712642 0.
      0.00191570877 0.00191570877 0.00383141753 0.00383141753
      0.00191570877 0.0363984667 0.00766283507 0.00383141753
      0.0191570874 0. 0.00383141753 0.00191570877 0. 0.00383141753
      0.0114942528 0.00191570877 0.00191570877 0.00383141753 0. 0.
      0.00574712642 0. 0.0114942528 0. 0. 0. 0.00383141753 0.0114942528
      0.00383141753 0.0114942528 0.00574712642 0.00574712642 0.
      0.00191570877 0.00574712642 0.00383141753 0. 0.00191570877
      0.00191570877 0. 0.00191570877 0.00191570877 0.00574712642
      0.00383141753 0. 0.00191570877 0.040229883 0.00191570877
      0.00383141753 0. 0.00383141753 0.00191570877 0.00191570877
      0.00383141753 0. 0.00383141753 0.00383141753 0.00191570877
      0.00191570877 0.0191570874 0.00191570877 0.00383141753
      0.0114942528 0.00191570877 0.0229885057 0.00957854372
      0.00574712642 0.0210727956 0.00191570877 0. 0. 0.00383141753
      0.00383141753 0.00191570877 0. 0.0191570874 0.00191570877
      0.00191570877 0.00574712642 0.00574712642 0.00574712642
      0.00574712642 0.00766283507 0.00191570877 0.00191570877
      0.00191570877 0.00191570877 0.00191570877 0.00191570877
      0.00191570877 0.00383141753 0.00383141753 0. 0.00191570877
      0.013409961 0.00383141753 0.00191570877 0.00191570877
      0.00574712642 0.00383141753 0. 0.00191570877 0. 0.0114942528
      0.00191570877 0.00191570877 0.0153256701 0.00383141753
      0.00383141753 0.00383141753 0.00191570877 0.00766283507
      0.00191570877 0.00574712642 0.00191570877 0.013409961 0.0210727956
      0.00766283507 0.00191570877 0.00191570877 0.00191570877
      0.00191570877</_>
    <_>
      0. 0.0276595727 0.00638297852 0. 0.00425531901 0.00212765951 0. 0.
      0.00425531901 0.00638297852 0.00212765951 0. 0.00851063803
      0.00212765951 0. 0.0106382975 0.0148936165 0.00212765951 0.
      0.0106382975 0.0382978693 0.00638297852 0. 0. 0.0255319141
      0.0106382975 0. 0.00212765951 0.00638297852 0. 0.00212765951
      0.00425531901 0.00638297852 0.00212765951 0.00212765951
      0.00425531901 0. 0.00212765951 0.00425531901 0.00212765951 0.
      0.00638297852 0.00212765951 0. 0.00212765951 0. 0.00425531901 0.
      0. 0.00212765951 0.0106382975 0.00212765951 0. 0.00212765951
      0.0723404214 0.0446808487 0.00212765951 0. 0.012765957
      0.00212765951 0.012765957 0.00212765951 0. 0. 0.00425531901 0. 0.
      0.00212765951 0.00425531901 0.00212765951 0.00212765951 0.
      0.00212765951 0. 0. 0.00212765951 0.00425531901 0. 0.00212765951
      0.00425531901 0.00638297852 0.00212765951 0.00212765951
      0.0531914867 0. 0.00212765951 0.0404255316 0. 0. 0.00212765951 0.
      0.00425531901 0.0106382975 0.00212765951 0.00638297852
      0.00212765951 0.00212765951 0. 0.00425531901 0. 0.0106382975 0.
      0.00212765951 0.00212765951 0.00425531901 0.012765957 0.
      0.00425531901 0. 0.00638297852 0.00212765951 0.00212765951
      0.00425531901 0.00425531901 0. 0.00212765951 0. 0. 0.00425531901
      0.00425531901 0.00638297852 0. 0. 0. 0.0297872331 0.00212765951
      0.00851063803 0. 0.00425531901 0.00638297852 0. 0.00212765951
      0.00212765951 0. 0.00212765951 0.00212765951 0.00425531901
      0.0148936165 0.00425531901 0.00638297852 0.00851063803
      0.00212765951 0.0170212761 0.0106382975 0.00638297852 0.0148936165
      0. 0. 0. 0.00212765951 0.00638297852 0.00638297852 0. 0.0382978693
      0. 0. 0.00212765951 0.00425531901 0.0106382975 0. 0.00638297852
      0.00212765951 0.00425531901 0. 0.00212765951 0.0106382975
      0.00212765951 0. 0.00212765951 0.00638297852 0. 0.00212765951
      0.00212765951 0.00638297852 0. 0.00212765951 0.00212765951
      0.00212765951 0. 0.00638297852 0. 0.012765957 0. 0.00212765951
      0.00212765951 0.00212765951 0.00212765951 0. 0.00212765951
      0.00212765951 0. 0.00212765951 0.00212765951 0.0191489346
      0.00638297852 0.0148936165 0. 0.00212765951 0. 0.00425531901</_>
    <_>
      0. 0.0333333313 0.0121212117 0. 0.00606060587 0.00303030293
      0.00303030293 0. 0.00606060587 0.00303030293 0. 0. 0. 0. 0.
      0.0090909088 0.0515151508 0. 0. 0. 0.0212121196 0.00303030293 0.
      0.00303030293 0.0636363626 0.0575757548 0.00606060587
      0.00303030293 0.0090909088 0. 0.00303030293 0. 0. 0.00303030293 0.
      0. 0. 0. 0.00303030293 0. 0. 0.0121212117 0. 0. 0.00303030293 0.
      0.00303030293 0.00606060587 0.00303030293 0. 0.00303030293
      0.00303030293 0. 0. 0.124242418 0.0757575706 0. 0. 0.0121212117 0.
      0. 0. 0.00303030293 0. 0.00606060587 0. 0. 0. 0.00303030293
      0.00606060587 0. 0. 0.00606060587 0. 0. 0. 0.00303030293 0. 0. 0.
      0.00303030293 0. 0. 0.00606060587 0. 0.00303030293 0.00303030293
      0. 0. 0. 0. 0.00303030293 0.00606060587 0. 0. 0. 0. 0.00303030293
      0. 0. 0.0303030293 0. 0. 0. 0.00606060587 0.0242424235 0. 0. 0.
      0.0090909088 0.00606060587 0. 0.00303030293 0. 0.00303030293 0.
      0.00303030293 0. 0. 0. 0.0090909088 0. 0. 0. 0.0242424235 0.
      0.00303030293 0.00606060587 0. 0. 0. 0.00303030293 0.
      0.00303030293 0.00606060587 0.00606060587 0. 0.0696969703 0. 0.
      0.00303030293 0.00606060587 0.00606060587 0.0121212117 0.
      0.00303030293 0. 0. 0. 0. 0. 0. 0. 0.0181818176 0. 0.
      0.00606060587 0. 0.00303030293 0. 0. 0. 0. 0. 0. 0.0090909088
      0.00606060587 0. 0.00303030293 0.00303030293 0. 0. 0. 0.
      0.00606060587 0. 0. 0. 0. 0.00303030293 0. 0. 0. 0. 0.0393939391
      0.00303030293 0.00606060587 0.00303030293 0.00606060587
      0.00606060587 0. 0. 0. 0. 0.0242424235 0.00303030293 0. 0.
      0.00303030293 0.</_>
    <_>
      0.0090909088 0.0272727273 0.00681818184 0. 0.0113636358
      0.0022727272 0. 0. 0.0045454544 0. 0. 0. 0. 0.0022727272
      0.0022727272 0.0113636358 0.0318181813 0. 0. 0. 0.0249999985
      0.0022727272 0. 0. 0.038636364 0.0272727273 0.0045454544
      0.0022727272 0.0022727272 0. 0. 0.0022727272 0. 0.0022727272
      0.0045454544 0. 0. 0. 0.00681818184 0.0022727272 0. 0.0159090906
      0.0090909088 0. 0. 0.0045454544 0.0181818176 0.0022727272 0. 0.
      0.0136363637 0.0090909088 0. 0. 0.0590909086 0.0613636337
      0.0022727272 0.0022727272 0.00681818184 0. 0. 0. 0.00681818184 0.
      0.0045454544 0.0022727272 0. 0. 0. 0.0022727272 0. 0. 0.0113636358
      0.0022727272 0. 0. 0.0045454544 0. 0.0022727272 0. 0.0136363637 0.
      0. 0.00681818184 0. 0. 0.00681818184 0.0045454544 0.0022727272 0.
      0. 0. 0.0045454544 0. 0. 0. 0. 0. 0.0045454544 0.0045454544
      0.0181818176 0. 0.0022727272 0.00681818184 0.0045454544
      0.0181818176 0.0022727272 0. 0. 0.0249999985 0.00681818184 0. 0.
      0. 0. 0. 0.0022727272 0. 0.0022727272 0.0022727272 0.049999997
      0.0022727272 0. 0. 0.0159090906 0. 0.0090909088 0.0022727272
      0.0022727272 0. 0. 0. 0. 0. 0.0045454544 0.0022727272 0.
      0.043181818 0.0022727272 0.0022727272 0.0340909064 0.0090909088 0.
      0.00681818184 0.0022727272 0.0045454544 0. 0. 0. 0. 0. 0. 0.
      0.0181818176 0. 0. 0.00681818184 0.0022727272 0.0045454544
      0.0022727272 0. 0.0022727272 0. 0.0022727272 0. 0.0045454544
      0.0045454544 0. 0.0090909088 0. 0.0045454544 0. 0.0022727272 0.
      0.0045454544 0.0022727272 0. 0. 0.0045454544 0. 0.0045454544
      0.0363636352 0.0022727272 0.0022727272 0.0227272715 0.
      0.0045454544 0.0022727272 0.0045454544 0.0022727272 0.
      0.00681818184 0.0022727272 0. 0.0181818176 0.00681818184 0. 0.
      0.00681818184 0.</_>
    <_>
      0. 0.0745967701 0.0262096766 0. 0.00806451589 0.00403225794 0. 0.
      0.00403225794 0.00403225794 0. 0. 0.00604838692 0.00201612897 0.
      0.00403225794 0.0362903215 0.00604838692 0. 0.00201612897
      0.0221774187 0.00604838692 0. 0. 0.0604838692 0.0282258056
      0.00201612897 0.00403225794 0.0100806449 0. 0.00403225794
      0.00806451589 0. 0. 0.00403225794 0.00403225794 0. 0.00403225794
      0.00806451589 0.00201612897 0. 0.00806451589 0.00201612897 0.
      0.00201612897 0.00403225794 0.00604838692 0.00201612897
      0.00403225794 0. 0.0221774187 0.00403225794 0. 0. 0.0241935477
      0.0302419346 0.00201612897 0.00403225794 0.00604838692 0. 0.
      0.00201612897 0.00201612897 0. 0.00403225794 0. 0. 0.00201612897
      0.00201612897 0.00201612897 0.00201612897 0.00403225794
      0.00403225794 0.00403225794 0. 0. 0.00403225794 0. 0. 0.
      0.0100806449 0.00201612897 0.00201612897 0.0141129028
      0.00403225794 0. 0.0100806449 0. 0.00403225794 0. 0.00201612897
      0.00604838692 0.00806451589 0.00201612897 0. 0.00201612897 0. 0.
      0.00201612897 0. 0.0161290318 0. 0. 0.00201612897 0.00403225794
      0.0262096766 0. 0. 0. 0.0201612897 0.00806451589 0. 0.00604838692
      0. 0. 0. 0. 0.00201612897 0.00806451589 0.00201612897
      0.00604838692 0.00403225794 0. 0. 0.0161290318 0.00201612897 0. 0.
      0. 0. 0. 0. 0. 0. 0.00806451589 0.00403225794 0. 0.0282258056
      0.00806451589 0.00201612897 0.00403225794 0.00806451589
      0.0181451607 0.0221774187 0.00403225794 0.00403225794 0. 0. 0. 0.
      0.00201612897 0. 0. 0.0221774187 0. 0.00201612897 0. 0.
      0.00403225794 0.00806451589 0.00806451589 0. 0. 0. 0. 0.0161290318
      0.00201612897 0. 0.00403225794 0. 0. 0. 0.00201612897
      0.00403225794 0. 0. 0. 0.00201612897 0. 0.00604838692 0.
      0.0161290318 0. 0.00403225794 0.0322580636 0. 0.00201612897
      0.00201612897 0.00604838692 0.00201612897 0. 0.00604838692 0.
      0.00604838692 0.0342741907 0.00604838692 0. 0. 0. 0.</_>
    <_>
      0. 0.024630541 0.0197044332 0. 0. 0.00985221658 0. 0.
      0.00246305414 0.00492610829 0.00246305414 0.00738916267
      0.00738916267 0.00492610829 0. 0.0123152705 0.0270935949 0. 0.
      0.00985221658 0.0467980281 0.00985221658 0.00246305414 0.
      0.0221674871 0.0147783253 0. 0.00246305414 0.00738916267 0. 0. 0.
      0.00738916267 0. 0. 0.00246305414 0. 0. 0.00492610829 0. 0.
      0.00985221658 0. 0. 0.00246305414 0. 0. 0. 0. 0.00246305414
      0.00985221658 0.00492610829 0. 0.00246305414 0.0960591137
      0.0517241359 0.00492610829 0. 0.00246305414 0.00492610829
      0.00738916267 0.00246305414 0.00246305414 0. 0.00492610829 0.
      0.00246305414 0.00246305414 0. 0.00492610829 0.00246305414 0.
      0.00985221658 0.00246305414 0. 0. 0.00492610829 0. 0.
      0.00246305414 0.00246305414 0.00246305414 0.00246305414
      0.0147783253 0. 0.00492610829 0.0320197046 0. 0. 0. 0.00246305414
      0. 0.0147783253 0.00246305414 0.00492610829 0.00492610829
      0.00246305414 0. 0.00246305414 0.00246305414 0.00985221658 0. 0.
      0.00738916267 0.00246305414 0.00738916267 0. 0.00492610829 0.
      0.0172413792 0. 0.00246305414 0.00492610829 0.00492610829
      0.00246305414 0.00492610829 0.00246305414 0. 0.00492610829 0.
      0.00246305414 0. 0.00246305414 0. 0.0197044332 0. 0.00246305414
      0.00246305414 0.00246305414 0.00246305414 0. 0.00738916267
      0.00246305414 0. 0. 0. 0.00246305414 0.0197044332 0. 0.00492610829
      0.0147783253 0. 0.0123152705 0.00985221658 0.00246305414
      0.0270935949 0.00246305414 0. 0. 0. 0.00492610829 0.0123152705 0.
      0.0270935949 0. 0. 0.00492610829 0.00246305414 0.00492610829 0.
      0.00738916267 0.00246305414 0.00246305414 0. 0.00246305414
      0.00246305414 0.00492610829 0.00246305414 0.00492610829
      0.00492610829 0. 0.00492610829 0.00492610829 0.00492610829 0. 0.
      0.00246305414 0. 0. 0.00492610829 0. 0.0172413792 0. 0.
      0.00492610829 0. 0.00492610829 0.00492610829 0. 0.00246305414 0.
      0. 0. 0.00492610829 0.0172413792 0.0123152705 0.00246305414
      0.00246305414 0.00492610829 0.</_>
    <_>
      0.00240384624 0.0432692319 0.0144230779 0. 0.00240384624
      0.00480769249 0. 0. 0.00480769249 0.00721153896 0.00240384624
      0.00240384624 0.00721153896 0.00240384624 0. 0.00721153896
      0.021634616 0. 0. 0.00721153896 0.024038462 0.00721153896 0. 0.
      0.0408653878 0.0336538479 0. 0.00240384624 0.012019231
      0.00240384624 0.00240384624 0.00480769249 0.00721153896 0. 0.
      0.00480769249 0.00240384624 0. 0.00721153896 0. 0. 0.012019231
      0.00240384624 0. 0. 0. 0.00480769249 0. 0. 0.00721153896
      0.00480769249 0.00240384624 0. 0.00240384624 0.0769230798
      0.0769230798 0.00480769249 0. 0.00961538497 0.00240384624
      0.00721153896 0. 0.00480769249 0. 0.00721153896 0.00240384624 0.
      0.00240384624 0.00240384624 0.00240384624 0. 0. 0.012019231
      0.00240384624 0. 0.00240384624 0.00480769249 0. 0. 0. 0.
      0.00240384624 0.00480769249 0.00240384624 0.00240384624
      0.00721153896 0.021634616 0. 0.00240384624 0. 0. 0. 0.0168269239
      0.00240384624 0.00721153896 0.00480769249 0. 0. 0.00480769249
      0.00240384624 0.0144230779 0. 0. 0.00480769249 0. 0.0144230779 0.
      0.00721153896 0. 0.00240384624 0. 0.00240384624 0.00480769249
      0.00480769249 0.00240384624 0.00240384624 0. 0. 0.00721153896 0.
      0. 0. 0.00240384624 0. 0.021634616 0. 0.00480769249 0.
      0.00240384624 0. 0. 0. 0.00240384624 0.00240384624 0.00240384624
      0.00240384624 0. 0.0144230779 0. 0.00480769249 0.00240384624
      0.00480769249 0.0192307699 0.00961538497 0.00721153896
      0.0168269239 0.00240384624 0. 0. 0.00240384624 0.00480769249
      0.00240384624 0. 0.0336538479 0. 0.00480769249 0. 0. 0.00721153896
      0. 0.00961538497 0. 0.00240384624 0. 0.00240384624 0.021634616
      0.00240384624 0. 0.00240384624 0.00721153896 0. 0.00240384624
      0.00721153896 0.00240384624 0.00480769249 0. 0. 0.00240384624 0.
      0.00721153896 0. 0.00480769249 0.00240384624 0. 0.00721153896 0.
      0. 0.00240384624 0.00240384624 0. 0. 0. 0.00480769249 0.012019231
      0.012019231 0.00721153896 0.00240384624 0. 0.00240384624 0.</_>
    <_>
      0. 0.032136105 0.00756143685 0. 0.0132325143 0.00378071843 0. 0.
      0.00189035921 0.00567107741 0. 0. 0.00567107741 0.00189035921 0.
      0.00756143685 0.0245746691 0. 0. 0.00378071843 0.020793952
      0.00189035921 0.00189035921 0. 0.0189035926 0.0245746691
      0.00189035921 0.00189035921 0.0113421548 0.00189035921 0. 0.
      0.00756143685 0. 0. 0.00378071843 0. 0. 0.00189035921 0. 0.
      0.00567107741 0.00189035921 0. 0. 0. 0.0094517963 0. 0.
      0.00189035921 0.0094517963 0.00189035921 0. 0.00189035921
      0.10396976 0.0661625713 0.00189035921 0. 0.0113421548
      0.00189035921 0.00567107741 0.00189035921 0. 0. 0. 0.00189035921
      0.00189035921 0.00189035921 0.00189035921 0.00189035921 0. 0.
      0.00756143685 0.00378071843 0. 0.00189035921 0.00378071843 0.
      0.00189035921 0. 0.00189035921 0. 0.00189035921 0.0094517963
      0.00189035921 0.00567107741 0.028355388 0. 0. 0.00189035921
      0.00189035921 0.00567107741 0.00756143685 0.00189035921
      0.00378071843 0.0094517963 0.00189035921 0. 0.0113421548 0.
      0.00756143685 0. 0.00189035921 0.00378071843 0.00189035921
      0.0226843096 0. 0.00189035921 0. 0.0151228737 0.00189035921
      0.00189035921 0.00756143685 0.00378071843 0. 0. 0.00189035921
      0.00189035921 0.00189035921 0.00567107741 0. 0. 0.00189035921 0.
      0.0378071852 0. 0.00189035921 0. 0.00189035921 0.00378071843 0. 0.
      0.00189035921 0. 0.00189035921 0.00189035921 0. 0.0170132332
      0.00189035921 0.00378071843 0.0226843096 0.00189035921 0.020793952
      0.0170132332 0.00378071843 0.0170132332 0.00189035921 0. 0. 0.
      0.00189035921 0.00567107741 0. 0.0245746691 0. 0.00567107741
      0.00378071843 0.00189035921 0.00756143685 0. 0.00567107741
      0.00189035921 0.00567107741 0. 0.00189035921 0.0170132332
      0.00189035921 0.00189035921 0.00378071843 0.00756143685 0. 0.
      0.0094517963 0.00378071843 0.00189035921 0. 0.00378071843
      0.00378071843 0. 0.00378071843 0. 0.0226843096 0. 0. 0.0094517963
      0. 0.00378071843 0. 0.00189035921 0.00378071843 0. 0.00189035921
      0.00378071843 0.0094517963 0.00756143685 0.0113421548 0. 0.
      0.00378071843 0.</_>
    <_>
      0. 0.0430621989 0.0119617218 0. 0.00478468882 0.00239234441 0. 0.
      0.00478468882 0.00717703346 0. 0. 0.0119617218 0.00239234441 0.
      0.00956937764 0.0215310995 0. 0. 0.00478468882 0.0215310995
      0.00478468882 0.00239234441 0. 0.0406698547 0.0191387553 0.
      0.00478468882 0.00956937764 0.00239234441 0. 0.00717703346
      0.00478468882 0. 0.00239234441 0.00239234441 0. 0. 0.00956937764
      0. 0. 0.00478468882 0.00239234441 0. 0.00239234441 0.00239234441
      0.00478468882 0. 0. 0. 0.00478468882 0.00239234441 0.
      0.00239234441 0.0933014303 0.0478468873 0.00239234441
      0.00239234441 0.00717703346 0.00239234441 0.00717703346
      0.00239234441 0. 0. 0.00478468882 0. 0. 0.00239234441
      0.00239234441 0.00239234441 0. 0. 0.00956937764 0.00239234441 0.
      0.00239234441 0.00478468882 0. 0. 0.00239234441 0. 0.00239234441
      0.00239234441 0.0382775106 0. 0.00239234441 0.0239234436 0. 0.
      0.00239234441 0. 0.00239234441 0.00956937764 0.00239234441
      0.00239234441 0.00239234441 0.00239234441 0. 0.00956937764 0.
      0.00717703346 0. 0. 0.00478468882 0.00239234441 0.0454545431
      0.00239234441 0. 0. 0.00956937764 0. 0.00239234441 0.00239234441
      0.00478468882 0.00239234441 0.00239234441 0. 0. 0.00478468882
      0.00239234441 0.00239234441 0. 0. 0.00239234441 0.0406698547
      0.00239234441 0. 0. 0. 0.00717703346 0. 0.00239234441
      0.00239234441 0.00239234441 0.00239234441 0.00239234441
      0.00239234441 0.0215310995 0. 0.00239234441 0.0119617218
      0.00478468882 0.0191387553 0.0143540669 0.00717703346 0.0119617218
      0.00239234441 0. 0. 0. 0.00478468882 0.00239234441 0. 0.0263157878
      0. 0. 0.00478468882 0.00478468882 0.0119617218 0. 0.00239234441
      0.00239234441 0. 0.00239234441 0.00239234441 0.00478468882
      0.00239234441 0. 0. 0.00239234441 0. 0. 0.00478468882
      0.00956937764 0. 0. 0. 0.00239234441 0. 0.00717703346
      0.00239234441 0.00956937764 0.00239234441 0. 0.00478468882 0.
      0.00478468882 0. 0.00239234441 0.00239234441 0.00239234441
      0.00239234441 0. 0.00478468882 0.00956937764 0.00478468882
      0.00239234441 0.00239234441 0.00239234441 0.</_>
    <_>
      0. 0.0249433108 0.0136054419 0. 0.00680272095 0.00226757373 0. 0.
      0.00680272095 0.00226757373 0.00226757373 0.00453514745
      0.00907029491 0.00453514745 0. 0.0136054419 0.0226757377
      0.00226757373 0. 0.00226757373 0.0340136066 0.00453514745
      0.00226757373 0. 0.0294784587 0.0136054419 0. 0.00453514745
      0.00680272095 0.00226757373 0.00226757373 0.00453514745
      0.00453514745 0.00226757373 0. 0.00226757373 0. 0. 0.00680272095
      0.00453514745 0. 0.00680272095 0. 0. 0. 0. 0.00226757373 0. 0.
      0.00226757373 0.00680272095 0. 0. 0.00226757373 0.0498866215
      0.074829936 0. 0. 0.0158730168 0.00226757373 0.00226757373 0. 0.
      0. 0. 0. 0. 0.00226757373 0.00453514745 0.00226757373
      0.00226757373 0.00226757373 0.00226757373 0. 0. 0.00680272095
      0.00680272095 0. 0. 0.00226757373 0.00453514745 0. 0.00226757373
      0.0340136066 0. 0.00453514745 0.0430839024 0. 0. 0.00226757373 0.
      0.00453514745 0.00453514745 0. 0. 0.00453514745 0.00226757373 0.
      0.00680272095 0. 0.0249433108 0. 0.00453514745 0.00226757373
      0.0113378689 0.00680272095 0. 0.00453514745 0. 0.00907029491 0.
      0.00226757373 0.00226757373 0.00453514745 0.00226757373
      0.00226757373 0. 0. 0.00226757373 0.00907029491 0.00226757373 0.
      0.00226757373 0. 0.0226757377 0. 0.00907029491 0.00453514745
      0.00453514745 0.00226757373 0. 0. 0. 0. 0.00453514745
      0.00226757373 0.00226757373 0.0294784587 0.00680272095
      0.00680272095 0. 0. 0.0113378689 0.00453514745 0.00453514745
      0.0249433108 0.00226757373 0. 0. 0. 0.00453514745 0.00453514745 0.
      0.0430839024 0. 0.00453514745 0.00226757373 0.00680272095
      0.00226757373 0. 0.0113378689 0. 0.00680272095 0.00226757373
      0.00226757373 0.0113378689 0.00226757373 0. 0. 0.00907029491 0.
      0.00226757373 0.00907029491 0.00226757373 0. 0.00226757373
      0.00226757373 0.00226757373 0. 0.00453514745 0. 0.00680272095 0.
      0.00226757373 0.00680272095 0. 0.00453514745 0. 0. 0. 0.
      0.00226757373 0.00453514745 0.0181405898 0.0113378689
      0.00907029491 0. 0.00226757373 0.00226757373 0.00226757373</_>
    <_>
      0. 0.0366598815 0.00610997993 0. 0.00610997993 0.00203665998 0. 0.
      0.00610997993 0.00407331996 0.00203665998 0.00203665998
      0.00814663991 0.00203665998 0. 0.00814663991 0.0325865597
      0.00203665998 0. 0.00610997993 0.0122199599 0.00407331996
      0.00203665998 0. 0.0488798395 0.0346232206 0. 0. 0.0122199599
      0.00203665998 0.00203665998 0. 0.00407331996 0.00610997993 0.
      0.00407331996 0. 0. 0.00203665998 0.00407331996 0. 0.00610997993
      0. 0.00203665998 0. 0. 0.00814663991 0.00203665998 0.
      0.00203665998 0.0224032588 0.00203665998 0. 0.00203665998
      0.0753564164 0.071283102 0.00407331996 0. 0.0122199599
      0.00203665998 0.00814663991 0. 0. 0. 0.00407331996 0. 0.
      0.00203665998 0.00203665998 0.00203665998 0. 0. 0.00610997993
      0.00203665998 0. 0. 0.00407331996 0. 0.00203665998 0.00203665998
      0.00203665998 0. 0.00203665998 0.00814663991 0. 0.00407331996
      0.0224032588 0. 0. 0.00407331996 0. 0.00203665998 0.00610997993
      0.00203665998 0.00407331996 0.00203665998 0. 0. 0.00407331996 0.
      0.0142566198 0. 0. 0.00203665998 0.00610997993 0.0183299407 0.
      0.00407331996 0. 0.00203665998 0.00203665998 0.00203665998 0.
      0.00203665998 0. 0.00203665998 0. 0. 0.00203665998 0.
      0.00203665998 0. 0.00203665998 0.00203665998 0.0305498987 0.
      0.00610997993 0. 0. 0.0122199599 0. 0. 0.00203665998 0.00203665998
      0.00407331996 0.00203665998 0.00203665998 0.0305498987 0.
      0.00610997993 0.0122199599 0.00203665998 0.0264765806
      0.00203665998 0.00610997993 0.0142566198 0.00203665998 0. 0. 0.
      0.00407331996 0.00407331996 0. 0.0244399197 0. 0.00610997993
      0.00407331996 0.00203665998 0.00610997993 0. 0.0122199599
      0.00407331996 0.00610997993 0. 0.00203665998 0.0203665998
      0.00203665998 0. 0. 0.00814663991 0. 0.00203665998 0.0101832999
      0.00203665998 0. 0. 0.00407331996 0.00203665998 0. 0.0101832999 0.
      0.0142566198 0.00203665998 0. 0.0122199599 0. 0.00203665998 0. 0.
      0.00610997993 0. 0.00203665998 0. 0.00610997993 0.0122199599
      0.00814663991 0. 0. 0. 0.</_>
    <_>
      0.00190114067 0.022813689 0.00570342224 0. 0. 0.00380228134 0. 0.
      0.00190114067 0.00380228134 0.00190114067 0.00380228134
      0.00950570311 0.00190114067 0. 0.00950570311 0.0285171103 0. 0.
      0.00380228134 0.0247148294 0.00570342224 0. 0. 0.0342205316
      0.0361216739 0.00190114067 0.00380228134 0.00190114067
      0.00190114067 0.00190114067 0.00190114067 0.00380228134
      0.00380228134 0. 0.00380228134 0. 0. 0.00570342224 0.00190114067
      0. 0.00950570311 0.00190114067 0. 0. 0. 0.00570342224 0. 0. 0.
      0.00760456268 0.00190114067 0. 0.00190114067 0.085551329
      0.0627376437 0.00380228134 0. 0.00950570311 0. 0.00380228134
      0.00380228134 0. 0. 0.00190114067 0. 0. 0.00190114067
      0.00570342224 0.00190114067 0. 0. 0.00380228134 0.00380228134 0.
      0. 0.00380228134 0. 0.00190114067 0. 0. 0. 0. 0.00570342224
      0.00190114067 0.00190114067 0.0380228125 0. 0.00190114067
      0.00190114067 0.00380228134 0.00190114067 0.00760456268 0.
      0.00190114067 0.00190114067 0.00190114067 0. 0.00380228134 0.
      0.00950570311 0. 0.00190114067 0.00570342224 0.00570342224
      0.0285171103 0. 0.00570342224 0. 0.0209125467 0.00190114067
      0.00190114067 0.00950570311 0.00190114067 0. 0.00190114067 0. 0.
      0.00380228134 0.00380228134 0. 0. 0.00190114067 0. 0.0380228125
      0.00190114067 0.00190114067 0. 0.00380228134 0.00380228134 0. 0.
      0.00190114067 0. 0. 0.00380228134 0. 0.0266159698 0. 0.00380228134
      0.0114068445 0.00380228134 0.032319393 0.00380228134 0.00380228134
      0.0209125467 0.00190114067 0. 0. 0.00190114067 0.00570342224
      0.00190114067 0. 0.0209125467 0. 0.00190114067 0.00380228134
      0.00190114067 0.0114068445 0. 0.0114068445 0.00190114067
      0.00380228134 0. 0.00190114067 0.0133079849 0.00190114067
      0.00190114067 0. 0.00570342224 0. 0.00380228134 0.0133079849
      0.00570342224 0. 0.00190114067 0.00380228134 0.00190114067 0.
      0.00380228134 0. 0.0114068445 0. 0. 0.00570342224 0.00190114067
      0.00190114067 0.00190114067 0.00380228134 0.00190114067 0.
      0.00190114067 0. 0.0114068445 0.0171102658 0.0152091254 0.
      0.00190114067 0. 0.00190114067</_>
    <_>
      0. 0.0725552067 0.0220820196 0. 0.00315457419 0.00630914839 0. 0.
      0.00630914839 0.00315457419 0. 0. 0. 0.00315457419 0. 0.
      0.0315457433 0.00315457419 0. 0.00315457419 0.0220820196 0. 0. 0.
      0.0630914867 0.0315457433 0.00630914839 0.00630914839
      0.00630914839 0. 0. 0. 0. 0. 0.00946372282 0.00630914839 0. 0. 0.
      0. 0. 0.0126182968 0.00946372282 0. 0. 0. 0.00315457419
      0.00630914839 0.00630914839 0. 0.00630914839 0. 0. 0. 0.145110413
      0.0757097825 0. 0. 0.00630914839 0. 0.00315457419 0. 0. 0.
      0.00630914839 0. 0. 0. 0. 0.00630914839 0.00630914839 0.
      0.00630914839 0. 0. 0. 0.00630914839 0. 0. 0.00315457419
      0.00630914839 0. 0.00315457419 0.00630914839 0. 0. 0.0126182968 0.
      0. 0. 0. 0. 0.0126182968 0. 0. 0. 0. 0. 0.00630914839
      0.00315457419 0.0157728717 0. 0.00315457419 0. 0.00315457419
      0.0157728717 0.00315457419 0. 0. 0.00315457419 0. 0. 0.0126182968
      0. 0. 0. 0. 0.00315457419 0.00315457419 0. 0. 0.00315457419
      0.00630914839 0. 0.0347003154 0. 0. 0. 0. 0.00315457419
      0.00315457419 0. 0. 0.00315457419 0. 0.00315457419 0. 0.0157728717
      0. 0. 0.0126182968 0.00315457419 0.00946372282 0.00630914839 0.
      0.00946372282 0. 0. 0. 0. 0. 0.00315457419 0. 0.0283911675 0.
      0.00315457419 0.00315457419 0.00315457419 0. 0.00315457419 0.
      0.00315457419 0. 0.00315457419 0. 0.00630914839 0.00315457419
      0.00315457419 0.00315457419 0. 0.00315457419 0. 0.00946372282
      0.0126182968 0.00315457419 0. 0. 0. 0. 0.00315457419 0.00630914839
      0.00315457419 0. 0. 0.0220820196 0. 0.00315457419 0. 0. 0. 0.
      0.00315457419 0. 0. 0.0189274456 0. 0. 0.00315457419 0. 0.</_>
    <_>
      0. 0.0364372469 0.0121457493 0. 0.0101214573 0.00202429155 0.
      0.0040485831 0.00202429155 0.00607287465 0. 0. 0.00607287465
      0.00202429155 0. 0.00607287465 0.0202429146 0.00202429155 0.
      0.00607287465 0.0323886648 0. 0. 0. 0.0303643737 0.0242914986
      0.00202429155 0.0040485831 0.0040485831 0.0040485831 0.
      0.0040485831 0.0040485831 0. 0. 0.00202429155 0. 0. 0.00607287465
      0. 0. 0.0040485831 0.00202429155 0. 0. 0. 0.0040485831
      0.00202429155 0.0040485831 0.0040485831 0.00607287465
      0.00202429155 0. 0.00202429155 0.0748987868 0.0485829972
      0.00202429155 0. 0.0101214573 0.00202429155 0. 0.0040485831 0. 0.
      0.0040485831 0.00202429155 0. 0. 0.0040485831 0.00202429155
      0.00202429155 0. 0.0121457493 0.00202429155 0. 0. 0.0040485831 0.
      0. 0. 0.00202429155 0. 0. 0.0161943324 0. 0.0040485831
      0.0344129577 0. 0. 0.00202429155 0.00202429155 0.0121457493
      0.0080971662 0. 0.00202429155 0.0040485831 0.00202429155
      0.00202429155 0.00607287465 0.00202429155 0.0121457493 0.
      0.00202429155 0.00202429155 0.00202429155 0.0222672075 0.
      0.0040485831 0. 0.0141700413 0.0040485831 0.00202429155
      0.0080971662 0.0040485831 0.00202429155 0.00202429155 0.
      0.00202429155 0.00202429155 0.0040485831 0. 0. 0. 0. 0.0404858291
      0. 0.00202429155 0. 0.00202429155 0.00202429155 0. 0.
      0.00202429155 0. 0.0040485831 0.0040485831 0. 0.0263157897 0.
      0.0040485831 0.0101214573 0.0040485831 0.0323886648 0.0121457493
      0.0040485831 0.0242914986 0.00202429155 0. 0. 0.00202429155
      0.00202429155 0.00202429155 0. 0.0182186235 0. 0.0040485831
      0.0040485831 0.0040485831 0.0101214573 0. 0.0141700413
      0.00202429155 0.0040485831 0. 0.00202429155 0.0202429146
      0.00202429155 0.00202429155 0. 0.0080971662 0. 0. 0.0040485831
      0.0040485831 0. 0. 0.00202429155 0.00202429155 0. 0.0040485831 0.
      0.0141700413 0. 0. 0.00607287465 0.00202429155 0.0040485831
      0.0040485831 0.00202429155 0.00202429155 0. 0.0040485831 0.
      0.0101214573 0.0101214573 0.0161943324 0.00202429155 0.00202429155
      0.00202429155 0.</_>
    <_>
      0. 0.0314814821 0.0129629625 0. 0. 0.00185185182 0. 0.
      0.00185185182 0.00370370364 0.00185185182 0. 0.00925925933
      0.00555555522 0. 0.00925925933 0.0111111104 0.00370370364 0.
      0.00370370364 0.0314814821 0.00370370364 0. 0.00185185182
      0.027777778 0.0314814821 0. 0.00370370364 0.00370370364
      0.00185185182 0.00185185182 0.00555555522 0.0111111104 0.
      0.00555555522 0.00370370364 0. 0. 0.0111111104 0.00185185182 0.
      0.00555555522 0. 0. 0. 0. 0.00185185182 0. 0.00185185182
      0.00185185182 0.0370370373 0.00185185182 0.00185185182
      0.00185185182 0.0462962948 0.0351851843 0.00185185182 0.
      0.0111111104 0.00185185182 0. 0.00370370364 0.00185185182 0.
      0.00185185182 0.00185185182 0. 0.00185185182 0.00185185182
      0.00185185182 0.00740740728 0. 0.00185185182 0. 0. 0.00185185182
      0.00370370364 0. 0.00185185182 0. 0. 0.00370370364 0.00185185182
      0.0240740739 0. 0.00555555522 0.0777777731 0. 0. 0. 0.00185185182
      0. 0.00370370364 0. 0.00925925933 0.00555555522 0.00185185182 0.
      0. 0. 0.00740740728 0. 0. 0.00185185182 0.00370370364
      0.00740740728 0. 0.00740740728 0. 0.00555555522 0. 0.00185185182
      0.00555555522 0.00185185182 0. 0.00185185182 0. 0. 0.00740740728
      0. 0. 0. 0.00370370364 0. 0.0314814821 0.00185185182 0.00185185182
      0. 0.00185185182 0.0166666657 0. 0. 0. 0. 0.00185185182
      0.00185185182 0.00185185182 0.0148148146 0. 0.00370370364
      0.0185185187 0.00185185182 0.0370370373 0.00370370364
      0.00555555522 0.0148148146 0.00185185182 0. 0. 0. 0.00185185182
      0.00370370364 0. 0.0148148146 0. 0. 0.00185185182 0.00185185182
      0.00555555522 0.00185185182 0.0222222209 0.00185185182
      0.00185185182 0. 0.00185185182 0.0296296291 0.00370370364
      0.00185185182 0.00185185182 0.00370370364 0. 0.00185185182
      0.0111111104 0.00185185182 0. 0.00555555522 0.00185185182 0. 0.
      0.00555555522 0. 0.0185185187 0.00185185182 0.00185185182
      0.00740740728 0.00185185182 0.00555555522 0. 0. 0.00185185182 0.
      0.00185185182 0.00555555522 0.0111111104 0.0185185187 0.0148148146
      0. 0.00185185182 0.00370370364 0.</_>
    <_>
      0. 0.0316622704 0.0131926127 0. 0.00263852254 0.00527704507 0. 0.
      0.00263852254 0.00527704507 0.00527704507 0.00527704507
      0.00527704507 0.00527704507 0. 0.0131926127 0.0158311352 0. 0.
      0.00791556761 0.039577838 0.0105540901 0.00263852254 0.
      0.0158311352 0.00527704507 0.00263852254 0. 0.0131926127 0. 0. 0.
      0.00791556761 0. 0. 0.00263852254 0. 0.00263852254 0.00527704507
      0.00263852254 0. 0.0105540901 0. 0. 0. 0. 0. 0. 0. 0.00263852254
      0.0158311352 0.00527704507 0. 0.00263852254 0.0923482925
      0.0501319282 0.00527704507 0. 0. 0. 0.00263852254 0.00263852254
      0.00263852254 0. 0.00527704507 0. 0. 0.00263852254 0.00527704507
      0.00527704507 0. 0. 0.00791556761 0. 0. 0. 0.00527704507 0.
      0.00263852254 0.00527704507 0.00527704507 0. 0.00263852254
      0.0131926127 0. 0.00791556761 0.034300793 0. 0. 0.00263852254
      0.00263852254 0. 0.0131926127 0.00263852254 0.00263852254
      0.00263852254 0. 0. 0.00263852254 0.00527704507 0.0131926127 0.
      0.00263852254 0.00263852254 0.00263852254 0.0158311352 0.
      0.00527704507 0. 0.0158311352 0. 0.00263852254 0.00527704507
      0.00527704507 0. 0. 0. 0. 0.00263852254 0. 0.00263852254 0.
      0.00263852254 0. 0.0369393155 0.00263852254 0. 0.00527704507
      0.00263852254 0.00263852254 0. 0.00263852254 0.00263852254 0.
      0.00263852254 0. 0. 0.0131926127 0. 0.00527704507 0.0131926127
      0.00263852254 0.0211081803 0.0131926127 0.00263852254 0.0184696577
      0.00263852254 0. 0. 0.00263852254 0.00527704507 0.00791556761 0.
      0.0211081803 0. 0.00791556761 0.00527704507 0.00263852254
      0.00791556761 0. 0.00527704507 0.00263852254 0.00263852254 0.
      0.00263852254 0.00791556761 0.00791556761 0.00263852254
      0.00263852254 0.00263852254 0.00263852254 0. 0. 0.00527704507 0.
      0. 0.00527704507 0. 0. 0.00527704507 0. 0.0105540901 0.00527704507
      0. 0.00791556761 0.00263852254 0.00527704507 0.00263852254
      0.00527704507 0.00527704507 0.00263852254 0. 0.00791556761
      0.0105540901 0.00791556761 0.0105540901 0. 0.00263852254
      0.00527704507 0.00263852254</_>
    <_>
      0. 0.0314465389 0. 0. 0.00419287197 0.00209643599 0.00209643599
      0.00209643599 0.00209643599 0.00209643599 0.00209643599
      0.00209643599 0.0104821799 0.00209643599 0. 0.00838574395
      0.0272536688 0. 0. 0.00838574395 0.0314465389 0.00628930796 0. 0.
      0.0314465389 0.0356394127 0.00419287197 0.00209643599
      0.00838574395 0. 0. 0.00209643599 0.00419287197 0.00209643599 0.
      0. 0. 0. 0.00209643599 0. 0. 0.00419287197 0.00209643599 0.
      0.00209643599 0. 0.00419287197 0.00209643599 0.00209643599 0.
      0.00628930796 0.00209643599 0. 0.00209643599 0.0985324904
      0.0503144637 0.00209643599 0. 0.0125786159 0.00419287197
      0.00838574395 0. 0. 0. 0.00419287197 0.00209643599 0.
      0.00209643599 0.00628930796 0.00209643599 0. 0. 0. 0. 0. 0.
      0.00419287197 0. 0.00209643599 0.00419287197 0.00209643599 0.
      0.00419287197 0.0125786159 0.00209643599 0.00419287197
      0.0356394127 0. 0.00419287197 0.00209643599 0.00209643599
      0.00419287197 0.0125786159 0.00209643599 0.00209643599
      0.00209643599 0.00209643599 0. 0.00419287197 0. 0. 0.
      0.00209643599 0.00419287197 0.00628930796 0.0167714879 0.
      0.00628930796 0. 0.0146750519 0.00209643599 0.00209643599
      0.00628930796 0.00209643599 0. 0.00209643599 0. 0. 0.00209643599
      0. 0.00209643599 0. 0.00209643599 0.00209643599 0.0314465389
      0.00209643599 0.00209643599 0.00209643599 0.00419287197
      0.00628930796 0. 0. 0.00419287197 0. 0.00209643599 0.00419287197
      0.00209643599 0.0251572318 0.00209643599 0.00419287197
      0.0104821799 0.00209643599 0.0188679248 0.0104821799 0.00628930796
      0.0125786159 0.00209643599 0. 0. 0.00209643599 0.00209643599
      0.00628930796 0. 0.0188679248 0. 0.00419287197 0.00209643599
      0.00209643599 0.0104821799 0. 0.00838574395 0.00419287197
      0.00209643599 0. 0.00209643599 0.0146750519 0.00209643599
      0.00209643599 0. 0.00628930796 0. 0.00209643599 0.0125786159
      0.00209643599 0.00209643599 0.00419287197 0.00419287197
      0.00209643599 0. 0.00419287197 0. 0.0167714879 0. 0.00209643599
      0.0104821799 0.00419287197 0. 0. 0. 0.00209643599 0. 0.00209643599
      0.00209643599 0.00628930796 0.0125786159 0.0188679248
      0.00209643599 0.00209643599 0. 0.</_>
    <_>
      0. 0.0366748199 0.00977995154 0. 0. 0.00244498788 0. 0.
      0.00733496342 0.00488997577 0.00244498788 0.00244498788
      0.00977995154 0.00244498788 0. 0.00733496342 0.0317848437 0. 0.
      0.00488997577 0.0268948674 0.00488997577 0.00244498788 0.
      0.0415647924 0.017114915 0. 0. 0.00977995154 0.00244498788 0. 0.
      0.00488997577 0. 0. 0.00244498788 0. 0.00244498788 0.
      0.00244498788 0. 0.00977995154 0.00488997577 0. 0. 0.
      0.00244498788 0.00244498788 0. 0.00244498788 0.00488997577
      0.00244498788 0.00244498788 0.00244498788 0.10757947 0.0782396123
      0. 0. 0.00977995154 0. 0.00244498788 0. 0.00244498788 0.
      0.00244498788 0.00244498788 0. 0.00244498788 0.00488997577
      0.00244498788 0. 0. 0.00488997577 0. 0. 0. 0.00733496342 0. 0. 0.
      0.00244498788 0. 0.00244498788 0.00977995154 0. 0.00488997577
      0.017114915 0. 0. 0.00244498788 0.00244498788 0. 0.00977995154
      0.00244498788 0.00488997577 0.00244498788 0. 0. 0.00488997577 0.
      0.00733496342 0. 0.00244498788 0. 0.00977995154 0.0244498793 0.
      0.00244498788 0. 0.0220048912 0. 0.00244498788 0.00244498788
      0.00488997577 0. 0.00244498788 0. 0. 0.00488997577 0. 0. 0. 0. 0.
      0.0268948674 0. 0.00488997577 0. 0.00488997577 0. 0. 0.
      0.00244498788 0. 0.00244498788 0.00488997577 0. 0.0317848437 0.
      0.00488997577 0.017114915 0.00244498788 0.0146699268 0.00488997577
      0.00733496342 0.0122249397 0.00244498788 0. 0. 0.00733496342
      0.00488997577 0.00488997577 0. 0.0342298299 0. 0.00733496342
      0.00244498788 0.00244498788 0.0122249397 0. 0.00488997577
      0.00244498788 0.00488997577 0. 0.00244498788 0.0195599031
      0.00244498788 0. 0. 0.00488997577 0. 0.00244498788 0.00488997577
      0.00488997577 0. 0. 0. 0.00244498788 0. 0.00244498788 0.
      0.0195599031 0. 0. 0.00733496342 0. 0.00244498788 0. 0.
      0.00244498788 0. 0. 0. 0.00488997577 0.0244498793 0.00244498788 0.
      0.00244498788 0. 0.00244498788</_>
    <_>
      0. 0.0255220402 0.00696055684 0. 0. 0.00232018554 0. 0.00232018554
      0.00464037107 0.00696055684 0.00232018554 0.00464037107
      0.00464037107 0.00696055684 0. 0.0116009274 0.0348027833 0. 0.
      0.00464037107 0.0208816696 0.00232018554 0. 0. 0.0371229686
      0.032482598 0. 0.00232018554 0.0139211137 0. 0.00232018554
      0.00464037107 0.00232018554 0.00232018554 0. 0.00232018554 0.
      0.00232018554 0.00696055684 0.00464037107 0. 0.00928074215 0.
      0.00232018554 0. 0. 0.00232018554 0.00464037107 0.00232018554
      0.00232018554 0.00464037107 0.00464037107 0.00232018554
      0.00232018554 0.0812064931 0.05800464 0.00232018554 0.
      0.00928074215 0.00232018554 0.00696055684 0. 0. 0. 0.00232018554
      0.00232018554 0. 0.00232018554 0.00232018554 0.00232018554
      0.00232018554 0. 0.00696055684 0. 0. 0. 0.00464037107 0. 0.
      0.00232018554 0.00464037107 0. 0.00232018554 0.016241299 0. 0.
      0.032482598 0. 0. 0.00232018554 0.00232018554 0. 0.00696055684
      0.00232018554 0.00232018554 0. 0.00232018554 0. 0. 0.
      0.00464037107 0. 0.00464037107 0. 0.00464037107 0.0185614843
      0.00232018554 0.00232018554 0. 0.00696055684 0.00232018554
      0.00232018554 0.00464037107 0.00232018554 0.00464037107
      0.00232018554 0. 0. 0.00464037107 0. 0.00232018554 0. 0.
      0.00464037107 0.0417633392 0. 0.00232018554 0. 0. 0.00464037107 0.
      0. 0.00232018554 0. 0.00232018554 0.00232018554 0.00232018554
      0.0301624127 0. 0.00696055684 0.0116009274 0.00232018554
      0.0232018549 0.00696055684 0.00696055684 0.0139211137
      0.00232018554 0. 0. 0.00232018554 0.00696055684 0.00232018554 0.
      0.0348027833 0. 0.00696055684 0.00232018554 0. 0.0116009274 0.
      0.00696055684 0.00232018554 0.00232018554 0.00232018554
      0.00232018554 0.0116009274 0.00232018554 0. 0. 0.00464037107 0.
      0.00232018554 0.00928074215 0.00928074215 0. 0.00232018554
      0.00464037107 0.00232018554 0. 0.00928074215 0. 0.016241299 0. 0.
      0.00928074215 0. 0.00464037107 0. 0. 0.00232018554 0.00232018554
      0.00232018554 0. 0.00232018554 0.00928074215 0.0139211137
      0.00232018554 0.00232018554 0. 0.</_>
    <_>
      0. 0.0292553175 0.0186170209 0. 0. 0.00531914877 0. 0.
      0.00265957438 0.00531914877 0.00265957438 0.00265957438
      0.0132978717 0.00265957438 0. 0.0132978717 0.0159574468 0. 0.
      0.00797872338 0.0452127643 0.00531914877 0.00265957438 0.
      0.0292553175 0.0132978717 0.00265957438 0.00265957438 0.0106382975
      0. 0.00265957438 0.00265957438 0.00531914877 0. 0. 0. 0. 0.
      0.00797872338 0.00265957438 0. 0.00531914877 0.00265957438 0. 0.
      0. 0. 0. 0.00265957438 0.00265957438 0.00531914877 0.00531914877
      0. 0.00265957438 0.0824468061 0.039893616 0.00531914877 0.
      0.00531914877 0. 0.00531914877 0.00531914877 0.0132978717 0.
      0.00265957438 0. 0. 0.00265957438 0.00265957438 0.00531914877 0.
      0. 0.0132978717 0.00265957438 0. 0. 0.00531914877 0. 0.
      0.00797872338 0.00265957438 0. 0.00531914877 0.0132978717 0.
      0.00265957438 0.0265957434 0. 0. 0.00265957438 0.00265957438 0.
      0.0106382975 0.00265957438 0.00265957438 0.00531914877 0. 0. 0.
      0.00797872338 0.00797872338 0. 0. 0.00531914877 0.00797872338
      0.00531914877 0. 0.00265957438 0. 0.0159574468 0. 0.00265957438
      0.00265957438 0.00531914877 0. 0.00265957438 0. 0. 0.00531914877
      0. 0.00265957438 0. 0.00265957438 0. 0.039893616 0.00531914877
      0.00265957438 0. 0.00265957438 0. 0. 0.00265957438 0.00265957438
