<?xml version="1.0"?>
<opencv_storage>
<opencv_ml_svm>
  <format>3</format>
  <svmType>C_SVC</svmType>
  <kernel>
    <type>RBF</type>
    <gamma>0.50625000000000009</gamma></kernel>
  <C>312.5</C>
  <term_criteria><epsilon>1.1920928955078125e-07</epsilon>
    <iterations>1000</iterations></term_criteria>
  <var_count>100</var_count>
  <class_count>13</class_count>
  <class_labels type_id="opencv-matrix">
    <rows>13</rows>
    <cols>1</cols>
    <dt>i</dt>
    <data>
      0 1 2 3 4 5 6 7 8 9 10 11 12</data></class_labels>
  <sv_total>241</sv_total>
  <support_vectors>
    <_>
      0.00380228134 0.00190114067 0.00570342224 0.0437262356
      0.00570342224 0.0304182507 0.0209125467 0.00570342224 0.0114068445
      0.00570342224 0.064638786 0.00570342224 0.00760456268 0.0133079849
      0.0190114062 0.00570342224 0.00380228134 0.00760456268
      0.00380228134 0.0703422055 0.0266159698 0.0133079849 0.
      0.00760456268 0.0171102658 0.00760456268 0.00570342224
      0.00950570311 0.00190114067 0.00570342224 0.00950570311 0.
      0.0247148294 0.0171102658 0.0209125467 0.00380228134 0.00190114067
      0.0133079849 0.00380228134 0.0114068445 0.0190114062 0.00190114067
      0.00570342224 0.0114068445 0.0190114062 0.00380228134
      0.00950570311 0.00950570311 0.0114068445 0.00190114067
      0.00380228134 0. 0.00190114067 0.00380228134 0.00760456268
      0.00760456268 0. 0. 0.00570342224 0.0152091254 0.00380228134
      0.00760456268 0.00380228134 0.00570342224 0.00570342224
      0.0437262356 0.00760456268 0.00760456268 0.00190114067
      0.00760456268 0.0304182507 0.00570342224 0.00570342224
      0.00570342224 0.00570342224 0.00570342224 0.00760456268
      0.00570342224 0.00950570311 0.00950570311 0.00190114067
      0.022813689 0.00760456268 0. 0.00760456268 0.00380228134 0.
      0.00190114067 0. 0.00570342224 0.00760456268 0.00380228134
      0.0114068445 0.00570342224 0.0285171103 0.00570342224
      0.00760456268 0.00190114067 0.00570342224 0.00760456268</_>
    <_>
      0.00483091781 0.00483091781 0.00966183562 0.0132850241
      0.00120772945 0.0241545886 0.0144927539 0.0144927539 0.00603864715
      0.00724637695 0.0748792291 0.00120772945 0.00120772945
      0.00845410582 0.0241545886 0.0108695654 0.00603864715
      0.00483091781 0.00120772945 0.0652173907 0.0108695654 0.0289855078
      0.00120772945 0.00120772945 0.0132850241 0.00966183562
      0.00362318847 0.00483091781 0.0024154589 0.00120772945
      0.0108695654 0.00120772945 0.0567632839 0.0108695654 0.0181159414
      0.0024154589 0.00120772945 0.00483091781 0.00120772945
      0.00483091781 0.0229468588 0.00362318847 0.0024154589
      0.00966183562 0.0289855078 0.00483091781 0.0132850241
      0.00966183562 0.00603864715 0.00603864715 0.0024154589 0.
      0.00724637695 0.0024154589 0.00362318847 0.00724637695
      0.00120772945 0.00120772945 0.00483091781 0.0410628021
      0.00845410582 0.00120772945 0.0024154589 0.00362318847
      0.00845410582 0.0434782617 0.00483091781 0.0157004837 0.
      0.00724637695 0.0531400964 0.00724637695 0.0265700482
      0.00845410582 0.00724637695 0.00120772945 0.00724637695
      0.0024154589 0.0144927539 0.00845410582 0.00120772945 0.0132850241
      0.00120772945 0.00120772945 0.00603864715 0.00120772945 0.
      0.0024154589 0.00120772945 0.0024154589 0.00724637695
      0.00603864715 0.00483091781 0.0024154589 0.0265700482
      0.00362318847 0.0132850241 0. 0.00362318847 0.00362318847</_>
    <_>
      0.00915750954 0.00366300368 0.00915750954 0.025641026
      0.00915750954 0.0238095243 0.0146520147 0.00732600736 0.0164835174
      0.00549450563 0.0439560451 0.00549450563 0.00366300368
      0.00732600736 0.0219780225 0.00549450563 0.00732600736
      0.00366300368 0.00366300368 0.0531135537 0.0238095243 0.
      0.00183150184 0.00366300368 0.025641026 0.00732600736 0.012820513
      0.00366300368 0.00549450563 0.0164835174 0.00366300368 0.
      0.0146520147 0.00732600736 0.0146520147 0.00366300368
      0.00366300368 0.0109890113 0.012820513 0.0109890113 0.0164835174
      0. 0.00732600736 0.00366300368 0.0549450554 0.00915750954
      0.0183150191 0.00915750954 0.00915750954 0.00366300368
      0.00366300368 0. 0.00549450563 0.00549450563 0.00549450563
      0.00732600736 0.00183150184 0.00183150184 0.00183150184
      0.0311355311 0.00732600736 0.00549450563 0.00366300368
      0.00549450563 0.00732600736 0.0329670347 0.00366300368
      0.00732600736 0. 0.00549450563 0.00366300368 0.00549450563
      0.0146520147 0.00549450563 0. 0.00183150184 0.00915750954
      0.00183150184 0.00915750954 0.00549450563 0.00183150184
      0.0476190485 0.00732600736 0.00183150184 0.0109890113
      0.00183150184 0. 0.00183150184 0.00183150184 0.00366300368
      0.00549450563 0.012820513 0.00915750954 0.00183150184 0.0604395606
      0.00915750954 0.0146520147 0.00183150184 0.00732600736
      0.00366300368</_>
    <_>
      0.00727272732 0.0090909088 0.00545454537 0.0418181829
      0.00181818183 0.0090909088 0.0163636357 0.0163636357 0.0109090907
      0.00727272732 0.0218181815 0.00363636366 0.00545454537
      0.00363636366 0.0218181815 0.0145454546 0.00181818183
      0.00181818183 0. 0.0563636385 0.0236363634 0.0163636357
      0.00363636366 0.00545454537 0.0199999996 0.00727272732
      0.00545454537 0.00363636366 0.00363636366 0.00545454537
      0.00545454537 0. 0.0127272727 0.0109090907 0.0199999996
      0.00545454537 0.00545454537 0.00727272732 0.00545454537
      0.0199999996 0.0218181815 0.00545454537 0.00181818183 0.0145454546
      0.038181819 0.0109090907 0.0109090907 0.0109090907 0.0109090907
      0.00545454537 0.00545454537 0. 0.00181818183 0.00181818183
      0.00727272732 0.00181818183 0. 0. 0.00727272732 0.0345454551
      0.0090909088 0.00545454537 0.00181818183 0.00727272732
      0.0127272727 0.0236363634 0. 0.00727272732 0. 0.00727272732
      0.0327272713 0.00363636366 0.0163636357 0.00545454537 0.0090909088
      0.00181818183 0.0090909088 0. 0.0109090907 0.0090909088
      0.00181818183 0.0272727273 0.00545454537 0.00363636366
      0.0163636357 0.00181818183 0. 0.00363636366 0.00363636366
      0.00545454537 0.00363636366 0.0109090907 0.0163636357
      0.00727272732 0.0527272746 0.00181818183 0.0127272727
      0.00363636366 0.00727272732 0.00727272732</_>
    <_>
      0.00905797072 0.00181159424 0.00543478271 0.0126811601
      0.00362318847 0.0126811601 0.0126811601 0.0108695654 0.00543478271
      0.00181159424 0.0471014492 0.00543478271 0.00543478271
      0.00543478271 0.0181159414 0.00724637695 0.00543478271
      0.00362318847 0.00543478271 0.048913043 0.027173914 0.00905797072
      0.00181159424 0.00181159424 0.0126811601 0.00362318847
      0.00905797072 0.00543478271 0.00362318847 0.00905797072
      0.00724637695 0.00181159424 0.0380434804 0.00905797072
      0.0199275371 0.00181159424 0.00724637695 0.00724637695
      0.00724637695 0.0144927539 0.0163043477 0.00724637695
      0.00724637695 0.0108695654 0.0344202891 0.00362318847 0.0126811601
      0.0144927539 0.0126811601 0.00181159424 0.00362318847 0.
      0.0144927539 0.00181159424 0.00543478271 0.0108695654 0.
      0.00181159424 0.00362318847 0.0181159414 0.00724637695 0.
      0.00362318847 0.00724637695 0.00905797072 0.0253623202
      0.00362318847 0.00724637695 0. 0.0163043477 0.0181159414
      0.00362318847 0.0181159414 0.00905797072 0.0108695654
      0.00543478271 0.0144927539 0.00543478271 0.00543478271
      0.00362318847 0. 0.048913043 0.00362318847 0.00181159424
      0.00543478271 0.00362318847 0. 0.00362318847 0.00543478271
      0.00362318847 0.0108695654 0.0108695654 0.0144927539 0.00543478271
      0.0471014492 0.00362318847 0.0326086953 0. 0.0126811601
      0.00543478271</_>
    <_>
      0.00804828946 0.00603621732 0.00402414473 0.0221327953
      0.00603621732 0.0221327953 0.0100603616 0.0120724346 0.00402414473
      0. 0.0764587522 0.00402414473 0. 0. 0.0321931578 0.00402414473
      0.0100603616 0.00804828946 0. 0.0623742417 0.0201207232
      0.0120724346 0.00201207236 0.00201207236 0.00603621732
      0.00804828946 0.00402414473 0.00402414473 0.00402414473
      0.0100603616 0.00603621732 0.00201207236 0.0684104636 0.0160965789
      0.0140845068 0.00201207236 0.0100603616 0.00603621732
      0.00804828946 0.0120724346 0.0160965789 0.00201207236
      0.00402414473 0.00402414473 0.0382293761 0.0100603616 0.0281690136
      0.00402414473 0.0221327953 0.00201207236 0.00402414473
      0.00402414473 0.00603621732 0.00201207236 0.00201207236
      0.00402414473 0. 0. 0.00201207236 0.0160965789 0.00402414473
      0.00603621732 0. 0.00603621732 0.00402414473 0.0342052318
      0.00201207236 0.00603621732 0. 0.00603621732 0.0382293761
      0.00402414473 0.0100603616 0.0120724346 0.00201207236
      0.00201207236 0.0120724346 0.00201207236 0.00804828946
      0.00603621732 0.00201207236 0.018108651 0.00402414473
      0.00201207236 0.00804828946 0.00201207236 0. 0.00201207236
      0.00402414473 0.00402414473 0.0120724346 0.0120724346 0.0160965789
      0.00201207236 0.0442655906 0.00402414473 0.0120724346 0.
      0.00201207236 0.00402414473</_>
    <_>
      0.00134048262 0.00134048262 0.0107238609 0.0107238609 0.
      0.0160857923 0.0134048257 0.0174262747 0.00804289617 0.00536193047
      0.101876676 0.00670241285 0.00134048262 0.00536193047 0.0361930318
      0.00670241285 0.00670241285 0.00536193047 0.00268096523
      0.0589812361 0.0160857923 0.0120643433 0.00268096523 0.00268096523
      0.0120643433 0.00804289617 0.00536193047 0.00670241285
      0.00536193047 0.00268096523 0.00402144808 0. 0.050938338
      0.00536193047 0.0495978557 0.00402144808 0.00670241285
      0.00670241285 0.00134048262 0.00670241285 0.0134048257
      0.00134048262 0.00268096523 0.0134048257 0.0321715847
      0.00402144808 0.0134048257 0.0134048257 0.00670241285
      0.00670241285 0.00268096523 0.00134048262 0.00536193047
      0.00804289617 0.00268096523 0.00536193047 0. 0.00134048262
      0.00536193047 0.029490618 0.00670241285 0.00134048262
      0.00670241285 0.00536193047 0.00938337855 0.0321715847
      0.00670241285 0.00536193047 0. 0.00268096523 0.0536193028
      0.00536193047 0.0134048257 0.0120643433 0.00402144808
      0.00268096523 0.00536193047 0.00268096523 0.0120643433
      0.00536193047 0.00134048262 0.0107238609 0.00268096523
      0.00134048262 0.00536193047 0.00402144808 0. 0.00134048262
      0.00536193047 0.00402144808 0.00402144808 0.00804289617
      0.0120643433 0.00938337855 0.025469169 0.00134048262 0.00402144808
      0.00134048262 0.00536193047 0.00536193047</_>
    <_>
      0.008960573 0.00537634408 0.00716845877 0.0125448033 0.00179211469
      0.0125448033 0.0161290318 0.0161290318 0.0107526882 0.00537634408
      0.0842293873 0.00179211469 0.00537634408 0.00716845877 0.017921146
      0.0125448033 0.00358422939 0.00716845877 0.00537634408 0.071684584
      0.0232974906 0.0161290318 0. 0.00537634408 0.0232974906
      0.00537634408 0.00716845877 0.00537634408 0. 0.00358422939
      0.00537634408 0.00179211469 0.0448028669 0.0143369175 0.017921146
      0.00537634408 0.00358422939 0.00537634408 0.00179211469
      0.0107526882 0.008960573 0.00358422939 0.00358422939 0.00716845877
      0.0125448033 0.00716845877 0.0107526882 0.008960573 0.0161290318
      0.00537634408 0.00179211469 0.00179211469 0.00537634408
      0.0107526882 0.00358422939 0.008960573 0. 0. 0.00358422939
      0.0161290318 0.0107526882 0.00716845877 0. 0.00358422939
      0.008960573 0.0519713275 0.00358422939 0.008960573 0.
      0.00716845877 0.0501792133 0.00716845877 0.0107526882
      0.00537634408 0.008960573 0.00179211469 0.0125448033 0.00179211469
      0.0197132621 0.00716845877 0.00179211469 0.0125448033
      0.00179211469 0.00179211469 0.00716845877 0.00179211469 0.
      0.00537634408 0.00179211469 0.00537634408 0.008960573 0.0125448033
      0.0161290318 0.00179211469 0.0304659493 0.00179211469
      0.00179211469 0. 0.00358422939 0.00537634408</_>
    <_>
      0.00750469044 0.00562851783 0.00375234522 0.0300187618
      0.00187617261 0.0206378996 0.0206378996 0.00938086305 0.0112570357
      0.00375234522 0.0412757993 0.00187617261 0.00375234522
      0.00562851783 0.0187617261 0.00938086305 0.0131332083
      0.00187617261 0.00187617261 0.0600375235 0.0225140713
      0.00375234522 0.00187617261 0.00562851783 0.0150093809
      0.00562851783 0.00187617261 0.00938086305 0.00375234522
      0.00750469044 0.00750469044 0.00187617261 0.0318949334
      0.0112570357 0.0281425901 0. 0.0112570357 0.00750469044 0.
      0.0168855526 0.0206378996 0.00938086305 0.00375234522
      0.00750469044 0.024390243 0.00375234522 0.0150093809 0.00750469044
      0.0225140713 0.00187617261 0.00187617261 0.00187617261
      0.00938086305 0.00750469044 0.00562851783 0.00562851783 0. 0. 0.
      0.043151971 0.00562851783 0.00750469044 0.00375234522
      0.00750469044 0.0131332083 0.0356472805 0.00938086305 0.0112570357
      0. 0.00750469044 0.024390243 0. 0.00562851783 0.00938086305
      0.00750469044 0.00187617261 0.00562851783 0.00562851783
      0.00750469044 0.00375234522 0.00187617261 0.0225140713
      0.00375234522 0.00750469044 0.0112570357 0.00375234522 0.
      0.00187617261 0.00562851783 0.00562851783 0.00750469044
      0.00750469044 0.0187617261 0.00375234522 0.0356472805 0.
      0.0150093809 0.00375234522 0.0112570357 0.00375234522</_>
    <_>
      0.00451807212 0.00602409616 0.00301204808 0.0075301202
      0.00451807212 0.0195783116 0.0135542164 0.0150602404 0.00903614424
      0.0075301202 0.073795177 0.00301204808 0. 0.00602409616
      0.0316265039 0.0135542164 0.00150602404 0.0075301202 0.00301204808
      0.0873493925 0.0180722885 0.0286144577 0.00451807212 0.00301204808
      0.00602409616 0.00150602404 0.0105421683 0.00301204808
      0.00150602404 0.00451807212 0.00150602404 0. 0.0301204808
      0.0105421683 0.00903614424 0.00451807212 0.00301204808
      0.00903614424 0.00451807212 0.0105421683 0.0301204808
      0.00301204808 0.00301204808 0.00150602404 0.0496987924
      0.00451807212 0.0105421683 0.00602409616 0.00903614424
      0.00602409616 0.00150602404 0.00301204808 0.0105421683
      0.00301204808 0.00451807212 0.00301204808 0.00150602404 0. 0.
      0.0376506001 0.00451807212 0.0105421683 0.00301204808
      0.00602409616 0.0075301202 0.0391566232 0.0120481923 0.0105421683
      0. 0.00903614424 0.0301204808 0.00602409616 0.0180722885
      0.00451807212 0.00150602404 0.00301204808 0.0075301202
      0.00602409616 0.00903614424 0.00602409616 0.00150602404
      0.0075301202 0.0105421683 0.00451807212 0.00903614424
      0.00150602404 0.00451807212 0.00150602404 0.00602409616
      0.00451807212 0.0105421683 0.0075301202 0.0075301202 0.00301204808
      0.0210843366 0.0120481923 0.0075301202 0.00301204808 0.0105421683
      0.00150602404</_>
    <_>
      0.0047449586 0.0023724793 0.00355871907 0.0130486358 0.00118623965
      0.0201660749 0.0260972716 0.0177935939 0.0047449586 0.0047449586
      0.069988139 0.0023724793 0.00355871907 0.0094899172 0.0213523135
      0.0118623963 0.0047449586 0.00355871907 0.0023724793 0.0735468566
      0.0154211158 0.0166073553 0.00593119813 0. 0.00711743813
      0.0094899172 0.00830367766 0.00355871907 0.00118623965
      0.00593119813 0.00830367766 0.00118623965 0.0474495851
      0.0130486358 0.0260972716 0.00118623965 0.00118623965 0.0118623963
      0.00593119813 0.0094899172 0.0130486358 0.00711743813 0.0047449586
      0.0023724793 0.0415183865 0.0047449586 0.0118623963 0.00593119813
      0.0094899172 0.00593119813 0.00355871907 0. 0.00711743813
      0.00355871907 0.0023724793 0.0023724793 0. 0. 0.00593119813
      0.0427046269 0.00355871907 0.0047449586 0.00593119813 0.0047449586
      0.0094899172 0.0367734283 0.00355871907 0.0130486358 0.00118623965
      0.0047449586 0.0521945432 0.00118623965 0.0154211158 0.0047449586
      0.00711743813 0.00118623965 0.00593119813 0.0023724793
      0.00593119813 0.00711743813 0.00118623965 0.0225385539
      0.00593119813 0. 0.0094899172 0.0023724793 0.00118623965
      0.0023724793 0.00355871907 0.0023724793 0.0023724793 0.00830367766
      0.0130486358 0.00355871907 0.0213523135 0.0047449586 0.0177935939
      0.00118623965 0.00355871907 0.00711743813</_>
    <_>
      0.00583941583 0.0043795621 0.00729926955 0.0116788317 0.0043795621
      0.0233576633 0.0131386854 0.0116788317 0.0102189779 0.0102189779
      0.0919708014 0.00145985396 0.00145985396 0.00291970791
      0.0364963487 0.0160583928 0.0043795621 0.0116788317 0.00145985396
      0.0700729936 0.0218978096 0.0131386854 0.00145985396 0.00291970791
      0.0116788317 0.0116788317 0.00729926955 0.00583941583
      0.00291970791 0.0043795621 0.00145985396 0. 0.0335766412
      0.0131386854 0.0116788317 0.00291970791 0.00729926955
      0.00583941583 0.00145985396 0.00729926955 0.0116788317
      0.00583941583 0.00145985396 0.00583941583 0.0408759117
      0.0043795621 0.0145985391 0.0087591242 0.0102189779 0.00583941583
      0.0043795621 0.00145985396 0.0145985391 0.0043795621 0.00583941583
      0.00729926955 0. 0.00145985396 0.0087591242 0.0364963487
      0.00583941583 0.00145985396 0. 0.00291970791 0.0087591242
      0.0350364968 0.0043795621 0.0043795621 0. 0.00729926955
      0.0467153266 0.00583941583 0.0175182484 0.0116788317 0.00583941583
      0.00291970791 0.0131386854 0.0043795621 0.00583941583 0.0087591242
      0. 0.00291970791 0.0043795621 0.00291970791 0.00729926955
      0.00291970791 0. 0.00583941583 0.00583941583 0.0043795621
      0.00729926955 0.0043795621 0.0087591242 0.00583941583 0.0175182484
      0.0087591242 0.0043795621 0.00145985396 0.0087591242 0.00145985396</_>
    <_>
      0.00282087456 0.00282087456 0.00846262369 0.0211565588
      0.00423131185 0.0282087456 0.0155148096 0.00987306051
      0.00564174913 0.00282087456 0.0733427405 0.00423131185
      0.00423131185 0.00846262369 0.0225669965 0.0183356851 0.
      0.00423131185 0.00705218641 0.0747531727 0.0239774343 0.0211565588
      0.00423131185 0.00141043728 0.00564174913 0.00846262369
      0.00282087456 0.00423131185 0.00282087456 0.00282087456
      0.0155148096 0. 0.0267983079 0.0169252474 0.00141043728
      0.00282087456 0. 0.00846262369 0.00282087456 0.00705218641
      0.0296191834 0.00423131185 0.00282087456 0.00423131185
      0.0366713703 0.00423131185 0.0141043728 0.00564174913 0.012693936
      0.00282087456 0. 0. 0.00564174913 0.00282087456 0.00423131185
      0.00564174913 0. 0.00141043728 0.00423131185 0.0493653044
      0.00846262369 0.00423131185 0.00705218641 0.00705218641
      0.0141043728 0.0282087456 0.00705218641 0.012693936 0.
      0.00564174913 0.0324400589 0.00282087456 0.0141043728
      0.00564174913 0.00423131185 0.00423131185 0.00564174913
      0.00423131185 0.00846262369 0.012693936 0.00141043728 0.0282087456
      0.00987306051 0.00282087456 0.00705218641 0.00282087456 0.
      0.00141043728 0.00141043728 0.00423131185 0.00705218641
      0.00423131185 0.012693936 0.00141043728 0.0239774343 0.00141043728
      0.0141043728 0.00141043728 0.012693936 0.00423131185</_>
    <_>
      0.00556328241 0.0027816412 0.00556328241 0.0111265648 0.0013908206
      0.0222531296 0.0166898482 0.0152990269 0.00556328241 0.00695410278
      0.0709318519 0.0027816412 0.0013908206 0.0027816412 0.0333796963
      0.00695410278 0.00417246204 0.00973574445 0.00417246204
      0.0778859556 0.00973574445 0.02364395 0.00834492408 0.0027816412
      0.0125173852 0.00695410278 0.00695410278 0.0027816412 0.0027816412
      0.0027816412 0.0027816412 0. 0.0389429778 0.00973574445
      0.0194714889 0.0027816412 0.00556328241 0.00695410278
      0.00834492408 0.00973574445 0.0222531296 0.00417246204
      0.0013908206 0.0013908206 0.0319888741 0.0013908206 0.0111265648
      0.00973574445 0.0111265648 0.00417246204 0.0027816412 0.0013908206
      0.00973574445 0.00695410278 0.00973574445 0.0027816412
      0.0013908206 0. 0.00973574445 0.0403337963 0.00417246204
      0.00417246204 0.00417246204 0.00556328241 0.00417246204
      0.043115437 0.00417246204 0.0111265648 0. 0.0027816412
      0.0486787222 0.00417246204 0.0180806685 0.00417246204 0.0013908206
      0. 0.0125173852 0.00556328241 0.00973574445 0.00556328241
      0.0013908206 0.00556328241 0.00417246204 0.0013908206
      0.00834492408 0.0027816412 0.0013908206 0. 0.00834492408
      0.00556328241 0.00556328241 0.0125173852 0.0139082056
      0.00417246204 0.0305980537 0.00695410278 0.00417246204
      0.00556328241 0.00556328241 0.00417246204</_>
    <_>
      0.00521512376 0. 0.00130378094 0.0104302475 0.0091264667
      0.0221642759 0.0221642759 0.0104302475 0.00782268587 0.00130378094
      0.0664928257 0.00651890459 0.00521512376 0.00391134294 0.02868318
      0.00782268587 0.00651890459 0.00260756188 0.00130378094
      0.0547587983 0.0156453717 0.0117340283 0.00130378094 0.00391134294
      0.0117340283 0.00651890459 0.0091264667 0.00521512376
      0.00521512376 0.00651890459 0.00651890459 0.00130378094
      0.0534550175 0.0130378092 0.02868318 0.00521512376 0.00651890459
      0.0091264667 0.00260756188 0.00782268587 0.0234680567
      0.00391134294 0.00260756188 0.00782268587 0.0299869608
      0.00651890459 0.01434159 0.00782268587 0.00782268587 0.00391134294
      0.00391134294 0. 0.00782268587 0.00651890459 0.00782268587
      0.00521512376 0. 0.00130378094 0.00521512376 0.0404172093
      0.00651890459 0.0091264667 0.00521512376 0.00260756188
      0.0091264667 0.0312907435 0.00521512376 0.01434159 0.00391134294
      0.0104302475 0.0443285517 0.00651890459 0.0104302475 0.00391134294
      0.00260756188 0.00130378094 0.00651890459 0.00260756188
      0.0117340283 0.00521512376 0.00130378094 0.0091264667 0.0156453717
      0.00260756188 0.00782268587 0.00260756188 0. 0.00260756188
      0.00260756188 0.00260756188 0.00391134294 0.00782268587
      0.0091264667 0.00521512376 0.0365058668 0.0091264667 0.0091264667
      0.00260756188 0.00260756188 0.00260756188</_>
    <_>
      0.00184162066 0.00736648263 0.00184162066 0.00920810364
      0.00736648263 0.0202578269 0.0128913447 0.0110497242 0.00368324132
      0. 0.0294659305 0.00368324132 0.00368324132 0.00184162066
      0.0257826895 0.00368324132 0.00552486209 0.00552486209
      0.00736648263 0.062615104 0.0349907912 0.00920810364 0.00184162066
      0.00368324132 0.0128913447 0.00552486209 0.00184162066 0.
      0.00184162066 0.00368324132 0.00184162066 0. 0.0570902415
      0.0128913447 0.0294659305 0.00368324132 0.00368324132
      0.00368324132 0.00920810364 0.00552486209 0.0349907912
      0.00368324132 0.00368324132 0.00368324132 0.0441988967
      0.00736648263 0.0165745858 0.00552486209 0.0110497242
      0.00184162066 0.00368324132 0.00184162066 0.00552486209
      0.00920810364 0.0147329653 0.0128913447 0. 0.00184162066
      0.00552486209 0.023941068 0.00920810364 0. 0.00184162066 0.
      0.0110497242 0.0257826895 0.00368324132 0.0202578269 0.
      0.00552486209 0.0405156538 0.00184162066 0.0128913447
      0.00736648263 0.00920810364 0.00368324132 0.00736648263
      0.00184162066 0.00736648263 0.00368324132 0.00184162066
      0.0257826895 0.00736648263 0.00552486209 0.0110497242
      0.00552486209 0. 0.00184162066 0.00184162066 0.00552486209
      0.00552486209 0.00736648263 0.0110497242 0.00368324132
      0.0497237593 0. 0.0257826895 0. 0.00552486209 0.0128913447</_>
    <_>
      0.0115107913 0.00287769781 0.00863309391 0.0215827338
      0.00143884891 0.0172661878 0.0143884886 0.0129496399 0.00575539563
      0.00287769781 0.0705035999 0.00575539563 0.00431654695
      0.00863309391 0.0431654677 0.0071942443 0.0071942443 0.0172661878
      0.00287769781 0.0503597111 0.0158273373 0.0187050365 0.00431654695
      0. 0.0172661878 0.00287769781 0.0115107913 0.00431654695
      0.00287769781 0.00431654695 0.0071942443 0. 0.0402877703
      0.0100719426 0.0273381285 0.00287769781 0. 0.0071942443
      0.00143884891 0.00863309391 0.00575539563 0.00431654695
      0.00287769781 0.00287769781 0.041726619 0.00431654695 0.0230215825
      0.0071942443 0.0143884886 0.00575539563 0.00287769781 0.
      0.0071942443 0.0071942443 0.00143884891 0.00287769781
      0.00143884891 0. 0.00143884891 0.0431654677 0.00143884891
      0.00143884891 0.00287769781 0.00575539563 0.0100719426
      0.0474820137 0.00863309391 0.0071942443 0. 0.00575539563
      0.041726619 0.00287769781 0.0100719426 0.00863309391 0.00287769781
      0.00143884891 0.0115107913 0.00431654695 0.0158273373 0.0158273373
      0.00143884891 0. 0.00431654695 0.00143884891 0.00863309391
      0.00431654695 0. 0.00143884891 0.00575539563 0.00431654695
      0.0071942443 0.00863309391 0.0129496399 0.00143884891 0.0273381285
      0.00431654695 0.00575539563 0.00143884891 0.00863309391
      0.00143884891</_>
    <_>
      0.00798721984 0. 0.00798721984 0.00638977624 0.00479233218
      0.0159744397 0.0143769961 0.00798721984 0.0111821089 0.00638977624
      0.0654952079 0.00479233218 0.00638977624 0.00958466437
      0.0207667723 0.0127795525 0.00479233218 0.00798721984
      0.00638977624 0.0591054298 0.0239616614 0.00319488812
      0.00638977624 0.00479233218 0.0111821089 0.00958466437
      0.00479233218 0.00319488812 0.00159744406 0.00159744406
      0.00798721984 0.00159744406 0.0447284356 0.0175718851 0.0191693287
      0.00479233218 0.00479233218 0.00958466437 0.00159744406
      0.00798721984 0.00798721984 0.00638977624 0.00638977624 0.
      0.0191693287 0.00479233218 0.0191693287 0.00958466437 0.0159744397
      0.00319488812 0.00319488812 0. 0.00798721984 0.00798721984
      0.00798721984 0.00798721984 0.00159744406 0. 0.00479233218
      0.0335463248 0.00798721984 0.00958466437 0.00479233218
      0.00638977624 0.0127795525 0.0415335447 0.00479233218
      0.00479233218 0.00159744406 0.0127795525 0.05111821 0.00159744406
      0.00479233218 0.00958466437 0.00319488812 0.00319488812
      0.00958466437 0.00798721984 0.0143769961 0.00479233218 0.
      0.00798721984 0.00638977624 0.00319488812 0.00479233218
      0.00319488812 0. 0.00159744406 0.00638977624 0.00479233218
      0.00798721984 0.0111821089 0.0159744397 0.00319488812 0.036741212
      0.00638977624 0.00638977624 0.00319488812 0.00798721984
      0.00638977624</_>
    <_>
      0.00595238153 0.0019841271 0.00595238153 0.0138888899 0.0039682542
      0.0198412705 0.0337301604 0.0218253974 0.00595238153 0.0039682542
      0.0615079403 0.00595238153 0.0019841271 0.0019841271 0.0337301604
      0.0019841271 0.0039682542 0.00595238153 0.00793650839 0.0615079403
      0.0218253974 0.00793650839 0.0019841271 0. 0.0277777798
      0.0039682542 0.00793650839 0. 0. 0. 0.0039682542 0. 0.0535714328
      0.0218253974 0.0138888899 0.0039682542 0.0039682542 0.00793650839
      0.00793650839 0.00595238153 0.0218253974 0.0039682542 0.0039682542
      0.0039682542 0.0436507948 0.00793650839 0.0119047631 0.00595238153
      0.00992063526 0.00793650839 0.00793650839 0. 0.00793650839
      0.0039682542 0.00793650839 0.00793650839 0.0019841271 0.
      0.0039682542 0.0277777798 0.0019841271 0.00595238153 0.0019841271
      0.00595238153 0.00595238153 0.0416666679 0.0039682542
      0.00595238153 0.0019841271 0.0039682542 0.0456349216 0.0039682542
      0.0019841271 0.00793650839 0.0019841271 0.0039682542 0.00992063526
      0.00992063526 0.00992063526 0.00595238153 0. 0.0178571437
      0.0019841271 0.0019841271 0.0039682542 0.0039682542 0.0019841271
      0.0019841271 0.00992063526 0.0039682542 0.0119047631 0.0039682542
      0.00992063526 0. 0.0416666679 0.0019841271 0.0039682542
      0.0019841271 0.00595238153 0.0019841271</_>
    <_>
      0.00858369097 0.00643776823 0.00643776823 0.00858369097
      0.00214592274 0.0321888402 0.0171673819 0.0171673819 0.00858369097
      0.00858369097 0.0557939932 0.00214592274 0.00214592274 0.
      0.0257510729 0.00643776823 0.00429184549 0.00429184549
      0.00429184549 0.0472102985 0.0257510729 0.0107296137 0.00214592274
      0.00214592274 0.0107296137 0.00214592274 0.00858369097
      0.00429184549 0. 0.00214592274 0.0107296137 0. 0.0214592274
      0.0171673819 0.0214592274 0.00643776823 0. 0.00858369097 0.
      0.0107296137 0.0257510729 0.00858369097 0.0107296137 0.00429184549
      0.0364806876 0.00643776823 0.0150214592 0.00429184549 0.0107296137
      0.00214592274 0.00429184549 0. 0.0128755365 0.00643776823
      0.0107296137 0.00429184549 0. 0. 0. 0.0300429184 0.00858369097 0.
      0.0107296137 0.00429184549 0.0171673819 0.0214592274 0.00429184549
      0.0150214592 0.00214592274 0.00643776823 0.0257510729
      0.00429184549 0.0107296137 0.0128755365 0.00643776823
      0.00429184549 0.00858369097 0.00429184549 0.00858369097
      0.00858369097 0.00214592274 0.0386266112 0. 0.00429184549
      0.00643776823 0. 0. 0.00214592274 0.00858369097 0.00643776823
      0.0171673819 0.0150214592 0.0128755365 0.00643776823 0.0343347639
      0. 0.0236051492 0. 0.00643776823 0.00429184549</_>
    <_>
      0.0043668123 0. 0.0043668123 0.0116448328 0.00582241639
      0.0160116442 0.0247452706 0.014556041 0.0029112082 0.00582241639
      0.0873362422 0.0029112082 0.0014556041 0.0029112082 0.0174672492
      0.0101892287 0.0014556041 0.00873362459 0.0029112082 0.0829694346
      0.0160116442 0.029112082 0.0043668123 0.0029112082 0.00727802049
      0.0029112082 0.0043668123 0.00582241639 0.0014556041 0.
      0.0043668123 0. 0.0582241639 0.0101892287 0.0101892287
      0.00582241639 0.0014556041 0.00727802049 0.0014556041
      0.00727802049 0.0422125198 0.00873362459 0.0029112082
      0.00727802049 0.0349344984 0.0043668123 0.0189228542 0.0029112082
      0.0101892287 0.0014556041 0. 0. 0.0116448328 0.0014556041
      0.00582241639 0.00582241639 0. 0.0014556041 0. 0.030567687
      0.0029112082 0.0043668123 0.0029112082 0.0014556041 0.00727802049
      0.0480349362 0.0043668123 0.0101892287 0.0014556041 0.0029112082
      0.0451237261 0.00582241639 0.014556041 0.0043668123 0.00582241639
      0.0043668123 0.00873362459 0.0029112082 0.0101892287 0.0101892287
      0.0014556041 0.0160116442 0.0014556041 0.0029112082 0.0043668123
      0.0043668123 0. 0.0029112082 0.0014556041 0.00582241639
      0.00873362459 0.0101892287 0.014556041 0.0029112082 0.0203784574
      0.0043668123 0.0131004369 0.0014556041 0.0029112082 0.0029112082</_>
    <_>
      0.00398406386 0.00398406386 0.00199203193 0.0159362555
      0.00199203193 0.0139442235 0.0179282874 0.0179282874 0.0059760958
      0.00199203193 0.0378486067 0.00398406386 0.00796812773
      0.00996015966 0.0159362555 0.00796812773 0.00199203193 0. 0.
      0.0617529899 0.029880479 0.00996015966 0.00398406386 0.00996015966
      0.0139442235 0.00199203193 0.00996015966 0.0059760958
      0.00398406386 0.00398406386 0.0139442235 0. 0.0219123513
      0.0119521916 0.0199203193 0.00398406386 0.0059760958 0.00996015966
      0.00398406386 0.00796812773 0.0179282874 0.0059760958
      0.00796812773 0.0139442235 0.0219123513 0.0059760958 0.0059760958
      0.0159362555 0.0179282874 0.00398406386 0.0059760958 0.00199203193
      0.00398406386 0.00796812773 0.0139442235 0.00398406386 0.
      0.00199203193 0.0059760958 0.0179282874 0.0159362555 0.
      0.00199203193 0.00398406386 0.0059760958 0.029880479 0.00199203193
      0.00796812773 0.00398406386 0.00996015966 0.0219123513
      0.00398406386 0.0159362555 0.0119521916 0.0119521916 0.00398406386
      0.00996015966 0.00398406386 0.00796812773 0.00398406386
      0.00199203193 0.0517928302 0.00199203193 0.00398406386
      0.0159362555 0.0059760958 0. 0.00199203193 0.00398406386
      0.00398406386 0.0119521916 0.0139442235 0.00996015966
      0.00199203193 0.0557768941 0.00199203193 0.0159362555 0.
      0.00796812773 0.00398406386</_>
    <_>
      0.00275862077 0. 0.00827586278 0.00965517294 0.00275862077
      0.0193103459 0.0151724145 0.0137931034 0.00965517294 0.00551724155
      0.0731034502 0.00413793139 0.00551724155 0.00413793139
      0.0372413807 0.0262068976 0.00137931039 0.00827586278
      0.00413793139 0.0675862059 0.0124137932 0.0275862068 0.00827586278
      0. 0.0124137932 0.00827586278 0.0068965517 0.00551724155
      0.00137931039 0. 0.00965517294 0. 0.0400000028 0.0110344831
      0.0179310348 0.00275862077 0. 0.0068965517 0. 0.0068965517
      0.0234482773 0.00275862077 0.00413793139 0.00827586278
      0.0358620696 0.00965517294 0.0151724145 0.0068965517 0.00551724155
      0.0068965517 0.00275862077 0. 0.0124137932 0.00551724155
      0.00413793139 0.00137931039 0.00137931039 0. 0.00275862077
      0.0372413807 0.00275862077 0. 0.00275862077 0.00413793139
      0.00965517294 0.0248275865 0.00551724155 0.00551724155 0.
      0.00827586278 0.0455172434 0.00275862077 0.0234482773
      0.00965517294 0.00827586278 0. 0.00827586278 0.00413793139
      0.0179310348 0.0110344831 0.00137931039 0.0110344831 0.0068965517
      0.00275862077 0.00965517294 0.00275862077 0. 0.00137931039
      0.00137931039 0.00413793139 0.00827586278 0.0110344831
      0.00965517294 0.00275862077 0.0206896551 0.00413793139
      0.0068965517 0.00137931039 0.00827586278 0.00827586278</_>
    <_>
      0.00766283507 0.00191570877 0.00191570877 0.0249042138
      0.00766283507 0.026819922 0.0153256701 0.0172413792 0.00383141753
      0.00191570877 0.0766283497 0.00191570877 0.00383141753
      0.00383141753 0.0383141749 0.00574712642 0.00574712642 0.
      0.00574712642 0.0593869723 0.0229885057 0.0114942528 0.00574712642
      0.00766283507 0.0191570874 0.00383141753 0.00574712642
      0.00383141753 0.00574712642 0.00191570877 0.00574712642 0.
      0.0344827585 0.013409961 0.00191570877 0.00383141753 0.00191570877
      0.00766283507 0.00574712642 0.00766283507 0.0536398441 0.
      0.00574712642 0.00766283507 0.0229885057 0.00766283507
      0.0191570874 0.00766283507 0.0172413792 0.00191570877
      0.00191570877 0. 0.00383141753 0.00574712642 0.00574712642
      0.00383141753 0. 0. 0.00191570877 0.0229885057 0.00766283507
      0.00574712642 0.00191570877 0.00766283507 0.00957854372
      0.0325670503 0.00383141753 0.00574712642 0. 0.00766283507
      0.0325670503 0.00383141753 0.0114942528 0.00766283507
      0.00766283507 0.00383141753 0.00957854372 0.00574712642
      0.0114942528 0.00383141753 0.00191570877 0.00191570877
      0.00957854372 0.00191570877 0.00766283507 0. 0. 0.00191570877
      0.00191570877 0.00574712642 0.00957854372 0.00957854372
      0.0172413792 0. 0.0440613031 0.00766283507 0.0172413792
      0.00191570877 0.00766283507 0.00191570877</_>
    <_>
      0.00851063803 0.00212765951 0.00638297852 0.00851063803
      0.00212765951 0.0191489346 0.0106382975 0.0106382975 0.00851063803
      0.00638297852 0.082978718 0.00851063803 0.00212765951
      0.00425531901 0.0297872331 0.00851063803 0.00638297852 0.
      0.00638297852 0.0617021248 0.0361702107 0.012765957 0.00212765951
      0.00638297852 0.0106382975 0.00425531901 0. 0.00212765951 0.
      0.00212765951 0.00425531901 0.00212765951 0.012765957 0.0191489346
      0.0148936165 0.00425531901 0.00425531901 0.012765957 0.00212765951
      0.0148936165 0.0617021248 0. 0.00425531901 0.00425531901
      0.046808511 0.00638297852 0.0255319141 0.00638297852 0.0148936165
      0. 0.00212765951 0. 0.0106382975 0.00425531901 0.00212765951
      0.00638297852 0. 0.00212765951 0. 0.0404255316 0.00425531901 0. 0.
      0.00638297852 0.00638297852 0.0404255316 0.00212765951
      0.00638297852 0. 0.00425531901 0.0382978693 0.00212765951
      0.0106382975 0.0106382975 0. 0.00212765951 0.0170212761 0.
      0.0106382975 0.00851063803 0.00212765951 0.012765957 0.
      0.00212765951 0.00851063803 0.00212765951 0. 0.00212765951 0.
      0.00638297852 0.012765957 0.0106382975 0.0148936165 0.00212765951
      0.0425531901 0.00212765951 0.00212765951 0. 0.00212765951
      0.00425531901</_>
    <_>
      0. 0. 0. 0.0090909088 0.00606060587 0.0121212117 0.0363636352
      0.0272727273 0.00303030293 0.00303030293 0.178787872 0.
      0.0121212117 0. 0.00606060587 0.00303030293 0.00606060587 0. 0.
      0.106060602 0.0272727273 0.0151515147 0.00303030293 0.0121212117
      0.00303030293 0.00606060587 0. 0.00303030293 0. 0. 0. 0.
      0.0818181783 0.0151515147 0.00303030293 0. 0. 0.00303030293
      0.00303030293 0.00606060587 0.00303030293 0. 0.00606060587
      0.00303030293 0.00606060587 0. 0. 0. 0.00303030293 0.00303030293
      0.00303030293 0. 0.00303030293 0. 0.0090909088 0.00606060587 0. 0.
      0.00303030293 0.0212121196 0.00606060587 0.00303030293 0.
      0.00303030293 0.00606060587 0.0939393938 0. 0.00303030293 0.
      0.0090909088 0.0939393938 0.00303030293 0.0121212117 0.00606060587
      0. 0. 0. 0.00303030293 0. 0.00303030293 0. 0.0151515147
      0.00303030293 0. 0.0151515147 0. 0. 0.00606060587 0. 0. 0.
      0.00303030293 0.00606060587 0. 0.0303030293 0.00606060587
      0.00606060587 0. 0. 0.00303030293</_>
    <_>
      0.0022727272 0. 0. 0.00681818184 0.0045454544 0.00681818184
      0.0159090906 0.0181818176 0.0022727272 0.0022727272 0.0977272689
      0.0022727272 0.0090909088 0.0045454544 0. 0.0090909088
      0.0159090906 0.0022727272 0.0022727272 0.0886363611 0.0295454543
      0.0272727273 0.0022727272 0.0568181798 0.0113636358 0.0045454544
      0.0090909088 0.0045454544 0.00681818184 0.0022727272 0.0022727272
      0. 0.0409090891 0.0090909088 0.0159090906 0. 0. 0.0045454544
      0.0045454544 0.00681818184 0.0113636358 0. 0.0045454544
      0.0045454544 0.0113636358 0. 0. 0. 0.038636364 0.0022727272 0.
      0.0022727272 0. 0.00681818184 0.00681818184 0.0090909088 0. 0.
      0.0090909088 0.0159090906 0.0090909088 0.0022727272 0.0090909088
      0.00681818184 0.0090909088 0.0590909086 0.0022727272 0.0022727272
      0.0136363637 0.0136363637 0.0568181798 0. 0.0249999985
      0.0045454544 0. 0. 0. 0.0045454544 0. 0. 0. 0.0045454544
      0.0022727272 0.0022727272 0.0159090906 0. 0. 0.0045454544 0.
      0.0022727272 0. 0.0136363637 0.0477272719 0. 0.0159090906 0.
      0.0136363637 0.0022727272 0.0045454544 0.</_>
    <_>
      0.00806451589 0. 0.00403225794 0.00604838692 0.00604838692
      0.0100806449 0.0342741907 0.0282258056 0.00806451589 0.00201612897
      0.0504032224 0.00201612897 0.00403225794 0.00604838692
      0.0262096766 0.0161290318 0.0100806449 0.00403225794 0.
      0.072580643 0.0221774187 0.0221774187 0. 0.00604838692
      0.0120967738 0.00201612897 0.00403225794 0.00403225794
      0.00403225794 0. 0.00403225794 0. 0.0604838692 0.0141129028
      0.0262096766 0. 0.00201612897 0.0100806449 0. 0.00403225794
      0.0181451607 0. 0.00201612897 0.00403225794 0.0100806449
      0.00201612897 0.00604838692 0.00604838692 0.00604838692 0.
      0.00604838692 0. 0.00604838692 0.00604838692 0.00604838692
      0.00604838692 0. 0. 0. 0.0241935477 0.00604838692 0.00201612897
      0.00201612897 0.00201612897 0.00604838692 0.0947580636 0.
      0.0201612897 0. 0.00806451589 0.0786290318 0.00604838692
      0.0221774187 0.00403225794 0.00403225794 0.00201612897
      0.00604838692 0.00403225794 0.0100806449 0.00403225794 0.
      0.0201612897 0.00403225794 0.00403225794 0.0100806449 0. 0.
      0.00201612897 0. 0.00403225794 0.00201612897 0.00806451589
      0.0181451607 0.00201612897 0.0181451607 0.00806451589
      0.00403225794 0. 0.00403225794 0.00403225794</_>
    <_>
      0.00492610829 0.00246305414 0.00985221658 0.00738916267 0.
      0.0394088663 0.00738916267 0.0197044332 0.00985221658
      0.00246305414 0.0985221639 0.00738916267 0.00492610829
      0.00246305414 0.0221674871 0.00246305414 0.00246305414
      0.00492610829 0.00985221658 0.0911330059 0.0467980281
      0.00985221658 0.00738916267 0.00246305414 0.0172413792
      0.00492610829 0. 0. 0.00492610829 0. 0.00246305414 0. 0.0295566507
      0.0147783253 0.0172413792 0.00985221658 0.00738916267
      0.00985221658 0.00246305414 0.00738916267 0.0147783253 0.
      0.00492610829 0.00492610829 0.0394088663 0.00492610829
      0.0147783253 0.00985221658 0.0197044332 0. 0.00246305414 0.
      0.00492610829 0.00492610829 0.00246305414 0.00246305414 0. 0.
      0.00738916267 0.0344827585 0. 0. 0. 0.00985221658 0.00738916267
      0.0394088663 0.00492610829 0.00738916267 0. 0.00738916267
      0.0270935949 0.00246305414 0.0197044332 0.00738916267 0. 0.
      0.00985221658 0. 0.00738916267 0.00492610829 0.00246305414
      0.00246305414 0.00246305414 0.00492610829 0.00985221658
      0.00492610829 0. 0.00492610829 0. 0.00246305414 0.0147783253
      0.00985221658 0.0197044332 0. 0.0295566507 0.00246305414
      0.00492610829 0. 0.00246305414 0.00985221658</_>
    <_>
      0.00480769249 0.00480769249 0.00721153896 0.00721153896 0.
      0.0288461559 0.00480769249 0.0192307699 0.012019231 0.00240384624
      0.0769230798 0.00961538497 0.00240384624 0. 0.026442308
      0.00480769249 0.00240384624 0.00240384624 0.00240384624
      0.120192312 0.026442308 0.00721153896 0. 0.00480769249
      0.00961538497 0.00240384624 0.00240384624 0. 0. 0. 0.00480769249
      0. 0.036057692 0.0288461559 0.00961538497 0.00480769249
      0.00480769249 0.00961538497 0. 0.012019231 0.00961538497 0.
      0.00480769249 0.00721153896 0.021634616 0.00480769249 0.0168269239
      0.00721153896 0.00721153896 0.00240384624 0. 0. 0.00480769249
      0.00240384624 0.00480769249 0. 0. 0. 0.00240384624 0.0384615399
      0.00480769249 0. 0. 0.00480769249 0. 0.0649038479 0. 0.00480769249
      0.00480769249 0.00961538497 0.0576923117 0.00480769249
      0.00480769249 0.0144230779 0. 0.00240384624 0.012019231
      0.00240384624 0.0144230779 0.00961538497 0.00240384624
      0.0288461559 0. 0.00480769249 0.0168269239 0.00240384624
      0.00240384624 0.00240384624 0. 0.00961538497 0.012019231
      0.00721153896 0.00961538497 0. 0.024038462 0. 0.0144230779 0.
      0.00240384624 0.00721153896</_>
    <_>
      0.0094517963 0.00189035921 0.00378071843 0. 0. 0.0245746691
      0.0132325143 0.0132325143 0.00567107741 0.00189035921 0.126654074
      0.00567107741 0.00567107741 0.00378071843 0.0264650285
      0.0094517963 0.00378071843 0.0094517963 0.00756143685 0.100189038
      0.020793952 0.0132325143 0. 0. 0.0094517963 0.00189035921
      0.00378071843 0. 0.00189035921 0.00189035921 0.00756143685 0.
      0.028355388 0.0151228737 0.0132325143 0.00378071843 0.
      0.0094517963 0. 0.0113421548 0.0132325143 0. 0.00378071843
      0.00756143685 0.028355388 0.00567107741 0.0170132332 0.00756143685
      0.028355388 0. 0. 0. 0.00756143685 0.00378071843 0.00378071843
      0.00378071843 0. 0. 0.00378071843 0.0359168239 0.00756143685 0.
      0.0132325143 0.00756143685 0.00378071843 0.0491493382
      0.00378071843 0.00567107741 0. 0.00567107741 0.0264650285
      0.00189035921 0.0151228737 0.0094517963 0. 0. 0.00378071843
      0.00189035921 0.00756143685 0.00756143685 0.00189035921
      0.0245746691 0. 0.00189035921 0.00756143685 0.00567107741 0.
      0.00189035921 0. 0.00378071843 0.00756143685 0.00756143685
      0.0264650285 0. 0.0434782617 0. 0.0094517963 0. 0.00189035921
      0.00189035921</_>
    <_>
      0.00478468882 0.00239234441 0.00478468882 0.00717703346 0.
      0.0215310995 0.00717703346 0.0167464111 0.00717703346 0.
      0.138755977 0.00717703346 0.00478468882 0.00478468882 0.0215310995
      0.00717703346 0. 0.00717703346 0.00239234441 0.0645933002
      0.0263157878 0.0143540669 0.00239234441 0.00239234441 0.0143540669
      0.00239234441 0.00478468882 0. 0.00239234441 0. 0.00717703346 0.
      0.0215310995 0.0167464111 0.00717703346 0.00478468882
      0.00239234441 0.00717703346 0. 0.0143540669 0.0430621989 0.
      0.00478468882 0.00956937764 0.0287081338 0.00717703346
      0.0119617218 0.00956937764 0.0239234436 0.00239234441
      0.00239234441 0. 0.00239234441 0.00478468882 0.00478468882
      0.00239234441 0. 0. 0.00239234441 0.0287081338 0.00717703346
      0.00239234441 0. 0.00956937764 0.00478468882 0.0717703328
      0.00239234441 0.00478468882 0. 0.00956937764 0.0550239198
      0.00239234441 0.00717703346 0.00717703346 0. 0.00239234441
      0.00956937764 0.00478468882 0.00478468882 0.00717703346
      0.00239234441 0.00478468882 0. 0.00239234441 0.00956937764
      0.00478468882 0. 0.00239234441 0. 0.00717703346 0.00478468882
      0.00478468882 0.0119617218 0. 0.0454545431 0. 0.0119617218 0.
      0.00239234441 0.00239234441</_>
    <_>
      0.00680272095 0.00453514745 0.00680272095 0.00453514745 0.
      0.0272108838 0.0136054419 0.00907029491 0.00453514745
      0.00226757373 0.0657596365 0.00226757373 0.00226757373
      0.00226757373 0.0181405898 0.0136054419 0.00453514745 0.0136054419
      0.00453514745 0.0861678049 0.0362811796 0.0113378689 0.
      0.00226757373 0.0158730168 0.00680272095 0. 0. 0. 0.00453514745
      0.00453514745 0. 0.0272108838 0.0136054419 0.00907029491
      0.00453514745 0.00226757373 0.0136054419 0.00453514745
      0.00680272095 0.0385487527 0. 0.00680272095 0.00680272095
      0.0498866215 0.0136054419 0.0272108838 0.00680272095 0.00226757373
      0.00453514745 0.00226757373 0. 0.0136054419 0.00226757373
      0.00226757373 0.00453514745 0. 0. 0.00226757373 0.0589569174
      0.00226757373 0. 0. 0.00453514745 0.0113378689 0.0498866215 0.
      0.00680272095 0. 0.00226757373 0.0544217676 0.00226757373
      0.0158730168 0.0158730168 0. 0.00453514745 0.00680272095
      0.00226757373 0.0113378689 0.00226757373 0.00226757373
      0.0158730168 0. 0.00226757373 0.0136054419 0.00226757373 0.
      0.00226757373 0. 0.00453514745 0.00453514745 0.0113378689
      0.00453514745 0. 0.0317460336 0.00226757373 0.00453514745 0.
      0.00226757373 0.00453514745</_>
    <_>
      0.00407331996 0.00203665998 0.00407331996 0.00814663991
      0.00203665998 0.0203665998 0.00814663991 0.00814663991
      0.0101832999 0.00203665998 0.101833001 0.00407331996 0.00203665998
      0.00203665998 0.0325865597 0.00407331996 0.00203665998
      0.0142566198 0.00203665998 0.103869662 0.0142566198 0.0224032588
      0. 0.00203665998 0.00814663991 0.00407331996 0. 0. 0.00203665998
      0.00407331996 0.00610997993 0. 0.0346232206 0.0142566198
      0.0203665998 0.00407331996 0. 0.00814663991 0.00610997993
      0.0101832999 0.0101832999 0. 0.00407331996 0.00610997993
      0.0244399197 0.00610997993 0.0224032588 0.00203665998 0.0162932798
      0. 0.00203665998 0. 0.0122199599 0.00203665998 0.00203665998
      0.00203665998 0. 0. 0.00203665998 0.0305498987 0.00814663991 0. 0.
      0.00814663991 0.00814663991 0.0570264794 0.00610997993
      0.00407331996 0. 0.00407331996 0.0672097802 0.00203665998
      0.00203665998 0.0162932798 0. 0.00203665998 0.0122199599
      0.00407331996 0.0142566198 0.00407331996 0.00203665998
      0.0244399197 0. 0.00203665998 0.00814663991 0.00203665998 0.
      0.00203665998 0. 0.00610997993 0.0101832999 0.0122199599
      0.0162932798 0.00203665998 0.0305498987 0.00203665998
      0.00610997993 0. 0.00610997993 0.00407331996</_>
    <_>
      0.00380228134 0.00190114067 0.00570342224 0.00380228134 0.
      0.0304182507 0.00760456268 0.00950570311 0.00570342224
      0.00190114067 0.104562737 0.00380228134 0.00380228134
      0.00380228134 0.0456273779 0.00760456268 0. 0.0114068445
      0.00190114067 0.0931558907 0.0266159698 0.0114068445 0. 0.
      0.00760456268 0.00380228134 0.00190114067 0. 0. 0.00190114067
      0.00380228134 0. 0.0551330782 0.0114068445 0.0133079849
      0.00380228134 0.00380228134 0.00950570311 0.00190114067
      0.0114068445 0.00950570311 0. 0.00380228134 0.00950570311
      0.0475285165 0.00760456268 0.0190114062 0.0114068445 0.0190114062
      0. 0.00380228134 0. 0.00570342224 0.00380228134 0. 0.00190114067
      0. 0. 0. 0.0342205316 0.00570342224 0. 0. 0.00380228134
      0.00950570311 0.0437262356 0.00380228134 0.00190114067
      0.00190114067 0.00760456268 0.0399239548 0.00380228134
      0.0190114062 0.00760456268 0.00190114067 0.00190114067
      0.00950570311 0. 0.0114068445 0.00570342224 0.00190114067
      0.0209125467 0. 0.00380228134 0.0114068445 0.00190114067
      0.00190114067 0.00190114067 0. 0.00380228134 0.00570342224
      0.00570342224 0.0190114062 0. 0.0437262356 0. 0.00380228134 0.
      0.00380228134 0.00190114067</_>
    <_>
      0. 0. 0.00630914839 0.00630914839 0.00315457419 0.0220820196
      0.0126182968 0.00946372282 0.00315457419 0.00315457419 0.145110413
      0. 0.0126182968 0. 0.0189274456 0. 0.00946372282 0.00315457419
      0.00315457419 0.126182973 0.0220820196 0.00315457419 0.00630914839
      0. 0.00630914839 0.00315457419 0. 0. 0.0126182968 0. 0.00315457419
      0. 0.0504731871 0.0189274456 0.00630914839 0. 0.00946372282
      0.00315457419 0.00630914839 0. 0.00630914839 0. 0.00630914839
      0.0126182968 0.0126182968 0. 0. 0.0189274456 0.0126182968 0. 0. 0.
      0.00630914839 0.0126182968 0.00630914839 0.00630914839 0. 0. 0.
      0.0315457433 0.00630914839 0.00315457419 0. 0.00315457419
      0.00946372282 0.0946372226 0.00315457419 0.00315457419 0.
      0.00946372282 0.0914826542 0.00315457419 0.00315457419
      0.00630914839 0. 0. 0. 0.00315457419 0. 0.00315457419 0.
      0.00630914839 0. 0. 0.0157728717 0. 0. 0.00315457419 0. 0.
      0.00315457419 0.00315457419 0.00315457419 0. 0.0347003154 0.
      0.00630914839 0. 0.00630914839 0.00630914839</_>
    <_>
      0.0040485831 0. 0.0040485831 0.0040485831 0.00202429155
      0.0323886648 0.0080971662 0.0121457493 0.00607287465 0.00202429155
      0.08906883 0.0040485831 0.00607287465 0.00607287465 0.0384615399
      0.0080971662 0.00607287465 0.00607287465 0.0040485831 0.0769230798
      0.0344129577 0.0242914986 0. 0. 0.0182186235 0.0040485831
      0.0040485831 0. 0.00202429155 0.00202429155 0.00202429155 0.
      0.0323886648 0.0161943324 0.00607287465 0.00202429155
      0.00202429155 0.0080971662 0. 0.0121457493 0.0182186235
      0.00607287465 0.0040485831 0.0040485831 0.0384615399 0.00607287465
      0.0141700413 0.0121457493 0.0141700413 0.00202429155 0.00202429155
      0. 0.0101214573 0.0040485831 0.0040485831 0.00202429155 0. 0.
      0.00202429155 0.0323886648 0.00607287465 0. 0.0040485831
      0.00607287465 0.00202429155 0.0485829972 0.0040485831 0.0101214573
      0. 0.00607287465 0.0404858291 0. 0.0202429146 0.0101214573 0. 0.
      0.0080971662 0.00202429155 0.0161943324 0.00607287465
      0.00202429155 0.0263157897 0. 0.00202429155 0.00607287465
      0.00202429155 0. 0.00202429155 0. 0.0040485831 0.00607287465
      0.0080971662 0.0202429146 0. 0.044534415 0. 0.0121457493 0.
      0.00607287465 0.00202429155</_>
    <_>
      0.00925925933 0.00555555522 0.00370370364 0.00555555522
      0.00740740728 0.0222222209 0.00370370364 0.00740740728
      0.00740740728 0.00185185182 0.0592592582 0.00555555522
      0.00185185182 0.00555555522 0.053703703 0.00370370364
      0.00370370364 0.00925925933 0.00555555522 0.0462962948
      0.0333333313 0.00370370364 0.00185185182 0. 0.0148148146
      0.00555555522 0.00370370364 0.00185185182 0. 0. 0.00185185182 0.
      0.0462962948 0.0148148146 0.0425925925 0.00555555522 0.00185185182
      0.00740740728 0. 0.00555555522 0.027777778 0. 0.00370370364
      0.00370370364 0.0833333284 0.00555555522 0.0351851843
      0.00925925933 0.0222222209 0. 0.00185185182 0. 0.00555555522
      0.00370370364 0.00370370364 0.00185185182 0. 0. 0.00370370364
      0.0222222209 0.00370370364 0. 0.00185185182 0.00370370364
      0.00370370364 0.0462962948 0.00555555522 0.00555555522 0.
      0.00370370364 0.0333333313 0.00370370364 0.00555555522
      0.00555555522 0. 0.00555555522 0.00370370364 0. 0.0296296291
      0.00555555522 0.00185185182 0.0296296291 0. 0.00370370364
      0.00925925933 0.00185185182 0. 0.00370370364 0.00185185182
      0.00555555522 0.00555555522 0.00740740728 0.0203703698 0.
      0.0370370373 0.00370370364 0.00370370364 0. 0.00185185182
      0.00370370364</_>
    <_>
      0.00791556761 0.00791556761 0.00791556761 0.00791556761 0.
      0.0290237479 0.00791556761 0.0131926127 0.0105540901 0.00263852254
      0.0870712399 0.00263852254 0.00791556761 0.00527704507
      0.0263852254 0.00263852254 0.00791556761 0.00527704507
      0.00527704507 0.0844327211 0.039577838 0.0131926127 0.00527704507
      0.00263852254 0.0158311352 0.00791556761 0. 0. 0. 0.00263852254
      0.00527704507 0. 0.0184696577 0.0105540901 0.0211081803
      0.00263852254 0.00263852254 0.00791556761 0. 0.00791556761
      0.0131926127 0. 0.00527704507 0.0105540901 0.039577838
      0.0158311352 0.0237467028 0.0131926127 0.0158311352 0.
      0.00527704507 0. 0.00527704507 0.00527704507 0.00263852254
      0.00263852254 0. 0. 0.00527704507 0.0290237479 0.00263852254 0. 0.
      0.00791556761 0.0105540901 0.0554089732 0.00527704507
      0.00527704507 0.00263852254 0.00791556761 0.0237467028
      0.00263852254 0.0237467028 0.00527704507 0. 0. 0.0131926127
      0.00263852254 0.00527704507 0.00527704507 0.00263852254
      0.00791556761 0. 0. 0.0105540901 0.00263852254 0. 0.00791556761 0.
      0.00263852254 0.00791556761 0.00527704507 0.0131926127
      0.00263852254 0.0422163606 0.00263852254 0.00791556761 0.
      0.00791556761 0.0105540901</_>
    <_>
      0.00419287197 0.00419287197 0.00628930796 0.00628930796
      0.00209643599 0.0167714879 0.0104821799 0.0125786159 0.0104821799
      0.00209643599 0.113207541 0.00628930796 0.00419287197
      0.00209643599 0.0251572318 0.00628930796 0.00209643599
      0.0125786159 0.00628930796 0.0817610025 0.0335429758 0.0104821799
      0. 0.00419287197 0.00209643599 0.00419287197 0.00209643599
      0.00209643599 0. 0.00209643599 0.00209643599 0. 0.0419287197
      0.0209643599 0.0104821799 0.00419287197 0.00209643599
      0.00628930796 0.00209643599 0.0167714879 0.0167714879
      0.00209643599 0.00419287197 0.00838574395 0.0524109006
      0.00628930796 0.0167714879 0.00628930796 0.0167714879 0.
      0.00209643599 0. 0.00838574395 0.00419287197 0.00209643599
      0.00419287197 0. 0. 0.00209643599 0.0230607949 0.00628930796 0.
      0.00209643599 0.00628930796 0.0125786159 0.0524109006
      0.00628930796 0.00209643599 0. 0.00628930796 0.0356394127
      0.00209643599 0.0188679248 0.00838574395 0.00209643599
      0.00419287197 0.0188679248 0. 0.00628930796 0.00209643599
      0.00209643599 0.0167714879 0. 0.00419287197 0.00419287197
      0.00838574395 0.00209643599 0.00419287197 0. 0.00628930796
      0.0125786159 0.00419287197 0.0209643599 0. 0.0356394127
      0.00209643599 0. 0. 0.00209643599 0.00209643599</_>
    <_>
      0.00488997577 0.00244498788 0.00244498788 0.00488997577
      0.00244498788 0.0146699268 0.00977995154 0.00733496342
      0.00733496342 0.00244498788 0.114914432 0.00488997577
      0.00244498788 0.00244498788 0.0293398537 0.00244498788
      0.00244498788 0.0195599031 0.00488997577 0.139364302 0.0317848437
      0.00733496342 0. 0. 0.0122249397 0.00244498788 0.00244498788 0.
      0.00244498788 0.00244498788 0. 0. 0.0366748199 0.0195599031
      0.00733496342 0.00733496342 0.00244498788 0.00977995154 0.
      0.0122249397 0.0122249397 0. 0.00733496342 0.00244498788
      0.0195599031 0.00977995154 0.0146699268 0.00488997577 0.0195599031
      0. 0. 0. 0.00733496342 0.00488997577 0.00244498788 0.00244498788
      0. 0. 0. 0.0342298299 0.00244498788 0. 0. 0.00488997577
      0.00977995154 0.0562347211 0.00733496342 0. 0. 0.00488997577
      0.0488997586 0. 0.0220048912 0.0122249397 0. 0. 0.00977995154 0.
      0.00488997577 0.00488997577 0.00244498788 0.0195599031 0.
      0.00244498788 0.0122249397 0.00244498788 0. 0.00244498788 0.
      0.00733496342 0.00488997577 0.0122249397 0.0195599031
      0.00244498788 0.0317848437 0.00244498788 0.00488997577 0. 0.
      0.00488997577</_>
    <_>
      0.00232018554 0.00232018554 0.00232018554 0.00696055684
      0.00464037107 0.0185614843 0.00928074215 0.0116009274 0.0139211137
      0.00464037107 0.111368909 0.00464037107 0.00232018554
      0.00232018554 0.0348027833 0.00232018554 0.00464037107
      0.00696055684 0.00232018554 0.088167049 0.0255220402 0.00928074215
      0. 0.00232018554 0.00232018554 0.00696055684 0.00232018554 0. 0.
      0.00696055684 0. 0. 0.0440835245 0.0139211137 0.00464037107
      0.00232018554 0.00696055684 0.0116009274 0.00232018554 0.016241299
      0.0255220402 0.00232018554 0.00464037107 0.016241299 0.0417633392
      0.00928074215 0.00696055684 0.00696055684 0.0139211137
      0.00232018554 0. 0. 0.0116009274 0.00696055684 0.00232018554 0. 0.
      0. 0.00232018554 0.0440835245 0.00464037107 0. 0.00232018554
      0.00696055684 0.00464037107 0.0487238951 0.00696055684 0. 0.
      0.00232018554 0.0440835245 0.00232018554 0.00696055684
      0.00928074215 0. 0.00232018554 0.00928074215 0. 0.00928074215
      0.00696055684 0.00232018554 0.016241299 0. 0.00232018554
      0.0116009274 0.00464037107 0. 0.00232018554 0. 0.00696055684
      0.00464037107 0.00696055684 0.016241299 0.00232018554 0.0487238951
      0.00232018554 0.00928074215 0. 0.00232018554 0.00232018554</_>
    <_>
      0.00531914877 0.00797872338 0.0132978717 0.00531914877
      0.00265957438 0.0292553175 0.0132978717 0.0132978717 0.0106382975
      0.00265957438 0.0930851027 0.00265957438 0.00531914877
      0.00531914877 0.0372340418 0.00531914877 0.00265957438
      0.00265957438 0.00531914877 0.0558510609 0.0478723384
      0.00797872338 0.00265957438 0.00265957438 0.0186170209
      0.00797872338 0. 0. 0.00531914877 0. 0.00531914877 0. 0.0212765951
      0.0132978717 0.0132978717 0.00531914877 0.00265957438 0.0132978717
      0. 0.00797872338 0.0132978717 0. 0.00531914877 0.00797872338
      0.0345744677 0.00797872338 0.0159574468 0.00797872338 0.0239361692
      0. 0.00265957438 0. 0.0132978717 0.00797872338 0.00265957438
      0.00265957438 0. 0. 0.00265957438 0.0265957434 0. 0. 0.00265957438
      0.00531914877 0.0132978717 0.0478723384 0. 0.00265957438 0.
      0.00797872338 0.0452127643 0.00531914877 0.0212765951 0.0106382975
      0. 0.00265957438 0.0106382975 0. 0.00531914877 0.00797872338
      0.00265957438 0.00265957438 0. 0.00531914877 0.00531914877
      0.00265957438 0. 0.00531914877 0. 0. 0.00797872338 0.00797872338
      0.0212765951 0. 0.0478723384 0.00531914877 0.0159574468 0.
      0.00265957438 0.00797872338</_>
    <_>
      0.00453514745 0. 0.00226757373 0.00907029491 0.00226757373
      0.0385487527 0.0113378689 0.0113378689 0.00680272095 0.00453514745
      0.0612244904 0.00453514745 0.00680272095 0.00453514745
      0.0249433108 0.00453514745 0.00453514745 0.00453514745
      0.00226757373 0.0498866215 0.0204081628 0.00680272095 0. 0.
      0.00907029491 0.00453514745 0. 0.00226757373 0.00680272095 0.
      0.00907029491 0. 0.0408163257 0.0226757377 0.0158730168
      0.00226757373 0.00226757373 0.00907029491 0.00680272095
      0.00453514745 0.0544217676 0. 0.00453514745 0. 0.0362811796
      0.00453514745 0.0226757377 0.00453514745 0.0158730168 0.
      0.00226757373 0. 0.0136054419 0.00680272095 0.00680272095
      0.00453514745 0. 0. 0. 0.0634920672 0.00680272095 0. 0.00226757373
      0.00680272095 0.00907029491 0.0340136066 0.00453514745
      0.00226757373 0. 0. 0.0408163257 0.00226757373 0.0181405898
      0.0113378689 0. 0. 0.0136054419 0. 0.0136054419 0. 0.00226757373
      0.0249433108 0.00226757373 0. 0.0181405898 0.00680272095 0.
      0.00453514745 0. 0.00453514745 0.0113378689 0.0113378689
      0.0204081628 0.00680272095 0.0362811796 0.00226757373 0.0181405898
      0. 0. 0.00226757373</_>
    <_>
      0.00798403192 0.00399201596 0.00199600798 0.0139720561 0.
      0.0259481035 0.0139720561 0.0139720561 0.00998003967 0.00399201596
      0.107784428 0.00199600798 0.00399201596 0. 0.0578842312
      0.0179640725 0.00199600798 0.00199600798 0.00199600798
      0.0818363279 0.0259481035 0.021956088 0.00199600798 0.
      0.00798403192 0.00199600798 0.00399201596 0.00199600798 0. 0. 0.
      0. 0.0379241519 0.0159680638 0.0199600793 0.00199600798
      0.00199600798 0.00598802418 0.00399201596 0.00798403192
      0.00399201596 0.00199600798 0.00399201596 0.00598802418
      0.0538922139 0.00399201596 0.0199600793 0.00798403192 0.0119760484
      0.00399201596 0.00199600798 0. 0.00598802418 0.00199600798
      0.00199600798 0.00199600798 0. 0. 0.00199600798 0.0339321345
      0.00199600798 0. 0.00199600798 0.00598802418 0.00998003967
      0.0459081829 0.00199600798 0. 0. 0.00798403192 0.0558882244 0.
      0.0139720561 0.0139720561 0. 0.00199600798 0.00598802418
      0.00199600798 0.00798403192 0.00399201596 0.00199600798
      0.0139720561 0.00399201596 0.00199600798 0.00798403192
      0.00199600798 0. 0.00199600798 0. 0.00199600798 0.00399201596
      0.00998003967 0.0199600793 0.00199600798 0.0259481035
      0.00199600798 0.00798403192 0. 0.00598802418 0.00199600798</_>
    <_>
      0. 0. 0.00225225231 0.011261262 0.00675675692 0.00900900923
      0.0360360369 0.0202702712 0.00225225231 0. 0.0945945978 0.
      0.00675675692 0.00225225231 0.00450450461 0.0157657657
      0.0202702712 0.00225225231 0. 0.110360362 0.022522524 0.0247747749
      0. 0.0247747749 0.00675675692 0.00675675692 0.00225225231
      0.00225225231 0.00450450461 0. 0.00225225231 0. 0.0427927934
      0.0180180185 0.011261262 0. 0. 0.00675675692 0.00900900923
      0.00450450461 0.011261262 0. 0.00450450461 0.00225225231
      0.011261262 0. 0. 0. 0.0247747749 0. 0.00450450461 0.
      0.00225225231 0.00450450461 0.00900900923 0.00450450461 0.
      0.00225225231 0.00675675692 0.00675675692 0.011261262
      0.00225225231 0.00225225231 0.00225225231 0.011261262 0.0720720738
      0.00225225231 0.00900900923 0.011261262 0.00450450461 0.0765765756
      0.00450450461 0.0292792805 0.00450450461 0.00225225231
      0.00450450461 0. 0.00225225231 0. 0. 0. 0.00450450461
      0.00450450461 0. 0.0202702712 0. 0. 0.00450450461 0. 0.
      0.00225225231 0.00450450461 0.033783786 0.00450450461 0.0202702712
      0.00450450461 0.00900900923 0. 0.00450450461 0.00225225231</_>
    <_>
      0.00715990458 0.00477326987 0.00715990458 0.00715990458
      0.00238663494 0.0238663498 0.0119331749 0.0310262535 0.00954653975
      0.00238663494 0.0954653993 0. 0.00238663494 0. 0.038186159
      0.00715990458 0. 0.00238663494 0.00477326987 0.10739857
      0.0286396183 0.0119331749 0. 0.00477326987 0.00954653975
      0.00238663494 0.00238663494 0.00477326987 0. 0.00238663494
      0.00238663494 0. 0.0310262535 0.0190930795 0.00477326987
      0.00238663494 0.00477326987 0.0167064443 0.00477326987
      0.00954653975 0.050119333 0. 0.00238663494 0.00954653975
      0.026252985 0.00477326987 0.0238663498 0.00954653975 0.00477326987
      0. 0.00238663494 0. 0.00715990458 0. 0.00238663494 0.00715990458
      0. 0. 0. 0.0405727923 0.00238663494 0. 0. 0.00715990458
      0.00715990458 0.062052507 0.00477326987 0.00238663494 0.
      0.00477326987 0.0286396183 0.00715990458 0.00238663494
      0.0143198092 0. 0.00477326987 0.00954653975 0. 0.0167064443
      0.00715990458 0.00238663494 0.00477326987 0. 0.00238663494
      0.00715990458 0.00477326987 0. 0.00238663494 0. 0.00477326987
      0.0143198092 0.0119331749 0.00477326987 0. 0.0238663498 0.
      0.00954653975 0. 0. 0.00715990458</_>
    <_>
      0.00369685772 0. 0.00924214441 0.00924214441 0. 0.0129390024
      0.0166358594 0.00739371544 0.00554528646 0.00554528646
      0.0757855847 0.0147874309 0.0110905729 0.00554528646 0.0295748618
      0.00369685772 0.00554528646 0.00739371544 0.0110905729
      0.0480591506 0.0314232893 0.00924214441 0.00554528646
      0.00369685772 0.0147874309 0.00739371544 0.00369685772
      0.00924214441 0.00554528646 0.00369685772 0.00369685772 0.
      0.0369685777 0.00924214441 0.0147874309 0.00369685772
      0.00554528646 0.00739371544 0.00554528646 0.0129390024
      0.0110905729 0. 0.00184842886 0.0110905729 0.0277264323
      0.00739371544 0.0129390024 0.0203327183 0.00924214441 0.
      0.00184842886 0.00554528646 0.0110905729 0.00924214441
      0.00184842886 0.00554528646 0.00369685772 0.00554528646
      0.00554528646 0.0147874309 0.00184842886 0.00369685772
      0.00184842886 0.00184842886 0.0110905729 0.0462107211 0.0129390024
      0.00554528646 0. 0. 0.0443622917 0.00369685772 0.0184842888
      0.00739371544 0.00184842886 0.00739371544 0.00739371544
      0.00554528646 0.00739371544 0.0258780047 0. 0.0147874309
      0.00739371544 0. 0.00554528646 0.00184842886 0. 0.00184842886 0.
      0.00554528646 0.00554528646 0.00739371544 0.0110905729
      0.00739371544 0.0314232893 0.00554528646 0.00924214441
      0.00184842886 0.0147874309 0.0110905729</_>
    <_>
      0.00312500005 0.00937500037 0.0179687496 0.0101562506
      0.00625000009 0.0187500007 0.0109374998 0.0148437498 0.0078125
      0.00546874991 0.0242187511 0.00703125028 0.00859375019
      0.0140625006 0.0179687496 0.0140625006 0.00703125028 0.00937500037
      0.0218749996 0.0296874996 0.00937500037 0.0101562506 0.0101562506
      0.00937500037 0.0125000002 0.00546874991 0.0125000002
      0.00468750019 0.00625000009 0.00625000009 0.02734375 0.00234375009
      0.0218749996 0.00546874991 0.0242187511 0.00468750019
      0.00937500037 0.00312500005 0.0078125 0.01171875 0.0203125011
      0.00312500005 0.000781250012 0.0257812496 0.0164062511
      0.00625000009 0.01171875 0.0289062504 0.00859375019 0.00703125028
      0.00937500037 0.00156250002 0.00234375009 0.01953125 0.00312500005
      0.00390625 0.00156250002 0.00312500005 0.00625000009 0.0132812504
      0.0101562506 0.00625000009 0.00937500037 0.00468750019
      0.0101562506 0.0218749996 0.00703125028 0.0132812504 0.01171875
      0.00312500005 0.015625 0.0109374998 0.00234375009 0.00937500037
      0.00390625 0.0109374998 0.00625000009 0.00703125028 0.00625000009
      0.0289062504 0.000781250012 0.00703125028 0.00156250002
      0.00468750019 0.00234375009 0.00546874991 0.00156250002
      0.00234375009 0.00546874991 0.00312500005 0.0078125 0.0179687496
      0.0078125 0.0109374998 0.0179687496 0.00703125028 0.015625
      0.00156250002 0.0132812504 0.0101562506</_>
    <_>
      0.00541125517 0.00432900432 0.0108225103 0.00108225108
      0.00108225108 0.0140692638 0.00865800865 0.0097402595 0.0108225103
      0.00432900432 0.058441557 0.0119047621 0.0162337665 0.0162337665
      0.0162337665 0.0075757578 0.0140692638 0.0119047621 0.0205627698
      0.0432900414 0.012987013 0.0183982681 0.00324675324 0.00865800865
      0.0162337665 0.00649350649 0.00541125517 0.00432900432
      0.00108225108 0.00541125517 0.0281385276 0.00216450216
      0.0183982681 0.012987013 0.0259740259 0.00324675324 0.0108225103
      0.00649350649 0.00432900432 0.0097402595 0.00865800865
      0.00541125517 0.00216450216 0.0173160173 0.0173160173 0.0108225103
      0.0097402595 0.0238095243 0.0108225103 0.00541125517 0.00649350649
      0.00108225108 0.0075757578 0.0183982681 0.00541125517
      0.00865800865 0.00108225108 0.00108225108 0.00324675324
      0.019480519 0.00541125517 0.00432900432 0.00865800865
      0.00649350649 0.0108225103 0.0367965363 0.00541125517
      0.00649350649 0.00108225108 0.00649350649 0.0216450207
      0.0108225103 0.00541125517 0.00649350649 0.0108225103
      0.00324675324 0.00432900432 0.0075757578 0.0108225103 0.0248917751
      0.00108225108 0.0075757578 0.00432900432 0.00324675324
      0.00541125517 0.00216450216 0.00324675324 0.00216450216
      0.00432900432 0.00541125517 0.00216450216 0.0108225103
      0.0205627698 0.0075757578 0.0248917751 0.00216450216 0.00432900432
      0. 0.0108225103 0.00432900432</_>
    <_>
      0.00675675692 0.00506756781 0.0135135138 0.0084459465 0.0101351356
      0.0219594594 0.0185810812 0.0202702712 0.0101351356 0.00506756781
      0.0320945941 0.0101351356 0.0084459465 0.0185810812 0.0270270277
      0.0084459465 0.00506756781 0.00337837846 0.0219594594 0.0422297306
      0.0287162177 0.00675675692 0.00168918923 0.0084459465
      0.00675675692 0.00168918923 0.0118243247 0.00337837846
      0.00506756781 0.00675675692 0.00337837846 0. 0.0202702712
      0.0118243247 0.0185810812 0.00168918923 0.00337837846
      0.00675675692 0.00337837846 0.00675675692 0.016891893 0.
      0.00506756781 0.0084459465 0.0253378376 0.0101351356 0.016891893
      0.0135135138 0.016891893 0.00168918923 0.0118243247 0.
      0.00675675692 0.00168918923 0.00675675692 0.0084459465
      0.00168918923 0. 0.00675675692 0.0219594594 0. 0.0135135138
      0.00675675692 0.00506756781 0.00506756781 0.0320945941
      0.00337837846 0.00675675692 0. 0.016891893 0.0253378376
      0.00168918923 0.0101351356 0.00506756781 0.00337837846
      0.00675675692 0.0118243247 0.0101351356 0.0101351356 0.0287162177
      0.00168918923 0.0118243247 0.0084459465 0.0084459465 0.00675675692
      0.00168918923 0. 0.00337837846 0.00168918923 0.00675675692
      0.00675675692 0.0101351356 0.0084459465 0.00675675692 0.0219594594
      0.0185810812 0.00675675692 0.00337837846 0.0101351356 0.0185810812</_>
    <_>
      0.00528634386 0.00528634386 0.019383261 0.00352422916
      0.00176211458 0.00969163049 0.0167400893 0.015859032 0.00881057326
      0.00352422916 0.0220264327 0.00881057326 0.00881057326
      0.0246696044 0.00616740109 0.0176211465 0.00881057326 0.0123348022
      0.0229074899 0.0149779739 0.011453745 0.0132158594 0.0132158594
      0.00528634386 0.00881057326 0.00528634386 0.0105726877
      0.0105726877 0.00528634386 0.00352422916 0.0229074899
      0.00264317193 0.0273127761 0.00440528663 0.0202643182
      0.00352422916 0.00792951602 0.00264317193 0.00704845833
      0.00792951602 0.0202643182 0.00616740109 0.000881057291
      0.0202643182 0.0140969167 0.00704845833 0.011453745 0.0290748905
      0.00616740109 0.00352422916 0.015859032 0.000881057291
      0.00792951602 0.015859032 0.00969163049 0.00881057326 0.
      0.00352422916 0.00528634386 0.0211453754 0.00704845833 0.011453745
      0.0105726877 0.00352422916 0.00881057326 0.019383261 0.00881057326
      0.0185022037 0.00352422916 0.00440528663 0.0105726877
      0.00616740109 0.00352422916 0.00704845833 0.00616740109
      0.00969163049 0.00616740109 0.00792951602 0.011453745 0.0255506616
      0.000881057291 0.00528634386 0.00704845833 0.00792951602
      0.00616740109 0.00792951602 0.00176211458 0. 0.00704845833
      0.00616740109 0.00264317193 0.0176211465 0.0149779739 0.0105726877
      0.0176211465 0.00792951602 0.0123348022 0.000881057291
      0.0229074899 0.0132158594</_>
    <_>
      0.00132802129 0.00265604258 0.0265604258 0.00398406386
      0.00265604258 0.00531208515 0.0199203193 0.00664010644
      0.00398406386 0.00265604258 0.0424966812 0.00929614902
      0.0132802129 0.0132802129 0.0146082342 0.00265604258 0.00664010644
      0.00132802129 0.0610889792 0.0637450218 0. 0.00531208515
      0.0106241703 0.00265604258 0.00265604258 0.00265604258
      0.00398406386 0. 0.00132802129 0.00265604258 0.0292164683
      0.00265604258 0.0199203193 0.00664010644 0.0146082342
      0.00398406386 0.0159362555 0.00132802129 0. 0.00132802129
      0.00265604258 0.00132802129 0.00265604258 0.027888447
      0.00531208515 0.00664010644 0.00398406386 0.0358565748
      0.0172642767 0.00664010644 0.0119521916 0.00265604258
      0.00132802129 0.0199203193 0.00531208515 0.00132802129
      0.00398406386 0.00531208515 0.00132802129 0.00796812773
      0.0106241703 0.00398406386 0.00132802129 0.00265604258
      0.00796812773 0.0584329367 0.00664010644 0.00531208515
      0.00929614902 0. 0.0544488728 0.00531208515 0.00132802129
      0.00531208515 0.00929614902 0.0106241703 0.00664010644 0.
      0.00664010644 0.0956175327 0. 0.00132802129 0.00132802129
      0.00398406386 0.00531208515 0.00664010644 0.00531208515
      0.00265604258 0.00398406386 0.00265604258 0.00398406386
      0.00265604258 0.0132802129 0.00929614902 0.00265604258
      0.00265604258 0. 0. 0.00929614902 0.018592298</_>
    <_>
      0.00276497705 0.0055299541 0.0156682022 0.0055299541 0.00276497705
      0.010138249 0.0129032256 0.0221198164 0.00921658985 0.010138249
      0.0304147471 0.014746544 0.0064516128 0.0184331797 0.0165898614
      0.0165898614 0.0110599082 0.00829493068 0.0165898614 0.0331797227
      0.00829493068 0.0138248848 0.010138249 0.0110599082 0.0055299541
      0.00460829493 0.0110599082 0.00829493068 0.0110599082
      0.00368663599 0.0239631347 0.00184331799 0.0230414756 0.0064516128
      0.0175115205 0.00276497705 0.00368663599 0.00460829493
      0.00737327198 0.00829493068 0.0156682022 0.00184331799
      0.00184331799 0.0175115205 0.0175115205 0.00921658985 0.0110599082
      0.0285714287 0.00829493068 0.00368663599 0.0110599082
      0.00368663599 0.00460829493 0.0294930879 0.00276497705
      0.00737327198 0. 0. 0.00829493068 0.0156682022 0.00829493068
      0.00921658985 0.00276497705 0.0064516128 0.0119815674 0.020276498
      0.0119815674 0.0138248848 0.00184331799 0.00276497705 0.0258064512
      0.0119815674 0.00368663599 0.0064516128 0.00368663599 0.0175115205
      0.00737327198 0.00276497705 0.00829493068 0.0294930879
      0.000921658997 0.0110599082 0.0064516128 0.00368663599
      0.0064516128 0.00460829493 0.00184331799 0.00276497705
      0.0055299541 0.010138249 0.0055299541 0.0119815674 0.00829493068
      0.0110599082 0.0119815674 0.00460829493 0.00368663599
      0.00184331799 0.0165898614 0.010138249</_>
    <_>
      0.00613967748 0.00306983874 0.0168841127 0.00383729837
      0.00613967748 0.0107444357 0.00767459674 0.0184190329
      0.00383729837 0.00920951646 0.0322333053 0.00690713711
      0.0230237897 0.0161166526 0.0138142742 0.0222563315 0.00844205637
      0.00920951646 0.0268610884 0.0184190329 0.00920951646 0.0130468151
      0.0130468151 0.00230237911 0.00997697562 0.00537221786
      0.0176515728 0.00383729837 0.00613967748 0.00537221786
      0.0214888714 0.00153491937 0.0145817343 0.0115118949 0.0214888714
      0.00537221786 0.00997697562 0.00383729837 0.00383729837
      0.0161166526 0.00844205637 0.00230237911 0.000767459685
      0.0176515728 0.0130468151 0.0107444357 0.00383729837 0.019186493
      0.0145817343 0.00690713711 0.0161166526 0.00153491937
      0.00767459674 0.0207214113 0.00383729837 0.00920951646
      0.00306983874 0.00383729837 0.00306983874 0.012279355
      0.00537221786 0.00844205637 0.0107444357 0.00613967748
      0.00920951646 0.0161166526 0.00920951646 0.0130468151
      0.00690713711 0.00230237911 0.0107444357 0.0145817343
      0.00613967748 0.00460475823 0.00537221786 0.012279355
      0.00613967748 0.0107444357 0.00613967748 0.0337682255
      0.000767459685 0.00690713711 0.00383729837 0.00460475823
      0.00690713711 0.00460475823 0.00306983874 0.00153491937
      0.00690713711 0.00920951646 0.00537221786 0.0168841127
      0.0161166526 0.012279355 0.012279355 0.0107444357 0.00460475823 0.
      0.0168841127 0.0207214113</_>
    <_>
      0.0047169812 0.00157232699 0.0204402506 0.0047169812 0.0047169812
      0.0157232694 0.0220125783 0.0172955971 0.00786163472 0.00314465398
      0.0581761003 0.0141509427 0.0047169812 0.00628930796 0.0204402506
      0.0094339624 0.00628930796 0.0110062892 0.0267295595 0.0471698083
      0.0251572318 0.00786163472 0.0110062892 0.00157232699 0.0157232694
      0.0047169812 0.00786163472 0.00786163472 0.0047169812
      0.00628930796 0.0141509427 0. 0.0235849041 0.0094339624
      0.0188679248 0.00314465398 0. 0.0094339624 0.0047169812
      0.0047169812 0.0141509427 0.00157232699 0.00314465398 0.0110062892
      0.0314465389 0.0110062892 0.00786163472 0.0251572318 0.0094339624
      0.00157232699 0.00314465398 0. 0.00628930796 0.0110062892
      0.0047169812 0.00157232699 0. 0. 0.0094339624 0.0220125783
      0.0047169812 0.00628930796 0.00628930796 0.0094339624 0.0110062892
      0.0204402506 0.00786163472 0.00786163472 0. 0.0047169812
      0.0235849041 0.00786163472 0.00314465398 0.00786163472
      0.00157232699 0.0047169812 0.0047169812 0.0047169812 0.00628930796
      0.0408805013 0.00157232699 0.0047169812 0.0125786159 0.00157232699
      0.0094339624 0.00314465398 0. 0.00314465398 0.0047169812
      0.00628930796 0.0047169812 0.0047169812 0.00786163472 0.0047169812
      0.0314465389 0.0110062892 0.0047169812 0.00314465398 0.0141509427
      0.0204402506</_>
    <_>
      0.00417362247 0.00417362247 0.0091819698 0.00333889807
      0.0100166947 0.0158597659 0.0125208674 0.0141903171 0.00250417367
      0.00500834733 0.0308848079 0.00667779613 0.0116861435 0.0183639396
      0.0100166947 0.0116861435 0.0133555923 0.00667779613 0.0150250411
      0.037562605 0.0100166947 0.0150250411 0.0091819698 0.00751252053
      0.0091819698 0.00584307173 0.0125208674 0.00417362247
      0.00667779613 0.00250417367 0.0267111845 0.00333889807
      0.0233722869 0.0100166947 0.0233722869 0.00584307173 0.0108514186
      0.00500834733 0.00834724493 0.00834724493 0.0091819698
      0.00333889807 0.00333889807 0.0158597659 0.0175292157 0.0100166947
      0.0108514186 0.0233722869 0.0091819698 0.0091819698 0.0091819698
      0.00500834733 0.00500834733 0.0133555923 0.00667779613
      0.0108514186 0.00166944903 0.00751252053 0.00667779613
      0.0166944899 0.00166944903 0.0133555923 0.0091819698 0.00834724493
      0.0158597659 0.0158597659 0.00751252053 0.0100166947 0.00751252053
      0.00500834733 0.0242070109 0.0108514186 0.00417362247 0.0116861435
      0.00584307173 0.00834724493 0.00667779613 0.00667779613
      0.0125208674 0.0208681133 0.000834724517 0.00500834733
      0.00751252053 0.00500834733 0.00417362247 0.00500834733
      0.000834724517 0.00166944903 0.00333889807 0.00667779613
      0.00250417367 0.0150250411 0.0091819698 0.0116861435 0.0275459085
      0.0091819698 0.00250417367 0.000834724517 0.0150250411
      0.0150250411</_>
    <_>
      0.0042662113 0.00767918071 0.0221842993 0.00341296918 0.0110921497
      0.0196245722 0.0110921497 0.021331057 0.00938566495 0.00767918071
      0.0255972687 0.005972696 0.00853242259 0.021331057 0.0102389073
      0.0170648452 0.00682593836 0.00511945365 0.0127986344 0.0315699652
      0.00767918071 0.011945392 0.00682593836 0.0042662113 0.0042662113
      0.00341296918 0.0102389073 0.00170648459 0.011945392 0.005972696
      0.0187713299 0. 0.0324232057 0.00938566495 0.023890784
      0.00511945365 0.0042662113 0.00767918071 0.00511945365
      0.0110921497 0.005972696 0.000853242294 0.00255972682
      0.00938566495 0.0170648452 0.00938566495 0.0110921497 0.023890784
      0.0102389073 0.00853242259 0.0127986344 0.00170648459 0.005972696
      0.0187713299 0.005972696 0.00767918071 0.000853242294 0.0042662113
      0.00511945365 0.00938566495 0.00511945365 0.00853242259
      0.0102389073 0.00938566495 0.00682593836 0.0247440264 0.0145051191
      0.0110921497 0.00682593836 0.011945392 0.0204778146 0.00938566495
      0.00170648459 0.00767918071 0.00511945365 0.0127986344
      0.0110921497 0.00938566495 0.0153583614 0.0187713299
      0.000853242294 0.00767918071 0.00341296918 0.00767918071
      0.00767918071 0.0042662113 0.000853242294 0.00255972682
      0.00341296918 0.00511945365 0.00511945365 0.0187713299
      0.00767918071 0.00938566495 0.023890784 0.0145051191 0.00341296918
      0. 0.0162116028 0.0162116028</_>
    <_>
      0.0071485308 0.00238284352 0.0142970616 0.0055599683 0.00397140579
      0.0135027803 0.0103256553 0.0103256553 0.0071485308 0.00476568704
      0.0349483714 0.0055599683 0.0071485308 0.0270055607 0.0150913429
      0.0166799054 0.0142970616 0.0071485308 0.0150913429 0.0230341554
      0.00794281159 0.0142970616 0.00873709284 0.00397140579
      0.00794281159 0.00238284352 0.0119142178 0.00476568704
      0.0055599683 0.00317712477 0.0230341554 0.00238284352 0.0174741857
      0.0127084991 0.0166799054 0.00238284352 0.0055599683 0.00158856239
      0.00397140579 0.0103256553 0.030976966 0.000794281194
      0.00238284352 0.0174741857 0.0254169982 0.00635424955 0.0071485308
      0.0325655304 0.0111199366 0.00873709284 0.0111199366 0.00158856239
      0.00397140579 0.0182684679 0.00238284352 0.0055599683
      0.00158856239 0.00317712477 0.00794281159 0.0158856232
      0.00873709284 0.0071485308 0.00873709284 0.00317712477
      0.00794281159 0.0262112785 0.00794281159 0.0158856232
      0.00635424955 0.00158856239 0.0166799054 0.0135027803 0.0055599683
      0.0111199366 0.00158856239 0.00953137409 0.00953137409
      0.00873709284 0.00794281159 0.034154091 0.000794281194
      0.0103256553 0.00794281159 0.00635424955 0.0055599683
      0.00397140579 0.00317712477 0.000794281194 0.00317712477
      0.00397140579 0.00635424955 0.0214455929 0.0142970616 0.0103256553
      0.0158856232 0.00476568704 0.00317712477 0.000794281194
      0.0190627482 0.0190627482</_>
    <_>
      0.00220022001 0.00660066027 0.0110010998 0.00330033014
      0.00330033014 0.0220021997 0.0110010998 0.0121012097 0.00660066027
      0.00330033014 0.0572057217 0.00880088005 0.0176017601 0.0121012097
      0.00880088005 0.00660066027 0.00550054992 0.00770077016
      0.0209020898 0.0605060495 0.0154015403 0.0165016502 0.00550054992
      0.00440044003 0.0132013205 0.00660066027 0.00550054992
      0.00660066027 0.00660066027 0.00550054992 0.0209020898
      0.00110011001 0.0132013205 0.00660066027 0.0242024194
      0.00330033014 0.00770077016 0.00550054992 0.00770077016
      0.0110010998 0.0143014304 0.00440044003 0.00330033014 0.0209020898
      0.0198019799 0.0110010998 0.0154015403 0.0297029708 0.0132013205
      0.00550054992 0.00550054992 0.00440044003 0.00550054992
      0.0143014304 0.00330033014 0.00880088005 0.00330033014
      0.00220022001 0.00550054992 0.0154015403 0.00330033014
      0.00330033014 0.0110010998 0.00440044003 0.00990098994
      0.0242024194 0.00770077016 0.0121012097 0.00550054992
      0.00330033014 0.0198019799 0.0165016502 0.00770077016
      0.00660066027 0.00770077016 0.00990098994 0.00550054992
      0.00770077016 0.00660066027 0.0242024194 0.00110011001
      0.00660066027 0.00110011001 0.00220022001 0.00660066027
      0.00110011001 0.00110011001 0.00220022001 0.00440044003
      0.00660066027 0.00550054992 0.0121012097 0.0165016502
      0.00770077016 0.0220021997 0.00440044003 0.00660066027 0.
      0.0121012097 0.00330033014</_>
    <_>
      0.00355871883 0.00711743766 0.0160142351 0.00444839848
      0.00355871883 0.0160142351 0.0115658361 0.0151245547 0.00889679696
      0.00444839848 0.0418149456 0.00711743766 0.00622775778
      0.0160142351 0.0115658361 0.00622775778 0.00800711755
      0.00444839848 0.0177935939 0.0311387889 0.0115658361 0.00266903918
      0.00533807836 0.0124555156 0.00711743766 0.00444839848
      0.0133451959 0.00444839848 0.00266903918 0.00266903918
      0.0311387889 0. 0.0186832733 0.00889679696 0.0302491095
      0.00177935942 0.0177935939 0.00800711755 0.00177935942
      0.00889679696 0.0240213517 0.00177935942 0.00177935942
      0.0320284702 0.0160142351 0.00978647638 0.0169039145 0.0231316723
      0.020462634 0.00266903918 0.0106761567 0.00177935942 0.00444839848
      0.0231316723 0.00533807836 0.00800711755 0.00444839848 0.
      0.00711743766 0.0124555156 0.00800711755 0.0124555156
      0.00355871883 0.00355871883 0.00711743766 0.020462634
      0.00711743766 0.00711743766 0.00800711755 0.00266903918
      0.0222419929 0.0142348753 0.00266903918 0.0142348753 0.00622775778
      0.0160142351 0.00266903918 0.00355871883 0.00978647638
      0.0284697507 0.000889679708 0.00355871883 0.00444839848
      0.00444839848 0.00355871883 0.00355871883 0.00266903918
      0.00266903918 0.00177935942 0.00533807836 0.000889679708
      0.0115658361 0.0177935939 0.00978647638 0.0177935939 0.00622775778
      0.00978647638 0. 0.0177935939 0.0142348753</_>
    <_>
      0.00341880345 0.00854700897 0.0290598292 0.00854700897
      0.0102564106 0.0205128212 0.0205128212 0.00341880345 0.00512820529
      0.00341880345 0.0341880359 0.0068376069 0.0068376069 0.00854700897
      0.025641026 0.0119658122 0.00341880345 0.0068376069 0.0205128212
      0.0461538471 0.0307692308 0.0170940179 0.00512820529 0.0136752138
      0.0102564106 0.00512820529 0.0102564106 0.00854700897
      0.00341880345 0.00512820529 0.00341880345 0.00170940172
      0.0153846154 0.0102564106 0.0170940179 0.00170940172 0.00170940172
      0.0068376069 0.00854700897 0.00170940172 0.0188034195
      0.00341880345 0.00170940172 0.0136752138 0.025641026 0.00512820529
      0.0136752138 0.0136752138 0.0119658122 0. 0.00512820529
      0.00341880345 0.00341880345 0.0119658122 0.00512820529
      0.0068376069 0.00170940172 0.00170940172 0.00341880345
      0.0188034195 0.00170940172 0.0102564106 0.00854700897
      0.00170940172 0.00512820529 0.0341880359 0.0068376069 0.0068376069
      0.0119658122 0.00854700897 0.0290598292 0.0119658122 0.0102564106
      0.0102564106 0.00512820529 0.0102564106 0.0136752138 0.00170940172
      0.0119658122 0.025641026 0.00170940172 0.0136752138 0.0068376069
      0.00341880345 0.00854700897 0.00170940172 0.0068376069
      0.00341880345 0.00170940172 0.00341880345 0.00854700897
      0.00341880345 0.0102564106 0. 0.025641026 0.0119658122 0.
      0.00512820529 0.00341880345 0.0239316244</_>
    <_>
      0.0027397261 0.00684931502 0.00410958938 0.0054794522 0.0027397261
      0.0397260301 0.0109589044 0.0150684938 0.00684931502 0.00136986305
      0.0506849326 0.0054794522 0.00684931502 0.00410958938 0.0479452051
      0.00410958938 0.0219178088 0.00684931502 0.00136986305
      0.0698630139 0.0109589044 0.0027397261 0.0027397261 0.0054794522
      0.0164383575 0.0027397261 0.00410958938 0.00136986305
      0.00136986305 0.00410958938 0.0027397261 0. 0.0219178088
      0.0109589044 0.0630137026 0.0027397261 0.00684931502 0.0054794522
      0.00136986305 0.00410958938 0.0452054814 0.00136986305
      0.0027397261 0.0054794522 0.0479452051 0.00410958938 0.0109589044
      0.0054794522 0.0164383575 0. 0.00136986305 0. 0.00410958938
      0.00958904158 0.0054794522 0.00410958938 0. 0. 0.0054794522
      0.0328767151 0.0027397261 0. 0. 0.0054794522 0.00410958938
      0.0246575344 0.00821917877 0.00410958938 0.0054794522 0.0054794522
      0.0342465751 0.00684931502 0.0205479451 0.00410958938
      0.00136986305 0.00410958938 0.00821917877 0. 0.01369863 0.
      0.00136986305 0.0150684938 0.00136986305 0.00136986305
      0.00958904158 0.0027397261 0. 0.0027397261 0. 0.00136986305
      0.00684931502 0.00958904158 0.0205479451 0.0054794522 0.0410958901
      0.0027397261 0.0287671238 0. 0.00684931502 0.</_>
    <_>
      0.0040650405 0.0040650405 0.00948509481 0.0040650405 0.00271002715
      0.016260162 0.0149051491 0.0108401086 0.00677506812 0.00542005431
      0.0460704602 0.00677506812 0.00542005431 0.00542005431 0.054200545
      0.008130081 0.0216802172 0.0108401086 0.00677506812 0.0528455302
      0.016260162 0.00677506812 0.0040650405 0.0149051491 0.0149051491
      0.00271002715 0. 0.00135501358 0.00135501358 0. 0.0108401086 0.
      0.0338753387 0.0108401086 0.0216802172 0. 0.00135501358
      0.00542005431 0.00948509481 0.0108401086 0.0365853682
      0.00135501358 0.00271002715 0.00948509481 0.0271002725
      0.00542005431 0.0121951224 0.00677506812 0.0135501362
      0.00677506812 0.0040650405 0.00542005431 0.00677506812
      0.00135501358 0.00542005431 0.0040650405 0.00271002715
      0.00135501358 0.00677506812 0.0216802172 0.0108401086
      0.00542005431 0.00677506812 0.00542005431 0.00677506812
      0.032520324 0.00271002715 0.00948509481 0.0149051491 0.00542005431
      0.0352303535 0.00542005431 0.0149051491 0.008130081 0.
      0.0108401086 0.0149051491 0.008130081 0.00542005431 0.0108401086
      0.00135501358 0.0149051491 0. 0.00542005431 0.008130081
      0.00135501358 0.00135501358 0.0040650405 0.00135501358
      0.0040650405 0.00948509481 0.00677506812 0.0284552854
      0.00542005431 0.0257452577 0.0040650405 0.0040650405 0.
      0.008130081 0.00677506812</_>
    <_>
      0.0050441362 0.00126103405 0.0025220681 0.0290037841 0.00378310215
      0.0365699865 0.00378310215 0.00882723834 0.00882723834
      0.00630517025 0.0807061791 0.00630517025 0.00126103405
      0.0025220681 0.0226986129 0.0050441362 0.00882723834 0.0050441362
      0.00126103405 0.050441362 0.0201765448 0.00630517025 0.0025220681
      0.0050441362 0.0201765448 0.0050441362 0.0050441362 0.0025220681
      0.00882723834 0.00882723834 0.0050441362 0.0025220681 0.0264817141
      0.00630517025 0.054224465 0.0025220681 0.00756620429 0.0050441362
      0.0025220681 0.0100882724 0.0151324086 0.0050441362 0.0025220681
      0.00756620429 0.0340479203 0.0050441362 0.0189155117 0.00630517025
      0.025220681 0.00756620429 0.0025220681 0.00882723834 0.0025220681
      0.00630517025 0.00378310215 0.00378310215 0.00126103405
      0.00630517025 0.00126103405 0.0176544767 0.00630517025
      0.0050441362 0.0050441362 0.0025220681 0.0050441362 0.0340479203
      0.00378310215 0.0025220681 0.00378310215 0.0050441362 0.0290037841
      0.0050441362 0.0126103405 0.00630517025 0. 0.0025220681
      0.0050441362 0.00378310215 0.0277427491 0. 0.00126103405
      0.0201765448 0.00756620429 0.0025220681 0.0025220681 0.0025220681
      0.00378310215 0.0025220681 0.0126103405 0.00378310215
      0.00378310215 0.00378310215 0.0176544767 0.00630517025
      0.0466582589 0.00378310215 0.00882723834 0. 0.00378310215
      0.0025220681</_>
    <_>
      0.00673854444 0.0047169812 0.0101078162 0.00673854444
      0.00606468972 0.00808625296 0.0047169812 0.00606468972
      0.0121293794 0.0107816709 0.0269541778 0.0134770889 0.0141509427
      0.0121293794 0.0242587589 0.0188679248 0.0181940701 0.00606468972
      0.0128032342 0.0397574119 0.00673854444 0.0074123987 0.0161725059
      0.0141509427 0.00606468972 0.0047169812 0.0121293794 0.00673854444
      0.0074123987 0.00539083546 0.0141509427 0.00404312648 0.0202156324
      0.00673854444 0.0336927213 0.0047169812 0.0188679248 0.00336927222
      0.00336927222 0.00606468972 0.00606468972 0.0047169812
      0.00134770887 0.0094339624 0.0242587589 0.0094339624 0.0101078162
      0.0175202154 0.0154986521 0.00673854444 0.0168463606 0.00606468972
      0.00404312648 0.0121293794 0.00404312648 0.00606468972
      0.00336927222 0.00269541773 0.00808625296 0.0107816709
      0.0114555256 0.0128032342 0.0161725059 0.00673854444 0.0107816709
      0.0195417777 0.0114555256 0.000673854433 0.0101078162 0.0094339624
      0.0202156324 0.0121293794 0.0074123987 0.0101078162 0.00269541773
      0.00606468972 0.0047169812 0.0101078162 0.00876010768
      0.00336927222 0.000673854433 0.0094339624 0.00673854444
      0.0074123987 0.00134770887 0.0074123987 0.00336927222
      0.00336927222 0.0047169812 0.000673854433 0.00404312648
      0.0094339624 0.0181940701 0.0215633418 0.0195417777 0.0134770889
      0.00404312648 0.00269541773 0.0114555256 0.0114555256</_>
    <_>
      0.00509337895 0.00509337895 0.00339558581 0.00339558581
      0.0016977929 0.0203735158 0.0135823432 0.00848896429 0.0118845506
      0. 0.0577249601 0.00339558581 0.0016977929 0.0016977929
      0.0679117143 0.0016977929 0.0220713075 0.0169779286 0.0016977929
      0.0730050951 0.0169779286 0.00339558581 0. 0.0101867579
      0.0152801359 0.00339558581 0.00509337895 0. 0.0016977929
      0.00509337895 0.00339558581 0. 0.0458404087 0.00509337895
      0.0322580636 0.00339558581 0.00679117162 0.00848896429
      0.00509337895 0.0135823432 0.0288624801 0. 0.00339558581
      0.00848896429 0.0152801359 0.00509337895 0.0101867579
      0.00679117162 0.0373514444 0.0016977929 0. 0. 0.00679117162
      0.00509337895 0.00679117162 0.00848896429 0.0016977929 0.
      0.0016977929 0.0220713075 0.0101867579 0.00339558581 0.00339558581
      0.00339558581 0.00848896429 0.0322580636 0.00509337895
      0.00509337895 0.0152801359 0.00339558581 0.0475382023
      0.00509337895 0.0135823432 0.0152801359 0. 0.0016977929
      0.00848896429 0.0016977929 0.0101867579 0. 0. 0.0288624801 0.
      0.00339558581 0.00679117162 0.00339558581 0.0016977929
      0.00339558581 0. 0.00339558581 0.00848896429 0.00509337895
      0.0254668929 0.00339558581 0.0254668929 0. 0.00509337895 0.
      0.00339558581 0.00339558581</_>
    <_>
      0.00668896316 0.00501672225 0.00167224079 0.00167224079
      0.00334448158 0.0217391308 0.0117056854 0.00668896316 0.0100334445
      0.0100334445 0.0468227416 0.00334448158 0.00334448158 0.0083612036
      0.0518394634 0.00668896316 0.020066889 0.00668896316 0.00167224079
      0.0535117052 0.0217391308 0.0083612036 0. 0.018394649 0.0234113708
      0.00334448158 0.00167224079 0. 0.00334448158 0.00167224079
      0.0100334445 0. 0.020066889 0.00501672225 0.0384615399
      0.00334448158 0.00668896316 0.0083612036 0.00668896316
      0.00668896316 0.0451504998 0. 0.00167224079 0.00668896316
      0.0234113708 0.0100334445 0.0117056854 0.00668896316 0.0301003344
      0.00334448158 0.00501672225 0. 0.00501672225 0.00501672225
      0.00501672225 0.00501672225 0. 0. 0.00668896316 0.0133779263
      0.0083612036 0.00167224079 0.00167224079 0.0117056854 0.0117056854
      0.0267558526 0.0133779263 0.0117056854 0.00501672225 0.00334448158
      0.0267558526 0.0117056854 0.0217391308 0.0117056854 0.00167224079
      0.00334448158 0.00167224079 0.00501672225 0.0100334445
      0.00167224079 0.00167224079 0.0334448144 0.00334448158
      0.00167224079 0.00334448158 0.00334448158 0. 0.0117056854
      0.00167224079 0.00334448158 0. 0.0117056854 0.018394649
      0.00668896316 0.0317725763 0.00501672225 0.0100334445 0.
      0.0083612036 0.00167224079</_>
    <_>
      0.00900900923 0.0012870013 0.0025740026 0.00386100402 0.
      0.014157014 0.0102960104 0.00772200804 0.00772200804 0.0025740026
      0.0411840416 0.0115830116 0.0025740026 0.00386100402 0.0527670532
      0. 0.0205920208 0.0128700128 0.0025740026 0.0592020601
      0.0128700128 0.00386100402 0. 0.0167310163 0.0218790229
      0.0012870013 0.00643500639 0.00386100402 0.00386100402
      0.00386100402 0.0025740026 0.0012870013 0.0411840416 0.0115830116
      0.0334620327 0.0025740026 0.00514800521 0.00386100402
      0.00643500639 0.00643500639 0.0411840416 0.0025740026
      0.00386100402 0.00643500639 0.0398970395 0.0025740026 0.0128700128
      0.00772200804 0.0128700128 0.00643500639 0.00514800521
      0.0012870013 0.00900900923 0.0025740026 0.00643500639
      0.00514800521 0.0012870013 0.0012870013 0.0025740026 0.0218790229
      0.00772200804 0.0025740026 0.0025740026 0.00514800521
      0.00514800521 0.0321750343 0.00643500639 0.00514800521
      0.00643500639 0.00386100402 0.050193049 0.00386100402 0.0205920208
      0.00772200804 0.0012870013 0.0025740026 0.00900900923
      0.00514800521 0.0128700128 0.0180180185 0.0012870013 0.0154440161
      0.0012870013 0.0025740026 0.00772200804 0.0012870013 0.0012870013
      0.00514800521 0.00386100402 0.00386100402 0.00514800521
      0.00514800521 0.0193050187 0.00772200804 0.0398970395 0.0025740026
      0.00643500639 0. 0.00643500639 0.00643500639</_>
    <_>
      0.00307692308 0.0107692312 0.00307692308 0.00307692308
      0.0076923077 0.0276923068 0.0107692312 0.0169230774 0.0107692312
      0.00153846154 0.0307692308 0.00307692308 0.00461538462
      0.00923076924 0.0169230774 0.00307692308 0.00923076924
      0.00461538462 0.00307692308 0.0692307726 0.0184615385
      0.00307692308 0.00153846154 0.0076923077 0.0107692312
      0.00153846154 0.00153846154 0.00307692308 0.00461538462
      0.00615384616 0.00461538462 0.00307692308 0.0246153846
      0.00615384616 0.0461538471 0. 0.0153846154 0.00615384616
      0.00307692308 0.00615384616 0.0261538457 0.00615384616
      0.00307692308 0.0107692312 0.041538462 0.00153846154 0.0169230774
      0.00615384616 0.0184615385 0. 0.00307692308 0. 0.0107692312
      0.0076923077 0.00153846154 0.00461538462 0.00153846154
      0.00307692308 0.00153846154 0.0492307693 0.00461538462
      0.00153846154 0.00153846154 0.00923076924 0.0107692312
      0.0246153846 0.00615384616 0.00461538462 0.0199999996 0.0184615385
      0.0276923068 0.00307692308 0.0184615385 0.00615384616 0.
      0.00923076924 0.0123076923 0.00153846154 0.0199999996
      0.00153846154 0.00153846154 0.0384615399 0.00923076924 0.
      0.00307692308 0.00461538462 0. 0.00461538462 0.00153846154
      0.00153846154 0.00615384616 0.0123076923 0.00923076924
      0.00307692308 0.036923077 0. 0.0199999996 0. 0.00615384616
      0.00307692308</_>
    <_>
      0.00328227575 0.00328227575 0.00875273533 0.00547045935
      0.00218818383 0.032822758 0.00765864365 0.00875273533
      0.00765864365 0.00437636767 0.0404813997 0.0142231947
      0.00765864365 0.00765864365 0.0492341369 0.00875273533
      0.0306345746 0.00765864365 0.019693654 0.0393873081 0.00875273533
      0.0065645515 0.0065645515 0.016411379 0.0175054707 0.00547045935
      0.00437636767 0.00328227575 0.00875273533 0.00328227575
      0.013129103 0.00109409192 0.0284463894 0.00765864365 0.0251641143
      0.00328227575 0.00547045935 0.00437636767 0.00328227575
      0.00547045935 0.0185995623 0.00218818383 0.00109409192
      0.0109409187 0.036105033 0.00547045935 0.00875273533 0.00765864365
      0.0229759309 0.00547045935 0.00437636767 0.00218818383
      0.00328227575 0.0109409187 0.00218818383 0.00437636767
      0.00218818383 0.00328227575 0.0065645515 0.019693654 0.00547045935
      0.00328227575 0.00109409192 0.0065645515 0.00437636767
      0.0229759309 0.00765864365 0.0109409187 0.00875273533
      0.00328227575 0.029540481 0.00547045935 0.0185995623 0.00218818383
      0.00109409192 0.016411379 0.00765864365 0.00437636767
      0.00765864365 0.0229759309 0.00109409192 0.00984682702
      0.0065645515 0.00328227575 0.00437636767 0.00328227575 0.
      0.0065645515 0.00437636767 0.00328227575 0.00984682702
      0.00437636767 0.0306345746 0.00218818383 0.0240700226
      0.00547045935 0.00984682702 0. 0.00765864365 0.0065645515</_>
    <_>
      0.00784929376 0.00784929376 0.00470957626 0.00627943501
      0.0109890113 0.02511774 0.00784929376 0.00627943501 0.00941915251
      0.00156985875 0.031397175 0.00156985875 0.0031397175 0.00627943501
      0.0235478804 0.0031397175 0.00941915251 0.00470957626
      0.00156985875 0.0847723708 0.02511774 0.00784929376 0.0031397175
      0.0109890113 0.00941915251 0.0031397175 0.00156985875
      0.00156985875 0.00470957626 0.00627943501 0.00156985875 0.
      0.0204081647 0.0109890113 0.0533751994 0.00156985875 0.0109890113
      0.00784929376 0. 0.00627943501 0.00784929376 0.00627943501
      0.00470957626 0.0156985875 0.0502354801 0.00470957626 0.0109890113
      0.018838305 0.0204081647 0. 0.00470957626 0. 0.00784929376
      0.00784929376 0.00470957626 0.00784929376 0.00156985875 0.
      0.00156985875 0.0235478804 0.00156985875 0.00470957626 0.
      0.0031397175 0.00470957626 0.0266875997 0.00470957626
      0.00156985875 0.0031397175 0.0156985875 0.0329670347 0.00156985875
      0.0266875997 0.00784929376 0.00156985875 0.00470957626
      0.00156985875 0. 0.00784929376 0.00627943501 0.00156985875
      0.0470957607 0.00784929376 0.00156985875 0.00941915251
      0.00470957626 0.00156985875 0.0031397175 0.00470957626
      0.00156985875 0.00470957626 0.00156985875 0.0156985875
      0.0031397175 0.0580847748 0.00156985875 0.0141287288 0.
      0.00784929376 0.00941915251</_>
    <_>
      0.00204988057 0.0109326961 0.00888281595 0.00649128808
      0.00409976114 0.0140075171 0.0037581143 0.00546634803 0.009907756
      0.00273317401 0.0143491635 0.0140075171 0.0112743424 0.0136658698
      0.0300649144 0.0037581143 0.034506321 0.0061496417 0.00854116865
      0.0191322174 0.00512470119 0.00273317401 0.0119576361 0.0122992834
      0.00888281595 0.00170823373 0.00717458175 0.00170823373
      0.0146908099 0.0061496417 0.00649128808 0.00717458175 0.0122992834
      0.00341646746 0.0341646746 0.000683293503 0.0591048896
      0.00341646746 0.00580799486 0.00273317401 0.00854116865
