<?xml version="1.0"?>
<opencv_storage>
<opencv_ml_svm>
  <format>3</format>
  <svmType>C_SVC</svmType>
  <kernel>
    <type>RBF</type>
    <gamma>0.50625000000000009</gamma></kernel>
  <C>312.5</C>
  <term_criteria><epsilon>1.1920928955078125e-07</epsilon>
    <iterations>1000</iterations></term_criteria>
  <var_count>10</var_count>
  <class_count>13</class_count>
  <class_labels type_id="opencv-matrix">
    <rows>13</rows>
    <cols>1</cols>
    <dt>i</dt>
    <data>
      0 1 2 3 4 5 6 7 8 9 10 11 12</data></class_labels>
  <sv_total>227</sv_total>
  <support_vectors>
    <_>
      0.0627376437 0.0988593176 0.0551330782 0.0665399209 0.0627376437
      0.0874524713 0.155893534 0.245247141 0.114068441 0.0513307974</_>
    <_>
      0.0410628021 0.101449274 0.0507246368 0.0458937176 0.0724637657
      0.0785024166 0.192028984 0.301932365 0.0628019348 0.0531400964</_>
    <_>
      0.0457875468 0.188644692 0.0641025677 0.0805860832 0.0750915781
      0.0787545815 0.139194146 0.195970699 0.0970695987 0.0347985364</_>
    <_>
      0.0527272746 0.156363636 0.0836363658 0.0490909107 0.0672727302
      0.0854545459 0.165454552 0.189090908 0.101818182 0.0490909107</_>
    <_>
      0.0471014492 0.173913047 0.0615942031 0.0525362343 0.0561594218
      0.0960144922 0.164855078 0.190217391 0.114130437 0.0434782617</_>
    <_>
      0.0321931578 0.146881282 0.0422535203 0.0865191147 0.0603621714
      0.104627766 0.209255531 0.219315886 0.0643863156 0.0342052318</_>
    <_>
      0.0442359261 0.0938337818 0.0643431693 0.0442359261 0.0951742679
      0.0965147465 0.183646113 0.253351212 0.0790884718 0.0455764085</_>
    <_>
      0.0448028669 0.0824372768 0.0519713275 0.0394265242 0.0770609304
      0.0896057338 0.215053767 0.268817216 0.0896057338 0.0412186384</_>
    <_>
      0.0393996239 0.125703558 0.0675422102 0.0881801099 0.0806754231
      0.0844277665 0.165103197 0.210131332 0.095684804 0.043151971</_>
    <_>
      0.0602409616 0.1129518 0.0481927693 0.0572289154 0.0451807231
      0.0828313231 0.16114457 0.286144555 0.108433731 0.0376506001</_>
    <_>
      0.0581257418 0.117437728 0.0486358255 0.049822066 0.067615658
      0.0711743757 0.187425867 0.285883754 0.0818505362 0.0320284702</_>
    <_>
      0.0394160561 0.0948905051 0.0613138676 0.0613138676 0.0554744489
      0.106569342 0.154744521 0.277372241 0.090510942 0.0583941564</_>
    <_>
      0.050775744 0.122708045 0.0761636123 0.0437235571 0.045133993
      0.0818053633 0.135401979 0.303244025 0.101551488 0.039492242</_>
    <_>
      0.0458970815 0.101529904 0.051460363 0.0472879 0.0584144667
      0.107093185 0.180806682 0.276773304 0.0987482592 0.0319888741</_>
    <_>
      0.0443285517 0.122555405 0.0456323326 0.0769230723 0.071707949
      0.0782268569 0.200782269 0.22294654 0.0860495418 0.0508474559</_>
    <_>
      0.0405156538 0.189686924 0.0644567236 0.0386740342 0.0736648291
      0.0755064487 0.193370163 0.202578276 0.0718232021 0.0497237593</_>
    <_>
      0.0345323756 0.107913665 0.0705035999 0.0489208624 0.0920863301
      0.119424462 0.148201436 0.243165463 0.0949640274 0.0402877703</_>
    <_>
      0.0702875406 0.111821085 0.05111821 0.0463258773 0.0766773149
      0.0910543129 0.180511177 0.231629387 0.0958466455 0.0447284356</_>
    <_>
      0.0416666679 0.125 0.0535714328 0.051587306 0.051587306
      0.101190485 0.216269851 0.232142866 0.0912698433 0.0357142873</_>
    <_>
      0.0386266112 0.148068666 0.0686695278 0.0450643785 0.0815450624
      0.0858369097 0.175965667 0.201716736 0.103004292 0.0515021458</_>
    <_>
      0.0422125198 0.104803495 0.0451237261 0.0422125198 0.0494905412
      0.0756914169 0.20378457 0.318777293 0.0771470144 0.0407569148</_>
    <_>
      0.0498007983 0.157370523 0.0617529899 0.0438247025 0.0677290857
      0.0976095647 0.177290842 0.189243034 0.0936255008 0.0617529899</_>
    <_>
      0.0537931062 0.0979310349 0.0662069023 0.0427586213 0.0675862059
      0.0979310349 0.169655174 0.274482757 0.0882758647 0.0413793102</_>
    <_>
      0.0478927195 0.126436785 0.0517241359 0.0593869723 0.0517241359
      0.11302682 0.187739462 0.22605364 0.103448272 0.0325670503</_>
    <_>
      0.0510638282 0.153191477 0.0510638282 0.0531914867 0.0659574419
      0.110638291 0.176595733 0.257446796 0.0638297871 0.0170212761</_>
    <_>
      0.0181818176 0.0909090862 0.0424242392 0.0242424235 0.0242424235
      0.0151515147 0.25151515 0.463636339 0.0515151508 0.0181818176</_>
    <_>
      0.0249999985 0.099999994 0.0454545431 0.086363636 0.0454545431
      0.120454542 0.174999997 0.327272713 0.049999997 0.0249999985</_>
    <_>
      0.0483870953 0.0745967701 0.0403225794 0.0342741907 0.072580643
      0.0766129047 0.252016127 0.334677398 0.0362903215 0.0302419346</_>
    <_>
      0.0295566507 0.140394092 0.0665024593 0.0640394092 0.0591133013
      0.110837437 0.142857134 0.3054187 0.0665024593 0.0147783253</_>
    <_>
      0.0456730798 0.112980776 0.0649038479 0.036057692 0.0769230798
      0.0913461596 0.197115391 0.324519247 0.0432692319 0.00721153896</_>
    <_>
      0.0478468873 0.1291866 0.0526315756 0.0287081338 0.0478468873
      0.105263151 0.198564589 0.320574164 0.0526315756 0.0167464111</_>
    <_>
      0.0453514755 0.138321996 0.0544217676 0.0521541946 0.0634920672
      0.0770975053 0.190476194 0.306122452 0.0521541946 0.0204081628</_>
    <_>
      0.0264765806 0.101833001 0.0529531613 0.0590631403 0.0692464411
      0.112016298 0.185336053 0.323828936 0.0549898185 0.0142566198</_>
    <_>
      0.0410094634 0.0883280784 0.0662460551 0.0347003154 0.0441640392
      0.0536277629 0.201892748 0.4164038 0.0410094634 0.0126182968</_>
    <_>
      0.044534415 0.147773281 0.0485829972 0.0465587042 0.0506072901
      0.11336033 0.18825911 0.289473683 0.0546558723 0.0161943324</_>
    <_>
      0.0407407396 0.175925925 0.0407407396 0.053703703 0.0981481448
      0.138888881 0.179629624 0.211111113 0.05185185 0.00925925933</_>
    <_>
      0.0369393155 0.1530343 0.073878631 0.0501319282 0.073878631
      0.113456473 0.121372037 0.30343008 0.0580474958 0.0158311352</_>
    <_>
      0.0356394127 0.136268333 0.0566037707 0.0398322828 0.0566037707
      0.119496852 0.159329131 0.306079656 0.0775681287 0.0125786159</_>
    <_>
      0.0452127643 0.170212761 0.0718085095 0.039893616 0.0638297871
      0.111702122 0.148936167 0.260638297 0.0691489354 0.0186170209</_>
    <_>
      0.0566893443 0.124716558 0.0453514755 0.0430839024 0.0839002281
      0.106575966 0.21768707 0.240362808 0.0612244904 0.0204081628</_>
    <_>
      0.0427927934 0.0720720738 0.067567572 0.067567572 0.0270270277
      0.0855855867 0.191441447 0.367117137 0.0495495498 0.0292792805</_>
    <_>
      0.0453460626 0.0930787623 0.0453460626 0.0453460626 0.062052507
      0.10501194 0.178997621 0.348448694 0.0596658736 0.0167064443</_>
    <_>
      0.0536044352 0.103512019 0.118299447 0.0517560095 0.0536044352
      0.0979667306 0.157116458 0.231053606 0.0961183012 0.0369685777</_>
    <_>
      0.0609375015 0.0812500045 0.12890625 0.063281253 0.114843749
      0.11328125 0.129687503 0.100781254 0.157812506 0.0492187515</_>
    <_>
      0.0627705604 0.0800865814 0.112554111 0.0627705604 0.110389613
      0.0898268372 0.116883114 0.185064942 0.13203463 0.0476190485</_>
    <_>
      0.0844594613 0.111486487 0.106418923 0.067567572 0.0658783764
      0.0945945978 0.130067572 0.157094598 0.141891897 0.0405405425</_>
    <_>
      0.073127754 0.0696035251 0.140969172 0.0607929528 0.0916299596
      0.0872246698 0.132158592 0.10748899 0.17973569 0.0572687238</_>
    <_>
      0.0783410147 0.0470046103 0.139170513 0.0470046103 0.112442397
      0.0820276514 0.142857149 0.136405528 0.161290318 0.0534562208</_>
    <_>
      0.0638297871 0.0697399527 0.150118202 0.060283687 0.0957446843
      0.0957446843 0.147754133 0.139479905 0.135933802 0.0413711593</_>
    <_>
      0.0813507289 0.0468150415 0.145049885 0.0537221767 0.0821181834
      0.0974673778 0.122793548 0.10130468 0.216423631 0.0529547185</_>
    <_>
      0.0660377368 0.11006289 0.141509429 0.0424528271 0.0613207519
      0.0754716992 0.128930807 0.176100627 0.146226406 0.0518867895</_>
    <_>
      0.0742904842 0.07512521 0.131051749 0.0667779595 0.0934891477
      0.0843071789 0.126043409 0.127712846 0.166110173 0.0550918169</_>
    <_>
      0.0870307162 0.0742320791 0.126279861 0.0580204763 0.0947098956
      0.0853242278 0.139078498 0.118600681 0.164675757 0.0520477816</_>
    <_>
      0.0528052822 0.0715071484 0.106710672 0.0616061613 0.100110009
      0.105610564 0.123212323 0.199119911 0.134213418 0.0451045111</_>
    <_>
      0.0667259768 0.0640569404 0.123665482 0.0711743757 0.137900352
      0.110320285 0.130782917 0.122775801 0.134341642 0.038256228</_>
    <_>
      0.0427350439 0.111111112 0.124786325 0.0666666701 0.0632478669
      0.111111112 0.114529915 0.179487184 0.141880348 0.0444444455</_>
    <_>
      0.0460704602 0.0934959352 0.0867208689 0.0718157217 0.062330626
      0.158536583 0.168021679 0.200542003 0.0853658542 0.0271002725</_>
    <_>
      0.0351145044 0.184732825 0.0519083962 0.0610687025 0.125190839
      0.116030537 0.11755725 0.229007632 0.0549618304 0.024427481</_>
    <_>
      0.0277427491 0.128625467 0.0453972258 0.0744010061 0.10844893
      0.104665823 0.136191681 0.221941993 0.122320302 0.0302648172</_>
    <_>
      0.0801886767 0.0741239861 0.103099726 0.094339624 0.109164417
      0.107142858 0.0747978389 0.117250673 0.18328841 0.0566037707</_>
    <_>
      0.0468227416 0.10702341 0.0434782617 0.0785953179 0.10702341
      0.117056854 0.187290967 0.192307696 0.0886287615 0.0317725763</_>
    <_>
      0.0360360369 0.113256112 0.0720720738 0.065637067 0.0759330764
      0.132561132 0.190476194 0.21364221 0.0785070807 0.0218790229</_>
    <_>
      0.0323076919 0.175384611 0.035384614 0.084615387 0.107692309
      0.0984615386 0.152307689 0.216923073 0.0738461539 0.0230769236</_>
    <_>
      0.036105033 0.0929978117 0.0973741785 0.0919037238 0.0853391662
      0.155361056 0.135667399 0.163019702 0.111597374 0.0306345746</_>
    <_>
      0.0345368907 0.193092629 0.0612244904 0.0722135007 0.0989011005
      0.10361068 0.10361068 0.243328109 0.0690737814 0.0204081647</_>
    <_>
      0.059446536 0.0471472517 0.0946361497 0.163307145 0.100785792
      0.183464304 0.0649128854 0.0666211173 0.190980539 0.028698327</_>
    <_>
      0.0651913881 0.0711722448 0.11004784 0.0909090862 0.113038272
      0.0891148299 0.0944976062 0.115430616 0.188995212 0.0616028681</_>
    <_>
      0.0443037972 0.135443032 0.0544303805 0.110126585 0.0936708897
      0.0810126588 0.127848104 0.226582274 0.102531649 0.0240506325</_>
    <_>
      0.0723163858 0.0564971752 0.0971751437 0.101129949 0.11299435
      0.145762712 0.105084747 0.0785310715 0.190395489 0.0401129946</_>
    <_>
      0.0351351351 0.163513511 0.0716216266 0.0648648664 0.139189199
      0.122972973 0.122972973 0.198648646 0.0567567572 0.024324324</_>
    <_>
      0.0535307527 0.0706150383 0.104783602 0.0763098001 0.10535308
      0.134396359 0.108200461 0.108200461 0.189066067 0.0495444201</_>
    <_>
      0.0336283185 0.0867256671 0.024778761 0.0778761059 0.100884959
      0.139823005 0.228318587 0.240707964 0.0513274334 0.0159292035</_>
    <_>
      0.0444242954 0.0961015373 0.064369902 0.0797824115 0.099728018
      0.0852221251 0.161378056 0.199456036 0.11695376 0.0525838621</_>
    <_>
      0.0567765571 0.068681322 0.082417585 0.057692308 0.0961538479
      0.0943223462 0.167582422 0.170329675 0.136446893 0.0695970729</_>
    <_>
      0.0586956479 0.104347825 0.0652173907 0.0684782565 0.0630434752
      0.128260866 0.179347813 0.171739116 0.103260867 0.0576086938</_>
    <_>
      0.0630291626 0.0874882415 0.0856067762 0.0677328333 0.117591724
      0.0997177809 0.120413922 0.147695199 0.128880531 0.0818438381</_>
    <_>
      0.0505226478 0.0975609794 0.062717773 0.0688153282 0.103658535
      0.092334494 0.1271777 0.189895466 0.141986057 0.065331012</_>
    <_>
      0.0590163916 0.0983606577 0.0786885247 0.0491803288 0.0655737668
      0.0901639313 0.172131151 0.19016394 0.121311478 0.0754098371</_>
    <_>
      0.0719576702 0.0994708985 0.0761904791 0.0857142881 0.092063494
      0.101587303 0.139682546 0.142857149 0.120634921 0.0698412731</_>
    <_>
      0.0758683756 0.064899452 0.0831809863 0.0603290685 0.077696532
      0.0813528374 0.154478982 0.171846434 0.152650833 0.077696532</_>
    <_>
      0.0717592612 0.0949074104 0.0933642015 0.077932097 0.0679012388
      0.0787037015 0.127314821 0.145061731 0.16589506 0.0771604925</_>
    <_>
      0.0738916248 0.0729064047 0.0768472925 0.0719211847 0.0748768523
      0.118226603 0.132019714 0.152709365 0.155665025 0.0709359646</_>
    <_>
      0.0484027117 0.0958373696 0.0551790893 0.0474346578 0.0813165531
      0.0861568227 0.199419171 0.207163602 0.115198456 0.0638915822</_>
    <_>
      0.0525502302 0.0857805237 0.0865533203 0.0610510036 0.0935084969
      0.0965996906 0.121329211 0.18160741 0.14837712 0.0726429671</_>
    <_>
      0.0645161271 0.0955794454 0.0609318987 0.0800477862 0.0824372768
      0.0824372768 0.172043011 0.178016722 0.118279569 0.0657108724</_>
    <_>
      0.0691823885 0.113207549 0.0729559734 0.0830188692 0.0603773594
      0.0905660391 0.145911947 0.179874212 0.115723267 0.0691823885</_>
    <_>
      0.0652573556 0.0808823556 0.0882352963 0.0551470593 0.0716911778
      0.0863970593 0.152573526 0.168198526 0.154411763 0.0772058815</_>
    <_>
      0.071182549 0.0642939135 0.0895522386 0.0597014911 0.0861079171
      0.106773823 0.144661307 0.157290474 0.153846145 0.0665901229</_>
    <_>
      0.0554994941 0.0655903146 0.078708373 0.06861756 0.0827447027
      0.101917252 0.14833501 0.139253274 0.165489405 0.0938446</_>
    <_>
      0.062068969 0.0679802969 0.109359607 0.0453201979 0.084729068
      0.084729068 0.137931034 0.138916254 0.187192127 0.0817734003</_>
    <_>
      0.0826086998 0.0799999982 0.0921739116 0.0617391318 0.0808695704
      0.0773913041 0.145217389 0.154782608 0.146086961 0.0791304335</_>
    <_>
      0.0633397326 0.126679465 0.0614203438 0.046065256 0.0518234149
      0.0806142017 0.213051811 0.268714011 0.0729366615 0.015355086</_>
    <_>
      0.0658682659 0.116167665 0.0646706596 0.11017964 0.0550898202
      0.0598802418 0.098203592 0.154491022 0.120958082 0.154491022</_>
    <_>
      0.0347826071 0.0819875747 0.0484472029 0.100621119 0.0596273281
      0.0956521705 0.106832296 0.209937885 0.0968944058 0.165217385</_>
    <_>
      0.0567951314 0.0973630846 0.0750507116 0.130831644 0.0517241359
      0.0709939152 0.11967545 0.143002018 0.0963488817 0.158215001</_>
    <_>
      0.0585197918 0.130808949 0.0722891539 0.0585197918 0.0619621351
      0.0826161802 0.175559372 0.237521514 0.0963855386 0.0258175563</_>
    <_>
      0.0472440943 0.11811024 0.0511811003 0.0728346482 0.0393700786
      0.0905511826 0.224409446 0.283464551 0.0511811003 0.0216535442</_>
    <_>
      0.0408415832 0.0853960365 0.0581683144 0.105198018 0.0495049506
      0.0903465301 0.136138618 0.190594062 0.108910888 0.134900987</_>
    <_>
      0.0314465389 0.134171903 0.0566037707 0.0461215898 0.0607966445
      0.0943396166 0.18238993 0.306079656 0.0796645656 0.00838574395</_>
    <_>
      0.0461811721 0.103019543 0.0639431626 0.0603907667 0.0532859676
      0.11545293 0.197158083 0.278863251 0.0621669628 0.0195381884</_>
    <_>
      0.0635593235 0.0963983089 0.0635593235 0.105932206 0.0487288125
      0.0773305073 0.126059324 0.134533897 0.111228816 0.172669485</_>
    <_>
      0.0348525494 0.0683646128 0.0482573733 0.109919578 0.050938338
      0.0978552327 0.121983916 0.194369987 0.120643437 0.152815014</_>
    <_>
      0.0449897721 0.130879343 0.0572597124 0.059304703 0.0633946806
      0.0797545984 0.179959089 0.302658468 0.0695296526 0.0122699384</_>
    <_>
      0.0393974483 0.0845886394 0.060254924 0.113557354 0.0393974483
      0.0811123997 0.128621086 0.168018535 0.120509848 0.164542288</_>
    <_>
      0.0353430361 0.116424114 0.0436590426 0.0415800437 0.0644490644
      0.101871103 0.193347201 0.32016632 0.0686070696 0.0145530142</_>
    <_>
      0.0418250933 0.106463879 0.0532319397 0.0475285165 0.0589353591
      0.0988593176 0.203422055 0.326996207 0.0456273779 0.0171102658</_>
    <_>
      0.0617408939 0.0981781408 0.0556680188 0.107287452 0.0587044545
      0.0799595192 0.120445348 0.161943316 0.121457495 0.134615391</_>
    <_>
      0.0398457572 0.095115684 0.0655526966 0.11182519 0.0462724939
      0.0835475549 0.0964010283 0.188946009 0.115681231 0.15681234</_>
    <_>
      0.0826140568 0.0900123268 0.0912453756 0.0604192354 0.0653514192
      0.0998766944 0.189889029 0.159062877 0.117139332 0.0443896428</_>
    <_>
      0.104541562 0.0402742065 0.180805489 0.0394173078 0.0497000851
      0.0702656358 0.131962299 0.170522705 0.149100259 0.0634104535</_>
    <_>
      0.0657759532 0.0678314492 0.101747178 0.0729701966 0.077081196
      0.0945529342 0.140801653 0.170606375 0.135662898 0.0729701966</_>
    <_>
      0.0649913326 0.088388212 0.109185442 0.0502599664 0.0597920269
      0.058058925 0.170710579 0.168110922 0.148180246 0.0823223591</_>
    <_>
      0.0736151636 0.0663265362 0.103498548 0.0721574351 0.0641399473
      0.0925656036 0.155976683 0.141399428 0.154518962 0.0758017525</_>
    <_>
      0.082802549 0.0928116441 0.104640581 0.0382165611 0.0718835294
      0.0582347587 0.171974525 0.156505913 0.160145581 0.0627843514</_>
    <_>
      0.058702372 0.0535530411 0.101956747 0.0690010339 0.0937178209
      0.0906282216 0.14521113 0.159629256 0.157569528 0.0700308979</_>
    <_>
      0.0665467605 0.0773381293 0.0959232599 0.0887290165 0.106714629
      0.120503597 0.149880096 0.118105516 0.123501204 0.0527577959</_>
    <_>
      0.0632140189 0.0784463063 0.0990099013 0.0632140189 0.0830159932
      0.0845392272 0.182025895 0.177456215 0.11805027 0.0510281809</_>
    <_>
      0.0773442909 0.0663928837 0.128678992 0.0677618086 0.0800821409
      0.0896646157 0.138945937 0.115674198 0.177275851 0.0581793301</_>
    <_>
      0.0748930126 0.0934379473 0.11982882 0.0734664798 0.0584878772
      0.101997152 0.157631963 0.157631963 0.112696148 0.0499286763</_>
    <_>
      0.0718562901 0.0860778466 0.113023959 0.0576347336 0.0853293464
      0.096556887 0.153443113 0.139221564 0.148952097 0.0479041934</_>
    <_>
      0.0629183426 0.0669344068 0.105756357 0.0655957162 0.101740293
      0.116465859 0.138554215 0.125836685 0.157965198 0.0582329296</_>
    <_>
      0.0779220834 0.075448364 0.120593697 0.0581323467 0.0686456412
      0.094001241 0.153988868 0.121212125 0.160791591 0.0692640692</_>
    <_>
      0.0689110979 0.0483955815 0.132035777 0.0578642823 0.0820620731
      0.105733827 0.131509736 0.102051556 0.204103112 0.067332983</_>
    <_>
      0.0669180006 0.0829406232 0.0895381719 0.059377946 0.0810556039
      0.0951932147 0.161168709 0.154571161 0.128180966 0.0810556039</_>
    <_>
      0.0632368699 0.0803858489 0.107181132 0.0728831664 0.0793140382
      0.0889603347 0.142550901 0.156484455 0.135048226 0.0739549771</_>
    <_>
      0.0559440553 0.0716783255 0.102564104 0.0728438273 0.0926573426
      0.108391613 0.141608402 0.11771562 0.162587419 0.0740093291</_>
    <_>
      0.06504599 0.0624178685 0.111695133 0.0578186586 0.0946123526
      0.0998685881 0.143232584 0.135348216 0.173455968 0.056504596</_>
    <_>
      0.0832342431 0.0499405451 0.117717005 0.0671819225 0.0832342431
      0.119500592 0.132580265 0.130202144 0.158739597 0.0576694421</_>
    <_>
      0.0611222461 0.0731462911 0.0951903835 0.0641282573 0.0621242486
      0.091182366 0.164328665 0.153306618 0.153306618 0.0821643323</_>
    <_>
      0.0615530312 0.0672348514 0.104166672 0.0568181835 0.0606060624
      0.0965909138 0.15625 0.157196969 0.171401516 0.0681818202</_>
    <_>
      0.0379464291 0.0691964328 0.0714285746 0.03125 0.082589291
      0.107142866 0.151785716 0.357142866 0.0647321492 0.0267857164</_>
    <_>
      0.0498177409 0.126366958 0.0486026742 0.0255164038 0.0753341466
      0.0716889426 0.212636709 0.278250307 0.0729040131 0.0388821401</_>
    <_>
      0.0377833731 0.123425685 0.0491183847 0.0440806039 0.0692695156
      0.0906801 0.229219139 0.269521385 0.0617128424 0.0251889154</_>
    <_>
      0.0432220064 0.115913562 0.0491159149 0.051080551 0.0844793767
      0.104125738 0.194499031 0.241650298 0.0667976439 0.0491159149</_>
    <_>
      0.0397435911 0.138461545 0.0615384653 0.0448717959 0.0564102568
      0.0666666701 0.216666669 0.266666681 0.0705128238 0.0384615399</_>
    <_>
      0.0483870953 0.0537634417 0.0573476702 0.0232974906 0.071684584
      0.109318994 0.200716853 0.345878124 0.0627240166 0.0268817209</_>
    <_>
      0.045133993 0.177715093 0.0521861799 0.0493653044 0.0592383668
      0.0775740519 0.16925247 0.276445717 0.0606488027 0.0324400589</_>
    <_>
      0.0405063294 0.156962022 0.0531645566 0.0354430377 0.0797468349
      0.0569620244 0.188607603 0.278481007 0.0708860755 0.0392405055</_>
    <_>
      0.053149607 0.100393698 0.0925196856 0.05511811 0.0826771632
      0.104330711 0.187007874 0.187007874 0.100393698 0.0374015756</_>
    <_>
      0.0366088636 0.0982659012 0.0443159938 0.0366088636 0.0712909475
      0.111753374 0.213872835 0.302504808 0.0616570339 0.0231213868</_>
    <_>
      0.0595238134 0.121031754 0.0734127015 0.051587306 0.0912698433
      0.0773809552 0.206349224 0.208333343 0.065476194 0.0456349216</_>
    <_>
      0.0453955904 0.138780802 0.0661478564 0.0389105044 0.0765239969
      0.0713359267 0.178988323 0.299610883 0.0492866412 0.0350194536</_>
    <_>
      0.0466019437 0.0621359237 0.0699029118 0.0213592239 0.0660194159
      0.104854368 0.170873791 0.353398055 0.0815533996 0.0233009718</_>
    <_>
      0.0417457297 0.111954458 0.0834914595 0.0512333959 0.0796963945
      0.102466792 0.155597717 0.231499046 0.0853889957 0.0569259971</_>
    <_>
      0.0597014911 0.100746267 0.0597014911 0.0317164175 0.0783582106
      0.0951492488 0.222014919 0.266791046 0.0652985051 0.0205223877</_>
    <_>
      0.0387323946 0.0845070407 0.0651408434 0.0369718298 0.0774647892
      0.126760557 0.202464789 0.253521115 0.0721830949 0.0422535203</_>
    <_>
      0.0412044376 0.0919175968 0.0522979423 0.0459587984 0.0839936659
      0.117274173 0.185419977 0.28684628 0.0586370863 0.0364500806</_>
    <_>
      0.0331125818 0.12317881 0.0582781471 0.0370860919 0.0794702023
      0.0701986775 0.20927152 0.307284772 0.0476821214 0.0344370864</_>
    <_>
      0.0501319282 0.143799484 0.0540897101 0.0356200561 0.0699208453
      0.0620052814 0.19525066 0.270448565 0.0791556761 0.039577838</_>
    <_>
      0.0477064215 0.0495412834 0.0770642236 0.0238532107 0.0697247684
      0.100917429 0.165137619 0.370642215 0.0660550445 0.0293577984</_>
    <_>
      0.0441919193 0.101010099 0.0618686862 0.0429292917 0.0782828256
      0.0656565651 0.204545453 0.300505042 0.0732323229 0.027777778</_>
    <_>
      0.0404858291 0.171390012 0.0661268532 0.0350877196 0.0701754391
      0.0782726035 0.184885278 0.225371107 0.0863697678 0.0418353565</_>
    <_>
      0.0781440809 0.111111112 0.095238097 0.0927960947 0.0854700878
      0.095238097 0.174603179 0.151404157 0.0891330913 0.0268620271</_>
    <_>
      0.104570098 0.0325329192 0.151045695 0.061967466 0.0712625831
      0.119287372 0.111541435 0.125484124 0.186676994 0.0356312916</_>
    <_>
      0.0431654677 0.0935251787 0.0719424486 0.0733812973 0.100719422
      0.115107909 0.153956831 0.212949634 0.109352514 0.0258992799</_>
    <_>
      0.0736318454 0.0955223888 0.087562196 0.12139304 0.0925373212
      0.100497514 0.128358215 0.146268666 0.122388065 0.0318407975</_>
    <_>
      0.0680580735 0.0807622522 0.091651544 0.0970961899 0.0698729604
      0.108892925 0.11796733 0.169691473 0.123411976 0.0725952834</_>
    <_>
      0.0423940159 0.12967582 0.0573566109 0.0947630927 0.114713222
      0.0810473859 0.144638404 0.197007492 0.108478807 0.029925188</_>
    <_>
      0.0462850221 0.143727168 0.074299641 0.074299641 0.104750313
      0.102314256 0.109622419 0.205846533 0.109622419 0.0292326435</_>
    <_>
      0.042328041 0.0793650746 0.0634920597 0.0705467314 0.125220448
      0.125220448 0.130511463 0.264550269 0.0793650746 0.0194003526</_>
    <_>
      0.073446326 0.0683615804 0.0983050838 0.0887005702 0.0785310715
      0.0802259892 0.106779665 0.116384186 0.184745774 0.104519777</_>
    <_>
      0.0373692065 0.11210762 0.0747384131 0.0822122544 0.0896860957
      0.0822122544 0.153961137 0.248131543 0.0911808684 0.0284005981</_>
    <_>
      0.0404217914 0.108963095 0.0843585283 0.0492091402 0.0861159936
      0.0966608077 0.14235501 0.282952547 0.0843585283 0.0246045701</_>
    <_>
      0.0446808487 0.131914884 0.0670212731 0.121276595 0.0914893597
      0.122340418 0.109574467 0.180851057 0.0872340426 0.0436170213</_>
    <_>
      0.0359712243 0.140287772 0.0629496425 0.0683453232 0.118705042
      0.0881294981 0.149280578 0.210431665 0.0827338174 0.0431654677</_>
    <_>
      0.080973953 0.0894677192 0.10419026 0.114949033 0.0702151731
      0.0849377066 0.0894677192 0.103624009 0.178369194 0.0838052109</_>
    <_>
      0.0378619172 0.101336308 0.0478841886 0.085746102 0.0890868604
      0.0768374205 0.211581305 0.227171496 0.0746102482 0.0478841886</_>
    <_>
      0.0421348326 0.116573036 0.0603932589 0.0969101116 0.0969101116
      0.0842696652 0.182584271 0.198033705 0.078651689 0.0435393266</_>
    <_>
      0.0704138353 0.0704138353 0.100679435 0.114885733 0.0549722053
      0.0864731371 0.0969734415 0.112415075 0.198270544 0.0945027843</_>
    <_>
      0.0553191453 0.116312057 0.0624113455 0.0737588629 0.0567375869
      0.102127656 0.194326237 0.178723395 0.110638291 0.0496453866</_>
    <_>
      0.0549327396 0.0997757912 0.0863228738 0.0908071771 0.0964125618
      0.0807174891 0.14910315 0.197309434 0.121076241 0.0235426016</_>
    <_>
      0.0445134565 0.125258803 0.0786749497 0.101449281 0.0662525892
      0.0734989643 0.158385098 0.194616973 0.119047619 0.03830228</_>
    <_>
      0.0476694927 0.111228816 0.0752118677 0.112288132 0.0921610147
      0.0985169485 0.168432206 0.175847456 0.097457625 0.0211864412</_>
    <_>
      0.0724895969 0.0843731388 0.0926916227 0.119429588 0.0772430152
      0.093285799 0.0814022571 0.111111112 0.191919193 0.0760546625</_>
    <_>
      0.0741190761 0.0844471455 0.0899149477 0.0978128836 0.0698663443
      0.0832320824 0.11300122 0.100243017 0.190157965 0.0972053483</_>
    <_>
      0.0443037972 0.0949367061 0.0696202517 0.100000001 0.106329113
      0.141772151 0.121518984 0.167088613 0.108860761 0.045569621</_>
    <_>
      0.0420168079 0.126050428 0.105042025 0.0441176482 0.0378151275
      0.0945378169 0.15336135 0.319327742 0.0672268942 0.010504202</_>
    <_>
      0.0395480208 0.122410543 0.118644066 0.0546139367 0.0546139367
      0.105461389 0.160075322 0.276836157 0.0508474559 0.0169491526</_>
    <_>
      0.0399113074 0.110864744 0.097560972 0.048780486 0.0576496683
      0.0909090936 0.172949001 0.314855874 0.0554323718 0.0110864742</_>
    <_>
      0.058778625 0.0458015278 0.480152667 0.0274809152 0.0320610702
      0.0854961872 0.0580152683 0.101526715 0.100000001 0.0106870234</_>
    <_>
      0.0474137925 0.13146551 0.0668103471 0.056034483 0.0387931019
      0.116379313 0.161637932 0.310344815 0.0517241359 0.019396551</_>
    <_>
      0.0401836969 0.0952927619 0.0631458089 0.138920784 0.0654420182
      0.0849598125 0.0715652481 0.102946803 0.197474167 0.140068889</_>
    <_>
      0.039666798 0.105117016 0.0614835359 0.122173741 0.0507735014
      0.0650535524 0.0773502588 0.132487103 0.196747318 0.149147153</_>
    <_>
      0.0326961763 0.0850100592 0.0397384278 0.180080473 0.0437625721
      0.114688128 0.0995975807 0.10311871 0.168511063 0.132796779</_>
    <_>
      0.029425079 0.0946129486 0.0353100933 0.178361252 0.0425531901
      0.106835671 0.104572207 0.114531465 0.163422361 0.130375728</_>
    <_>
      0.0262312628 0.0674518198 0.030513918 0.229122058 0.0219486076
      0.118843682 0.10760171 0.119379014 0.170770869 0.108137041</_>
    <_>
      0.0438561812 0.0873172656 0.0687475279 0.13196364 0.0557092056
      0.0825760514 0.0671671256 0.112603709 0.205057278 0.145001978</_>
    <_>
      0.0457038395 0.102376603 0.0749543011 0.0822669119 0.0566727631
      0.0968921408 0.173674598 0.261425972 0.0767824501 0.0292504579</_>
    <_>
      0.0508474559 0.144067794 0.0508474559 0.0381355919 0.0423728824
      0.097457625 0.239406779 0.241525427 0.0593220331 0.0360169485</_>
    <_>
      0.0674740523 0.10899654 0.100346021 0.0380622856 0.0501730107
      0.102076128 0.17128028 0.230103821 0.0916955024 0.0397923887</_>
    <_>
      0.069216758 0.111111112 0.100182146 0.0418943539 0.0546448082
      0.0892531872 0.191256836 0.231329694 0.0710382536 0.0400728583</_>
    <_>
      0.0424628481 0.11677283 0.048832275 0.0509554148 0.0721868426
      0.129511684 0.182590246 0.290870517 0.048832275 0.0169851389</_>
    <_>
      0.0454545431 0.117768593 0.0537190065 0.0330578499 0.0578512363
      0.111570247 0.239669412 0.254132211 0.0578512363 0.0289256182</_>
    <_>
      0.0459081829 0.137724549 0.0718562901 0.0399201587 0.0798403174
      0.0978043899 0.161676645 0.263473064 0.0818363279 0.0199600793</_>
    <_>
      0.0455445573 0.128712878 0.0495049506 0.047524754 0.047524754
      0.106930695 0.217821792 0.259405941 0.0732673258 0.023762377</_>
    <_>
      0.0481171533 0.140167356 0.071129702 0.041841004 0.0815899596
      0.0836820081 0.177824259 0.271966517 0.066945605 0.0167364012</_>
    <_>
      0.0583333373 0.118750006 0.0791666731 0.0791666731 0.0645833388
      0.0666666701 0.172916681 0.272916675 0.0625 0.0250000022</_>
    <_>
      0.0727272779 0.137373745 0.0989899039 0.0585858598 0.0606060624
      0.0929292962 0.143434346 0.236363649 0.076767683 0.0222222228</_>
    <_>
      0.0564334095 0.148984209 0.103837475 0.0654627532 0.0902934521
      0.0767494366 0.155756205 0.223476306 0.0586907454 0.0203160271</_>
    <_>
      0.030567687 0.152838424 0.061135374 0.0436681211 0.0698689967
      0.0873362422 0.176855892 0.268558949 0.080786027 0.0283842795</_>
    <_>
      0.0533880927 0.135523617 0.0595482551 0.0554414801 0.0533880927
      0.117043123 0.184804931 0.24435319 0.0677618086 0.0287474338</_>
    <_>
      0.0479166694 0.112500004 0.0458333343 0.0416666679 0.0645833388
      0.118750006 0.200000018 0.285416692 0.0687500015 0.0145833343</_>
    <_>
      0.0515021458 0.137339056 0.0407725312 0.0557939932 0.0493562222
      0.0922746807 0.231759652 0.248927042 0.0729613751 0.0193133056</_>
    <_>
      0.0499040298 0.122840688 0.0806142017 0.0499040298 0.0729366615
      0.078694813 0.163147792 0.261036456 0.0940499008 0.0268714</_>
    <_>
      0.0372670814 0.109730855 0.0393374749 0.0414078683 0.060041409
      0.113871634 0.211180121 0.310559005 0.0559006222 0.0207039341</_>
    <_>
      0.0384615399 0.170940176 0.0641025677 0.0427350439 0.0683760718
      0.0876068398 0.168803424 0.286324799 0.0534188077 0.0192307699</_>
    <_>
      0.0553097352 0.150442481 0.0575221255 0.0420353971 0.0619469024
      0.0973451287 0.227876112 0.21460177 0.0597345121 0.0331858397</_>
    <_>
      0.0482180268 0.119496852 0.0440251566 0.0482180268 0.0649895146
      0.119496852 0.186582804 0.270440251 0.0712788254 0.0272536688</_>
    <_>
      0.0443974622 0.120507397 0.0761099383 0.0697674379 0.0782241002
      0.0718816072 0.177589849 0.264270604 0.0718816072 0.0253699794</_>
    <_>
      0.0393700786 0.139763772 0.0452755913 0.0433070883 0.0846456662
      0.0944881886 0.177165359 0.291338593 0.0688976347 0.0157480314</_>
    <_>
      0.0415662676 0.0849397629 0.0602409653 0.216867477 0.0524096414
      0.177108437 0.098795183 0.10722892 0.116265066 0.0445783138</_>
    <_>
      0.0840672553 0.0648518801 0.105684549 0.0680544451 0.0624499582
      0.0752602071 0.138510808 0.118494794 0.211369097 0.0712570027</_>
    <_>
      0.0586292334 0.0685383976 0.0933113173 0.0776218027 0.0883567333
      0.0867052078 0.150289029 0.137076795 0.165978536 0.0734929815</_>
    <_>
      0.0776092783 0.0669045448 0.112399638 0.0704727918 0.0579839423
      0.0963425487 0.123104371 0.144513816 0.184656546 0.0660124868</_>
    <_>
      0.107194245 0.0848920867 0.119424462 0.0625899285 0.0496402867
      0.0769784153 0.121582732 0.100719422 0.192086324 0.0848920867</_>
    <_>
      0.070010446 0.0804597661 0.100313477 0.0553813986 0.0585161969
      0.0783699006 0.167189121 0.153605014 0.156739801 0.0794148371</_>
    <_>
      0.0957004204 0.0707350895 0.112343967 0.0651872456 0.0728155375
      0.0679611638 0.104715675 0.11373093 0.212205276 0.0846047178</_>
    <_>
      0.049311094 0.0935460478 0.0580130517 0.262509048 0.034807831
      0.15518491 0.0768672973 0.106598981 0.102973163 0.0601885393</_>
    <_>
      0.0603174604 0.0931216925 0.0772486776 0.0497354493 0.0740740746
      0.0719576702 0.186243385 0.160846561 0.155555561 0.0708994716</_>
    <_>
      0.0766666681 0.0625 0.0908333361 0.0841666684 0.0675000027
      0.0874999985 0.13000001 0.1175 0.200833336 0.0825000033</_>
    <_>
      0.0724801794 0.0872027129 0.0906002223 0.0520951301 0.0453001112
      0.0792751983 0.183465451 0.164212912 0.151755378 0.0736126825</_>
    <_>
      0.0448493324 0.0840924978 0.0567624345 0.235459 0.0441485606
      0.163980365 0.0932025164 0.114225641 0.10441485 0.05886475</_>
    <_>
      0.0802919716 0.0592051893 0.151662603 0.0592051893 0.0462287106
      0.08191403 0.131386861 0.135442004 0.175993502 0.0786699057</_>
    <_>
      0.0736022592 0.0672328323 0.100495398 0.0686482638 0.0771408305
      0.0835102573 0.130219385 0.120311387 0.187544227 0.0912951156</_>
    <_>
      0.0541666672 0.075000003 0.0868055597 0.20763889 0.0534722246
      0.14513889 0.0777777806 0.102777779 0.140277788 0.0569444448</_>
    <_>
      0.0989690721 0.0556701012 0.147766322 0.0494845361 0.0618556701
      0.0852233693 0.0934707895 0.118900344 0.208934709 0.0797250867</_>
    <_>
      0.058017727 0.0950846076 0.0757453665 0.1345689 0.0604351312
      0.137792096 0.111200646 0.1345689 0.122481868 0.0701047555</_></support_vectors>
  <decision_functions>
    <_>
      <sv_count>14</sv_count>
      <rho>1.5588478320558319</rho>
      <alpha>
        312.5 312.5 312.5 111.60690239675804 88.232331481212285
        7.361070045052065 312.5 35.871759738096323 -312.5
        -108.81862372848008 -312.5 -158.9259943355533 -312.5
        -287.82744559708527</alpha>
      <index>
        1 5 10 12 13 15 20 22 24 27 31 38 39 40</index></_>
    <_>
      <sv_count>6</sv_count>
      <rho>-0.1815984663406438</rho>
      <alpha>
        156.39602252432448 202.31604843511951 164.85266595597912 -312.5
        -93.2132980879678 -117.85143882745534</alpha>
      <index>
        0 3 16 42 45 53</index></_>
    <_>
      <sv_count>14</sv_count>
      <rho>0.53144178895504546</rho>
      <alpha>
        312.5 312.5 140.62117298061409 312.5 312.5 60.558292900734962
        -176.54006555429621 -59.191233113260374 -178.89159808738026
        -312.5 -312.5 -90.904204728523425 -312.5 -8.1523643978888458</alpha>
      <index>
        2 5 6 8 16 23 56 58 60 61 62 64 67 71</index></_>
    <_>
      <sv_count>11</sv_count>
      <rho>-0.17710633157214481</rho>
      <alpha>
        312.5 71.685592034966604 312.5 96.73397613015905
        41.005724025210036 196.24810381796587 -312.5 -85.699869967051285
        -7.4735260412503148 -312.5 -312.5</alpha>
      <index>
        0 3 8 17 19 21 72 74 77 82 85</index></_>
    <_>
      <sv_count>25</sv_count>
      <rho>8.5796295983880153</rho>
      <alpha>
        188.74731389108948 312.5 30.189305508594536 312.5 312.5
        226.1859893842952 40.545292394218926 312.5 312.5 312.5
        308.0817707492659 312.5 312.5 -312.5 -97.506283301771731 -312.5
        -312.5 -312.5 -312.5 -312.5 -71.243388625691978 -312.5 -312.5
        -312.5 -312.5</alpha>
      <index>
        0 1 2 5 8 9 10 11 12 14 18 20 22 91 92 95 96 97 98 99 101 102
        104 105 106</index></_>
    <_>
      <sv_count>7</sv_count>
      <rho>-0.38356266728193517</rho>
      <alpha>
        52.974824190666943 131.87765487189751 29.042438230581801
        109.62703720366355 28.666555093356397 -39.688509590166134 -312.5</alpha>
      <index>
        0 3 7 8 17 108 116</index></_>
    <_>
      <sv_count>28</sv_count>
      <rho>0.86291930500877945</rho>
      <alpha>
        312.5 71.702360995623891 312.5 312.5 312.5 312.5
        232.76443232141943 312.5 312.5 108.69884758764101 312.5 312.5
        312.5 312.5 -55.669966783835122 -312.5 -312.5 -312.5
        -244.38940017437196 -312.5 -312.5 -312.5 -312.5 -312.5 -312.5
        -312.5 -113.10627394647717 -312.5</alpha>
      <index>
        1 3 5 6 7 10 12 15 16 17 18 19 20 22 131 133 134 136 137 138 140
        142 143 145 146 148 150 151</index></_>
    <_>
      <sv_count>18</sv_count>
      <rho>0.58632685313816568</rho>
      <alpha>
        312.5 312.5 202.43585931183125 72.858042573774839 312.5 312.5
        0.084575818939116518 312.5 312.5 18.133660254234858
        -206.49703860139476 -312.5 -312.5 -312.5 -312.5
        -87.015099357385495 -312.5 -312.5</alpha>
      <index>
        0 2 3 5 6 8 11 14 16 19 158 161 162 164 166 167 169 171</index></_>
    <_>
      <sv_count>7</sv_count>
      <rho>-0.7657578062965863</rho>
      <alpha>
        102.03554473700517 65.836101257200767 312.5 161.15110022430929
        -16.522746218515245 -312.5 -312.5</alpha>
      <index>
        1 5 12 20 176 178 180</index></_>
    <_>
      <sv_count>6</sv_count>
      <rho>0.033940464050355383</rho>
      <alpha>
        2.4363999034110622 1.6191985969187181 7.9780701387053927
        44.344741068118722 -28.131277670681662 -28.247132036472287</alpha>
      <index>
        0 2 4 8 182 184</index></_>
    <_>
      <sv_count>27</sv_count>
      <rho>-3.4842765210358904</rho>
      <alpha>
        270.32815209145633 224.35267734230993 312.5 312.5 312.5 312.5
        312.5 312.5 36.718639027834158 312.5 312.5 312.5 312.5 -312.5
        -197.52053041223121 -312.5 -51.831412463207307 -312.5 -312.5
        -109.76030845472178 -312.5 -172.28721713143997 -312.5 -312.5
        -312.5 -312.5 -312.5</alpha>
      <index>
        1 2 5 6 10 12 13 15 16 18 20 22 23 187 188 189 190 193 194 196
        199 200 202 203 207 208 209</index></_>
    <_>
      <sv_count>6</sv_count>
      <rho>0.20370697604127788</rho>
      <alpha>
        83.69173892872027 158.8904202799929 33.953642385188786
        -211.8030488890023 -5.1352125876505594 -59.597540117248975</alpha>
      <index>
        0 3 8 218 220 226</index></_>
    <_>
      <sv_count>4</sv_count>
      <rho>-0.50316220548585833</rho>
      <alpha>
        156.61688205649025 65.137307900173639 28.594218932995449
        -250.34840888965937</alpha>
      <index>
        38 39 40 42</index></_>
    <_>
      <sv_count>9</sv_count>
      <rho>1.45580068571793</rho>
      <alpha>
        113.62579136012793 242.26769375538126 312.5 29.680686865313817
        312.5 -81.291063834717107 -304.2831081461058 -312.5 -312.5</alpha>
      <index>
        24 28 35 36 39 57 61 64 71</index></_>
    <_>
      <sv_count>4</sv_count>
      <rho>0.035922557029324724</rho>
      <alpha>
        1.3335333324078389 257.12952253980541 -19.047153079865289
        -239.41590279234788</alpha>
      <index>
        38 39 74 82</index></_>
    <_>
      <sv_count>19</sv_count>
      <rho>-3.0626774064377593</rho>
      <alpha>
        312.5 2.6344180509809076 228.6175371543832 312.5 312.5
        54.13120967042002 171.79310639619908 312.5 312.5 312.5 -312.5
        -84.825307967445696 -59.850963304537473 -312.5 -312.5 -312.5
        -312.5 -312.5 -312.5</alpha>
      <index>
        24 25 26 27 31 34 37 38 39 40 91 93 95 96 98 99 102 104 105</index></_>
    <_>
      <sv_count>4</sv_count>
      <rho>-0.010116510545283133</rho>
      <alpha>
        8.435791346217389 122.91102772952929 -46.865229689775411
        -84.481589385971233</alpha>
      <index>
        38 39 108 116</index></_>
    <_>
      <sv_count>21</sv_count>
      <rho>-1.7806473938950038</rho>
      <alpha>
        312.5 59.380668792304597 312.5 312.5 312.5 312.5
        94.851606194943656 312.5 312.5 173.19778709338911 312.5 -312.5
        -312.5 -274.40982076096202 -263.21598262309902 -312.5 -312.5
        -312.5 -102.3042586965763 -312.5 -312.5</alpha>
      <index>
        24 25 27 29 31 32 37 38 39 40 41 130 132 134 135 136 139 141 142
        146 147</index></_>
    <_>
      <sv_count>6</sv_count>
      <rho>-0.30026791110499657</rho>
      <alpha>
        249.73535721926072 312.5 25.988264479750189 -5.1421333576007182
        -312.5 -270.58148834141014</alpha>
      <index>
        28 39 40 159 162 166</index></_>
    <_>
      <sv_count>10</sv_count>
      <rho>-2.4935722216015903</rho>
      <alpha>
        169.28395809937291 163.54348726201718 2.5024344818782209
        203.07708282970225 312.5 312.5 -312.5 -225.90696267297056 -312.5
        -312.5</alpha>
      <index>
        28 29 33 36 38 40 176 177 178 180</index></_>
    <_>
      <sv_count>5</sv_count>
      <rho>0.0082922340390461889</rho>
      <alpha>
        13.280681832898564 10.345213620599766 6.5352102464770647
        -11.320360809179807 -18.840744890795609</alpha>
      <index>
        24 35 38 182 184</index></_>
    <_>
      <sv_count>23</sv_count>
      <rho>-3.9137379528312839</rho>
      <alpha>
        312.5 312.5 312.5 144.69778006328835 312.5 302.56847519638546
        312.5 312.5 312.5 312.5 312.5 -312.5 -109.96637728444553
        -222.38498363172411 -312.5 -133.17918014658278 -312.5
        -294.23571419692138 -312.5 -312.5 -312.5 -312.5 -312.5</alpha>
      <index>
        24 27 28 30 31 32 34 35 37 38 39 191 193 194 195 196 199 200 201
        204 205 207 209</index></_>
    <_>
      <sv_count>5</sv_count>
      <rho>0.0085057106535070485</rho>
      <alpha>
        8.9579696017393573 81.168682358668661 -85.563897721697771
        -0.082653607937879389 -4.4801006307723537</alpha>
      <index>
        38 39 218 221 226</index></_>
    <_>
      <sv_count>11</sv_count>
      <rho>4.6191495469571739</rho>
      <alpha>
        312.5 283.38587243556964 312.5 312.5 299.67543729440825
        -183.81928578723995 -312.5 -312.5 -312.5 -86.742023942738143
        -312.5</alpha>
      <index>
        43 45 53 54 55 56 59 61 66 69 70</index></_>
    <_>
      <sv_count>12</sv_count>
      <rho>-0.44318639806531568</rho>
      <alpha>
        157.90267905391511 312.5 177.90243822173991 312.5 312.5
        -41.008453711981581 -161.7662515449598 -137.0909408905186 -312.5
        -312.5 -194.01414644283761 -114.42532468535718</alpha>
      <index>
        44 45 51 52 53 75 78 80 83 87 89 90</index></_>
    <_>
      <sv_count>7</sv_count>
      <rho>0.83689830086133055</rho>
      <alpha>
        312.5 124.45299075868479 -31.409605293243096 -312.5
        -24.558216374051444 -52.188938388278821 -16.296230703111412</alpha>
      <index>
        42 45 94 95 99 106 107</index></_>
    <_>
      <sv_count>21</sv_count>
      <rho>-1.2293737874260078</rho>
      <alpha>
        312.5 287.26830183788627 312.5 312.5 312.5 282.89877126821784
        312.5 312.5 312.5 136.38766796399764 -312.5 -210.71772813304023
        -231.88467657684484 -312.5 -312.5 -312.5 -312.5 -312.5
        -143.33301313897792 -312.5 -120.61932322123887</alpha>
      <index>
        42 43 45 46 47 48 49 51 52 53 109 113 115 117 118 119 120 122
        124 126 127</index></_>
    <_>
      <sv_count>6</sv_count>
      <rho>0.25736676663709679</rho>
      <alpha>
        312.5 35.999991086489544 252.69411874376306 -298.089312508023
        -282.83136952989054 -20.273427792339017</alpha>
      <index>
        42 45 53 138 143 149</index></_>
    <_>
      <sv_count>16</sv_count>
      <rho>5.9633592990163491</rho>
      <alpha>
        312.5 312.5 312.5 35.497138162602319 312.5 272.52388772348769
        303.64341596882127 -263.67443328158777 -312.5 -212.5768392416297
        -55.126652237788967 -295.43926361831757 -312.5 -312.5
        -36.531197669073279 -60.81605580651388</alpha>
      <index>
        42 44 45 52 53 54 55 152 153 154 156 158 160 162 165 170</index></_>
    <_>
      <sv_count>3</sv_count>
      <rho>1.9950716048479253</rho>
      <alpha>
        312.5 -291.92442383608642 -20.57557616391356</alpha>
      <index>
        42 177 179</index></_>
    <_>
      <sv_count>5</sv_count>
      <rho>-0.039943524517159865</rho>
      <alpha>
        0.52969002294627032 64.221909002453216 20.539232762621005
        -34.754406693620787 -50.536425094399718</alpha>
      <index>
        49 51 55 181 182</index></_>
    <_>
      <sv_count>5</sv_count>
      <rho>0.034559188914774219</rho>
      <alpha>
        312.5 120.81743578599445 37.509618267504337 -312.5
        -158.32705405349876</alpha>
      <index>
        42 45 53 189 197</index></_>
    <_>
      <sv_count>14</sv_count>
      <rho>0.24679886686816704</rho>
      <alpha>
        81.731746390788601 312.5 312.5 312.5 34.207786257656025 312.5
        0.25169869659801486 50.316027500765898 -312.5
        -210.24840808231679 -182.07054851384282 -301.76022070510777
        -312.5 -97.428081544541257</alpha>
      <index>
        42 45 46 49 50 51 52 53 212 213 218 222 225 226</index></_>
    <_>
      <sv_count>15</sv_count>
      <rho>-6.0205985445012775</rho>
      <alpha>
        40.849560300629015 199.95420738271901 312.5 312.5 312.5 312.5
        33.983826267733988 58.262580985411127 -312.5 -302.43183124172771
        -117.30403299541086 -312.5 -312.5 -69.186091763872369
        -156.62821893548241</alpha>
      <index>
        56 58 59 60 61 66 67 71 72 74 75 76 78 81 83</index></_>
    <_>
      <sv_count>7</sv_count>
      <rho>1.0543373074468736</rho>
      <alpha>
        81.339697634601563 312.5 302.5085660063346 40.619277149069845
        -312.5 -273.40030619285602 -151.06723459714996</alpha>
      <index>
        56 61 67 71 95 99 106</index></_>
    <_>
      <sv_count>11</sv_count>
      <rho>-4.6918190321687172</rho>
      <alpha>
        28.033816013354478 108.99298923543618 260.34284286394529 312.5
        206.51405748868723 312.5 -87.991543023163729 -312.5 -312.5
        -307.48707144032448 -208.40509113793553</alpha>
      <index>
        59 60 61 66 68 70 110 115 120 125 126</index></_>
    <_>
      <sv_count>11</sv_count>
      <rho>-2.2495068434479619</rho>
      <alpha>
        81.119850372463048 27.49935967402898 133.11415628327623 312.5
        109.3757171879253 75.151967713405313 146.06243704085418 -312.5
        -312.5 -232.00585746919145 -27.817630802761677</alpha>
      <index>
        56 58 60 61 64 66 71 133 138 143 146</index></_>
    <_>
      <sv_count>25</sv_count>
      <rho>-7.2776568593401496</rho>
      <alpha>
        274.24023812631589 312.5 312.5 312.5 312.5 312.5
        257.08138746904865 312.5 312.5 312.5 82.025981444201406
        234.17295176533958 -185.91772567960732 -20.610878587343358
        -312.5 -312.5 -312.5 -312.5 -198.63915470905218 -312.5 -312.5
        -312.5 -312.5 -129.85279982890279 -312.5</alpha>
      <index>
        56 58 59 60 61 62 63 64 66 67 69 71 152 153 154 157 158 159 162
        163 164 169 172 173 175</index></_>
    <_>
      <sv_count>4</sv_count>
      <rho>-0.40465611767953574</rho>
      <alpha>
        175.98753157990328 88.13957846380903 -219.33847451289932
        -44.788635530812989</alpha>
      <index>
        61 64 177 180</index></_>
    <_>
      <sv_count>4</sv_count>
      <rho>-0.28095057963672654</rho>
      <alpha>
        20.864017227579513 109.39832227610161 6.9525845438173519
        -137.21492404749844</alpha>
      <index>
        65 66 67 181</index></_>
    <_>
      <sv_count>9</sv_count>
      <rho>-1.5270625565355904</rho>
      <alpha>
        61.667411279519257 312.5 312.5 23.838791991620749
        209.7339560439766 -67.159102684988923 -312.5 -312.5
        -228.08105663012756</alpha>
      <index>
        56 61 64 67 71 191 198 200 207</index></_>
    <_>
      <sv_count>10</sv_count>
      <rho>-1.0711442813761636</rho>
      <alpha>
        299.76444284313538 312.5 312.5 10.447973332798998
        53.95665821110525 -37.682291684638734 -312.5 -197.15656045842624
        -129.33022224397439 -312.5</alpha>
      <index>
        56 59 66 68 70 210 212 213 225 226</index></_>
    <_>
      <sv_count>9</sv_count>
      <rho>4.3155468025178561</rho>
      <alpha>
        77.802093217709299 312.5 116.91218045471582 197.2999738829522
        312.5 -225.90586076930811 -312.5 -166.10838678606925 -312.5</alpha>
      <index>
        72 77 82 84 85 91 95 100 106</index></_>
    <_>
      <sv_count>24</sv_count>
      <rho>0.062604064309031843</rho>
      <alpha>
        312.5 113.24655903627072 312.5 312.5 312.5 312.5 312.5 312.5
        312.5 312.5 312.5 -91.159361023666605 -312.5 -312.5 -312.5
        -312.5 -180.72400472576959 -67.212422459439111
        -86.650770827395618 -312.5 -312.5 -312.5 -312.5 -312.5</alpha>
      <index>
        73 74 77 78 79 80 86 87 88 89 90 108 110 111 113 114 115 116 120
        123 124 125 128 129</index></_>
    <_>
      <sv_count>8</sv_count>
      <rho>-0.12740179751142561</rho>
      <alpha>
        268.38214942093907 233.31092607208294 39.367795999738966 312.5
        -68.516433275894414 -312.5 -160.04443821686664 -312.5</alpha>
      <index>
        72 74 77 82 133 138 140 143</index></_>
    <_>
      <sv_count>24</sv_count>
      <rho>11.57223084970823</rho>
      <alpha>
        312.5 312.5 200.65942189609055 312.5 312.5 312.5 312.5 312.5
        312.5 312.5 186.94281979903766 -229.72463812624559 -312.5 -312.5
        -88.599078003050323 -312.5 -99.765062236395991 -312.5 -312.5
        -176.62064995814831 -294.47907808872822 -312.5 -312.5
        -123.41373528255971</alpha>
      <index>
        72 74 75 76 78 80 81 83 84 85 87 153 154 156 158 160 162 164 166
        167 168 169 174 175</index></_>
    <_>
      <sv_count>5</sv_count>
      <rho>-0.071893208651471696</rho>
      <alpha>
        50.389498587001704 20.107349550134973 8.4337686558190708
        34.052357496376452 -112.98297428933219</alpha>
      <index>
        72 74 77 82 177</index></_>
    <_>
      <sv_count>4</sv_count>
      <rho>0.030047347964006252</rho>
      <alpha>
        148.02685463390202 0.38986970208715455 -140.80687176299671
        -7.6098525729924757</alpha>
      <index>
        80 88 182 184</index></_>
    <_>
      <sv_count>6</sv_count>
      <rho>0.14425701197609739</rho>
      <alpha>
        133.76985503090913 86.320678057356716 221.07263065931323
        -6.6605462516327751 -310.19123337303336 -124.31138412291266</alpha>
      <index>
        74 77 82 187 189 206</index></_>
    <_>
      <sv_count>18</sv_count>
      <rho>2.2141982276056758</rho>
      <alpha>
        62.97394163109864 119.36687442361394 312.5 312.5
        135.41488884550711 312.5 114.45594159487278 312.5 312.5 312.5
        -312.5 -312.5 -312.5 -119.7116464950925 -312.5 -312.5 -312.5
        -312.5</alpha>
      <index>
        78 79 80 81 85 86 87 88 89 90 212 213 215 216 218 220 223 226</index></_>
    <_>
      <sv_count>6</sv_count>
      <rho>-1.8219995690848496</rho>
      <alpha>
        221.56198133674138 192.74730201923725 -70.12851882519324
        -11.666483118823622 -58.071446712611802 -274.44283469934982</alpha>
      <index>
        95 100 111 116 118 123</index></_>
    <_>
      <sv_count>19</sv_count>
      <rho>-0.7175159078747998</rho>
      <alpha>
        312.5 228.70951983461444 312.5 36.298263152633709 312.5 312.5
        312.5 312.5 312.5 -101.69126476798661 -312.5 -312.5 -312.5
        -53.643567350704707 -185.362926251331 -312.5 -312.5 -312.5
        -236.81002461722585</alpha>
      <index>
        91 93 95 96 98 99 102 104 105 130 132 134 136 138 139 142 143
        146 148</index></_>
    <_>
      <sv_count>12</sv_count>
      <rho>-3.7405027428893747</rho>
      <alpha>
        123.2412385160152 94.135202497255008 312.5 250.40766597629602
        312.5 312.5 -99.762872280948685 -312.5 -312.5 -312.5 -312.5
        -55.521234708617612</alpha>
      <index>
        91 94 95 98 99 106 156 161 162 166 169 171</index></_>
    <_>
      <sv_count>9</sv_count>
      <rho>-0.86227927708723651</rho>
      <alpha>
        174.63114941171654 195.18243358084271 214.87661194787719
        159.63747514944686 23.231319435228315 -16.564226331881752
        -125.99476319322989 -312.5 -312.5</alpha>
      <index>
        98 99 102 105 107 176 177 178 180</index></_>
    <_>
      <sv_count>4</sv_count>
      <rho>0.1028577041545809</rho>
      <alpha>
        213.90842127817834 53.378536962001952 -213.83228559416733
        -53.45467264601303</alpha>
      <index>
        92 103 182 184</index></_>
    <_>
      <sv_count>19</sv_count>
      <rho>-4.8730359121360891</rho>
      <alpha>
        312.5 312.5 312.5 312.5 312.5 312.5 312.5 312.5
        306.41758184995319 -312.5 -312.5 -312.5 -164.14433315230451
        -286.56799904143344 -168.20524965621539 -312.5 -312.5 -312.5
        -312.5</alpha>
      <index>
        91 95 96 98 99 102 104 105 106 187 194 196 199 201 202 203 204
        207 208</index></_>
    <_>
      <sv_count>6</sv_count>
      <rho>-0.0024111307245823143</rho>
      <alpha>
        165.80251295598524 312.5 -12.136375370826835 -213.14094156502208
        -67.872616097474605 -185.15257992266169</alpha>
      <index>
        95 106 217 218 220 226</index></_>
    <_>
      <sv_count>5</sv_count>
      <rho>-0.086917133100668384</rho>
      <alpha>
        169.32011861794712 312.5 -312.5 -105.60381850407094
        -63.716300113876201</alpha>
      <index>
        108 116 138 140 143</index></_>
    <_>
      <sv_count>18</sv_count>
      <rho>7.3912654993120173</rho>
      <alpha>
        312.5 312.5 154.51310390135313 237.8036773780853 312.5 312.5
        64.122479210253289 312.5 139.67158987588874 101.38811811183437
        -312.5 -312.5 -186.17299768348599 -276.34012878874773 -312.5
        -234.9858420051811 -312.5 -312.5</alpha>
      <index>
        108 110 112 114 115 118 123 124 125 128 152 153 154 156 160 166
        169 174</index></_>
    <_>
      <sv_count>5</sv_count>
      <rho>1.2337082447854115</rho>
      <alpha>
        13.677989724275989 12.808020262750709 85.812431793380568
        -94.440619545497853 -17.857822234909417</alpha>
      <index>
        109 116 118 177 179</index></_>
    <_>
      <sv_count>4</sv_count>
      <rho>0.030813489799889252</rho>
      <alpha>
        106.29111093725216 -87.065298002794137 -12.124628539027883
        -7.1011843954301144</alpha>
      <index>
        125 181 182 184</index></_>
    <_>
      <sv_count>5</sv_count>
      <rho>-0.035860100713718569</rho>
      <alpha>
        13.110780053889254 215.28290493320128 78.532973707238199
        -289.50688673647852 -17.419771957850255</alpha>
      <index>
        108 116 118 189 198</index></_>
    <_>
      <sv_count>20</sv_count>
      <rho>1.9485010165579386</rho>
      <alpha>
        312.5 312.5 312.5 129.18244951447494 312.5 305.78651703155845
        312.5 177.69650417573044 312.5 312.5 -160.98269477951257 -312.5
        -312.5 -312.5 -312.5 -312.5 -312.5 -312.5 -212.60267483533994
        -239.08010110691131</alpha>
      <index>
        110 111 112 113 117 121 122 125 128 129 211 212 213 215 218 220
        222 223 225 226</index></_>
    <_>
      <sv_count>11</sv_count>
      <rho>1.0819945349355589</rho>
      <alpha>
        312.5 130.27167900403819 312.5 312.5 312.5 -113.50856790168891
        -16.763111102349285 -312.5 -312.5 -312.5 -312.5</alpha>
      <index>
        133 136 138 140 143 152 161 162 164 166 169</index></_>
    <_>
      <sv_count>9</sv_count>
      <rho>-2.5973172888409173</rho>
      <alpha>
        124.60598339497419 312.5 55.450954782066411 93.858866371524869
        0.098161963281098122 237.30608031647191 -198.82004682831848
        -312.5 -312.5</alpha>
      <index>
        130 136 138 141 142 149 176 178 180</index></_>
    <_>
      <sv_count>4</sv_count>
      <rho>0.026001248836991751</rho>
      <alpha>
        28.875250141036307 18.144879730077186 -27.761568981034497
        -19.258560890078996</alpha>
      <index>
        138 143 182 184</index></_>
    <_>
      <sv_count>31</sv_count>
      <rho>-2.0319999391941979</rho>
      <alpha>
        312.5 78.932018488499949 312.5 312.5 260.16387996108784 312.5
        312.5 86.889111761100636 312.5 107.72749318180186 312.5 312.5
        312.5 312.5 312.5 312.5 -312.5 -131.67348517503333 -312.5 -312.5
        -312.5 -312.5 -212.83559234116726 -312.5 -189.20342587628966
        -312.5 -312.5 -312.5 -312.5 -312.5 -312.5</alpha>
      <index>
        132 133 134 136 137 138 139 140 141 142 143 144 145 146 148 151
        188 189 190 192 193 195 196 199 201 203 204 206 207 208 209</index></_>
    <_>
      <sv_count>4</sv_count>
      <rho>0.56473541737602129</rho>
      <alpha>
        312.5 -242.61713398752025 -12.026001358464312
        -57.856864654015368</alpha>
      <index>
        138 218 220 226</index></_>
    <_>
      <sv_count>6</sv_count>
      <rho>0.18694745857640341</rho>
      <alpha>
        74.353490922191867 312.5 23.497939687142249 -231.28727427185359
        -136.21125783252037 -42.85289850496013</alpha>
      <index>
        161 162 166 177 178 180</index></_>
    <_>
      <sv_count>5</sv_count>
      <rho>0.07408508181326133</rho>
      <alpha>
        312.5 18.79193580261326 -8.45945278872912 -10.332483013884213
        -312.5</alpha>
      <index>
        168 173 181 185 186</index></_>
    <_>
      <sv_count>12</sv_count>
      <rho>-0.74779851103188888</rho>
      <alpha>
        59.945919726151224 312.5 312.5 312.5 73.73692211833351
        91.454467401060214 -312.5 -2.7284807089061607 -141.5669622088343
        -312.5 -80.841866327804311 -312.5</alpha>
      <index>
        159 161 162 166 169 171 187 189 198 203 207 208</index></_>
    <_>
      <sv_count>24</sv_count>
      <rho>4.0590634847422802</rho>
      <alpha>
        89.573473404816966 312.5 166.26877052703696 312.5 312.5 312.5
        61.769045537561837 312.5 312.5 60.596143785779041 312.5 312.5
        39.30673839210116 -312.5 -312.5 -60.811631735081043 -312.5
        -312.5 -179.51003880008358 -312.5 -261.37039962300065 -312.5
        -228.32210148913086 -312.5</alpha>
      <index>
        152 153 155 156 160 165 166 168 169 171 173 174 175 212 213 214
        215 216 217 218 223 224 225 226</index></_>
    <_>
      <sv_count>5</sv_count>
      <rho>-0.41371952949718571</rho>
      <alpha>
        7.1808115282405707 4.9270951028556507 15.582627618909958
        -21.213989609475306 -6.4765446405308698</alpha>
      <index>
        177 179 180 182 184</index></_>
    <_>
      <sv_count>8</sv_count>
      <rho>1.0360412241146497</rho>
      <alpha>
        312.5 312.5 312.5 -228.48960774131467 -208.59225508649826
        -192.65632406006301 -175.18086126793827 -132.5809518441859</alpha>
      <index>
        177 178 180 191 196 197 204 205</index></_>
    <_>
      <sv_count>4</sv_count>
      <rho>-0.41260741074773183</rho>
      <alpha>
        64.039961219641768 6.5238688866137826 -55.103529376502976
        -15.460300729752596</alpha>
      <index>
        177 179 220 226</index></_>
    <_>
      <sv_count>5</sv_count>
      <rho>-0.020072158303384373</rho>
      <alpha>
        29.023090432709463 9.7919460724068905 -2.0099034539698413
        -30.938186276667317 -5.8669467744791941</alpha>
      <index>
        182 184 187 189 197</index></_>
    <_>
      <sv_count>5</sv_count>
      <rho>1.6731857844964495</rho>
      <alpha>
        82.775904398166276 90.838095812669579 150.81185613384119
        -172.82613617967257 -151.59972016500444</alpha>
      <index>
        181 183 185 217 219</index></_>
    <_>
      <sv_count>3</sv_count>
      <rho>0.10574172386608403</rho>
      <alpha>
        188.67277169960866 -176.12825483781012 -12.544516861798543</alpha>
      <index>
        189 220 226</index></_></decision_functions></opencv_ml_svm>
</opencv_storage>
